U, V, weight, dx_u, dy_u, dz_u, dpsi_u, dtheta_u, dx_v, dy_v, dz_v, dpsi_v, dtheta_v, dqeu_x, dqeu_y, dqeu_z, dqeu_psi, dqeu_theta,dqev_x, dqev_y, dqev_z, dqev_psi, dqev_theta
0.025,0.025,18.2168,0.708839,-4.32611,-0.558193,-0.0863412,1.11008,-0.356896,-0.532967,3.94487,-0.9831,0.496289,0.708839,-4.32611,-0.558193,-0.0863412,1.11008,-0.356896,-0.532967,3.94487,-0.9831,0.496289
0.025,0.075,18.1208,0.707508,-4.30704,-0.561613,-0.0166731,0.915231,-0.251137,-0.545185,3.93478,-0.770879,0.0317181,0.707508,-4.30704,-0.561613,-0.0166731,0.915231,-0.251137,-0.545185,3.93478,-0.770879,0.0317181
0.025,0.125,18.0898,0.702247,-4.29296,-0.575391,0.0990621,0.737468,-0.112353,-0.564611,3.94066,-0.557455,-0.468787,0.702247,-4.29296,-0.575391,0.0990621,0.737468,-0.112353,-0.564611,3.94066,-0.557455,-0.468787
0.025,0.175,17.8211,0.681122,-4.27671,-0.597033,0.21101,0.563829,0.0131895,-0.584551,3.94944,-0.333762,-0.983015,0.681122,-4.27671,-0.597033,0.21101,0.563829,0.0131895,-0.584551,3.94944,-0.333762,-0.983015
0.025,0.225,17.6659,0.6435,-4.25881,-0.624119,0.252142,0.394906,0.110194,-0.602794,3.9568,-0.189009,-0.91792,0.6435,-4.25881,-0.624119,0.252142,0.394906,0.110194,-0.602794,3.9568,-0.189009,-0.91792
0.025,0.275,17.6086,0.589795,-4.24049,-0.654238,0.199476,0.247522,0.17866,-0.619339,3.96273,-0.09827,-0.667094,0.589795,-4.24049,-0.654238,0.199476,0.247522,0.17866,-0.619339,3.96273,-0.09827,-0.667094
0.025,0.325,17.6685,0.520419,-4.22297,-0.68498,0.0591255,0.125082,0.218588,-0.634188,3.96724,-0.0421251,-0.426498,0.520419,-4.22297,-0.68498,0.0591255,0.125082,0.218588,-0.634188,3.96724,-0.0421251,-0.426498
0.025,0.375,17.8855,0.435787,-4.20746,-0.713931,-0.161436,0.0295438,0.229978,-0.647339,3.97032,-0.0237094,-0.195983,0.435787,-4.20746,-0.713931,-0.161436,0.0295438,0.229978,-0.647339,3.97032,-0.0237094,-0.195983
0.025,0.425,18.3044,0.336312,-4.1952,-0.738682,-0.454138,-0.0371835,0.21283,-0.658793,3.97198,-0.0440634,0.0268121,0.336312,-4.1952,-0.738682,-0.454138,-0.0371835,0.21283,-0.658793,3.97198,-0.0440634,0.0268121
0.025,0.475,18.96,0.222407,-4.1874,-0.75682,-0.810308,-0.0725852,0.167143,-0.668549,3.97222,-0.102545,0.245782,0.222407,-4.1874,-0.75682,-0.810308,-0.0725852,0.167143,-0.668549,3.97222,-0.102545,0.245782
0.025,0.525,19.8299,0.094687,-4.18525,-0.766019,-1.21833,-0.0810454,0.093475,-0.676216,3.9707,-0.200382,0.534675,0.094687,-4.18525,-0.766019,-1.21833,-0.0810454,0.093475,-0.676216,3.9707,-0.200382,0.534675
0.025,0.575,20.7554,-0.0416054,-4.18899,-0.765921,-1.64057,-0.102804,-0.00483739,-0.679437,3.96541,-0.29171,0.905315,-0.0416054,-4.18899,-0.765921,-1.64057,-0.102804,-0.00483739,-0.679437,3.96541,-0.29171,0.905315
0.025,0.625,21.693,-0.1766,-4.19789,-0.758137,-2.02114,-0.134244,-0.127238,-0.677819,3.95601,-0.358949,1.28914,-0.1766,-4.19789,-0.758137,-2.02114,-0.134244,-0.127238,-0.677819,3.95601,-0.358949,1.28914
0.025,0.675,22.6294,-0.300224,-4.21122,-0.744362,-2.30153,-0.163887,-0.273726,-0.671362,3.94249,-0.405293,1.6755,-0.300224,-4.21122,-0.744362,-2.30153,-0.163887,-0.273726,-0.671362,3.94249,-0.405293,1.6755
0.025,0.725,23.5583,-0.402406,-4.22821,-0.726292,-2.42136,-0.181172,-0.444302,-0.660066,3.92487,-0.437092,2.04341,-0.402406,-4.22821,-0.726292,-2.42136,-0.181172,-0.444302,-0.660066,3.92487,-0.437092,2.04341
0.025,0.775,24.4604,-0.473075,-4.24812,-0.705622,-2.31907,-0.176853,-0.638967,-0.643932,3.90314,-0.46397,2.36169,-0.473075,-4.24812,-0.705622,-2.31907,-0.176853,-0.638967,-0.643932,3.90314,-0.46397,2.36169
0.025,0.825,25.2848,-0.502158,-4.27019,-0.684048,-1.93299,-0.142542,-0.857719,-0.622959,3.87729,-0.420208,2.11426,-0.502158,-4.27019,-0.684048,-1.93299,-0.142542,-0.857719,-0.622959,3.87729,-0.420208,2.11426
0.025,0.875,25.9407,-0.479584,-4.29367,-0.663266,-1.30395,-0.0670069,-1.10056,-0.597148,3.84734,-0.155678,0.474992,-0.479584,-4.29367,-0.663266,-1.30395,-0.0670069,-1.10056,-0.597148,3.84734,-0.155678,0.474992
0.025,0.925,24.5812,-0.397317,-4.31775,-0.645178,-0.652967,0.0313141,-1.33334,-0.569566,3.82503,0.0849086,-1.04255,-0.397317,-4.31775,-0.645178,-0.652967,0.0313141,-1.33334,-0.569566,3.82503,0.0849086,-1.04255
0.025,0.975,23.1436,-0.269284,-4.34105,-0.633917,-0.182018,0.154458,-1.45279,-0.549498,3.84593,0.252251,-2.49045,-0.269284,-4.34105,-0.633917,-0.182018,0.154458,-1.45279,-0.549498,3.84593,0.252251,-2.49045
0.075,0.025,19.4769,0.487238,-4.28781,-0.558406,-1.20882,0.766128,-0.324734,-0.516488,3.95062,-0.838387,0.267222,0.487238,-4.28781,-0.558406,-1.20882,0.766128,-0.324734,-0.516488,3.95062,-0.838387,0.267222
0.075,0.075,18.7499,0.558722,-4.28684,-0.554586,-0.901697,0.53807,-0.220186,-0.539034,3.92884,-0.553504,-0.154655,0.558722,-4.28684,-0.554586,-0.901697,0.53807,-0.220186,-0.539034,3.92884,-0.553504,-0.154655
0.075,0.125,18.1892,0.60871,-4.28848,-0.56229,-0.548804,0.385506,-0.104026,-0.556421,3.92458,-0.325377,-0.614246,0.60871,-4.28848,-0.56229,-0.548804,0.385506,-0.104026,-0.556421,3.92458,-0.325377,-0.614246
0.075,0.175,17.7856,0.621446,-4.28445,-0.580259,-0.244639,0.314935,-0.00525235,-0.572297,3.92552,-0.168369,-1.08908,0.621446,-4.28445,-0.580259,-0.244639,0.314935,-0.00525235,-0.572297,3.92552,-0.168369,-1.08908
0.075,0.225,17.6644,0.598149,-4.27541,-0.605987,-0.0770617,0.30377,0.0665503,-0.587869,3.92757,-0.14721,-1.00619,0.598149,-4.27541,-0.605987,-0.0770617,0.30377,0.0665503,-0.587869,3.92757,-0.14721,-1.00619
0.075,0.275,17.7497,0.541611,-4.26288,-0.636854,-0.0571583,0.295195,0.111381,-0.603136,3.93073,-0.171317,-0.742556,0.541611,-4.26288,-0.636854,-0.0571583,0.295195,0.111381,-0.603136,3.93073,-0.171317,-0.742556
0.075,0.325,18.0257,0.454626,-4.24836,-0.670237,-0.168504,0.28824,0.129241,-0.618099,3.935,-0.218819,-0.486909,0.454626,-4.24836,-0.670237,-0.168504,0.28824,0.129241,-0.618099,3.935,-0.218819,-0.486909
0.075,0.375,18.5044,0.339987,-4.23338,-0.703518,-0.395241,0.285645,0.120129,-0.632757,3.94039,-0.292441,-0.238827,0.339987,-4.23338,-0.703518,-0.395241,0.285645,0.120129,-0.632757,3.94039,-0.292441,-0.238827
0.075,0.425,19.1997,0.200485,-4.21943,-0.734075,-0.721234,0.290838,0.0840459,-0.64711,3.94688,-0.39254,0.00448666,0.200485,-4.21943,-0.734075,-0.721234,0.290838,0.0840459,-0.64711,3.94688,-0.39254,0.00448666
0.075,0.475,20.1073,0.0389146,-4.20804,-0.759286,-1.12886,0.307375,0.0209911,-0.661159,3.95449,-0.51694,0.247339,0.0389146,-4.20804,-0.759286,-1.12886,0.307375,0.0209911,-0.661159,3.95449,-0.51694,0.247339
0.075,0.525,21.127,-0.141714,-4.20067,-0.776609,-1.59463,0.325869,-0.067215,-0.674273,3.96238,-0.653694,0.522923,-0.141714,-4.20067,-0.776609,-1.59463,0.325869,-0.067215,-0.674273,3.96238,-0.653694,0.522923
0.075,0.575,22.0169,-0.33338,-4.19796,-0.785254,-2.06724,0.276555,-0.169652,-0.682669,3.96559,-0.727732,0.847001,-0.33338,-4.19796,-0.785254,-2.06724,0.276555,-0.169652,-0.682669,3.96559,-0.727732,0.847001
0.075,0.625,22.7631,-0.52305,-4.19972,-0.786187,-2.48996,0.152757,-0.284499,-0.685718,3.96328,-0.720757,1.19308,-0.52305,-4.19972,-0.786187,-2.48996,0.152757,-0.284499,-0.685718,3.96328,-0.720757,1.19308
0.075,0.675,23.4058,-0.697473,-4.20569,-0.780451,-2.80778,-0.0378048,-0.411756,-0.68342,3.95547,-0.635226,1.55241,-0.697473,-4.20569,-0.780451,-2.80778,-0.0378048,-0.411756,-0.68342,3.95547,-0.635226,1.55241
0.075,0.725,24.0183,-0.843399,-4.21565,-0.769091,-2.9678,-0.280223,-0.551423,-0.675774,3.94215,-0.477914,1.90882,-0.843399,-4.21565,-0.769091,-2.9678,-0.280223,-0.551423,-0.675774,3.94215,-0.477914,1.90882
0.075,0.775,24.6751,-0.947579,-4.22936,-0.753147,-2.91902,-0.547257,-0.703501,-0.66278,3.92332,-0.25877,2.23756,-0.947579,-4.22936,-0.753147,-2.91902,-0.547257,-0.703501,-0.66278,3.92332,-0.25877,2.23756
0.075,0.825,25.4244,-0.99676,-4.24657,-0.733665,-2.61148,-0.791098,-0.867989,-0.644438,3.89897,0.0739979,2.06213,-0.99676,-4.24657,-0.733665,-2.61148,-0.791098,-0.867989,-0.644438,3.89897,0.0739979,2.06213
0.075,0.875,26.2747,-0.977693,-4.26705,-0.711685,-2.08968,-0.826142,-1.04489,-0.620749,3.86912,0.473317,0.562141,-0.977693,-4.26705,-0.711685,-2.08968,-0.826142,-1.04489,-0.620749,3.86912,0.473317,0.562141
0.075,0.925,26.1333,-0.879566,-4.29048,-0.688617,-1.51824,-0.661326,-1.20987,-0.594512,3.84424,0.648917,-0.86195,-0.879566,-4.29048,-0.688617,-1.51824,-0.661326,-1.20987,-0.594512,3.84424,0.648917,-0.86195
0.075,0.975,25.746,-0.717883,-4.31578,-0.669794,-1.04623,-0.342097,-1.28938,-0.574192,3.85606,0.606912,-2.21559,-0.717883,-4.31578,-0.669794,-1.04623,-0.342097,-1.28938,-0.574192,3.85606,0.606912,-2.21559
0.125,0.025,21.4079,0.195227,-4.28152,-0.569227,-2.47724,0.222141,-0.202869,-0.520394,3.96602,-0.438623,-0.0591352,0.195227,-4.28152,-0.569227,-2.47724,0.222141,-0.202869,-0.520394,3.96602,-0.438623,-0.0591352
0.125,0.075,19.8773,0.356646,-4.30073,-0.553517,-1.85809,-0.0911816,-0.115407,-0.550938,3.93237,-0.0610803,-0.358157,0.356646,-4.30073,-0.553517,-1.85809,-0.0911816,-0.115407,-0.550938,3.93237,-0.0610803,-0.358157
0.125,0.125,18.5093,0.475586,-4.31952,-0.550498,-1.22152,-0.207415,-0.0445787,-0.563195,3.91586,0.144066,-0.681815,0.475586,-4.31952,-0.550498,-1.22152,-0.207415,-0.0445787,-0.563195,3.91586,0.144066,-0.681815
0.125,0.175,17.7923,0.532715,-4.32977,-0.560227,-0.704327,-0.124561,0.0049725,-0.571829,3.90642,0.162946,-1.02005,0.532715,-4.32977,-0.560227,-0.704327,-0.124561,0.0049725,-0.571829,3.90642,0.162946,-1.02005
0.125,0.225,17.6401,0.531472,-4.33216,-0.580315,-0.404244,0.08533,0.0317112,-0.581688,3.90073,-0.00623339,-0.915904,0.531472,-4.33216,-0.580315,-0.404244,0.08533,0.0317112,-0.581688,3.90073,-0.00623339,-0.915904
0.125,0.275,17.8895,0.477409,-4.3282,-0.608145,-0.310296,0.269175,0.0356373,-0.59277,3.89879,-0.194737,-0.667,0.477409,-4.3282,-0.608145,-0.310296,0.269175,0.0356373,-0.59277,3.89879,-0.194737,-0.667
0.125,0.325,18.4502,0.376079,-4.3194,-0.641101,-0.391151,0.422634,0.0167509,-0.605078,3.90059,-0.384662,-0.423509,0.376079,-4.3194,-0.641101,-0.391151,0.422634,0.0167509,-0.605078,3.90059,-0.384662,-0.423509
0.125,0.375,19.2625,0.233034,-4.30726,-0.676566,-0.619823,0.549511,-0.024948,-0.618609,3.90614,-0.579891,-0.183902,0.233034,-4.30726,-0.676566,-0.619823,0.549511,-0.024948,-0.618609,3.90614,-0.579891,-0.183902
0.125,0.425,20.2648,0.0538261,-4.29329,-0.711925,-0.970139,0.653741,-0.0894595,-0.633365,3.91543,-0.779994,0.0546561,0.0538261,-4.29329,-0.711925,-0.970139,0.653741,-0.0894595,-0.633365,3.91543,-0.779994,0.0546561
0.125,0.475,21.3773,-0.155993,-4.279,-0.744561,-1.41356,0.737572,-0.176783,-0.649345,3.92847,-0.979685,0.295086,-0.155993,-4.279,-0.744561,-1.41356,0.737572,-0.176783,-0.649345,3.92847,-0.979685,0.295086
0.125,0.525,22.4096,-0.39065,-4.26586,-0.771914,-1.9132,0.785134,-0.283776,-0.665738,3.94403,-1.1494,0.514208,-0.39065,-4.26586,-0.771914,-1.9132,0.785134,-0.283776,-0.665738,3.94403,-1.1494,0.514208
0.125,0.575,23.0732,-0.639287,-4.25485,-0.792702,-2.40722,0.70846,-0.391572,-0.677679,3.95473,-1.19539,0.73067,-0.639287,-4.25485,-0.792702,-2.40722,0.70846,-0.391572,-0.677679,3.95473,-1.19539,0.73067
0.125,0.625,23.3956,-0.885961,-4.2464,-0.806918,-2.84214,0.496475,-0.497029,-0.684357,3.95937,-1.10805,0.973948,-0.885961,-4.2464,-0.806918,-2.84214,0.496475,-0.497029,-0.684357,3.95937,-1.10805,0.973948
0.125,0.675,23.4795,-1.11451,-4.24094,-0.814615,-3.1739,0.157204,-0.600146,-0.685771,3.95792,-0.894635,1.24118,-1.11451,-4.24094,-0.814615,-3.1739,0.157204,-0.600146,-0.685771,3.95792,-0.894635,1.24118
0.125,0.725,23.4837,-1.30876,-4.23889,-0.815844,-3.36681,-0.291737,-0.700922,-0.681921,3.95041,-0.566597,1.52855,-1.30876,-4.23889,-0.815844,-3.36681,-0.291737,-0.700922,-0.681921,3.95041,-0.566597,1.52855
0.125,0.775,23.5778,-1.45257,-4.24067,-0.810655,-3.38865,-0.817767,-0.799359,-0.672808,3.93681,-0.134021,1.82829,-1.45257,-4.24067,-0.810655,-3.38865,-0.817767,-0.799359,-0.672808,3.93681,-0.134021,1.82829
0.125,0.825,23.9149,-1.52975,-4.2467,-0.799099,-3.20295,-1.35567,-0.895456,-0.658432,3.91714,0.443034,1.76833,-1.52975,-4.2467,-0.799099,-3.20295,-1.35567,-0.895456,-0.658432,3.91714,0.443034,1.76833
0.125,0.875,24.6381,-1.52415,-4.2574,-0.781228,-2.84038,-1.56873,-0.989212,-0.638791,3.8914,0.978086,0.603679,-1.52415,-4.2574,-0.781228,-2.84038,-1.56873,-0.989212,-0.638791,3.8914,0.978086,0.603679
0.125,0.925,25.4972,-1.42228,-4.2731,-0.757547,-2.37631,-1.41733,-1.06754,-0.616299,3.86825,1.16811,-0.579178,-1.42228,-4.2731,-0.757547,-2.37631,-1.41733,-1.06754,-0.616299,3.86825,1.16811,-0.579178
0.125,0.975,26.2709,-1.23962,-4.29294,-0.733462,-1.89217,-0.984195,-1.09085,-0.598249,3.87396,1.03233,-1.73146,-1.23962,-4.29294,-0.733462,-1.89217,-0.984195,-1.09085,-0.598249,3.87396,1.03233,-1.73146
0.175,0.025,22.6333,-0.0721717,-4.28494,-0.586984,-3.82515,-0.627109,0.0100654,-0.545022,3.99281,0.331433,-0.564137,-0.0721717,-4.28494,-0.586984,-3.82515,-0.627109,0.0100654,-0.545022,3.99281,0.331433,-0.564137
0.175,0.075,20.7886,0.159346,-4.32091,-0.561148,-2.80802,-1.04483,0.0639295,-0.58019,3.94737,0.767879,-0.583996,0.159346,-4.32091,-0.561148,-2.80802,-1.04483,0.0639295,-0.58019,3.94737,0.767879,-0.583996
0.175,0.125,18.9742,0.331678,-4.35375,-0.548446,-1.86276,-1.08789,0.0672117,-0.584725,3.91685,0.873736,-0.626249,0.331678,-4.35375,-0.548446,-1.86276,-1.08789,0.0672117,-0.584725,3.91685,0.873736,-0.626249
0.175,0.175,18.001,0.423334,-4.37601,-0.550093,-1.13405,-0.782056,0.045861,-0.583664,3.89477,0.663955,-0.704492,0.423334,-4.37601,-0.550093,-1.13405,-0.782056,0.045861,-0.583664,3.89477,0.663955,-0.704492
0.175,0.225,17.805,0.439665,-4.38834,-0.563924,-0.706496,-0.274963,0.00845618,-0.585284,3.87899,0.234142,-0.583349,0.439665,-4.38834,-0.563924,-0.706496,-0.274963,0.00845618,-0.585284,3.87899,0.234142,-0.583349
0.175,0.275,18.1781,0.388509,-4.39213,-0.587459,-0.538904,0.162982,-0.0450027,-0.589587,3.86952,-0.166844,-0.387619,0.388509,-4.39213,-0.587459,-0.538904,0.162982,-0.0450027,-0.589587,3.86952,-0.166844,-0.387619
0.175,0.325,18.9616,0.277707,-4.38879,-0.61822,-0.583637,0.528264,-0.114516,-0.59657,3.86635,-0.534017,-0.192277,0.277707,-4.38879,-0.61822,-0.583637,0.528264,-0.114516,-0.59657,3.86635,-0.534017,-0.192277
0.175,0.375,20.0152,0.115096,-4.37973,-0.653728,-0.801827,0.826893,-0.200083,-0.606236,3.86948,-0.875012,0.0035568,0.115096,-4.37973,-0.653728,-0.801827,0.826893,-0.200083,-0.606236,3.86948,-0.875012,0.0035568
0.175,0.425,21.1946,-0.0914831,-4.36635,-0.691505,-1.15688,1.06122,-0.301704,-0.618583,3.87891,-1.18869,0.200384,-0.0914831,-4.36635,-0.691505,-1.15688,1.06122,-0.301704,-0.618583,3.87891,-1.18869,0.200384
0.175,0.475,22.3475,-0.334192,-4.35004,-0.72907,-1.60881,1.22823,-0.419379,-0.633612,3.89464,-1.46488,0.396704,-0.334192,-4.35004,-0.72907,-1.60881,1.22823,-0.419379,-0.633612,3.89464,-1.46488,0.396704
0.175,0.525,23.2131,-0.604983,-4.33222,-0.76398,-2.10798,1.30408,-0.548668,-0.650419,3.91518,-1.65543,0.506155,-0.604983,-4.33222,-0.76398,-2.10798,1.30408,-0.548668,-0.650419,3.91518,-1.65543,0.506155
0.175,0.575,23.5208,-0.891021,-4.31406,-0.794576,-2.58771,1.19705,-0.662929,-0.663591,3.93156,-1.66083,0.556622,-0.891021,-4.31406,-0.794576,-2.58771,1.19705,-0.662929,-0.663591,3.93156,-1.66083,0.556622
0.175,0.625,23.3455,-1.17468,-4.2966,-0.819985,-3.00107,0.90345,-0.757721,-0.672223,3.94227,-1.48996,0.642898,-1.17468,-4.2966,-0.819985,-3.00107,0.90345,-0.757721,-0.672223,3.94227,-1.48996,0.642898
0.175,0.675,22.8261,-1.43814,-4.28082,-0.839366,-3.31923,0.441147,-0.833044,-0.676316,3.94733,-1.16294,0.768471,-1.43814,-4.28082,-0.839366,-3.31923,0.441147,-0.833044,-0.676316,3.94733,-1.16294,0.768471
0.175,0.725,22.1672,-1.66355,-4.26774,-0.851881,-3.52844,-0.168811,-0.888899,-0.67587,3.94672,-0.700484,0.937408,-1.66355,-4.26774,-0.851881,-3.52844,-0.168811,-0.888899,-0.67587,3.94672,-0.700484,0.937408
0.175,0.775,21.5887,-1.83309,-4.25835,-0.856691,-3.61989,-0.904232,-0.925286,-0.670885,3.94045,-0.110731,1.15285,-1.83309,-4.25835,-0.856691,-3.61989,-0.904232,-0.925286,-0.670885,3.94045,-0.110731,1.15285
0.175,0.825,21.3156,-1.92893,-4.25365,-0.852956,-3.57629,-1.7206,-0.942203,-0.661361,3.92852,0.641315,1.18817,-1.92893,-4.25365,-0.852956,-3.57629,-1.7206,-0.942203,-0.661361,3.92852,0.641315,1.18817
0.175,0.875,21.6179,-1.93324,-4.25464,-0.839838,-3.41879,-2.19945,-0.939653,-0.647298,3.91093,1.30412,0.490695,-1.93324,-4.25464,-0.839838,-3.41879,-2.19945,-0.939653,-0.647298,3.91093,1.30412,0.490695
0.175,0.925,22.7326,-1.83094,-4.2622,-0.817002,-3.12752,-2.20751,-0.916495,-0.630569,3.89425,1.60373,-0.308179,-1.83094,-4.2622,-0.817002,-3.12752,-2.20751,-0.916495,-0.630569,3.89425,1.60373,-0.308179
0.175,0.975,24.067,-1.63684,-4.27569,-0.789571,-2.6878,-1.80686,-0.869288,-0.616841,3.89836,1.52388,-1.14677,-1.63684,-4.27569,-0.789571,-2.6878,-1.80686,-0.869288,-0.616841,3.89836,1.52388,-1.14677
0.225,0.025,23.3393,-0.283545,-4.2907,-0.610465,-3.12027,-1.48293,0.282722,-0.585371,4.02725,1.35186,-1.24727,-0.283545,-4.2907,-0.610465,-3.12027,-1.48293,0.282722,-0.585371,4.02725,1.35186,-1.24727
0.225,0.075,21.4521,-0.0139803,-4.33817,-0.578385,-2.27716,-1.97299,0.291184,-0.622183,3.97083,1.73916,-0.81404,-0.0139803,-4.33817,-0.578385,-2.27716,-1.97299,0.291184,-0.622183,3.97083,1.73916,-0.81404
0.225,0.125,19.7065,0.186508,-4.38049,-0.558921,-1.57257,-1.95354,0.212316,-0.617201,3.92563,1.66997,-0.412003,0.186508,-4.38049,-0.558921,-1.57257,-1.95354,0.212316,-0.617201,3.92563,1.66997,-0.412003
0.225,0.175,18.6079,0.296084,-4.41106,-0.554205,-1.07447,-1.45306,0.1062,-0.604856,3.88974,1.18739,-0.0947204,0.296084,-4.41106,-0.554205,-1.07447,-1.45306,0.1062,-0.604856,3.88974,1.18739,-0.0947204
0.225,0.225,18.3659,0.321471,-4.43047,-0.562374,-0.809722,-0.672805,-0.00730115,-0.596529,3.86252,0.488971,0.03622,0.321471,-4.43047,-0.562374,-0.809722,-0.672805,-0.00730115,-0.596529,3.86252,0.488971,0.03622
0.225,0.275,18.7566,0.272042,-4.44,-0.581192,-0.72238,0.0103953,-0.128188,-0.592222,3.84396,-0.122218,0.136289,0.272042,-4.44,-0.581192,-0.72238,0.0103953,-0.128188,-0.592222,3.84396,-0.122218,0.136289
0.225,0.325,19.5855,0.15717,-4.44091,-0.608423,-0.777166,0.591057,-0.256461,-0.591934,3.83408,-0.659869,0.245079,0.15717,-4.44091,-0.608423,-0.777166,0.591057,-0.256461,-0.591934,3.83408,-0.659869,0.245079
0.225,0.375,20.6685,-0.0137735,-4.43446,-0.641832,-0.94355,1.07392,-0.392119,-0.595664,3.83286,-1.13586,0.357471,-0.0137735,-4.43446,-0.641832,-0.94355,1.07392,-0.392119,-0.595664,3.83286,-1.13586,0.357471
0.225,0.425,21.8218,-0.231416,-4.42193,-0.679184,-1.19007,1.4546,-0.535162,-0.603415,3.84031,-1.54736,0.466746,-0.231416,-4.42193,-0.679184,-1.19007,1.4546,-0.535162,-0.603415,3.84031,-1.54736,0.466746
0.225,0.475,22.8694,-0.486384,-4.40457,-0.718243,-1.48009,1.72044,-0.685591,-0.615184,3.85643,-1.87776,0.564362,-0.486384,-4.40457,-0.718243,-1.48009,1.72044,-0.685591,-0.615184,3.85643,-1.87776,0.564362
0.225,0.525,23.5284,-0.769128,-4.38366,-0.756789,-1.7693,1.84242,-0.837798,-0.630056,3.87958,-2.06404,0.506458,-0.769128,-4.38366,-0.756789,-1.7693,1.84242,-0.837798,-0.630056,3.87958,-2.06404,0.506458
0.225,0.575,23.6199,-1.066,-4.36055,-0.792964,-2.00922,1.74332,-0.958132,-0.642532,3.89988,-2.0144,0.344182,-1.066,-4.36055,-0.792964,-2.00922,1.74332,-0.958132,-0.642532,3.89988,-2.0144,0.344182
0.225,0.625,23.262,-1.35924,-4.33666,-0.825271,-2.17915,1.43567,-1.04099,-0.651697,3.91571,-1.7627,0.24096,-1.35924,-4.33666,-0.825271,-2.17915,1.43567,-1.04099,-0.651697,3.91571,-1.7627,0.24096
0.225,0.675,22.5798,-1.63093,-4.31341,-0.852228,-2.2766,0.949496,-1.08636,-0.65755,3.92706,-1.34677,0.202029,-1.63093,-4.31341,-0.852228,-2.2766,0.949496,-1.08636,-0.65755,3.92706,-1.34677,0.202029
0.225,0.725,21.757,-1.86314,-4.29224,-0.872352,-2.30991,0.306337,-1.09426,-0.660092,3.93393,-0.797505,0.224838,-1.86314,-4.29224,-0.872352,-2.30991,0.306337,-1.09426,-0.660092,3.93393,-0.797505,0.224838
0.225,0.775,20.9972,-2.03793,-4.27457,-0.884163,-2.28802,-0.489821,-1.06468,-0.659321,3.93632,-0.119801,0.302236,-2.03793,-4.27457,-0.884163,-2.28802,-0.489821,-1.06468,-0.659321,3.93632,-0.119801,0.302236
0.225,0.825,20.5311,-2.13738,-4.26182,-0.886178,-2.21304,-1.43775,-0.997612,-0.655239,3.93422,0.715897,0.348699,-2.13738,-4.26182,-0.886178,-2.21304,-1.43775,-0.997612,-0.655239,3.93422,0.715897,0.348699
0.225,0.875,20.6752,-2.14357,-4.25544,-0.876916,-2.12879,-2.1505,-0.893068,-0.647846,3.92765,1.44275,0.111491,-2.14357,-4.25544,-0.876916,-2.12879,-2.1505,-0.893068,-0.647846,3.92765,1.44275,0.111491
0.225,0.925,21.5894,-2.04124,-4.25667,-0.855423,-2.00581,-2.44172,-0.761873,-0.638357,3.92091,1.86771,-0.235769,-2.04124,-4.25667,-0.855423,-2.00581,-2.44172,-0.761873,-0.638357,3.92091,1.86771,-0.235769
0.225,0.975,22.8516,-1.84419,-4.26506,-0.826434,-1.78872,-2.2958,-0.636776,-0.630455,3.92702,1.93638,-0.660311,-1.84419,-4.26506,-0.826434,-1.78872,-2.2958,-0.636776,-0.630455,3.92702,1.93638,-0.660311
0.275,0.025,23.112,-0.438892,-4.2988,-0.639669,-1.71598,-1.91929,0.580717,-0.635944,4.06514,2.05322,-1.99296,-0.438892,-4.2988,-0.639669,-1.71598,-1.91929,0.580717,-0.635944,4.06514,2.05322,-1.99296
0.275,0.075,21.6279,-0.163332,-4.3525,-0.605228,-1.28303,-2.38757,0.537179,-0.67195,3.99926,2.3069,-1.04057,-0.163332,-4.3525,-0.605228,-1.28303,-2.38757,0.537179,-0.67195,3.99926,2.3069,-1.04057
0.275,0.125,20.6214,0.0400767,-4.39973,-0.581923,-1.01136,-2.33584,0.369831,-0.656484,3.93988,2.07225,-0.117859,0.0400767,-4.39973,-0.581923,-1.01136,-2.33584,0.369831,-0.656484,3.93988,2.07225,-0.117859
0.275,0.175,19.6392,0.150963,-4.43491,-0.572565,-0.886213,-1.77991,0.173554,-0.63214,3.89019,1.40358,0.68272,0.150963,-4.43491,-0.572565,-0.886213,-1.77991,0.173554,-0.63214,3.89019,1.40358,0.68272
0.275,0.225,19.3931,0.17689,-4.45858,-0.575667,-0.872647,-0.89544,-0.0202838,-0.612999,3.85124,0.565914,0.844568,0.17689,-4.45858,-0.575667,-0.872647,-0.89544,-0.0202838,-0.612999,3.85124,0.565914,0.844568
0.275,0.275,19.6822,0.128008,-4.47183,-0.589344,-0.910515,-0.0927938,-0.211682,-0.599062,3.82302,-0.146659,0.836402,0.128008,-4.47183,-0.589344,-0.910515,-0.0927938,-0.211682,-0.599062,3.82302,-0.146659,0.836402
0.275,0.325,20.3306,0.0144693,-4.47575,-0.61171,-0.986951,0.603735,-0.400641,-0.590329,3.80555,-0.763486,0.839846,0.0144693,-4.47575,-0.61171,-0.986951,0.603735,-0.400641,-0.590329,3.80555,-0.763486,0.839846
0.275,0.375,21.172,-0.153574,-4.47146,-0.640878,-1.08615,1.18534,-0.58716,-0.5868,3.79881,-1.29439,0.841654,-0.153574,-4.47146,-0.640878,-1.08615,1.18534,-0.58716,-0.5868,3.79881,-1.29439,0.841654
0.275,0.425,22.0455,-0.365971,-4.46003,-0.674964,-1.1871,1.63696,-0.77124,-0.588474,3.8028,-1.73209,0.826789,-0.365971,-4.46003,-0.674964,-1.1871,1.63696,-0.77124,-0.588474,3.8028,-1.73209,0.826789
0.275,0.475,22.8097,-0.612569,-4.44258,-0.712079,-1.265,1.94137,-0.952881,-0.595352,3.81754,-2.05536,0.783467,-0.612569,-4.44258,-0.712079,-1.265,1.94137,-0.952881,-0.595352,3.81754,-2.05536,0.783467
0.275,0.525,23.2046,-0.883086,-4.42021,-0.750341,-1.29484,2.07866,-1.12554,-0.606566,3.84132,-2.19593,0.530223,-0.883086,-4.42021,-0.750341,-1.29484,2.07866,-1.12554,-0.606566,3.84132,-2.19593,0.530223
0.275,0.575,23.183,-1.16422,-4.39431,-0.787866,-1.26184,2.00432,-1.24994,-0.616912,3.86402,-2.08342,0.149591,-1.16422,-4.39431,-0.787866,-1.26184,2.00432,-1.24994,-0.616912,3.86402,-2.08342,0.149591
0.275,0.625,22.8892,-1.43964,-4.36657,-0.822778,-1.1785,1.73872,-1.31953,-0.625521,3.88393,-1.77299,-0.140715,-1.43964,-4.36657,-0.822778,-1.1785,1.73872,-1.31953,-0.625521,3.88393,-1.77299,-0.140715
0.275,0.675,22.3908,-1.6929,-4.3387,-0.8532,-1.06248,1.3053,-1.33432,-0.632395,3.90106,-1.31015,-0.342527,-1.6929,-4.3387,-0.8532,-1.06248,1.3053,-1.33432,-0.632395,3.90106,-1.31015,-0.342527
0.275,0.725,21.8083,-1.90753,-4.31239,-0.877257,-0.928546,0.71284,-1.29431,-0.637532,3.91542,-0.72618,-0.475299,-1.90753,-4.31239,-0.877257,-0.928546,0.71284,-1.29431,-0.637532,3.91542,-0.72618,-0.475299
0.275,0.775,21.2968,-2.06708,-4.28933,-0.893071,-0.78539,-0.0502986,-1.1995,-0.640933,3.92699,-0.0200594,-0.569539,-2.06708,-4.28933,-0.893071,-0.78539,-0.0502986,-1.1995,-0.640933,3.92699,-0.0200594,-0.569539
0.275,0.825,21.062,-2.1551,-4.27123,-0.898765,-0.639169,-1.00373,-1.04988,-0.642599,3.93578,0.822746,-0.593005,-2.1551,-4.27123,-0.898765,-0.639169,-1.00373,-1.04988,-0.642599,3.93578,0.822746,-0.593005
0.275,0.875,21.4053,-2.15513,-4.25978,-0.892464,-0.549528,-1.80188,-0.845462,-0.642528,3.94179,1.51552,-0.471418,-2.15513,-4.25978,-0.892464,-0.549528,-1.80188,-0.845462,-0.642528,3.94179,1.51552,-0.471418
0.275,0.925,21.9033,-2.05317,-4.25651,-0.87281,-0.509336,-2.26019,-0.608348,-0.641201,3.94704,1.9592,-0.419445,-2.05317,-4.25651,-0.87281,-0.509336,-2.26019,-0.608348,-0.641201,3.94704,1.9592,-0.419445
0.275,0.975,22.6021,-1.86168,-4.26105,-0.84405,-0.474866,-2.33056,-0.405412,-0.640071,3.9576,2.09202,-0.418362,-1.86168,-4.26105,-0.84405,-0.474866,-2.33056,-0.405412,-0.640071,3.9576,2.09202,-0.418362
0.325,0.025,22.0564,-0.538214,-4.30923,-0.674597,-0.39918,-2.0051,0.86967,-0.691248,4.10225,2.38762,-2.64605,-0.538214,-4.30923,-0.674597,-0.39918,-2.0051,0.86967,-0.691248,4.10225,2.38762,-2.64605
0.325,0.075,21.3383,-0.28871,-4.36391,-0.641678,-0.357372,-2.33306,0.772737,-0.724522,4.0292,2.44929,-1.20521,-0.28871,-4.36391,-0.641678,-0.357372,-2.33306,0.772737,-0.724522,4.0292,2.44929,-1.20521
0.325,0.125,21.5883,-0.107616,-4.41147,-0.617452,-0.494288,-2.24633,0.518849,-0.698431,3.95729,2.06896,0.181423,-0.107616,-4.41147,-0.617452,-0.494288,-2.24633,0.518849,-0.698431,3.95729,2.06896,0.181423
0.325,0.175,20.9669,-0.0120271,-4.44757,-0.605171,-0.722692,-1.75219,0.235484,-0.66225,3.89499,1.30673,1.45643,-0.0120271,-4.44757,-0.605171,-0.722692,-1.75219,0.235484,-0.66225,3.89499,1.30673,1.45643
0.325,0.225,20.7837,0.00592147,-4.47264,-0.603803,-0.951616,-0.928958,-0.0352148,-0.632271,3.84509,0.460982,1.69452,0.00592147,-4.47264,-0.603803,-0.951616,-0.928958,-0.0352148,-0.632271,3.84509,0.460982,1.69452
0.325,0.275,20.8794,-0.0435936,-4.4876,-0.611916,-1.11245,-0.139186,-0.293247,-0.608495,3.80759,-0.240439,1.59752,-0.0435936,-4.4876,-0.611916,-1.11245,-0.139186,-0.293247,-0.608495,3.80759,-0.240439,1.59752
0.325,0.325,21.1465,-0.150395,-4.49332,-0.628081,-1.20789,0.561462,-0.538612,-0.59092,3.7825,-0.840355,1.49197,-0.150395,-4.49332,-0.628081,-1.20789,0.561462,-0.538612,-0.59092,3.7825,-0.840355,1.49197
0.325,0.375,21.5021,-0.304306,-4.49071,-0.650866,-1.2343,1.14077,-0.771311,-0.579547,3.76982,-1.34154,1.36444,-0.304306,-4.49071,-0.650866,-1.2343,1.14077,-0.771311,-0.579547,3.76982,-1.34154,1.36444
0.325,0.425,21.8756,-0.49515,-4.48066,-0.678843,-1.18281,1.57538,-0.991343,-0.574377,3.76954,-1.7328,1.20199,-0.49515,-4.48066,-0.678843,-1.18281,1.57538,-0.991343,-0.574377,3.76954,-1.7328,1.20199
0.325,0.475,22.2133,-0.712748,-4.46407,-0.71058,-1.04611,1.856,-1.19871,-0.575408,3.78166,-1.99447,1.00189,-0.712748,-4.46407,-0.71058,-1.04611,1.856,-1.19871,-0.575408,3.78166,-1.99447,1.00189
0.325,0.525,22.3114,-0.946857,-4.44184,-0.744635,-0.825027,1.98575,-1.38626,-0.58187,3.80454,-2.06445,0.569778,-0.946857,-4.44184,-0.744635,-0.825027,1.98575,-1.38626,-0.58187,3.80454,-2.06445,0.569778
0.325,0.575,22.2624,-1.18568,-4.41534,-0.77928,-0.540821,1.95745,-1.51109,-0.589137,3.82826,-1.90139,0.00770522,-1.18568,-4.41534,-0.77928,-0.540821,1.95745,-1.51109,-0.589137,3.82826,-1.90139,0.00770522
0.325,0.625,22.2225,-1.41588,-4.38635,-0.812505,-0.234063,1.78169,-1.56605,-0.596437,3.85117,-1.56803,-0.445595,-1.41588,-4.38635,-0.812505,-0.234063,1.78169,-1.56605,-0.596437,3.85117,-1.56803,-0.445595
0.325,0.675,22.1871,-1.62403,-4.35669,-0.842284,0.0655214,1.45527,-1.55114,-0.60377,3.87327,-1.102,-0.806332,-1.62403,-4.35669,-0.842284,0.0655214,1.45527,-1.55114,-0.60377,3.87327,-1.102,-0.806332
0.325,0.725,22.2019,-1.79672,-4.32818,-0.866596,0.342589,0.960848,-1.46637,-0.611137,3.89456,-0.525254,-1.10918,-1.79672,-4.32818,-0.866596,0.342589,0.960848,-1.46637,-0.611137,3.89456,-0.525254,-1.10918
0.325,0.775,22.3609,-1.92055,-4.30263,-0.883415,0.59057,0.270291,-1.31173,-0.618536,3.91504,0.168823,-1.40203,-1.92055,-4.30263,-0.883415,0.59057,0.270291,-1.31173,-0.618536,3.91504,0.168823,-1.40203
0.325,0.825,22.817,-1.98209,-4.28186,-0.890718,0.797937,-0.636561,-1.08722,-0.625969,3.93471,0.968877,-1.5361,-1.98209,-4.28186,-0.890718,0.797937,-0.636561,-1.08722,-0.625969,3.93471,0.968877,-1.5361
0.325,0.875,23.7811,-1.96794,-4.26768,-0.886481,0.891254,-1.42414,-0.792836,-0.633436,3.95358,1.5601,-1.12153,-1.96794,-4.26768,-0.886481,0.891254,-1.42414,-0.792836,-0.633436,3.95358,1.5601,-1.12153
0.325,0.925,23.7862,-1.86674,-4.26172,-0.869162,0.86013,-1.91715,-0.460592,-0.640637,3.97145,1.93336,-0.733036,-1.86674,-4.26172,-0.869162,0.86013,-1.91715,-0.460592,-0.640637,3.97145,1.93336,-0.733036
0.325,0.975,23.4996,-1.6893,-4.26368,-0.84242,0.735452,-2.08098,-0.18729,-0.646668,3.98777,2.03762,-0.354791,-1.6893,-4.26368,-0.84242,0.735452,-2.08098,-0.18729,-0.646668,3.98777,2.03762,-0.354791
0.375,0.025,20.6231,-0.58151,-4.322,-0.715247,0.832569,-1.76925,1.1152,-0.745784,4.13436,2.36196,-3.06451,-0.58151,-4.322,-0.715247,0.832569,-1.76925,1.1152,-0.745784,4.13436,2.36196,-3.06451
0.375,0.075,20.8123,-0.390114,-4.37241,-0.687735,0.485712,-1.88055,0.96868,-0.774933,4.05718,2.18922,-1.25254,-0.390114,-4.37241,-0.687735,0.485712,-1.88055,0.96868,-0.774933,4.05718,2.18922,-1.25254
0.375,0.125,22.4917,-0.256571,-4.41572,-0.665509,-0.0358381,-1.76228,0.638466,-0.738901,3.97554,1.68797,0.436301,-0.256571,-4.41572,-0.665509,-0.0358381,-1.76228,0.638466,-0.738901,3.97554,1.68797,0.436301
0.375,0.175,22.3681,-0.192887,-4.44903,-0.652025,-0.591728,-1.40325,0.279554,-0.691922,3.90298,0.914881,2.08638,-0.192887,-4.44903,-0.652025,-0.591728,-1.40325,0.279554,-0.691922,3.90298,0.914881,2.08638
0.375,0.225,22.2971,-0.191434,-4.47267,-0.64678,-1.05015,-0.771604,-0.0568171,-0.651923,3.84399,0.17886,2.44393,-0.191434,-4.47267,-0.64678,-1.05015,-0.771604,-0.0568171,-0.651923,3.84399,0.17886,2.44393
0.375,0.275,22.1539,-0.242762,-4.48731,-0.648907,-1.33016,-0.12426,-0.370645,-0.618905,3.79857,-0.401874,2.29685,-0.242762,-4.48731,-0.648907,-1.33016,-0.12426,-0.370645,-0.618905,3.79857,-0.401874,2.29685
0.375,0.325,21.926,-0.337424,-4.49361,-0.657535,-1.44047,0.460722,-0.661931,-0.592868,3.7667,-0.885898,2.09149,-0.337424,-4.49361,-0.657535,-1.44047,0.460722,-0.661931,-0.592868,3.7667,-0.885898,2.09149
0.375,0.375,21.6594,-0.46597,-4.49223,-0.671796,-1.38668,0.933489,-0.930675,-0.573812,3.7484,-1.2697,1.83019,-0.46597,-4.49223,-0.671796,-1.38668,0.933489,-0.930675,-0.573812,3.7484,-1.2697,1.83019
0.375,0.425,21.4191,-0.618951,-4.48382,-0.690823,-1.17465,1.27273,-1.17688,-0.561737,3.74367,-1.54295,1.52161,-0.618951,-4.48382,-0.690823,-1.17465,1.27273,-1.17688,-0.561737,3.74367,-1.54295,1.52161
0.375,0.475,21.2719,-0.78692,-4.46904,-0.713745,-0.817993,1.48609,-1.40054,-0.556643,3.75249,-1.69436,1.18495,-0.78692,-4.46904,-0.713745,-0.817993,1.48609,-1.40054,-0.556643,3.75249,-1.69436,1.18495
0.375,0.525,21.0975,-0.960441,-4.44857,-0.739672,-0.342273,1.5995,-1.59433,-0.557887,3.77333,-1.67541,0.630466,-0.960441,-4.44857,-0.739672,-0.342273,1.5995,-1.59433,-0.557887,3.77333,-1.67541,0.630466
0.375,0.575,21.1178,-1.13039,-4.42363,-0.767208,0.201423,1.6334,-1.71434,-0.561616,3.79691,-1.4757,-0.0479196,-1.13039,-4.42363,-0.767208,0.201423,1.6334,-1.71434,-0.561616,3.79691,-1.4757,-0.0479196
0.375,0.625,21.5074,-1.28795,-4.39598,-0.794452,0.750731,1.57774,-1.75325,-0.567186,3.82166,-1.15091,-0.627087,-1.28795,-4.39598,-0.794452,0.750731,1.57774,-1.75325,-0.567186,3.82166,-1.15091,-0.627087
0.375,0.675,22.2074,-1.42433,-4.36738,-0.81948,1.26341,1.39759,-1.71105,-0.574598,3.84761,-0.719526,-1.14134,-1.42433,-4.36738,-0.81948,1.26341,1.39759,-1.71105,-0.574598,3.84761,-0.719526,-1.14134
0.375,0.725,23.1977,-1.53072,-4.33962,-0.840369,1.71529,1.04544,-1.58774,-0.583851,3.87474,-0.189861,-1.63415,-1.53072,-4.33962,-0.840369,1.71529,1.04544,-1.58774,-0.583851,3.87474,-0.189861,-1.63415
0.375,0.775,24.5018,-1.59833,-4.31448,-0.855195,2.08807,0.474811,-1.38333,-0.594946,3.90305,0.445923,-2.15375,-1.59833,-4.31448,-0.855195,2.08807,0.474811,-1.38333,-0.594946,3.90305,0.445923,-2.15375
0.375,0.825,26.1699,-1.61835,-4.29372,-0.862035,2.34796,-0.323744,-1.09781,-0.607883,3.93255,1.13895,-2.41345,-1.61835,-4.29372,-0.862035,2.34796,-0.323744,-1.09781,-0.607883,3.93255,1.13895,-2.41345
0.375,0.875,28.2085,-1.58199,-4.27913,-0.858966,2.40479,-1.01098,-0.731191,-0.622662,3.96323,1.55353,-1.73016,-1.58199,-4.27913,-0.858966,2.40479,-1.01098,-0.731191,-0.622662,3.96323,1.55353,-1.73016
0.375,0.925,27.6464,-1.48195,-4.2723,-0.84448,2.24878,-1.42504,-0.323278,-0.6382,3.99295,1.77225,-1.04698,-1.48195,-4.2723,-0.84448,2.24878,-1.42504,-0.323278,-0.6382,3.99295,1.77225,-1.04698
0.375,0.975,25.9323,-1.32706,-4.27293,-0.821544,1.92021,-1.5699,0.00549575,-0.651227,4.01519,1.76774,-0.364297,-1.32706,-4.27293,-0.821544,1.92021,-1.5699,0.00549575,-0.651227,4.01519,1.76774,-0.364297
0.425,0.025,19.4305,-0.56878,-4.3371,-0.761621,2.01461,-1.18677,1.28292,-0.794059,4.15725,1.93914,-3.16877,-0.56878,-4.3371,-0.761621,2.01461,-1.18677,1.28292,-0.794059,4.15725,1.93914,-3.16877
0.425,0.075,20.4127,-0.467544,-4.37798,-0.743397,1.24516,-1.09238,1.09583,-0.818213,4.07971,1.53002,-1.18308,-0.467544,-4.37798,-0.743397,1.24516,-1.09238,1.09583,-0.818213,4.07971,1.53002,-1.18308
0.425,0.125,23.2844,-0.406788,-4.41248,-0.726093,0.348899,-0.97656,0.707778,-0.773754,3.99231,0.954766,0.615232,-0.406788,-4.41248,-0.726093,0.348899,-0.97656,0.707778,-0.773754,3.99231,0.954766,0.615232
0.425,0.175,23.6101,-0.391617,-4.43929,-0.713125,-0.510945,-0.786633,0.293326,-0.717889,3.91305,0.250048,2.49252,-0.391617,-4.43929,-0.713125,-0.510945,-0.786633,0.293326,-0.717889,3.91305,0.250048,2.49252
0.425,0.225,23.632,-0.415176,-4.45866,-0.7046,-1.18005,-0.429887,-0.0898136,-0.669531,3.84789,-0.270582,2.97299,-0.415176,-4.45866,-0.7046,-1.18005,-0.429887,-0.0898136,-0.669531,3.84789,-0.270582,2.97299
0.425,0.275,23.2425,-0.469498,-4.47098,-0.700316,-1.56677,-0.0438683,-0.44164,-0.628681,3.79685,-0.624347,2.80826,-0.469498,-4.47098,-0.700316,-1.56677,-0.0438683,-0.44164,-0.628681,3.79685,-0.624347,2.80826
0.425,0.325,22.525,-0.546616,-4.47663,-0.700073,-1.6802,0.30271,-0.762155,-0.595337,3.75991,-0.891609,2.52371,-0.546616,-4.47663,-0.700073,-1.6802,0.30271,-0.762155,-0.595337,3.75991,-0.891609,2.52371
0.425,0.375,21.6588,-0.638564,-4.47601,-0.703668,-1.53511,0.569958,-1.05136,-0.5695,3.73708,-1.06958,2.15139,-0.638564,-4.47601,-0.703668,-1.53511,0.569958,-1.05136,-0.5695,3.73708,-1.06958,2.15139
0.425,0.425,20.8469,-0.737376,-4.4695,-0.710902,-1.15398,0.752702,-1.30924,-0.551171,3.72835,-1.15521,1.73409,-0.737376,-4.4695,-0.710902,-1.15398,0.752702,-1.30924,-0.551171,3.72835,-1.15521,1.73409
0.425,0.475,20.2835,-0.835086,-4.45749,-0.721573,-0.568924,0.870917,-1.53582,-0.540348,3.73373,-1.14765,1.31327,-0.835086,-4.45749,-0.721573,-0.568924,0.870917,-1.53582,-0.540348,3.73373,-1.14765,1.31327
0.425,0.525,19.9679,-0.923837,-4.44039,-0.735451,0.179898,0.956077,-1.72413,-0.536536,3.75183,-1.01265,0.712036,-0.923837,-4.44039,-0.735451,0.179898,0.956077,-1.72413,-0.536536,3.75183,-1.01265,0.712036
0.425,0.575,20.2347,-0.998341,-4.4192,-0.751649,1.0236,1.04126,-1.83245,-0.536755,3.77427,-0.772457,-0.00955406,-0.998341,-4.4192,-0.751649,1.0236,1.04126,-1.83245,-0.536755,3.77427,-0.772457,-0.00955406
0.425,0.625,21.2904,-1.05587,-4.39547,-0.768619,1.88229,1.09576,-1.85382,-0.540509,3.79967,-0.469314,-0.668475,-1.05587,-4.39547,-0.768619,1.88229,1.09576,-1.85382,-0.540509,3.79967,-0.469314,-0.668475
0.425,0.675,23.0429,-1.0938,-4.37078,-0.784786,2.69097,1.06575,-1.78825,-0.547798,3.82802,-0.102956,-1.31619,-1.0938,-4.37078,-0.784786,2.69097,1.06575,-1.78825,-0.547798,3.82802,-0.102956,-1.31619
0.425,0.725,25.4004,-1.10953,-4.34671,-0.798575,3.39254,0.889951,-1.63574,-0.558621,3.85933,0.327036,-2.00004,-1.10953,-4.34671,-0.798575,3.39254,0.889951,-1.63574,-0.558621,3.85933,0.327036,-2.00004
0.425,0.775,28.2852,-1.10043,-4.32486,-0.808411,3.92376,0.519363,-1.39628,-0.572979,3.89359,0.820215,-2.74921,-1.10043,-4.32486,-0.808411,3.92376,0.519363,-1.39628,-0.572979,3.89359,0.820215,-2.74921
0.425,0.825,31.5786,-1.06388,-4.30681,-0.812718,4.19713,-0.0324173,-1.06988,-0.590871,3.93081,1.28488,-3.11663,-1.06388,-4.30681,-0.812718,4.19713,-0.0324173,-1.06988,-0.590871,3.93081,1.28488,-3.11663
0.425,0.875,34.9658,-0.997283,-4.29413,-0.809921,4.11968,-0.475305,-0.656531,-0.612298,3.97098,1.4148,-2.18407,-0.997283,-4.29413,-0.809921,4.11968,-0.475305,-0.656531,-0.612298,3.97098,1.4148,-2.18407
0.425,0.925,33.6109,-0.898787,-4.28825,-0.798763,3.72865,-0.703623,-0.201078,-0.635429,4.01035,1.39521,-1.25833,-0.898787,-4.28825,-0.798763,3.72865,-0.703623,-0.201078,-0.635429,4.01035,1.39521,-1.25833
0.425,0.975,30.0406,-0.774961,-4.2888,-0.781422,3.11148,-0.760799,0.16085,-0.654727,4.03752,1.22821,-0.366586,-0.774961,-4.2888,-0.781422,3.11148,-0.760799,0.16085,-0.654727,4.03752,1.22821,-0.366586
0.475,0.025,19.2283,-0.500024,-4.35455,-0.813718,3.12453,-0.181426,1.33845,-0.830577,4.16671,1.04788,-2.97594,-0.500024,-4.35455,-0.813718,3.12453,-0.181426,1.33845,-0.830577,4.16671,1.04788,-2.97594
0.475,0.075,20.62,-0.521,-4.38063,-0.808666,1.90138,0.0301521,1.12501,-0.849396,4.09334,0.461998,-1.06173,-0.521,-4.38063,-0.808666,1.90138,0.0301521,1.12501,-0.849396,4.09334,0.461998,-1.06173
0.475,0.125,24.0132,-0.558266,-4.40174,-0.799204,0.636392,0.0793088,0.705878,-0.798848,4.00528,-0.113349,0.68562,-0.558266,-4.40174,-0.799204,0.636392,0.0793088,0.705878,-0.798848,4.00528,-0.113349,0.68562
0.475,0.175,24.5067,-0.608218,-4.41836,-0.788473,-0.508891,0.0708097,0.264364,-0.736887,3.92403,-0.664365,2.63666,-0.608218,-4.41836,-0.788473,-0.508891,0.0708097,0.264364,-0.736887,3.92403,-0.664365,2.63666
0.475,0.225,24.4954,-0.665306,-4.43062,-0.777262,-1.36101,0.0891902,-0.138927,-0.682673,3.85671,-0.866311,3.18482,-0.665306,-4.43062,-0.777262,-1.36101,0.0891902,-0.138927,-0.682673,3.85671,-0.866311,3.18482
0.475,0.275,23.8731,-0.723801,-4.43859,-0.766145,-1.82551,0.104208,-0.503995,-0.636207,3.80333,-0.888675,3.00777,-0.723801,-4.43859,-0.766145,-1.82551,0.104208,-0.503995,-0.636207,3.80333,-0.888675,3.00777
0.475,0.325,22.7918,-0.777972,-4.44237,-0.755694,-1.91729,0.0953517,-0.830838,-0.597488,3.76387,-0.841442,2.67707,-0.777972,-4.44237,-0.755694,-1.91729,0.0953517,-0.830838,-0.597488,3.76387,-0.841442,2.67707
0.475,0.375,21.5236,-0.82209,-4.44205,-0.746482,-1.6654,0.0684993,-1.11946,-0.566516,3.73834,-0.730771,2.25363,-0.82209,-4.44205,-0.746482,-1.6654,0.0684993,-1.11946,-0.566516,3.73834,-0.730771,2.25363
0.475,0.425,20.374,-0.850424,-4.4377,-0.739082,-1.10715,0.0425291,-1.36985,-0.543292,3.72675,-0.562157,1.8011,-0.850424,-4.4377,-0.739082,-1.10715,0.0425291,-1.36985,-0.543292,3.72675,-0.562157,1.8011
0.475,0.475,19.6583,-0.857244,-4.42942,-0.734065,-0.281499,0.0326349,-1.58203,-0.527815,3.72908,-0.33885,1.36497,-0.857244,-4.42942,-0.734065,-0.281499,0.0326349,-1.58203,-0.527815,3.72908,-0.33885,1.36497
0.475,0.525,19.5471,-0.837047,-4.41731,-0.731974,0.774076,0.051529,-1.75003,-0.519736,3.74413,-0.0373789,0.788594,-0.837047,-4.41731,-0.731974,0.774076,0.051529,-1.75003,-0.519736,3.74413,-0.0373789,0.788594
0.475,0.575,20.4162,-0.789535,-4.40204,-0.732603,1.98295,0.133781,-1.83816,-0.516964,3.76465,0.278119,0.0864965,-0.789535,-4.40204,-0.732603,1.98295,0.133781,-1.83816,-0.516964,3.76465,0.278119,0.0864965
0.475,0.625,22.449,-0.719621,-4.38481,-0.735006,3.24097,0.23109,-1.84048,-0.519149,3.78942,0.569203,-0.605146,-0.719621,-4.38481,-0.735006,3.24097,0.23109,-1.84048,-0.519149,3.78942,0.569203,-0.605146
0.475,0.675,25.4829,-0.632441,-4.36687,-0.738203,4.43266,0.295933,-1.75699,-0.526292,3.81844,0.836301,-1.33851,-0.632441,-4.36687,-0.738203,4.43266,0.295933,-1.75699,-0.526292,3.81844,0.836301,-1.33851
0.475,0.725,29.3032,-0.533132,-4.34945,-0.741216,5.42539,0.304402,-1.58768,-0.538392,3.85171,1.07115,-2.14929,-0.533132,-4.34945,-0.741216,5.42539,0.304402,-1.58768,-0.538392,3.85171,1.07115,-2.14929
0.475,0.775,33.6836,-0.426833,-4.33379,-0.743063,6.07212,0.26937,-1.33255,-0.555449,3.88924,1.25713,-3.03001,-0.426833,-4.33379,-0.743063,6.07212,0.26937,-1.33255,-0.555449,3.88924,1.25713,-3.03001
0.475,0.825,38.3004,-0.318681,-4.32112,-0.742766,6.22774,0.244554,-0.991611,-0.577465,3.93102,1.29058,-3.4202,-0.318681,-4.32112,-0.742766,6.22774,0.244554,-0.991611,-0.577465,3.93102,1.29058,-3.4202
0.475,0.875,42.5247,-0.213812,-4.31268,-0.739344,5.8749,0.282195,-0.564856,-0.604437,3.97705,1.01735,-2.33505,-0.213812,-4.31268,-0.739344,5.8749,0.282195,-0.564856,-0.604437,3.97705,1.01735,-2.33505
0.475,0.925,40.0468,-0.117265,-4.30956,-0.732012,5.15913,0.343012,-0.0986653,-0.63386,4.02245,0.708614,-1.29999,-0.117265,-4.30956,-0.732012,5.15913,0.343012,-0.0986653,-0.63386,4.02245,0.708614,-1.29999
0.475,0.975,34.6938,-0.0329928,-4.31131,-0.722054,4.22163,0.395501,0.266679,-0.658148,4.05243,0.372259,-0.334635,-0.0329928,-4.31131,-0.722054,4.22163,0.395501,0.266679,-0.658148,4.05243,0.372259,-0.334635
0.525,0.025,20.7066,-0.382126,-4.3733,-0.867636,3.10198,1.11345,1.24882,-0.850021,4.15869,-0.23856,-2.57525,-0.382126,-4.3733,-0.867636,3.10198,1.11345,1.24882,-0.850021,4.15869,-0.23856,-2.57525
0.525,0.075,22.0244,-0.549455,-4.38039,-0.878669,1.82916,1.37816,1.02826,-0.863684,4.09471,-0.912739,-0.968448,-0.549455,-4.38039,-0.878669,1.82916,1.37816,1.02826,-0.863684,4.09471,-0.912739,-0.968448
0.525,0.125,24.6518,-0.703654,-4.38448,-0.87938,0.568706,1.35147,0.612744,-0.810184,4.0122,-1.41864,0.612306,-0.703654,-4.38448,-0.87938,0.568706,1.35147,0.612744,-0.810184,4.0122,-1.41864,0.612306
0.525,0.175,24.4863,-0.831088,-4.38796,-0.872416,-0.526332,1.1475,0.180768,-0.74576,3.9348,-1.73003,2.48359,-0.831088,-4.38796,-0.872416,-0.526332,1.1475,0.180768,-0.74576,3.9348,-1.73003,2.48359
0.525,0.225,23.9894,-0.927962,-4.39084,-0.85928,-1.27956,0.795476,-0.208662,-0.689007,3.87033,-1.52165,2.99554,-0.927962,-4.39084,-0.85928,-1.27956,0.795476,-0.208662,-0.689007,3.87033,-1.52165,2.99554
0.525,0.275,23.1073,-0.99139,-4.39286,-0.841371,-1.63848,0.38487,-0.555547,-0.639924,3.81881,-1.13578,2.79024,-0.99139,-4.39286,-0.841371,-1.63848,0.38487,-0.555547,-0.639924,3.81881,-1.13578,2.79024
0.525,0.325,21.998,-1.01849,-4.3938,-0.82009,-1.63931,-0.0368838,-0.859886,-0.598512,3.78021,-0.71433,2.45886,-1.01849,-4.3938,-0.82009,-1.63931,-0.0368838,-0.859886,-0.598512,3.78021,-0.71433,2.45886
0.525,0.375,20.9113,-1.00638,-4.3934,-0.796835,-1.32436,-0.416585,-1.12168,-0.564769,3.75455,-0.269098,2.06876,-1.00638,-4.3934,-0.796835,-1.32436,-0.416585,-1.12168,-0.564769,3.75455,-0.269098,2.06876
0.525,0.425,20.1299,-0.952173,-4.39144,-0.773005,-0.727135,-0.724464,-1.34093,-0.538697,3.74183,0.197845,1.66724,-0.952173,-4.39144,-0.773005,-0.727135,-0.724464,-1.34093,-0.538697,3.74183,0.197845,1.66724
0.525,0.475,19.9618,-0.852987,-4.38767,-0.75,0.132036,-0.96439,-1.51763,-0.520295,3.74204,0.691602,1.27588,-0.852987,-4.38767,-0.75,0.132036,-0.96439,-1.51763,-0.520295,3.74204,0.691602,1.27588
0.525,0.525,20.6076,-0.706291,-4.38187,-0.729186,1.23553,-1.14963,-1.64758,-0.50935,3.75417,1.22107,0.774736,-0.706291,-4.38187,-0.729186,1.23553,-1.14963,-1.64758,-0.50935,3.75417,1.22107,0.774736
0.525,0.575,22.1256,-0.517646,-4.37431,-0.711172,2.49956,-1.22488,-1.70551,-0.504578,3.77216,1.6521,0.137489,-0.517646,-4.37431,-0.711172,2.49956,-1.22488,-1.70551,-0.504578,3.77216,1.6521,0.137489
0.525,0.625,24.4846,-0.300706,-4.36573,-0.69581,3.78322,-1.23116,-1.68723,-0.505767,3.79498,1.91829,-0.539421,-0.300706,-4.36573,-0.69581,3.78322,-1.23116,-1.68723,-0.505767,3.79498,1.91829,-0.539421
0.525,0.675,27.464,-0.0694803,-4.35688,-0.682918,4.90994,-1.16689,-1.59272,-0.512915,3.82264,1.99431,-1.25994,-0.0694803,-4.35688,-0.682918,4.90994,-1.16689,-1.59272,-0.512915,3.82264,1.99431,-1.25994
0.525,0.725,30.8076,0.162025,-4.34854,-0.672316,5.7073,-0.960803,-1.42199,-0.526023,3.85514,1.86944,-2.00759,0.162025,-4.34854,-0.672316,5.7073,-0.960803,-1.42199,-0.526023,3.85514,1.86944,-2.00759
0.525,0.775,34.2593,0.379803,-4.34145,-0.663821,6.05614,-0.512371,-1.17504,-0.545092,3.89248,1.5554,-2.74946,0.379803,-4.34145,-0.663821,6.05614,-0.512371,-1.17504,-0.545092,3.89248,1.5554,-2.74946
0.525,0.825,37.5251,0.569847,-4.33638,-0.657253,5.91107,0.207537,-0.851861,-0.57012,3.93466,1.02444,-3.01847,0.569847,-4.33638,-0.657253,5.91107,0.207537,-0.851861,-0.57012,3.93466,1.02444,-3.01847
0.525,0.875,40.1764,0.718148,-4.33409,-0.652431,5.3926,0.861544,-0.452464,-0.601109,3.98168,0.360098,-2.02783,0.718148,-4.33409,-0.652431,5.3926,0.861544,-0.452464,-0.601109,3.98168,0.360098,-2.02783
0.525,0.925,37.2331,0.811797,-4.33523,-0.649215,4.65575,1.28288,-0.0206077,-0.634982,4.02814,-0.193973,-1.11967,0.811797,-4.33523,-0.649215,4.65575,1.28288,-0.0206077,-0.634982,4.02814,-0.193973,-1.11967
0.525,0.975,32.4373,0.849704,-4.3392,-0.64794,3.78581,1.50971,0.311336,-0.662441,4.05769,-0.665699,-0.248749,0.849704,-4.3392,-0.64794,3.78581,1.50971,0.311336,-0.662441,4.05769,-0.665699,-0.248749
0.575,0.025,23.5473,-0.256378,-4.38714,-0.899961,2.14589,2.08682,1.01332,-0.85122,4.13354,-1.31038,-2.02,-0.256378,-4.38714,-0.899961,2.14589,2.08682,1.01332,-0.85122,4.13354,-1.31038,-2.02
0.575,0.075,24.2793,-0.546742,-4.37741,-0.924169,1.21033,2.47402,0.805408,-0.860192,4.08352,-2.02863,-0.849533,-0.546742,-4.37741,-0.924169,1.21033,2.47402,0.805408,-0.860192,4.08352,-2.02863,-0.849533
0.575,0.125,25.1368,-0.798845,-4.3665,-0.933848,0.296752,2.45264,0.428625,-0.80703,4.01229,-2.44777,0.45519,-0.798845,-4.3665,-0.933848,0.296752,2.45264,0.428625,-0.80703,4.01229,-2.44777,0.45519
0.575,0.175,23.7196,-0.990635,-4.35846,-0.931047,-0.441591,2.08887,0.0430266,-0.743905,3.94423,-2.49889,2.06388,-0.990635,-4.35846,-0.931047,-0.441591,2.08887,0.0430266,-0.743905,3.94423,-2.49889,2.06388
0.575,0.225,22.4553,-1.11998,-4.35315,-0.917733,-0.862078,1.41568,-0.298473,-0.688067,3.88739,-1.92702,2.43692,-1.11998,-4.35315,-0.917733,-0.862078,1.41568,-0.298473,-0.688067,3.88739,-1.92702,2.43692
0.575,0.275,21.3542,-1.18658,-4.35004,-0.895865,-0.990665,0.686068,-0.595874,-0.639514,3.84179,-1.21912,2.2021,-1.18658,-4.35004,-0.895865,-0.990665,0.686068,-0.595874,-0.639514,3.84179,-1.21912,2.2021
0.575,0.325,20.5168,-1.19016,-4.34862,-0.867403,-0.879322,-0.0231011,-0.849176,-0.598248,3.80741,-0.522217,1.90344,-1.19016,-4.34862,-0.867403,-0.879322,-0.0231011,-0.849176,-0.598248,3.80741,-0.522217,1.90344
0.575,0.375,20.0893,-1.13043,-4.34837,-0.834306,-0.566909,-0.66807,-1.05838,-0.564267,3.78427,0.163997,1.58517,-1.13043,-4.34837,-0.834306,-0.566909,-0.66807,-1.05838,-0.564267,3.78427,0.163997,1.58517
0.575,0.425,20.2415,-1.00709,-4.34876,-0.798534,-0.072269,-1.23869,-1.22348,-0.537573,3.77235,0.854586,1.25968,-1.00709,-4.34876,-0.798534,-0.072269,-1.23869,-1.22348,-0.537573,3.77235,0.854586,1.25968
0.575,0.475,21.1509,-0.819863,-4.34927,-0.762047,0.59915,-1.75344,-1.34449,-0.518164,3.77166,1.56497,0.917997,-0.819863,-4.34927,-0.762047,0.59915,-1.75344,-1.34449,-0.518164,3.77166,1.56497,0.917997
0.575,0.525,22.8657,-0.568904,-4.34941,-0.726773,1.43024,-2.21974,-1.41961,-0.505943,3.78138,2.26898,0.51796,-0.568904,-4.34941,-0.726773,1.43024,-2.21974,-1.41961,-0.505943,3.78138,2.26898,0.51796
0.575,0.575,24.8584,-0.264705,-4.34906,-0.693969,2.31755,-2.49779,-1.4381,-0.500314,3.79657,2.74472,0.0228194,-0.264705,-4.34906,-0.693969,2.31755,-2.49779,-1.4381,-0.500314,3.79657,2.74472,0.0228194
0.575,0.625,26.7363,0.0719164,-4.34852,-0.664211,3.11363,-2.56615,-1.39819,-0.50118,3.8164,2.89097,-0.51999,0.0719164,-4.34852,-0.664211,3.11363,-2.56615,-1.39819,-0.50118,3.8164,2.89097,-0.51999
0.575,0.675,28.2368,0.419692,-4.34813,-0.638049,3.67724,-2.38389,-1.29985,-0.50854,3.84088,2.69019,-1.04847,0.419692,-4.34813,-0.638049,3.67724,-2.38389,-1.29985,-0.50854,3.84088,2.69019,-1.04847
0.575,0.725,29.2667,0.757353,-4.34818,-0.616032,3.93846,-1.89307,-1.14311,-0.522393,3.87,2.19932,-1.51807,0.757353,-4.34818,-0.616032,3.93846,-1.89307,-1.14311,-0.522393,3.87,2.19932,-1.51807
0.575,0.775,29.893,1.06363,-4.349,-0.598709,3.90996,-1.07008,-0.927957,-0.542741,3.90377,1.50655,-1.93641,1.06363,-4.349,-0.598709,3.90996,-1.07008,-0.927957,-0.542741,3.90377,1.50655,-1.93641
0.575,0.825,30.2623,1.31726,-4.35091,-0.586628,3.63861,0.0325985,-0.654389,-0.569583,3.94219,0.646496,-2.05426,1.31726,-4.35091,-0.586628,3.63861,0.0325985,-0.654389,-0.569583,3.94219,0.646496,-2.05426
0.575,0.875,30.5155,1.49698,-4.35422,-0.58034,3.22774,0.976994,-0.322408,-0.602918,3.98525,-0.18927,-1.34718,1.49698,-4.35422,-0.58034,3.22774,0.976994,-0.322408,-0.602918,3.98525,-0.18927,-1.34718
0.575,0.925,28.33,1.58345,-4.35916,-0.580308,2.73856,1.62521,0.0309236,-0.639232,4.02765,-0.855396,-0.695818,1.58345,-4.35916,-0.580308,2.73856,1.62521,0.0309236,-0.639232,4.02765,-0.855396,-0.695818
0.575,0.975,25.9231,1.57832,-4.36503,-0.586087,2.18927,2.0353,0.293506,-0.66789,4.05336,-1.39945,-0.0139541,1.57832,-4.36503,-0.586087,2.18927,2.0353,0.293506,-0.66789,4.05336,-1.39945,-0.0139541
0.625,0.025,26.9927,-0.129665,-4.39504,-0.90679,1.34036,2.76146,0.663575,-0.837148,4.09598,-2.06093,-1.27357,-0.129665,-4.39504,-0.90679,1.34036,2.76146,0.663575,-0.837148,4.09598,-2.06093,-1.27357
0.625,0.075,26.6977,-0.511835,-4.37171,-0.940294,0.727089,3.31949,0.484126,-0.841948,4.06247,-2.80928,-0.63163,-0.511835,-4.37171,-0.940294,0.727089,3.31949,0.484126,-0.841948,4.06247,-2.80928,-0.63163
0.625,0.125,25.4568,-0.836488,-4.34879,-0.957145,0.149136,3.3319,0.174043,-0.791921,4.00623,-3.13275,0.23198,-0.836488,-4.34879,-0.957145,0.149136,3.3319,0.174043,-0.791921,4.00623,-3.13275,0.23198
0.625,0.175,22.8454,-1.07526,-4.33159,-0.958715,-0.251006,2.80364,-0.135989,-0.733267,3.9512,-2.92192,1.37707,-1.07526,-4.33159,-0.958715,-0.251006,2.80364,-0.135989,-0.733267,3.9512,-2.92192,1.37707
0.625,0.225,20.967,-1.22749,-4.31985,-0.947135,-0.380957,1.85616,-0.402767,-0.681259,3.90528,-2.06907,1.58689,-1.22749,-4.31985,-0.947135,-0.380957,1.85616,-0.402767,-0.681259,3.90528,-2.06907,1.58689
0.625,0.275,19.794,-1.2951,-4.31285,-0.924605,-0.327912,0.912972,-0.626291,-0.635897,3.86849,-1.15223,1.37074,-1.2951,-4.31285,-0.924605,-0.327912,0.912972,-0.626291,-0.635897,3.86849,-1.15223,1.37074
0.625,0.325,19.3271,-1.27998,-4.30981,-0.893324,-0.140808,0.0322143,-0.806561,-0.597182,3.84083,-0.289751,1.13198,-1.27998,-4.30981,-0.893324,-0.140808,0.0322143,-0.806561,-0.597182,3.84083,-0.289751,1.13198
0.625,0.375,19.6098,-1.18407,-4.31001,-0.855494,0.153246,-0.781871,-0.943576,-0.565114,3.82228,0.538973,0.882484,-1.18407,-4.31001,-0.855494,0.153246,-0.781871,-0.943576,-0.565114,3.82228,0.538973,0.882484
0.625,0.425,20.7152,-1.00925,-4.31268,-0.813314,0.542357,-1.54603,-1.03734,-0.539692,3.81286,1.36423,0.610973,-1.00925,-4.31268,-0.813314,0.542357,-1.54603,-1.03734,-0.539692,3.81286,1.36423,0.610973
0.625,0.475,22.7074,-0.757461,-4.31708,-0.768984,1.01635,-2.28332,-1.08784,-0.520916,3.81256,2.20088,0.296081,-0.757461,-4.31708,-0.768984,1.01635,-2.28332,-1.08784,-0.520916,3.81256,2.20088,0.296081
0.625,0.525,25.4604,-0.431108,-4.32247,-0.724683,1.53882,-2.96888,-1.09621,-0.508783,3.82071,2.96769,0.036485,-0.431108,-4.32247,-0.724683,1.53882,-2.96888,-1.09621,-0.508783,3.82071,2.96769,0.036485
0.625,0.575,27.8962,-0.0443854,-4.32844,-0.682094,1.99599,-3.35248,-1.06908,-0.503267,3.83332,3.37285,-0.174121,-0.0443854,-4.32844,-0.682094,1.99599,-3.35248,-1.06908,-0.503267,3.83332,3.37285,-0.174121
0.625,0.625,29.2815,0.376754,-4.33491,-0.642405,2.29009,-3.35449,-1.00759,-0.504364,3.8497,3.32869,-0.402624,0.376754,-4.33491,-0.642405,2.29009,-3.35449,-1.00759,-0.504364,3.8497,3.32869,-0.402624
0.625,0.675,29.356,0.805844,-4.34182,-0.606781,2.38158,-2.96978,-0.91172,-0.512074,3.86986,2.88071,-0.594075,0.805844,-4.34182,-0.606781,2.38158,-2.96978,-0.91172,-0.512074,3.86986,2.88071,-0.594075
0.625,0.725,28.3327,1.21642,-4.34909,-0.57639,2.3007,-2.2443,-0.781477,-0.526398,3.89379,2.16479,-0.737345,1.21642,-4.34909,-0.57639,2.3007,-2.2443,-0.781477,-0.526398,3.89379,2.16479,-0.737345
0.625,0.775,26.7347,1.58201,-4.35665,-0.552396,2.10429,-1.24247,-0.61686,-0.547335,3.92151,1.2996,-0.868187,1.58201,-4.35665,-0.552396,2.10429,-1.24247,-0.61686,-0.547335,3.92151,1.2996,-0.868187
0.625,0.825,25.132,1.87616,-4.36443,-0.535966,1.82824,-0.0227964,-0.417869,-0.574885,3.95301,0.316045,-0.888314,1.87616,-4.36443,-0.535966,1.82824,-0.0227964,-0.417869,-0.574885,3.95301,0.316045,-0.888314
0.625,0.875,24.0044,2.0724,-4.37237,-0.528266,1.51912,1.01595,-0.184504,-0.609048,3.98828,-0.568104,-0.50169,2.0724,-4.37237,-0.528266,1.51912,1.01595,-0.184504,-0.609048,3.98828,-0.568104,-0.50169
0.625,0.925,22.7851,2.14686,-4.38034,-0.530277,1.19051,1.77265,0.0561547,-0.64599,4.02263,-1.27668,-0.112531,2.14686,-4.38034,-0.530277,1.19051,1.77265,0.0561547,-0.64599,4.02263,-1.27668,-0.112531
0.625,0.975,22.3717,2.10371,-4.38757,-0.540994,0.847502,2.28936,0.222197,-0.674113,4.04181,-1.84824,0.349618,2.10371,-4.38757,-0.540994,0.847502,2.28936,0.222197,-0.674113,4.04181,-1.84824,0.349618
0.675,0.025,30.1117,-0.00198549,-4.397,-0.888125,0.688185,3.08778,0.232571,-0.810956,4.05091,-2.50568,-0.348995,-0.00198549,-4.397,-0.888125,0.688185,3.08778,0.232571,-0.810956,4.05091,-2.50568,-0.348995
0.675,0.075,28.6882,-0.444733,-4.3633,-0.927045,0.399891,3.7781,0.0932771,-0.812151,4.03442,-3.25641,-0.294656,-0.444733,-4.3633,-0.927045,0.399891,3.7781,0.0932771,-0.812151,4.03442,-3.25641,-0.294656
0.675,0.125,25.5133,-0.816583,-4.33134,-0.949271,0.169586,3.8369,-0.129597,-0.767536,3.99478,-3.47606,-0.0394507,-0.816583,-4.33134,-0.949271,0.169586,3.8369,-0.129597,-0.767536,3.99478,-3.47606,-0.0394507
0.675,0.175,22.0301,-1.08496,-4.30733,-0.95542,0.0933113,3.21549,-0.342869,-0.715902,3.9546,-3.03372,0.474674,-1.08496,-4.30733,-0.95542,0.0933113,3.21549,-0.342869,-0.715902,3.9546,-3.03372,0.474674
0.675,0.225,19.8155,-1.2505,-4.29095,-0.947486,0.2018,2.12023,-0.515734,-0.670073,3.92135,-2.00217,0.550237,-1.2505,-4.29095,-0.947486,0.2018,2.12023,-0.515734,-0.670073,3.92135,-2.00217,0.550237
0.675,0.275,18.7292,-1.31693,-4.28127,-0.92759,0.382761,1.07856,-0.648192,-0.630049,3.89504,-0.982592,0.405566,-1.31693,-4.28127,-0.92759,0.382761,1.07856,-0.648192,-0.630049,3.89504,-0.982592,0.405566
0.675,0.325,18.6558,-1.28795,-4.27736,-0.897854,0.606343,0.117042,-0.740242,-0.595831,3.87566,-0.0454254,0.238847,-1.28795,-4.27736,-0.897854,0.606343,0.117042,-0.740242,-0.595831,3.87566,-0.0454254,0.238847
0.675,0.375,19.5441,-1.16729,-4.27831,-0.860398,0.857814,-0.78726,-0.791884,-0.567417,3.86322,0.843284,0.0407396,-1.16729,-4.27831,-0.860398,0.857814,-0.78726,-0.791884,-0.567417,3.86322,0.843284,0.0407396
0.675,0.425,21.3842,-0.958664,-4.28319,-0.817343,1.12272,-1.65936,-0.80312,-0.54481,3.85771,1.71598,-0.20252,-0.958664,-4.28319,-0.817343,1.12272,-1.65936,-0.80312,-0.54481,3.85771,1.71598,-0.20252
0.675,0.475,24.1441,-0.665782,-4.29108,-0.770812,1.37463,-2.50706,-0.773947,-0.528007,3.85914,2.57397,-0.497673,-0.665782,-4.29108,-0.770812,1.37463,-2.50706,-0.773947,-0.528007,3.85914,2.57397,-0.497673
0.675,0.525,27.4955,-0.292904,-4.30105,-0.722915,1.55902,-3.26211,-0.708647,-0.517081,3.86693,3.28039,-0.553047,-0.292904,-4.30105,-0.722915,1.55902,-3.26211,-0.708647,-0.517081,3.86693,3.28039,-0.553047
0.675,0.575,30.0012,0.143313,-4.31246,-0.675549,1.58746,-3.62729,-0.632899,-0.512459,3.87765,3.53316,-0.344715,0.143313,-4.31246,-0.675549,1.58746,-3.62729,-0.632899,-0.512459,3.87765,3.53316,-0.344715
0.675,0.625,30.7936,0.613807,-4.3249,-0.630392,1.45373,-3.54135,-0.550981,-0.514213,3.89072,3.31597,-0.145837,0.613807,-4.3249,-0.630392,1.45373,-3.54135,-0.550981,-0.514213,3.89072,3.31597,-0.145837
0.675,0.675,29.7535,1.08898,-4.33796,-0.589116,1.21286,-3.06077,-0.462895,-0.522342,3.90613,2.73436,0.029041,1.08898,-4.33796,-0.589116,1.21286,-3.06077,-0.462895,-0.522342,3.90613,2.73436,0.029041
0.675,0.725,27.4435,1.53922,-4.35125,-0.553389,0.932372,-2.27739,-0.368639,-0.536848,3.9239,1.94421,0.167698,1.53922,-4.35125,-0.553389,0.932372,-2.27739,-0.368639,-0.536848,3.9239,1.94421,0.167698
0.675,0.775,24.7119,1.93495,-4.36438,-0.524882,0.650959,-1.25672,-0.268215,-0.557728,3.94402,1.04086,0.266717,1.93495,-4.36438,-0.524882,0.650959,-1.25672,-0.268215,-0.557728,3.94402,1.04086,0.266717
0.675,0.825,22.3013,2.24655,-4.37694,-0.505265,0.369209,-0.0249358,-0.161621,-0.584985,3.9665,0.0304352,0.327825,2.24655,-4.37694,-0.505265,0.369209,-0.0249358,-0.161621,-0.584985,3.9665,0.0304352,0.327825
0.675,0.875,20.7562,2.44442,-4.38855,-0.496208,0.100658,1.04092,-0.0488592,-0.618616,3.99132,-0.851785,0.40658,2.44442,-4.38855,-0.496208,0.100658,1.04092,-0.0488592,-0.618616,3.99132,-0.851785,0.40658
0.675,0.925,20.391,2.50204,-4.39876,-0.499125,-0.150284,1.83125,0.0554157,-0.654589,4.01476,-1.56043,0.541522,2.50204,-4.39876,-0.499125,-0.150284,1.83125,0.0554157,-0.654589,4.01476,-1.56043,0.541522
0.675,0.975,21.241,2.42589,-4.40681,-0.512663,-0.363947,2.35744,0.106871,-0.680698,4.02551,-2.10644,0.752549,2.42589,-4.40681,-0.512663,-0.363947,2.35744,0.106871,-0.680698,4.02551,-2.10644,0.752549
0.725,0.025,31.9228,0.12666,-4.39303,-0.843964,0.162314,2.98324,-0.246686,-0.775797,4.00322,-2.6382,0.64671,0.12666,-4.39303,-0.843964,0.162314,2.98324,-0.246686,-0.775797,4.00322,-2.6382,0.64671
0.725,0.075,29.6842,-0.345436,-4.35217,-0.884421,0.232744,3.69021,-0.33827,-0.773999,4.00221,-3.34362,0.116944,-0.345436,-4.35217,-0.884421,0.232744,3.69021,-0.33827,-0.773999,4.00221,-3.34362,0.116944
0.725,0.125,25.293,-0.739129,-4.31415,-0.910226,0.380995,3.80402,-0.46089,-0.736552,3.97869,-3.46699,-0.292132,-0.739129,-4.31415,-0.910226,0.380995,3.80402,-0.46089,-0.736552,3.97869,-3.46699,-0.292132
0.725,0.175,21.489,-1.01974,-4.2857,-0.921162,0.619239,3.25005,-0.564202,-0.693867,3.95332,-2.872,-0.478101,-1.01974,-4.2857,-0.921162,0.619239,3.25005,-0.564202,-0.693867,3.95332,-2.872,-0.478101
0.725,0.225,19.2858,-1.18902,-4.26643,-0.918786,0.918,2.20478,-0.631561,-0.655998,3.93293,-1.78107,-0.528201,-1.18902,-4.26643,-0.918786,0.918,2.20478,-0.631561,-0.655998,3.93293,-1.78107,-0.528201
0.725,0.275,18.4232,-1.25209,-4.25531,-0.904822,1.17933,1.18859,-0.662966,-0.622945,3.91754,-0.756176,-0.595685,-1.25209,-4.25531,-0.904822,1.17933,1.18859,-0.662966,-0.622945,3.91754,-0.756176,-0.595685
0.725,0.325,18.6849,-1.21408,-4.25127,-0.880991,1.39895,0.226419,-0.658419,-0.594708,3.90713,0.176841,-0.700937,-1.21408,-4.25127,-0.880991,1.39895,0.226419,-0.658419,-0.594708,3.90713,0.176841,-0.700937
0.725,0.375,19.9407,-1.08011,-4.25328,-0.849017,1.57078,-0.693243,-0.617918,-0.571287,3.90171,1.04892,-0.859385,-1.08011,-4.25328,-0.849017,1.57078,-0.693243,-0.617918,-0.571287,3.90171,1.04892,-0.859385
0.725,0.425,22.1098,-0.85532,-4.2603,-0.810623,1.67311,-1.57178,-0.541464,-0.552682,3.90127,1.87992,-1.06975,-0.85532,-4.2603,-0.810623,1.67311,-1.57178,-0.541464,-0.552682,3.90127,1.87992,-1.06975
0.725,0.475,25.0769,-0.544827,-4.27127,-0.76753,1.66606,-2.38294,-0.429057,-0.538894,3.90582,2.65288,-1.30583,-0.544827,-4.27127,-0.76753,1.66606,-2.38294,-0.429057,-0.538894,3.90582,2.65288,-1.30583
0.725,0.525,28.2923,-0.15429,-4.28517,-0.72147,1.49664,-3.03646,-0.288208,-0.530049,3.9148,3.19987,-1.09436,-0.15429,-4.28517,-0.72147,1.49664,-3.03646,-0.288208,-0.530049,3.9148,3.19987,-1.09436
0.725,0.575,30.3145,0.29839,-4.30112,-0.674333,1.13286,-3.30995,-0.163987,-0.526916,3.92481,3.27873,-0.449028,0.29839,-4.30112,-0.674333,1.13286,-3.30995,-0.163987,-0.526916,3.92481,3.27873,-0.449028
0.725,0.625,30.4825,0.783074,-4.31847,-0.628173,0.652544,-3.21621,-0.0639052,-0.529622,3.9353,2.96001,0.143335,0.783074,-4.31847,-0.628173,0.652544,-3.21621,-0.0639052,-0.529622,3.9353,2.96001,0.143335
0.725,0.675,28.8845,1.26909,-4.33654,-0.585052,0.158437,-2.81435,0.0120377,-0.538167,3.94627,2.36046,0.635907,1.26909,-4.33654,-0.585052,0.158437,-2.81435,0.0120377,-0.538167,3.94627,2.36046,0.635907
0.725,0.725,26.2588,1.72577,-4.35467,-0.54703,-0.284542,-2.1429,0.0638415,-0.552552,3.95771,1.60003,1.0322,1.72577,-4.35467,-0.54703,-0.284542,-2.1429,0.0638415,-0.552552,3.95771,1.60003,1.0322
0.725,0.775,23.4944,2.12243,-4.37219,-0.516168,-0.663818,-1.20902,0.0915063,-0.572777,3.96963,0.729608,1.37274,2.12243,-4.37219,-0.516168,-0.663818,-1.20902,0.0915063,-0.572777,3.96963,0.729608,1.37274
0.725,0.825,21.2789,2.42842,-4.38844,-0.494527,-1.00179,-0.00738384,0.0950319,-0.598841,3.98203,-0.262241,1.5499,2.42842,-4.38844,-0.494527,-1.00179,-0.00738384,0.0950319,-0.598841,3.98203,-0.262241,1.5499
0.725,0.875,20.0823,2.61304,-4.40274,-0.484167,-1.28747,1.05339,0.0744184,-0.630744,3.9949,-1.10582,1.3257,2.61304,-4.40274,-0.484167,-1.28747,1.05339,0.0744184,-0.630744,3.9949,-1.10582,1.3257
0.725,0.925,20.3114,2.64897,-4.41443,-0.48685,-1.50154,1.80724,0.0290371,-0.664364,4.00574,-1.76297,1.17869,2.64897,-4.41443,-0.48685,-1.50154,1.80724,0.0290371,-0.664364,4.00574,-1.76297,1.17869
0.725,0.975,21.6952,2.54485,-4.42276,-0.501093,-1.59675,2.2342,-0.0430137,-0.687235,4.00695,-2.20533,1.08005,2.54485,-4.42276,-0.501093,-1.59675,2.2342,-0.0430137,-0.687235,4.00695,-2.20533,1.08005
0.775,0.025,31.7143,0.256271,-4.38311,-0.774307,-0.275636,2.4302,-0.741192,-0.734824,3.95784,-2.42051,1.57052,0.256271,-4.38311,-0.774307,-0.275636,2.4302,-0.741192,-0.734824,3.95784,-2.42051,1.57052
0.775,0.075,29.3294,-0.213945,-4.33833,-0.812422,0.207568,3.0512,-0.781646,-0.730691,3.96869,-3.02376,0.53193,-0.213945,-4.33833,-0.812422,0.207568,3.0512,-0.781646,-0.730691,3.96869,-3.02376,0.53193
0.775,0.125,24.8836,-0.604127,-4.29722,-0.84001,0.774071,3.22794,-0.798433,-0.701646,3.9587,-3.08593,-0.430734,-0.604127,-4.29722,-0.84001,0.774071,3.22794,-0.798433,-0.701646,3.9587,-3.08593,-0.430734
0.775,0.175,21.4594,-0.879595,-4.2667,-0.85594,1.32897,2.89439,-0.786578,-0.669218,3.94624,-2.46573,-1.26038,-0.879595,-4.2667,-0.85594,1.32897,2.89439,-0.786578,-0.669218,3.94624,-2.46573,-1.26038
0.775,0.225,19.6314,-1.04303,-4.24631,-0.861035,1.7867,2.09309,-0.744436,-0.640522,3.93738,-1.44896,-1.48666,-1.04303,-4.24631,-0.861035,1.7867,2.09309,-0.744436,-0.640522,3.93738,-1.44896,-1.48666
0.775,0.275,19.0759,-1.10056,-4.23497,-0.856299,2.09102,1.23023,-0.672007,-0.615559,3.93211,-0.514966,-1.53529,-1.10056,-4.23497,-0.856299,2.09102,1.23023,-0.672007,-0.615559,3.93211,-0.514966,-1.53529
0.775,0.325,19.5289,-1.05835,-4.23154,-0.842737,2.26213,0.357808,-0.569292,-0.594329,3.93044,0.333926,-1.61184,-1.05835,-4.23154,-0.842737,2.26213,0.357808,-0.569292,-0.594329,3.93044,0.333926,-1.61184
0.775,0.375,20.8173,-0.922522,-4.23492,-0.821353,2.30173,-0.489501,-0.436291,-0.576831,3.93237,1.10925,-1.72885,-0.922522,-4.23492,-0.821353,2.30173,-0.489501,-0.436291,-0.576831,3.93237,1.10925,-1.72885
0.775,0.425,22.8102,-0.699223,-4.244,-0.793152,2.18751,-1.26683,-0.273003,-0.563065,3.93789,1.81042,-1.86671,-0.699223,-4.244,-0.793152,2.18751,-1.26683,-0.273003,-0.563065,3.93789,1.81042,-1.86671
0.775,0.475,25.3366,-0.394595,-4.25767,-0.759139,1.88373,-1.91874,-0.0794282,-0.553032,3.94701,2.41006,-1.97739,-0.394595,-4.25767,-0.759139,1.88373,-1.91874,-0.0794282,-0.553032,3.94701,2.41006,-1.97739
0.775,0.525,27.6594,-0.0152681,-4.27481,-0.720346,1.36214,-2.38074,0.133836,-0.546898,3.95906,2.7444,-1.49114,-0.0152681,-4.27481,-0.720346,1.36214,-2.38074,0.133836,-0.546898,3.95906,2.7444,-1.49114
0.775,0.575,28.755,0.420846,-4.29442,-0.678445,0.650455,-2.57145,0.30321,-0.54566,3.97005,2.67137,-0.522725,0.420846,-4.29442,-0.678445,0.650455,-2.57145,0.30321,-0.54566,3.97005,2.67137,-0.522725
0.775,0.625,28.452,0.884557,-4.31564,-0.635747,-0.131514,-2.55194,0.418096,-0.549485,3.9793,2.32055,0.333121,0.884557,-4.31564,-0.635747,-0.131514,-2.55194,0.418096,-0.549485,3.9793,2.32055,0.333121
0.775,0.675,26.957,1.34619,-4.33757,-0.59459,-0.875047,-2.33582,0.478496,-0.558373,3.98682,1.7773,1.07402,1.34619,-4.33757,-0.59459,-0.875047,-2.33582,0.478496,-0.558373,3.98682,1.7773,1.07402
0.775,0.725,24.9192,1.77605,-4.35935,-0.557312,-1.52525,-1.87778,0.484408,-0.572323,3.9926,1.10379,1.73944,1.77605,-4.35935,-0.557312,-1.52525,-1.87778,0.484408,-0.572323,3.9926,1.10379,1.73944
0.775,0.775,23.0281,2.14447,-4.38009,-0.526253,-2.07735,-1.10731,0.435832,-0.591336,3.99666,0.306683,2.38901,2.14447,-4.38009,-0.526253,-2.07735,-1.10731,0.435832,-0.591336,3.99666,0.306683,2.38901
0.775,0.825,21.7909,2.42177,-4.39892,-0.50375,-2.55005,0.0137197,0.33277,-0.615411,3.99898,-0.62639,2.74727,2.42177,-4.39892,-0.50375,-2.55005,0.0137197,0.33277,-0.615411,3.99898,-0.62639,2.74727
0.775,0.875,21.5587,2.57826,-4.41496,-0.492143,-2.8957,1.00598,0.17522,-0.644549,3.99956,-1.36575,2.19469,2.57826,-4.41496,-0.492143,-2.8957,1.00598,0.17522,-0.644549,3.99956,-1.36575,2.19469
0.775,0.925,22.0811,2.58768,-4.42735,-0.493452,-3.05858,1.61996,-0.022651,-0.67465,3.99726,-1.87797,1.69504,2.58768,-4.42735,-0.493452,-3.05858,1.61996,-0.022651,-0.67465,3.99726,-1.87797,1.69504
0.775,0.975,23.3474,2.46059,-4.43541,-0.506283,-2.96727,1.8358,-0.217997,-0.693312,3.98859,-2.09925,1.22147,2.46059,-4.43541,-0.506283,-2.96727,1.8358,-0.217997,-0.693312,3.98859,-2.09925,1.22147
0.825,0.025,29.499,0.386849,-4.36726,-0.679155,-0.806292,1.50955,-1.21794,-0.69119,3.91965,-1.81082,2.34226,0.386849,-4.36726,-0.679155,-0.806292,1.50955,-1.21794,-0.69119,3.91965,-1.81082,2.34226
0.825,0.075,27.7429,-0.0502587,-4.32178,-0.711048,0.0419741,2.0164,-1.20799,-0.685424,3.93669,-2.25755,0.911192,-0.0502587,-4.32178,-0.711048,0.0419741,2.0164,-1.20799,-0.685424,3.93669,-2.25755,0.911192
0.825,0.125,24.5228,-0.411576,-4.28056,-0.738624,0.992042,2.23649,-1.12082,-0.665497,3.93557,-2.31357,-0.407093,-0.411576,-4.28056,-0.738624,0.992042,2.23649,-1.12082,-0.665497,3.93557,-2.31357,-0.407093
0.825,0.175,22.1662,-0.664527,-4.25031,-0.759756,1.8504,2.14876,-0.996585,-0.644013,3.93226,-1.82446,-1.7229,-0.664527,-4.25031,-0.759756,1.8504,2.14876,-0.996585,-0.644013,3.93226,-1.82446,-1.7229
0.825,0.225,21.0163,-0.812536,-4.23058,-0.774233,2.46385,1.69542,-0.848547,-0.625136,3.93203,-1.02952,-2.18139,-0.812536,-4.23058,-0.774233,2.46385,1.69542,-0.848547,-0.625136,3.93203,-1.02952,-2.18139
0.825,0.275,20.7739,-0.862364,-4.22025,-0.782022,2.80795,1.11189,-0.676706,-0.608868,3.93488,-0.294475,-2.29896,-0.862364,-4.22025,-0.782022,2.80795,1.11189,-0.676706,-0.608868,3.93488,-0.294475,-2.29896
0.825,0.325,21.2072,-0.820772,-4.21817,-0.78309,2.91909,0.458304,-0.481062,-0.595208,3.94081,0.377416,-2.39199,-0.820772,-4.21817,-0.78309,2.91909,0.458304,-0.481062,-0.595208,3.94081,0.377416,-2.39199
0.825,0.375,22.1535,-0.694521,-4.22323,-0.777404,2.81413,-0.191406,-0.261616,-0.584157,3.94984,0.971362,-2.46252,-0.694521,-4.22323,-0.777404,2.81413,-0.191406,-0.261616,-0.584157,3.94984,0.971362,-2.46252
0.825,0.425,23.4754,-0.490372,-4.2343,-0.764931,2.49069,-0.758633,-0.0183675,-0.575714,3.96194,1.46867,-2.48865,-0.490372,-4.2343,-0.764931,2.49069,-0.758633,-0.0183675,-0.575714,3.96194,1.46867,-2.48865
0.825,0.475,25.0185,-0.215086,-4.25026,-0.745638,1.94122,-1.18627,0.248683,-0.569879,3.97713,1.84313,-2.43988,-0.215086,-4.25026,-0.745638,1.94122,-1.18627,0.248683,-0.569879,3.97713,1.84313,-2.43988
0.825,0.525,25.9562,0.124163,-4.26997,-0.719545,1.17135,-1.45718,0.52621,-0.56684,3.9945,1.95593,-1.74619,0.124163,-4.26997,-0.719545,1.17135,-1.45718,0.52621,-0.56684,3.9945,1.95593,-1.74619
0.825,0.575,25.9785,0.510681,-4.29236,-0.687887,0.24155,-1.59155,0.734251,-0.567717,4.00861,1.76174,-0.61301,0.510681,-4.29236,-0.687887,0.24155,-1.59155,0.734251,-0.567717,4.00861,1.76174,-0.61301
0.825,0.625,25.4708,0.918255,-4.3164,-0.653114,-0.737517,-1.64243,0.85948,-0.572697,4.01855,1.40967,0.373071,0.918255,-4.3164,-0.653114,-0.737517,-1.64243,0.85948,-0.572697,4.01855,1.40967,0.373071
0.825,0.675,24.6064,1.32026,-4.34105,-0.61773,-1.67841,-1.58725,0.901896,-0.581781,4.02434,0.943043,1.2899,1.32026,-4.34105,-0.61773,-1.67841,-1.58725,0.901896,-0.581781,4.02434,0.943043,1.2899
0.825,0.725,23.7921,1.69007,-4.36529,-0.584237,-2.52968,-1.34129,0.861501,-0.594969,4.02596,0.376038,2.22409,1.69007,-4.36529,-0.584237,-2.52968,-1.34129,0.861501,-0.594969,4.02596,0.376038,2.22409
0.825,0.775,23.4266,2.00106,-4.38809,-0.555138,-3.26424,-0.791242,0.738292,-0.61226,4.02341,-0.313563,3.24065,2.00106,-4.38809,-0.555138,-3.26424,-0.791242,0.738292,-0.61226,4.02341,-0.313563,3.24065
0.825,0.825,23.7989,2.2266,-4.4084,-0.532936,-3.85127,0.114201,0.532272,-0.633654,4.01671,-1.11044,3.82332,2.2266,-4.4084,-0.532936,-3.85127,0.114201,0.532272,-0.633654,4.01671,-1.11044,3.82332
0.825,0.875,25.1176,2.34007,-4.42521,-0.520135,-4.16735,0.855483,0.243439,-0.659152,4.00584,-1.60548,2.88478,2.34007,-4.42521,-0.520135,-4.16735,0.855483,0.243439,-0.659152,4.00584,-1.60548,2.88478
0.825,0.925,25.7357,2.31814,-4.43751,-0.518933,-4.13822,1.16902,-0.0993182,-0.68478,3.99102,-1.81288,1.96456,2.31814,-4.43751,-0.518933,-4.13822,1.16902,-0.0993182,-0.68478,3.99102,-1.81288,1.96456
0.825,0.975,26.2862,2.17311,-4.44477,-0.528235,-3.73888,1.10325,-0.408619,-0.698517,3.9729,-1.67421,1.11382,2.17311,-4.44477,-0.528235,-3.73888,1.10325,-0.408619,-0.698517,3.9729,-1.67421,1.11382
0.875,0.025,26.0848,0.518392,-4.34546,-0.558508,-1.83964,0.544449,-1.64394,-0.648047,3.89356,-1.08022,2.94118,0.518392,-4.34546,-0.558508,-1.83964,0.544449,-1.64394,-0.648047,3.89356,-1.08022,2.94118
0.875,0.075,25.5931,0.145622,-4.30251,-0.580299,-0.943643,0.922411,-1.58842,-0.641398,3.90908,-1.27048,1.22016,0.145622,-4.30251,-0.580299,-0.943643,0.922411,-1.58842,-0.641398,3.90908,-1.27048,1.22016
0.875,0.125,24.6032,-0.161477,-4.26415,-0.606067,0.159712,1.11419,-1.40665,-0.630782,3.91005,-1.27829,-0.300178,-0.161477,-4.26415,-0.606067,0.159712,1.11419,-1.40665,-0.630782,3.91005,-1.27829,-0.300178
0.875,0.175,23.7558,-0.374537,-4.23655,-0.632608,1.23109,1.1463,-1.18081,-0.620307,3.91025,-0.961877,-1.90207,-0.374537,-4.23655,-0.632608,1.23109,1.1463,-1.18081,-0.620307,3.91025,-0.961877,-1.90207
0.875,0.225,23.4353,-0.497544,-4.21925,-0.65838,2.03586,0.977206,-0.938082,-0.611328,3.91422,-0.478299,-2.55248,-0.497544,-4.21925,-0.65838,2.03586,0.977206,-0.938082,-0.611328,3.91422,-0.478299,-2.55248
0.875,0.275,23.4339,-0.537486,-4.21115,-0.681991,2.50938,0.709004,-0.678453,-0.603846,3.92195,-0.0269076,-2.76996,-0.537486,-4.21115,-0.681991,2.50938,0.709004,-0.678453,-0.603846,3.92195,-0.0269076,-2.76996
0.875,0.325,23.6121,-0.501346,-4.21116,-0.702052,2.68352,0.370655,-0.401929,-0.597862,3.93345,0.392154,-2.90621,-0.501346,-4.21116,-0.702052,2.68352,0.370655,-0.401929,-0.597862,3.93345,0.392154,-2.90621
0.875,0.375,23.8732,-0.396111,-4.21821,-0.717172,2.58864,0.0203641,-0.108508,-0.593375,3.94873,0.750476,-2.94188,-0.396111,-4.21821,-0.717172,2.58864,0.0203641,-0.108508,-0.593375,3.94873,0.750476,-2.94188
0.875,0.425,24.148,-0.228767,-4.2312,-0.725961,2.25127,-0.277249,0.201809,-0.590384,3.96777,1.02181,-2.86611,-0.228767,-4.2312,-0.725961,2.25127,-0.277249,0.201809,-0.590384,3.96777,1.02181,-2.86611
0.875,0.475,24.4038,-0.00629975,-4.24905,-0.727028,1.69861,-0.483516,0.529022,-0.588891,3.99058,1.18394,-2.68802,-0.00629975,-4.24905,-0.727028,1.69861,-0.483516,0.529022,-0.588891,3.99058,1.18394,-2.68802
0.875,0.525,23.8401,0.264003,-4.27066,-0.719067,0.964891,-0.600712,0.857638,-0.589085,4.01585,1.11923,-1.87844,0.264003,-4.27066,-0.719067,0.964891,-0.600712,0.857638,-0.589085,4.01585,1.11923,-1.87844
0.875,0.575,22.9143,0.567894,-4.29494,-0.702658,0.122302,-0.669696,1.0947,-0.592109,4.03573,0.842758,-0.683929,0.567894,-4.29494,-0.702658,0.122302,-0.669696,1.0947,-0.592109,4.03573,0.842758,-0.683929
0.875,0.625,22.4674,0.884167,-4.32076,-0.680275,-0.743993,-0.708117,1.2247,-0.598153,4.04891,0.496051,0.359975,0.884167,-4.32076,-0.680275,-0.743993,-0.708117,1.2247,-0.598153,4.04891,0.496051,0.359975
0.875,0.675,22.5493,1.19132,-4.34698,-0.654472,-1.56675,-0.684263,1.24766,-0.607217,4.05538,0.0972679,1.3903,1.19132,-4.34698,-0.654472,-1.56675,-0.684263,1.24766,-0.607217,4.05538,0.0972679,1.3903
0.875,0.725,23.3198,1.46783,-4.37249,-0.627802,-2.28886,-0.533726,1.16356,-0.6193,4.05516,-0.356435,2.53122,1.46783,-4.37249,-0.627802,-2.28886,-0.533726,1.16356,-0.6193,4.05516,-0.356435,2.53122
0.875,0.775,24.9356,1.6922,-4.39616,-0.602822,-2.84928,-0.181721,0.972415,-0.634404,4.04823,-0.886443,3.84562,1.6922,-4.39616,-0.602822,-2.84928,-0.181721,0.972415,-0.634404,4.04823,-0.886443,3.84562
0.875,0.825,27.5188,1.84292,-4.41686,-0.582084,-3.16404,0.377249,0.674216,-0.652528,4.0346,-1.43057,4.56705,1.84292,-4.41686,-0.582084,-3.16404,0.377249,0.674216,-0.652528,4.0346,-1.43057,4.56705
0.875,0.875,31.1081,1.89848,-4.43347,-0.568144,-3.12618,0.739282,0.268966,-0.673672,4.01427,-1.5741,3.23312,1.89848,-4.43347,-0.568144,-3.12618,0.739282,0.268966,-0.673672,4.01427,-1.5741,3.23312
0.875,0.925,31.7713,1.84037,-4.44492,-0.563291,-2.76774,0.777191,-0.200634,-0.694088,3.98871,-1.45141,1.95491,1.84037,-4.44492,-0.563291,-2.76774,0.777191,-0.200634,-0.694088,3.98871,-1.45141,1.95491
0.875,0.975,30.9521,1.68242,-4.45083,-0.566948,-2.18851,0.571312,-0.605421,-0.70244,3.96236,-1.04312,0.828786,1.68242,-4.45083,-0.566948,-2.18851,0.571312,-0.605421,-0.70244,3.96236,-1.04312,0.828786
0.925,0.025,22.1787,0.6321,-4.32252,-0.435923,-2.99393,-0.426101,-1.98702,-0.60866,3.88407,-0.3627,3.34873,0.6321,-4.32252,-0.435923,-2.99393,-0.426101,-1.98702,-0.60866,3.88407,-0.3627,3.34873
0.925,0.075,22.8015,0.351601,-4.28568,-0.444713,-2.0481,-0.166867,-1.89474,-0.601865,3.88864,-0.185956,1.46053,0.351601,-4.28568,-0.444713,-2.0481,-0.166867,-1.89474,-0.601865,3.88864,-0.185956,1.46053
0.925,0.125,23.8855,0.121648,-4.25334,-0.466435,-0.805571,0.0136167,-1.63496,-0.600215,3.88313,-0.060761,-0.169745,0.121648,-4.25334,-0.466435,-0.805571,0.0136167,-1.63496,-0.600215,3.88313,-0.060761,-0.169745
0.925,0.175,24.2898,-0.035587,-4.23089,-0.49703,0.458607,0.129626,-1.32606,-0.600182,3.87958,0.111975,-1.89845,-0.035587,-4.23089,-0.49703,0.458607,0.129626,-1.32606,-0.600182,3.87958,0.111975,-1.89845
0.925,0.225,24.7113,-0.124363,-4.21786,-0.533536,1.44521,0.186898,-1.00718,-0.600598,3.88195,0.237239,-2.64105,-0.124363,-4.21786,-0.533536,1.44521,0.186898,-1.00718,-0.600598,3.88195,0.237239,-2.64105
0.925,0.275,24.9775,-0.15139,-4.21323,-0.573092,2.04935,0.211654,-0.678302,-0.601464,3.89024,0.345464,-2.92068,-0.15139,-4.21323,-0.573092,2.04935,0.211654,-0.678302,-0.601464,3.89024,0.345464,-2.92068
0.925,0.325,25.0001,-0.123378,-4.21602,-0.612836,2.30534,0.206525,-0.339442,-0.60278,3.90446,0.456863,-3.0937,-0.123378,-4.21602,-0.612836,2.30534,0.206525,-0.339442,-0.60278,3.90446,0.456863,-3.0937
0.925,0.375,24.7509,-0.0470373,-4.2252,-0.649907,2.25615,0.18361,0.00940597,-0.604546,3.9246,0.544627,-3.12275,-0.0470373,-4.2252,-0.649907,2.25615,0.18361,0.00940597,-0.604546,3.9246,0.544627,-3.12275
0.925,0.425,24.2598,0.0709229,-4.23978,-0.681443,1.94918,0.158672,0.36824,-0.606761,3.95066,0.583907,-3.00391,0.0709229,-4.23978,-0.681443,1.94918,0.158672,0.36824,-0.606761,3.95066,0.583907,-3.00391
0.925,0.475,23.6283,0.223792,-4.25876,-0.704585,1.43373,0.141752,0.737062,-0.609426,3.98265,0.554331,-2.77079,0.223792,-4.25876,-0.704585,1.43373,0.141752,0.737062,-0.609426,3.98265,0.554331,-2.77079
0.925,0.525,22.0726,0.404691,-4.28112,-0.716582,0.760982,0.130153,1.09896,-0.61272,4.01867,0.352951,-1.92989,0.404691,-4.28112,-0.716582,0.760982,0.130153,1.09896,-0.61272,4.01867,0.352951,-1.92989
0.925,0.575,20.5597,0.602837,-4.30579,-0.717254,0.0116172,0.0993778,1.35251,-0.617715,4.04734,0.0281703,-0.728937,0.602837,-4.30579,-0.717254,0.0116172,0.0993778,1.35251,-0.617715,4.04734,0.0281703,-0.728937
0.925,0.625,20.1973,0.803545,-4.33168,-0.70899,-0.737188,0.067717,1.48079,-0.62459,4.06678,-0.295289,0.342104,0.803545,-4.33168,-0.70899,-0.737188,0.067717,1.48079,-0.62459,4.06678,-0.295289,0.342104
0.925,0.675,20.8991,0.99196,-4.35764,-0.694291,-1.41628,0.0671352,1.48382,-0.633346,4.07698,-0.606666,1.4417,0.99196,-4.35764,-0.694291,-1.41628,0.0671352,1.48382,-0.633346,4.07698,-0.606666,1.4417
0.925,0.725,22.6587,1.15323,-4.38257,-0.675657,-1.95094,0.12726,1.36157,-0.643981,4.07795,-0.904243,2.70261,1.15323,-4.38257,-0.675657,-1.95094,0.12726,1.36157,-0.643981,4.07795,-0.904243,2.70261
0.925,0.775,25.5375,1.27249,-4.40535,-0.655589,-2.25269,0.2621,1.11407,-0.656497,4.06968,-1.19341,4.16788,1.27249,-4.40535,-0.655589,-2.25269,0.2621,1.11407,-0.656497,4.06968,-1.19341,4.16788
0.925,0.825,29.6184,1.33489,-4.42484,-0.636588,-2.21746,0.440242,0.741307,-0.670893,4.05218,-1.38723,4.90371,1.33489,-4.42484,-0.636588,-2.21746,0.440242,0.741307,-0.670893,4.05218,-1.38723,4.90371
0.925,0.875,34.7681,1.32558,-4.43994,-0.621154,-1.82399,0.491688,0.24328,-0.687169,4.02544,-1.19856,3.30348,1.32558,-4.43994,-0.621154,-1.82399,0.491688,0.24328,-0.687169,4.02544,-1.19856,3.30348
0.925,0.925,34.8137,1.23222,-4.44958,-0.611592,-1.21943,0.412302,-0.325231,-0.701883,3.99195,-0.875084,1.83105,1.23222,-4.44958,-0.611592,-1.21943,0.412302,-0.325231,-0.701883,3.99195,-0.875084,1.83105
0.925,0.975,32.0912,1.06954,-4.45347,-0.608083,-0.572739,0.22175,-0.798533,-0.704626,3.95924,-0.405521,0.533945,1.06954,-4.45347,-0.608083,-0.572739,0.22175,-0.798533,-0.704626,3.95924,-0.405521,0.533945
0.975,0.025,19.3566,0.671103,-4.31295,-0.382656,-4.06118,-1.59523,-2.22415,-0.577504,3.89119,0.389583,3.51978,0.671103,-4.31295,-0.382656,-4.06118,-1.59523,-2.22415,-0.577504,3.89119,0.389583,3.51978
0.975,0.075,20.1675,0.500843,-4.28684,-0.378511,-3.02361,-1.46867,-2.10587,-0.570679,3.87765,1.00549,1.66535,0.500843,-4.28684,-0.378511,-3.02361,-1.46867,-2.10587,-0.570679,3.87765,1.00549,1.66535
0.975,0.125,22.3793,0.363622,-4.26428,-0.392615,-1.64549,-1.25054,-1.78963,-0.576907,3.85838,1.32279,0.0134789,0.363622,-4.26428,-0.392615,-1.64549,-1.25054,-1.78963,-0.576907,3.85838,1.32279,0.0134789
0.975,0.175,23.5443,0.273788,-4.24988,-0.421179,-0.228165,-0.999339,-1.42138,-0.585994,3.84467,1.36264,-1.72194,0.273788,-4.24988,-0.421179,-0.228165,-0.999339,-1.42138,-0.585994,3.84467,1.36264,-1.72194
0.975,0.225,24.5437,0.227421,-4.24321,-0.460382,0.876867,-0.684585,-1.04939,-0.59457,3.84028,1.08259,-2.46485,0.227421,-4.24321,-0.460382,0.876867,-0.684585,-1.04939,-0.59457,3.84028,1.08259,-2.46485
0.975,0.275,25.1354,0.218905,-4.24335,-0.506401,1.556,-0.355946,-0.673634,-0.602634,3.84521,0.804952,-2.75074,0.218905,-4.24335,-0.506401,1.556,-0.355946,-0.673634,-0.602634,3.84521,0.804952,-2.75074
0.975,0.325,25.2106,0.242628,-4.24939,-0.555412,1.86494,-0.0219733,-0.294127,-0.610188,3.85944,0.579498,-2.93801,0.242628,-4.24939,-0.555412,1.86494,-0.0219733,-0.294127,-0.610188,3.85944,0.579498,-2.93801
0.975,0.375,24.7828,0.292974,-4.2604,-0.603593,1.8643,0.286554,0.0891344,-0.617231,3.88299,0.383521,-2.99371,0.292974,-4.2604,-0.603593,1.8643,0.286554,0.0891344,-0.617231,3.88299,0.383521,-2.99371
0.975,0.425,23.9771,0.36433,-4.27547,-0.64712,1.61325,0.533779,0.476151,-0.623763,3.91584,0.193569,-2.91081,0.36433,-4.27547,-0.64712,1.61325,0.533779,0.476151,-0.623763,3.91584,0.193569,-2.91081
0.975,0.475,23.0088,0.451081,-4.29369,-0.682169,1.1678,0.699958,0.866922,-0.629784,3.95801,-0.0124259,-2.71427,0.451081,-4.29369,-0.682169,1.1678,0.699958,0.866922,-0.629784,3.95801,-0.0124259,-2.71427
0.975,0.525,21.1384,0.547557,-4.31415,-0.705047,0.58377,0.784355,1.24388,-0.635465,4.00687,-0.324733,-1.92272,0.547557,-4.31415,-0.705047,0.58377,0.784355,1.24388,-0.635465,4.00687,-0.324733,-1.92272
0.975,0.575,19.52,0.64682,-4.33593,-0.715025,-0.0551649,0.785492,1.5016,-0.641833,4.04668,-0.67385,-0.759055,0.64682,-4.33593,-0.715025,-0.0551649,0.785492,1.5016,-0.641833,4.04668,-0.67385,-0.759055
0.975,0.625,19.2716,0.740666,-4.35816,-0.714338,-0.671293,0.748011,1.62251,-0.64906,4.07481,-0.94913,0.310618,0.740666,-4.35816,-0.714338,-0.671293,0.748011,1.62251,-0.64906,4.07481,-0.94913,0.310618
0.975,0.675,20.1912,0.820831,-4.37996,-0.705354,-1.18439,0.697011,1.60662,-0.657144,4.09126,-1.13428,1.4298,0.820831,-4.37996,-0.705354,-1.18439,0.697011,1.60662,-0.657144,4.09126,-1.13428,1.4298
0.975,0.725,22.2083,0.879054,-4.40044,-0.690437,-1.50265,0.625485,1.45392,-0.666088,4.09604,-1.2157,2.71018,0.879054,-4.40044,-0.690437,-1.50265,0.625485,1.45392,-0.666088,4.09604,-1.2157,2.71018
0.975,0.775,25.3862,0.907075,-4.41871,-0.671953,-1.52518,0.499523,1.16441,-0.675889,4.08914,-1.1872,4.17124,0.907075,-4.41871,-0.671953,-1.52518,0.499523,1.16441,-0.675889,4.08914,-1.1872,4.17124
0.975,0.825,29.7971,0.896631,-4.4339,-0.652267,-1.15222,0.297592,0.738098,-0.686549,4.07057,-0.978887,4.86278,0.896631,-4.4339,-0.652267,-1.15222,0.297592,0.738098,-0.686549,4.07057,-0.978887,4.86278
0.975,0.875,35.1147,0.839462,-4.44513,-0.633747,-0.45105,0.124125,0.174979,-0.698067,4.04032,-0.536887,3.22073,0.839462,-4.44513,-0.633747,-0.45105,0.124125,0.174979,-0.698067,4.04032,-0.536887,3.22073
0.975,0.925,33.9564,0.729179,-4.45151,-0.618662,0.355659,0.0228418,-0.460546,-0.707202,4.00153,-0.155694,1.71973,0.729179,-4.45151,-0.618662,0.355659,0.0228418,-0.460546,-0.707202,4.00153,-0.155694,1.71973
0.975,0.975,29.6194,0.579617,-4.45231,-0.608267,1.0593,-0.0743937,-0.973676,-0.704147,3.96369,0.193634,0.335247,0.579617,-4.45231,-0.608267,1.0593,-0.0743937,-0.973676,-0.704147,3.96369,0.193634,0.335247
