U, V, weight, dx_u, dy_u, dz_u, dpsi_u, dtheta_u, dx_v, dy_v, dz_v, dpsi_v, dtheta_v, dqeu_x, dqeu_y, dqeu_z, dqeu_psi, dqeu_theta,dqev_x, dqev_y, dqev_z, dqev_psi, dqev_theta
0.025,0.025,62.058,0.443634,-3.95612,-1.59653,5.48874,0.30309,0.613695,-0.240396,3.17227,-0.729038,2.31583,0.443634,-3.95612,-1.59653,5.48874,0.30309,0.613695,-0.240396,3.17227,-0.729038,2.31583
0.025,0.075,44.0841,0.661501,-4.74223,-1.17743,3.36194,0.543059,0.368016,-0.511379,3.44905,-0.354979,1.44005,0.661501,-4.74223,-1.17743,3.36194,0.543059,0.368016,-0.511379,3.44905,-0.354979,1.44005
0.025,0.125,34.384,0.697694,-5.08434,-0.921359,2.25267,0.755385,0.201135,-0.697585,3.66494,-0.360093,0.75593,0.697694,-5.08434,-0.921359,2.25267,0.755385,0.201135,-0.697585,3.66494,-0.360093,0.75593
0.025,0.175,28.2451,0.630153,-5.13147,-0.778923,1.61758,0.796656,0.113052,-0.799014,3.81994,-0.368641,0.215416,0.630153,-5.13147,-0.778923,1.61758,0.796656,0.113052,-0.799014,3.81994,-0.368641,0.215416
0.025,0.225,23.9229,0.536815,-5.03266,-0.70072,1.23074,0.601036,0.103766,-0.815666,3.91404,-0.235133,-0.215053,0.536815,-5.03266,-0.70072,1.23074,0.601036,0.103766,-0.815666,3.91404,-0.235133,-0.215053
0.025,0.275,22.3071,0.493607,-4.93339,-0.638571,0.953398,0.165072,0.160057,-0.759933,3.95358,0.0554236,-0.299564,0.493607,-4.93339,-0.638571,0.953398,0.165072,0.160057,-0.759933,3.95358,0.0554236,-0.299564
0.025,0.325,22.6157,0.5302,-4.89766,-0.5724,0.681571,-0.226958,0.202599,-0.70616,3.97659,0.296891,-0.114333,0.5302,-4.89766,-0.5724,0.681571,-0.226958,0.202599,-0.70616,3.97659,0.296891,-0.114333
0.025,0.375,23.0408,0.630009,-4.90795,-0.510231,0.407253,-0.524948,0.218173,-0.666739,3.98939,0.475076,0.0518045,0.630009,-4.90795,-0.510231,0.407253,-0.524948,0.218173,-0.666739,3.98939,0.475076,0.0518045
0.025,0.425,23.3946,0.774437,-4.94323,-0.461309,0.13042,-0.734898,0.206779,-0.64167,3.99199,0.585065,0.206183,0.774437,-4.94323,-0.461309,0.13042,-0.734898,0.206779,-0.64167,3.99199,0.585065,0.206183
0.025,0.475,23.5298,0.944889,-4.98242,-0.434883,-0.154658,-0.866389,0.168415,-0.630953,3.98439,0.63053,0.354585,0.944889,-4.98242,-0.434883,-0.154658,-0.866389,0.168415,-0.630953,3.98439,0.63053,0.354585
0.025,0.525,23.6561,1.12234,-5.00486,-0.439918,-0.460759,-0.913341,0.0984983,-0.633173,3.96854,0.599486,0.580855,1.12234,-5.00486,-0.439918,-0.460759,-0.913341,0.0984983,-0.633173,3.96854,0.599486,0.580855
0.025,0.575,23.4201,1.2779,-4.99859,-0.478981,-0.768329,-0.777266,-0.0304825,-0.639853,3.95619,0.425535,0.864896,1.2779,-4.99859,-0.478981,-0.768329,-0.777266,-0.0304825,-0.639853,3.95619,0.425535,0.864896
0.025,0.625,22.8603,1.3728,-4.96033,-0.548231,-1.00398,-0.424294,-0.223112,-0.649579,3.9493,0.0970572,1.11876,1.3728,-4.96033,-0.548231,-1.00398,-0.424294,-0.223112,-0.649579,3.9493,0.0970572,1.11876
0.025,0.675,22.8404,1.36787,-4.88721,-0.643552,-1.08911,0.155883,-0.47939,-0.66235,3.94787,-0.410826,1.34184,1.36787,-4.88721,-0.643552,-1.08911,0.155883,-0.47939,-0.66235,3.94787,-0.410826,1.34184
0.025,0.725,24.7699,1.2239,-4.77634,-0.760827,-0.922446,0.96195,-0.799317,-0.678167,3.95189,-1.15398,1.52273,1.2239,-4.77634,-0.760827,-0.922446,0.96195,-0.799317,-0.678167,3.95189,-1.15398,1.52273
0.025,0.775,26.8462,0.905853,-4.6245,-0.89329,-0.335591,1.85658,-1.13916,-0.704173,3.95746,-1.9354,0.891317,0.905853,-4.6245,-0.89329,-0.335591,1.85658,-1.13916,-0.704173,3.95746,-1.9354,0.891317
0.025,0.825,24.3314,0.473751,-4.42044,-0.973295,0.725812,2.11482,-1.23651,-0.783235,3.94105,-1.84045,-0.461085,0.473751,-4.42044,-0.973295,0.725812,2.11482,-1.23651,-0.783235,3.94105,-1.84045,-0.461085
0.025,0.875,21.127,0.0827033,-4.14496,-0.872312,1.81786,1.70172,-1.04765,-0.922495,3.89876,-0.894611,-1.75919,0.0827033,-4.14496,-0.872312,1.81786,1.70172,-1.04765,-0.922495,3.89876,-0.894611,-1.75919
0.025,0.925,21.897,-0.108047,-3.77846,-0.459163,2.28854,0.533833,-0.572559,-1.12195,3.83059,0.51577,-3.01066,-0.108047,-3.77846,-0.459163,2.28854,0.533833,-0.572559,-1.12195,3.83059,0.51577,-3.01066
0.025,0.975,15.2742,0.0607447,-3.30136,0.397329,1.07276,-1.51166,0.188749,-1.38161,3.73653,1.65436,-4.22517,0.0607447,-3.30136,0.397329,1.07276,-1.51166,0.188749,-1.38161,3.73653,1.65436,-4.22517
0.075,0.025,39.0795,1.46866,-4.53152,-1.25893,1.55612,1.98918,0.705705,-0.935874,3.62599,-1.61775,1.70027,1.46866,-4.53152,-1.25893,1.55612,1.98918,0.705705,-0.935874,3.62599,-1.61775,1.70027
0.075,0.075,34.213,1.31489,-4.78605,-0.944392,1.3325,1.49116,0.32416,-0.846838,3.7332,-1.11748,1.24865,1.31489,-4.78605,-0.944392,1.3325,1.49116,0.32416,-0.846838,3.7332,-1.11748,1.24865
0.075,0.125,28.4354,1.12303,-4.85789,-0.762053,1.03557,1.21311,0.0773437,-0.778391,3.82332,-0.870569,0.66006,1.12303,-4.85789,-0.762053,1.03557,1.21311,0.0773437,-0.778391,3.82332,-0.870569,0.66006
0.075,0.175,23.4312,0.92703,-4.81241,-0.67376,0.829125,1.00259,-0.0347434,-0.730534,3.89635,-0.685163,0.0507861,0.92703,-4.81241,-0.67376,0.829125,1.00259,-0.0347434,-0.730534,3.89635,-0.685163,0.0507861
0.075,0.225,19.4918,0.760814,-4.71501,-0.641358,0.71402,0.741938,-0.0121017,-0.703266,3.95229,-0.437475,-0.546804,0.760814,-4.71501,-0.641358,0.71402,0.741938,-0.0121017,-0.703266,3.95229,-0.437475,-0.546804
0.075,0.275,18.2326,0.657251,-4.62952,-0.627518,0.61195,0.38865,0.12275,-0.693893,3.99135,-0.145934,-0.697861,0.657251,-4.62952,-0.627518,0.61195,0.38865,0.12275,-0.693893,3.99135,-0.145934,-0.697861
0.075,0.325,18.8415,0.624495,-4.58359,-0.613853,0.447035,0.074853,0.234696,-0.686242,4.01485,0.0611566,-0.431796,0.624495,-4.58359,-0.613853,0.447035,0.074853,0.234696,-0.686242,4.01485,0.0611566,-0.431796
0.075,0.375,19.3348,0.645983,-4.56871,-0.600922,0.215115,-0.170529,0.301219,-0.677617,4.02301,0.206487,-0.184845,0.645983,-4.56871,-0.600922,0.215115,-0.170529,0.301219,-0.677617,4.02301,0.206487,-0.184845
0.075,0.425,19.5169,0.704082,-4.57483,-0.590106,-0.0800226,-0.347058,0.322317,-0.668018,4.01581,0.283765,0.0461429,0.704082,-4.57483,-0.590106,-0.0800226,-0.347058,0.322317,-0.668018,4.01581,0.283765,0.0461429
0.075,0.475,19.3014,0.781156,-4.59185,-0.582786,-0.435277,-0.455531,0.29799,-0.657446,3.99327,0.29261,0.266316,0.781156,-4.59185,-0.582786,-0.435277,-0.455531,0.29799,-0.657446,3.99327,0.29261,0.266316
0.075,0.525,19.1707,0.859642,-4.60982,-0.58038,-0.848225,-0.495521,0.22264,-0.645913,3.95802,0.222865,0.592247,0.859642,-4.60982,-0.58038,-0.848225,-0.495521,0.22264,-0.645913,3.95802,0.222865,0.592247
0.075,0.575,19.425,0.92359,-4.62135,-0.58515,-1.2742,-0.457508,0.0626696,-0.633495,3.92579,0.0822731,1.02759,0.92359,-4.62135,-0.58515,-1.2742,-0.457508,0.0626696,-0.633495,3.92579,0.0822731,1.02759
0.075,0.625,20.0057,0.958668,-4.62163,-0.6002,-1.61428,-0.313328,-0.187521,-0.620204,3.89922,-0.121477,1.45528,0.958668,-4.62163,-0.6002,-1.61428,-0.313328,-0.187521,-0.620204,3.89922,-0.121477,1.45528
0.075,0.675,21.1018,0.950613,-4.60595,-0.628673,-1.76058,-0.0449408,-0.527932,-0.606041,3.87831,-0.404051,1.85587,0.950613,-4.60595,-0.628673,-1.76058,-0.0449408,-0.527932,-0.606041,3.87831,-0.404051,1.85587
0.075,0.725,22.8563,0.885164,-4.56961,-0.673709,-1.59176,0.338618,-0.958562,-0.591006,3.86306,-0.791968,2.19166,0.885164,-4.56961,-0.673709,-1.59176,0.338618,-0.958562,-0.591006,3.86306,-0.791968,2.19166
0.075,0.775,21.3668,0.749419,-4.50772,-0.736966,-0.968605,0.747115,-1.41948,-0.580639,3.86182,-1.06045,1.32071,0.749419,-4.50772,-0.736966,-0.968605,0.747115,-1.41948,-0.580639,3.86182,-1.06045,1.32071
0.075,0.825,18.0217,0.561796,-4.41085,-0.785942,-0.0201242,0.867074,-1.55106,-0.608183,3.92472,-0.785395,-0.528964,0.561796,-4.41085,-0.785942,-0.0201242,0.867074,-1.55106,-0.608183,3.92472,-0.785395,-0.528964
0.075,0.875,18.5876,0.37203,-4.26504,-0.753981,0.759345,0.722448,-1.29339,-0.67918,4.06012,-0.200091,-2.27987,0.37203,-4.26504,-0.753981,0.759345,0.722448,-1.29339,-0.67918,4.06012,-0.200091,-2.27987
0.075,0.925,21.6323,0.231218,-4.05617,-0.572941,0.958658,0.382988,-0.646448,-0.793628,4.26803,0.3391,-3.9403,0.231218,-4.05617,-0.572941,0.958658,0.382988,-0.646448,-0.793628,4.26803,0.3391,-3.9403
0.075,0.975,22.3788,0.190457,-3.77007,-0.174678,0.472314,0.0798933,0.389756,-0.951529,4.54843,0.265413,-5.17304,0.190457,-3.77007,-0.174678,0.472314,0.0798933,0.389756,-0.951529,4.54843,0.265413,-5.17304
0.125,0.025,29.0499,1.8856,-4.88464,-1.0129,-0.261004,1.68824,0.421379,-1.04483,3.96498,-1.57047,1.21922,1.8856,-4.88464,-1.0129,-0.261004,1.68824,0.421379,-1.04483,3.96498,-1.57047,1.21922
0.125,0.075,25.1155,1.51181,-4.77126,-0.784502,-0.253578,1.34003,0.0576509,-0.857232,3.93948,-1.24227,0.906754,1.51181,-4.77126,-0.784502,-0.253578,1.34003,0.0576509,-0.857232,3.93948,-1.24227,0.906754
0.125,0.125,21.2161,1.21975,-4.66424,-0.656831,-0.211202,1.05089,-0.159374,-0.723032,3.92928,-0.94861,0.415289,1.21975,-4.66424,-0.656831,-0.211202,1.05089,-0.159374,-0.723032,3.92928,-0.94861,0.415289
0.125,0.175,18.0251,0.999451,-4.56747,-0.603282,-0.0720221,0.812781,-0.229695,-0.642228,3.9344,-0.675735,-0.175217,0.999451,-4.56747,-0.603282,-0.0720221,0.812781,-0.229695,-0.642228,3.9344,-0.675735,-0.175217
0.125,0.225,15.6539,0.840938,-4.48488,-0.597247,0.11029,0.602367,-0.153313,-0.614819,3.95484,-0.403763,-0.810912,0.840938,-4.48488,-0.597247,0.11029,0.602367,-0.153313,-0.614819,3.95484,-0.403763,-0.810912
0.125,0.275,15.2492,0.73418,-4.42025,-0.612583,0.210184,0.408152,0.0438244,-0.633289,3.98696,-0.201084,-0.9691,0.73418,-4.42025,-0.612583,0.210184,0.408152,0.0438244,-0.633289,3.98696,-0.201084,-0.9691
0.125,0.325,16.0534,0.667892,-4.37456,-0.633765,0.155775,0.242432,0.206031,-0.652526,4.00906,-0.102504,-0.652138,0.667892,-4.37456,-0.633765,0.155775,0.242432,0.206031,-0.652526,4.00906,-0.102504,-0.652138
0.125,0.375,16.4832,0.629534,-4.34599,-0.655892,-0.0422917,0.112153,0.30736,-0.665013,4.01752,-0.0571306,-0.350718,0.629534,-4.34599,-0.655892,-0.0422917,0.112153,0.30736,-0.665013,4.01752,-0.0571306,-0.350718
0.125,0.425,16.4222,0.606514,-4.33257,-0.674521,-0.367427,0.0213599,0.34781,-0.67075,4.01233,-0.0698785,-0.0634777,0.606514,-4.33257,-0.674521,-0.367427,0.0213599,0.34781,-0.67075,4.01233,-0.0698785,-0.0634777
0.125,0.475,15.9676,0.58624,-4.33235,-0.685214,-0.801495,-0.0252431,0.327382,-0.669737,3.99349,-0.140924,0.215897,0.58624,-4.33235,-0.685214,-0.801495,-0.0252431,0.327382,-0.669737,3.99349,-0.140924,0.215897
0.125,0.525,15.7665,0.556563,-4.34332,-0.683765,-1.3203,-0.0343696,0.242088,-0.662086,3.96275,-0.266834,0.578142,0.556563,-4.34332,-0.683765,-1.3203,-0.0343696,0.242088,-0.662086,3.96275,-0.266834,0.578142
0.125,0.575,16.5039,0.515596,-4.36198,-0.671434,-1.84916,-0.0726388,0.067993,-0.648466,3.93059,-0.368985,1.04348,0.515596,-4.36198,-0.671434,-1.84916,-0.0726388,0.067993,-0.648466,3.93059,-0.368985,1.04348
0.125,0.625,18.1254,0.471711,-4.3834,-0.654943,-2.27742,-0.132322,-0.19889,-0.628991,3.89875,-0.423648,1.52643,0.471711,-4.3834,-0.654943,-2.27742,-0.132322,-0.19889,-0.628991,3.89875,-0.423648,1.52643
0.125,0.675,20.1085,0.433727,-4.40254,-0.641251,-2.48923,-0.191774,-0.558561,-0.60366,3.86723,-0.439729,1.99616,0.433727,-4.40254,-0.641251,-2.48923,-0.191774,-0.558561,-0.60366,3.86723,-0.439729,1.99616
0.125,0.725,21.633,0.41046,-4.41441,-0.637318,-2.36632,-0.228378,-1.01102,-0.572472,3.83602,-0.434194,2.39665,0.41046,-4.41441,-0.637318,-2.36632,-0.228378,-1.01102,-0.572472,3.83602,-0.434194,2.39665
0.125,0.775,18.5456,0.409889,-4.41387,-0.649533,-1.80374,-0.209663,-1.49506,-0.540093,3.81954,-0.242683,1.49037,0.409889,-4.41387,-0.649533,-1.80374,-0.209663,-1.49506,-0.540093,3.81954,-0.242683,1.49037
0.125,0.825,15.0047,0.420661,-4.39339,-0.671165,-0.988409,-0.0992512,-1.64338,-0.534502,3.90417,0.0799266,-0.47024,0.420661,-4.39339,-0.671165,-0.988409,-0.0992512,-1.64338,-0.534502,3.90417,0.0799266,-0.47024
0.125,0.875,15.6965,0.412095,-4.34298,-0.682366,-0.33522,0.07494,-1.39478,-0.560363,4.1043,0.284404,-2.29406,0.412095,-4.34298,-0.682366,-0.33522,0.07494,-1.39478,-0.560363,4.1043,0.284404,-2.29406
0.125,0.925,18.1538,0.352668,-4.25256,-0.662716,-0.101407,0.344887,-0.749258,-0.617677,4.41993,0.248781,-3.9382,0.352668,-4.25256,-0.662716,-0.101407,0.344887,-0.749258,-0.617677,4.41993,0.248781,-3.9382
0.125,0.975,19.8521,0.210858,-4.11205,-0.591796,-0.266089,0.736055,0.293188,-0.706444,4.85107,-0.196592,-4.99344,0.210858,-4.11205,-0.591796,-0.266089,0.736055,0.293188,-0.706444,4.85107,-0.196592,-4.99344
0.175,0.025,22.3378,1.69447,-5.0155,-0.858439,-2.01484,1.48884,-0.0757738,-0.774431,4.20725,-1.59578,0.825222,1.69447,-5.0155,-0.858439,-2.01484,1.48884,-0.0757738,-0.774431,4.20725,-1.59578,0.825222
0.175,0.075,17.7469,1.25225,-4.69787,-0.697757,-1.96492,0.983682,-0.2918,-0.666406,4.08667,-1.14685,0.532936,1.25225,-4.69787,-0.697757,-1.96492,0.983682,-0.2918,-0.666406,4.08667,-1.14685,0.532936
0.175,0.125,14.7611,0.987835,-4.50338,-0.605693,-1.62135,0.551841,-0.393023,-0.594181,4.0021,-0.679486,0.11518,0.987835,-4.50338,-0.605693,-1.62135,0.551841,-0.393023,-0.594181,4.0021,-0.679486,0.11518
0.175,0.175,13.3131,0.847417,-4.39665,-0.567489,-1.08287,0.268221,-0.37944,-0.557757,3.95356,-0.307724,-0.383685,0.847417,-4.39665,-0.567489,-1.08287,0.268221,-0.37944,-0.557757,3.95356,-0.307724,-0.383685
0.175,0.225,12.8411,0.777189,-4.34225,-0.568387,-0.546091,0.167193,-0.251054,-0.557133,3.94103,-0.0935623,-0.922996,0.777189,-4.34225,-0.568387,-0.546091,0.167193,-0.251054,-0.557133,3.94103,-0.0935623,-0.922996
0.175,0.275,13.319,0.724394,-4.30558,-0.593765,-0.218599,0.229633,-0.0308704,-0.587105,3.95913,-0.0970336,-1.02962,0.724394,-4.30558,-0.593765,-0.218599,0.229633,-0.0308704,-0.587105,3.95913,-0.0970336,-1.02962
0.175,0.325,14.3027,0.660391,-4.27059,-0.632135,-0.158529,0.300667,0.14307,-0.616445,3.97548,-0.197037,-0.702361,0.660391,-4.27059,-0.632135,-0.158529,0.300667,0.14307,-0.616445,3.97548,-0.197037,-0.702361
0.175,0.375,14.7192,0.580662,-4.23978,-0.675139,-0.325632,0.35784,0.24776,-0.639951,3.98469,-0.323581,-0.38609,0.580662,-4.23978,-0.675139,-0.325632,0.35784,0.24776,-0.639951,3.98469,-0.323581,-0.38609
0.175,0.425,14.5959,0.481735,-4.21645,-0.714556,-0.681394,0.407516,0.2832,-0.65762,3.98675,-0.48097,-0.0781266,0.481735,-4.21645,-0.714556,-0.681394,0.407516,0.2832,-0.65762,3.98675,-0.48097,-0.0781266
0.175,0.475,14.2719,0.360139,-4.20393,-0.742167,-1.18576,0.456864,0.249389,-0.669454,3.98167,-0.666234,0.228483,0.360139,-4.20393,-0.742167,-1.18576,0.456864,0.249389,-0.669454,3.98167,-0.666234,0.228483
0.175,0.525,14.4103,0.213102,-4.20535,-0.750073,-1.78626,0.489385,0.145835,-0.674882,3.96944,-0.849781,0.554251,0.213102,-4.20535,-0.750073,-1.78626,0.489385,0.145835,-0.674882,3.96944,-0.849781,0.554251
0.175,0.575,15.6024,0.053915,-4.22048,-0.737833,-2.38007,0.384148,-0.0304255,-0.670481,3.9501,-0.899227,0.925619,0.053915,-4.22048,-0.737833,-2.38007,0.384148,-0.0304255,-0.670481,3.9501,-0.899227,0.925619
0.175,0.625,17.8338,-0.0880679,-4.24563,-0.712459,-2.85983,0.129183,-0.279885,-0.655681,3.92364,-0.791536,1.33093,-0.0880679,-4.24563,-0.712459,-2.85983,0.129183,-0.279885,-0.655681,3.92364,-0.791536,1.33093
0.175,0.675,20.3152,-0.182794,-4.27698,-0.681287,-3.12868,-0.253745,-0.602544,-0.630483,3.89007,-0.538062,1.75202,-0.182794,-4.27698,-0.681287,-3.12868,-0.253745,-0.602544,-0.630483,3.89007,-0.538062,1.75202
0.175,0.725,21.9849,-0.200211,-4.31072,-0.651654,-3.09788,-0.711318,-0.998402,-0.594885,3.84939,-0.157802,2.15549,-0.200211,-4.31072,-0.651654,-3.09788,-0.711318,-0.998402,-0.594885,3.84939,-0.157802,2.15549
0.175,0.775,19.2205,-0.112738,-4.34295,-0.630991,-2.69158,-1.08885,-1.41647,-0.553042,3.81728,0.431658,1.45608,-0.112738,-4.34295,-0.630991,-2.69158,-1.08885,-1.41647,-0.553042,3.81728,0.431658,1.45608
0.175,0.825,15.7283,0.0503448,-4.36806,-0.628964,-2.04604,-1.02599,-1.5508,-0.529877,3.88793,0.818062,-0.262662,0.0503448,-4.36806,-0.628964,-2.04604,-1.02599,-1.5508,-0.529877,3.88793,0.818062,-0.262662
0.175,0.875,14.1284,0.202896,-4.37875,-0.657466,-1.41943,-0.618387,-1.3504,-0.529545,4.07701,0.781815,-1.89719,0.202896,-4.37875,-0.657466,-1.41943,-0.618387,-1.3504,-0.529545,4.07701,0.781815,-1.89719
0.175,0.925,14.3234,0.256302,-4.36763,-0.728489,-1.00686,0.0730401,-0.815269,-0.552045,4.38454,0.380193,-3.34974,0.256302,-4.36763,-0.728489,-1.00686,0.0730401,-0.815269,-0.552045,4.38454,0.380193,-3.34974
0.175,0.975,16.1611,0.12195,-4.32731,-0.854025,-0.864968,0.951432,0.0545877,-0.597377,4.81051,-0.32309,-4.32792,0.12195,-4.32731,-0.854025,-0.864968,0.951432,0.0545877,-0.597377,4.81051,-0.32309,-4.32792
0.225,0.025,22.2283,0.895269,-4.92409,-0.795546,-4.48811,1.64287,-0.622242,-0.331853,4.3708,-1.67904,0.0182239,0.895269,-4.92409,-0.795546,-4.48811,1.64287,-0.622242,-0.331853,4.3708,-1.67904,0.0182239
0.225,0.075,17.3921,0.536223,-4.56586,-0.684158,-4.11514,0.502508,-0.584483,-0.398201,4.19357,-0.744681,-0.191649,0.536223,-4.56586,-0.684158,-4.11514,0.502508,-0.584483,-0.398201,4.19357,-0.744681,-0.191649
0.225,0.125,13.4619,0.427294,-4.37534,-0.608639,-3.21996,-0.327844,-0.507608,-0.45451,4.06106,0.0576409,-0.368733,0.427294,-4.37534,-0.608639,-3.21996,-0.327844,-0.507608,-0.45451,4.06106,0.0576409,-0.368733
0.225,0.175,12.3497,0.470927,-4.29995,-0.566382,-2.13793,-0.709182,-0.391617,-0.500781,3.97328,0.505187,-0.557948,0.470927,-4.29995,-0.566382,-2.13793,-0.709182,-0.391617,-0.500781,3.97328,0.505187,-0.557948
0.225,0.225,12.6821,0.569566,-4.28713,-0.554778,-1.1946,-0.620801,-0.23651,-0.537014,3.93023,0.529164,-0.782329,0.569566,-4.28713,-0.554778,-1.1946,-0.620801,-0.23651,-0.537014,3.93023,0.529164,-0.782329
0.225,0.275,12.9654,0.627892,-4.28551,-0.571066,-0.630971,-0.168344,-0.0554847,-0.564327,3.92658,0.174004,-0.768687,0.627892,-4.28551,-0.571066,-0.630971,-0.168344,-0.0554847,-0.564327,3.92658,0.174004,-0.768687
0.225,0.325,13.8312,0.601993,-4.27166,-0.608963,-0.454508,0.25073,0.0722781,-0.589433,3.93037,-0.221479,-0.492482,0.601993,-4.27166,-0.608963,-0.454508,0.25073,0.0722781,-0.589433,3.93037,-0.221479,-0.492482
0.225,0.375,14.4013,0.499366,-4.25008,-0.658664,-0.582946,0.583961,0.133581,-0.613452,3.93628,-0.588499,-0.220283,0.499366,-4.25008,-0.658664,-0.582946,0.583961,0.133581,-0.613452,3.93628,-0.588499,-0.220283
0.225,0.425,14.6354,0.329742,-4.22648,-0.710211,-0.949902,0.840436,0.128424,-0.636382,3.9443,-0.935284,0.0512022,0.329742,-4.22648,-0.710211,-0.949902,0.840436,0.128424,-0.636382,3.9443,-0.935284,0.0512022
0.225,0.475,14.8272,0.102854,-4.20657,-0.753645,-1.48885,1.02311,0.0568075,-0.658225,3.95443,-1.25307,0.324475,0.102854,-4.20657,-0.753645,-1.48885,1.02311,0.0568075,-0.658225,3.95443,-1.25307,0.324475
0.225,0.525,15.1371,-0.17074,-4.19592,-0.779305,-2.11609,1.10018,-0.0771239,-0.677491,3.96477,-1.47861,0.522614,-0.17074,-4.19592,-0.779305,-2.11609,1.10018,-0.0771239,-0.677491,3.96477,-1.47861,0.522614
0.225,0.575,15.788,-0.461453,-4.19683,-0.784348,-2.71118,0.927502,-0.248499,-0.685251,3.96382,-1.45482,0.681382,-0.461453,-4.19683,-0.784348,-2.71118,0.927502,-0.248499,-0.685251,3.96382,-1.45482,0.681382
0.225,0.625,17.3105,-0.72067,-4.20832,-0.77275,-3.18422,0.497923,-0.453172,-0.680016,3.94966,-1.18634,0.889552,-0.72067,-4.20832,-0.77275,-3.18422,0.497923,-0.453172,-0.680016,3.94966,-1.18634,0.889552
0.225,0.675,19.3611,-0.898949,-4.22926,-0.748782,-3.48028,-0.157011,-0.691143,-0.661786,3.92229,-0.704562,1.15091,-0.898949,-4.22926,-0.748782,-3.48028,-0.157011,-0.691143,-0.661786,3.92229,-0.704562,1.15091
0.225,0.725,21.2537,-0.946848,-4.25855,-0.716716,-3.56313,-0.98777,-0.962413,-0.630562,3.88173,-0.0313893,1.46825,-0.946848,-4.25855,-0.716716,-3.56313,-0.98777,-0.962413,-0.630562,3.88173,-0.0313893,1.46825
0.225,0.775,20.9277,-0.81846,-4.29495,-0.681341,-3.3945,-1.81305,-1.23429,-0.589995,3.84168,0.862398,1.12223,-0.81846,-4.29495,-0.681341,-3.3945,-1.81305,-1.23429,-0.589995,3.84168,0.862398,1.12223
0.225,0.825,19.8513,-0.549152,-4.33488,-0.659339,-3.01756,-1.99009,-1.31065,-0.561998,3.88453,1.40593,-0.0333046,-0.549152,-4.33488,-0.659339,-3.01756,-1.99009,-1.31065,-0.561998,3.88453,1.40593,-0.0333046
0.225,0.875,17.098,-0.255566,-4.37238,-0.679281,-2.46146,-1.55281,-1.15881,-0.550225,4.02401,1.36903,-1.24905,-0.255566,-4.37238,-0.679281,-2.46146,-1.55281,-1.15881,-0.550225,4.02401,1.36903,-1.24905
0.225,0.925,13.1297,-0.0578791,-4.40138,-0.77026,-1.83136,-0.638998,-0.778759,-0.554674,4.26012,0.82085,-2.36893,-0.0578791,-4.40138,-0.77026,-1.83136,-0.638998,-0.778759,-0.554674,4.26012,0.82085,-2.36893
0.225,0.975,12.5902,-0.0762686,-4.41584,-0.961364,-1.27727,0.599552,-0.170502,-0.575346,4.59285,-0.0917837,-3.21203,-0.0762686,-4.41584,-0.961364,-1.27727,0.599552,-0.170502,-0.575346,4.59285,-0.0917837,-3.21203
0.275,0.025,21.906,-0.372603,-4.64703,-0.808702,-5.34834,1.4947,-1.05847,0.0802855,4.4732,-1.26394,-1.67685,-0.372603,-4.64703,-0.808702,-5.34834,1.4947,-1.05847,0.0802855,4.4732,-1.26394,-1.67685
0.275,0.075,14.7713,-0.523628,-4.38956,-0.731474,-4.34376,-0.294944,-0.685549,-0.173511,4.27833,0.282951,-1.51276,-0.523628,-4.38956,-0.731474,-4.34376,-0.294944,-0.685549,-0.173511,4.27833,0.282951,-1.51276
0.275,0.125,15.2575,-0.379547,-4.28052,-0.657639,-3.18082,-1.48892,-0.392276,-0.364945,4.12469,1.31261,-1.1098,-0.379547,-4.28052,-0.657639,-3.18082,-1.48892,-0.392276,-0.364945,4.12469,1.31261,-1.1098
0.275,0.175,18.3211,-0.0777904,-4.26994,-0.596496,-2.09852,-1.93887,-0.17865,-0.494018,4.01228,1.67093,-0.650225,-0.0777904,-4.26994,-0.596496,-2.09852,-1.93887,-0.17865,-0.494018,4.01228,1.67093,-0.650225
0.275,0.225,18.278,0.244213,-4.30783,-0.557344,-1.27494,-1.62054,-0.0446698,-0.560728,3.94109,1.35106,-0.271263,0.244213,-4.30783,-0.557344,-1.27494,-1.62054,-0.0446698,-0.560728,3.94109,1.35106,-0.271263
0.275,0.275,15.8405,0.452431,-4.34537,-0.549084,-0.828713,-0.722219,0.0135375,-0.573458,3.90749,0.546105,-0.0679344,0.452431,-4.34537,-0.549084,-0.828713,-0.722219,0.0135375,-0.573458,3.90749,0.546105,-0.0679344
0.275,0.325,15.1967,0.490963,-4.36034,-0.571472,-0.698477,0.102238,0.0192134,-0.582494,3.88964,-0.192733,0.0736877,0.490963,-4.36034,-0.571472,-0.698477,0.102238,0.0192134,-0.582494,3.88964,-0.192733,0.0736877
0.275,0.375,15.813,0.382038,-4.35718,-0.615122,-0.804246,0.770967,-0.0237686,-0.596218,3.88391,-0.82557,0.226411,0.382038,-4.35718,-0.615122,-0.804246,0.770967,-0.0237686,-0.596218,3.88391,-0.82557,0.226411
0.275,0.425,16.9278,0.151285,-4.34146,-0.670249,-1.08281,1.29045,-0.115408,-0.614631,3.89029,-1.36825,0.381566,0.151285,-4.34146,-0.670249,-1.08281,1.29045,-0.115408,-0.614631,3.89029,-1.36825,0.381566
0.275,0.475,18.0204,-0.175671,-4.31876,-0.727067,-1.46575,1.6461,-0.255706,-0.637732,3.90878,-1.80269,0.526174,-0.175671,-4.31876,-0.727067,-1.46575,1.6461,-0.255706,-0.637732,3.90878,-1.80269,0.526174
0.275,0.525,18.0396,-0.572373,-4.29458,-0.775965,-1.86718,1.78861,-0.435479,-0.663409,3.93604,-2.03474,0.485309,-0.572373,-4.29458,-0.775965,-1.86718,1.78861,-0.435479,-0.663409,3.93604,-2.03474,0.485309
0.275,0.575,16.6577,-0.993313,-4.27309,-0.811293,-2.19224,1.59415,-0.599631,-0.679,3.95201,-1.9171,0.333787,-0.993313,-4.27309,-0.811293,-2.19224,1.59415,-0.599631,-0.679,3.95201,-1.9171,0.333787
0.275,0.625,15.2037,-1.37393,-4.25705,-0.831363,-2.40141,1.09159,-0.738981,-0.682392,3.95335,-1.50664,0.272734,-1.37393,-4.25705,-0.831363,-2.40141,1.09159,-0.738981,-0.682392,3.95335,-1.50664,0.272734
0.275,0.675,14.715,-1.64884,-4.24919,-0.834661,-2.49619,0.332268,-0.853527,-0.673586,3.94006,-0.870088,0.306439,-1.64884,-4.24919,-0.834661,-2.49619,0.332268,-0.853527,-0.673586,3.94006,-0.870088,0.306439
0.275,0.725,15.9982,-1.75265,-4.25223,-0.819672,-2.49194,-0.663622,-0.94327,-0.652582,3.91214,-0.030975,0.427372,-1.75265,-4.25223,-0.819672,-2.49194,-0.663622,-0.94327,-0.652582,3.91214,-0.030975,0.427372
0.275,0.775,19.7501,-1.624,-4.2687,-0.785587,-2.40174,-1.80352,-0.998483,-0.622191,3.87956,1.01114,0.367669,-1.624,-4.2687,-0.785587,-2.40174,-1.80352,-0.998483,-0.622191,3.87956,1.01114,0.367669
0.275,0.825,23.2859,-1.29408,-4.297,-0.747872,-2.27056,-2.40171,-0.9608,-0.599274,3.90212,1.72987,-0.0662399,-1.29408,-4.297,-0.747872,-2.27056,-2.40171,-0.9608,-0.599274,3.90212,1.72987,-0.0662399
0.275,0.875,22.8498,-0.886657,-4.33139,-0.738263,-2.00098,-2.31354,-0.820494,-0.586644,3.98978,1.91427,-0.645559,-0.886657,-4.33139,-0.738263,-2.00098,-2.31354,-0.820494,-0.586644,3.98978,1.91427,-0.645559
0.275,0.925,17.9546,-0.529504,-4.36595,-0.789202,-1.54271,-1.57696,-0.577566,-0.5843,4.14254,1.50355,-1.25675,-0.529504,-4.36595,-0.789202,-1.54271,-1.57696,-0.577566,-0.5843,4.14254,1.50355,-1.25675
0.275,0.975,13.2095,-0.350405,-4.39475,-0.933133,-0.968826,-0.323805,-0.232014,-0.592241,4.36041,0.564826,-1.78357,-0.350405,-4.39475,-0.933133,-0.968826,-0.323805,-0.232014,-0.592241,4.36041,0.564826,-1.78357
0.325,0.025,16.3256,-1.27267,-4.40404,-0.804783,-3.10818,0.882287,-1.3158,0.364055,4.52182,-0.30615,-3.67139,-1.27267,-4.40404,-0.804783,-3.10818,0.882287,-1.3158,0.364055,4.52182,-0.30615,-3.67139
0.325,0.075,14.622,-1.25139,-4.25489,-0.766333,-2.18148,-0.851396,-0.571981,-0.0454118,4.3444,1.27711,-3.0604,-1.25139,-4.25489,-0.766333,-2.18148,-0.851396,-0.571981,-0.0454118,4.3444,1.27711,-3.0604
0.325,0.125,20.7217,-0.938727,-4.22157,-0.704523,-1.48837,-2.03336,-0.0544034,-0.346257,4.19438,2.17096,-1.95939,-0.938727,-4.22157,-0.704523,-1.48837,-2.03336,-0.0544034,-0.346257,4.19438,2.17096,-1.95939
0.325,0.175,25.7367,-0.485365,-4.26204,-0.637056,-1.06275,-2.44371,0.236933,-0.538482,4.07174,2.30719,-0.68526,-0.485365,-4.26204,-0.637056,-1.06275,-2.44371,0.236933,-0.538482,4.07174,2.30719,-0.68526
0.325,0.225,25.099,-0.0420035,-4.33423,-0.581634,-0.879515,-2.06109,0.302028,-0.622085,3.9765,1.71142,0.475559,-0.0420035,-4.33423,-0.581634,-0.879515,-2.06109,0.302028,-0.622085,3.9765,1.71142,0.475559
0.325,0.275,20.5279,0.24455,-4.3971,-0.555413,-0.877252,-1.0181,0.166998,-0.611882,3.90789,0.66016,0.955404,0.24455,-4.3971,-0.555413,-0.877252,-1.0181,0.166998,-0.611882,3.90789,0.66016,0.955404
0.325,0.325,17.9793,0.316894,-4.43201,-0.562999,-0.943674,-0.00794378,-0.0114632,-0.596772,3.86137,-0.237099,0.929039,0.316894,-4.43201,-0.562999,-0.943674,-0.00794378,-0.0114632,-0.596772,3.86137,-0.237099,0.929039
0.325,0.375,18.1477,0.207028,-4.44281,-0.596444,-1.04741,0.836111,-0.207239,-0.591571,3.83618,-0.984472,0.916568,0.207028,-4.44281,-0.596444,-1.04741,0.836111,-0.207239,-0.591571,3.83618,-0.984472,0.916568
0.325,0.425,19.658,-0.0491568,-4.43431,-0.647258,-1.15814,1.48917,-0.420329,-0.596279,3.83232,-1.59133,0.889716,-0.0491568,-4.43431,-0.647258,-1.15814,1.48917,-0.420329,-0.596279,3.83232,-1.59133,0.889716
0.325,0.475,21.3546,-0.415772,-4.41132,-0.706948,-1.23396,1.91788,-0.650733,-0.610895,3.8498,-2.02825,0.821384,-0.415772,-4.41132,-0.706948,-1.23396,1.91788,-0.650733,-0.610895,3.8498,-2.02825,0.821384
0.325,0.525,21.3607,-0.856253,-4.37866,-0.767081,-1.23123,2.08698,-0.88468,-0.633185,3.88459,-2.19076,0.478764,-0.856253,-4.37866,-0.767081,-1.23123,2.08698,-0.88468,-0.633185,3.88459,-2.19076,0.478764
0.325,0.575,19.2801,-1.3185,-4.3415,-0.820553,-1.13352,1.93881,-1.03953,-0.649734,3.91257,-1.97605,-0.000216149,-1.3185,-4.3415,-0.820553,-1.13352,1.93881,-1.03953,-0.649734,3.91257,-1.97605,-0.000216149
0.325,0.625,16.7928,-1.73488,-4.3053,-0.861594,-0.97418,1.51213,-1.10151,-0.658307,3.92974,-1.48266,-0.332351,-1.73488,-4.3053,-0.861594,-0.97418,1.51213,-1.10151,-0.658307,3.92974,-1.48266,-0.332351
0.325,0.675,15.1268,-2.03709,-4.27554,-0.884489,-0.787192,0.834008,-1.07062,-0.658905,3.93607,-0.787162,-0.542577,-2.03709,-4.27554,-0.884489,-0.787192,0.834008,-1.07062,-0.658905,3.93607,-0.787162,-0.542577
0.325,0.725,15.574,-2.15681,-4.25772,-0.883524,-0.591897,-0.112206,-0.946855,-0.651526,3.93159,0.0974494,-0.690654,-2.15681,-4.25772,-0.883524,-0.591897,-0.112206,-0.946855,-0.651526,3.93159,0.0974494,-0.690654
0.325,0.775,20.2773,-2.02969,-4.25708,-0.853761,-0.413958,-1.29053,-0.744679,-0.637715,3.92175,1.12173,-0.642955,-2.02969,-4.25708,-0.853761,-0.413958,-1.29053,-0.744679,-0.637715,3.92175,1.12173,-0.642955
0.325,0.825,26.0158,-1.68198,-4.27341,-0.808066,-0.342003,-2.09079,-0.550817,-0.626729,3.93936,1.82919,-0.48461,-1.68198,-4.27341,-0.808066,-0.342003,-2.09079,-0.550817,-0.626729,3.93936,1.82919,-0.48461
0.325,0.875,28.1924,-1.23058,-4.30105,-0.777115,-0.321974,-2.3248,-0.379725,-0.620111,3.98991,2.09849,-0.407197,-1.23058,-4.30105,-0.777115,-0.321974,-2.3248,-0.379725,-0.620111,3.98991,2.09849,-0.407197
0.325,0.925,25.2683,-0.796344,-4.33409,-0.792356,-0.272001,-1.92539,-0.231402,-0.617862,4.07338,1.81032,-0.384983,-0.796344,-4.33409,-0.792356,-0.272001,-1.92539,-0.231402,-0.617862,4.07338,1.81032,-0.384983
0.325,0.975,19.8406,-0.500104,-4.36664,-0.885237,-0.145105,-0.919456,-0.105849,-0.619982,4.18978,0.938021,-0.408163,-0.500104,-4.36664,-0.885237,-0.145105,-0.919456,-0.105849,-0.619982,4.18978,0.938021,-0.408163
0.375,0.025,25.0606,-1.66553,-4.23176,-0.76827,-0.79182,0.319582,-1.4165,0.526218,4.51386,0.64191,-5.39697,-1.66553,-4.23176,-0.76827,-0.79182,0.319582,-1.4165,0.526218,4.51386,0.64191,-5.39697
0.375,0.075,21.8932,-1.53443,-4.17618,-0.776505,-0.135186,-1.14146,-0.332598,0.000841293,4.38053,1.90726,-4.45344,-1.53443,-4.17618,-0.776505,-0.135186,-1.14146,-0.332598,0.000841293,4.38053,1.90726,-4.45344
0.375,0.125,23.6351,-1.16792,-4.19892,-0.741261,0.0710058,-2.00814,0.380402,-0.37906,4.25436,2.44226,-2.63775,-1.16792,-4.19892,-0.741261,0.0710058,-2.00814,0.380402,-0.37906,4.25436,2.44226,-2.63775
0.375,0.175,27.8931,-0.69957,-4.2688,-0.684597,-0.122507,-2.20627,0.722499,-0.613485,4.13538,2.28139,-0.654067,-0.69957,-4.2688,-0.684597,-0.122507,-2.20627,0.722499,-0.613485,4.13538,2.28139,-0.654067
0.375,0.225,28.3409,-0.262939,-4.35465,-0.628572,-0.534319,-1.87112,0.693693,-0.702434,4.02356,1.52198,1.18444,-0.262939,-4.35465,-0.628572,-0.534319,-1.87112,0.693693,-0.702434,4.02356,1.52198,1.18444
0.375,0.275,24.5482,0.0120064,-4.42603,-0.594653,-0.952345,-0.989068,0.342943,-0.665868,3.92161,0.466693,2.00789,0.0120064,-4.42603,-0.594653,-0.952345,-0.989068,0.342943,-0.665868,3.92161,0.466693,2.00789
0.375,0.325,21.153,0.0780512,-4.46923,-0.590765,-1.21045,-0.0517601,-0.0359864,-0.623552,3.84574,-0.369629,1.85715,0.0780512,-4.46923,-0.590765,-1.21045,-0.0517601,-0.0359864,-0.623552,3.84574,-0.369629,1.85715
0.375,0.375,20.5103,-0.0292725,-4.48725,-0.611285,-1.30531,0.753189,-0.394136,-0.595448,3.79863,-1.04897,1.66671,-0.0292725,-4.48725,-0.611285,-1.30531,0.753189,-0.394136,-0.595448,3.79863,-1.04897,1.66671
0.375,0.425,21.3068,-0.270835,-4.48383,-0.650003,-1.23488,1.35411,-0.731505,-0.581556,3.78028,-1.56532,1.4186,-0.270835,-4.48383,-0.650003,-1.23488,1.35411,-0.731505,-0.581556,3.78028,-1.56532,1.4186
0.375,0.475,22.5983,-0.607506,-4.46272,-0.700706,-0.995092,1.72383,-1.04809,-0.581875,3.7907,-1.88957,1.10937,-0.607506,-4.46272,-0.700706,-0.995092,1.72383,-1.04809,-0.581875,3.7907,-1.88957,1.10937
0.375,0.525,22.518,-0.999791,-4.42772,-0.757156,-0.6018,1.87912,-1.32693,-0.594415,3.8258,-1.93647,0.506677,-0.999791,-4.42772,-0.757156,-0.6018,1.87912,-1.32693,-0.594415,3.8258,-1.93647,0.506677
0.375,0.575,21.0403,-1.39982,-4.38411,-0.812443,-0.120084,1.83272,-1.4662,-0.607239,3.86102,-1.66268,-0.225913,-1.39982,-4.38411,-0.812443,-0.120084,1.83272,-1.4662,-0.607239,3.86102,-1.66268,-0.225913
0.375,0.625,19.6159,-1.75136,-4.33864,-0.85899,0.361582,1.58116,-1.44891,-0.618356,3.89227,-1.16542,-0.799949,-1.75136,-4.33864,-0.85899,0.361582,1.58116,-1.44891,-0.618356,3.89227,-1.16542,-0.799949
0.375,0.675,18.647,-1.9978,-4.29812,-0.889191,0.794136,1.08005,-1.27509,-0.627767,3.91954,-0.493362,-1.27574,-1.9978,-4.29812,-0.889191,0.794136,1.08005,-1.27509,-0.627767,3.91954,-0.493362,-1.27574
0.375,0.725,18.7171,-2.08254,-4.26936,-0.895441,1.1574,0.263515,-0.944715,-0.635472,3.94284,0.356255,-1.74605,-2.08254,-4.26936,-0.895441,1.1574,0.263515,-0.944715,-0.635472,3.94284,0.356255,-1.74605
0.375,0.775,21.3899,-1.95225,-4.25891,-0.870868,1.40532,-0.831893,-0.494207,-0.641496,3.96306,1.25508,-1.67965,-1.95225,-4.25891,-0.870868,1.40532,-0.831893,-0.494207,-0.641496,3.96306,1.25508,-1.67965
0.375,0.825,27.0057,-1.62909,-4.26728,-0.825504,1.41438,-1.60948,-0.142023,-0.645997,3.98553,1.79691,-1.0455,-1.62909,-4.26728,-0.825504,1.41438,-1.60948,-0.142023,-0.645997,3.98553,1.79691,-1.0455
0.375,0.875,30.9642,-1.21071,-4.28889,-0.786289,1.20849,-1.91718,0.075427,-0.649002,4.01113,1.97046,-0.417493,-1.21071,-4.28889,-0.786289,1.20849,-1.91718,0.075427,-0.649002,4.01113,1.97046,-0.417493
0.375,0.925,30.7945,-0.798028,-4.31795,-0.780895,0.883787,-1.7261,0.158143,-0.650509,4.03986,1.68479,0.189661,-0.798028,-4.31795,-0.780895,0.883787,-1.7261,0.158143,-0.650509,4.03986,1.68479,0.189661
0.375,0.975,27.5373,-0.491975,-4.34863,-0.836994,0.574319,-1.01402,0.106125,-0.65052,4.07173,0.88912,0.728119,-0.491975,-4.34863,-0.836994,0.574319,-1.01402,0.106125,-0.65052,4.07173,0.88912,0.728119
0.425,0.025,48.1561,-1.55117,-4.13019,-0.699162,1.57138,-0.174709,-1.38678,0.578088,4.44608,1.40904,-6.80366,-1.55117,-4.13019,-0.699162,1.57138,-0.174709,-1.38678,0.578088,4.44608,1.40904,-6.80366
0.425,0.075,34.658,-1.37273,-4.15342,-0.76199,1.87699,-1.15859,-0.0610774,-0.017059,4.3748,2.11777,-5.41666,-1.37273,-4.15342,-0.76199,1.87699,-1.15859,-0.0610774,-0.017059,4.3748,2.11777,-5.41666
0.425,0.125,25.4675,-1.06713,-4.21256,-0.767853,1.51481,-1.4558,0.781392,-0.44222,4.28814,2.12378,-2.91343,-1.06713,-4.21256,-0.767853,1.51481,-1.4558,0.781392,-0.44222,4.28814,2.12378,-2.91343
0.425,0.175,26.2299,-0.720404,-4.29023,-0.73912,0.695779,-1.38868,1.14063,-0.697396,4.1861,1.63973,-0.540533,-0.720404,-4.29023,-0.73912,0.695779,-1.38868,1.14063,-0.697396,4.1861,1.63973,-0.540533
0.425,0.225,28.0397,-0.418595,-4.36908,-0.698157,-0.263051,-1.16749,1.01663,-0.782586,4.06868,0.828977,1.66988,-0.418595,-4.36908,-0.698157,-0.263051,-1.16749,1.01663,-0.782586,4.06868,0.828977,1.66988
0.425,0.275,26.7843,-0.245201,-4.43217,-0.666803,-1.06588,-0.641182,0.477127,-0.721199,3.94199,-0.0206952,2.81951,-0.245201,-4.43217,-0.666803,-1.06588,-0.641182,0.477127,-0.721199,3.94199,-0.0206952,2.81951
0.425,0.325,23.6198,-0.225564,-4.47199,-0.654771,-1.50252,-0.0217628,-0.0714999,-0.65369,3.84262,-0.584677,2.61928,-0.225564,-4.47199,-0.654771,-1.50252,-0.0217628,-0.0714999,-0.65369,3.84262,-0.584677,2.61928
0.425,0.375,22.1438,-0.326864,-4.49049,-0.659645,-1.57451,0.514189,-0.561522,-0.603467,3.77667,-1.00593,2.2703,-0.326864,-4.49049,-0.659645,-1.57451,0.514189,-0.561522,-0.603467,3.77667,-1.00593,2.2703
0.425,0.425,21.6259,-0.513749,-4.49003,-0.678483,-1.30564,0.890455,-0.992939,-0.570532,3.74416,-1.27504,1.81668,-0.513749,-4.49003,-0.678483,-1.30564,0.890455,-0.992939,-0.570532,3.74416,-1.27504,1.81668
0.425,0.475,22.1764,-0.750871,-4.47297,-0.708342,-0.736825,1.11255,-1.36575,-0.554882,3.74507,-1.38092,1.32181,-0.750871,-4.47297,-0.708342,-0.736825,1.11255,-1.36575,-0.554882,3.74507,-1.38092,1.32181
0.425,0.525,22.6634,-1.00299,-4.44176,-0.746191,0.0652887,1.23677,-1.66213,-0.555005,3.77568,-1.27247,0.584876,-1.00299,-4.44176,-0.746191,0.0652887,1.23677,-1.66213,-0.555005,3.77568,-1.27247,0.584876
0.425,0.575,23.1701,-1.23728,-4.40093,-0.786962,0.979065,1.31104,-1.77513,-0.561813,3.81363,-0.965843,-0.278654,-1.23728,-4.40093,-0.786962,0.979065,1.31104,-1.77513,-0.561813,3.81363,-0.965843,-0.278654
0.425,0.625,24.2616,-1.42337,-4.35708,-0.823552,1.87099,1.27718,-1.68693,-0.573791,3.8552,-0.524594,-1.04538,-1.42337,-4.35708,-0.823552,1.87099,1.27718,-1.68693,-0.573791,3.8552,-0.524594,-1.04538
0.425,0.675,25.4897,-1.53097,-4.31692,-0.84877,2.64916,1.02722,-1.39752,-0.59094,3.9004,0.0439531,-1.80592,-1.53097,-4.31692,-0.84877,2.64916,1.02722,-1.39752,-0.59094,3.9004,0.0439531,-1.80592
0.425,0.725,27.4215,-1.52982,-4.28714,-0.855422,3.23407,0.454301,-0.906905,-0.613259,3.94921,0.745047,-2.63976,-1.52982,-4.28714,-0.855422,3.23407,0.454301,-0.906905,-0.613259,3.94921,0.745047,-2.63976
0.425,0.775,27.0715,-1.39167,-4.2742,-0.836907,3.49555,-0.378857,-0.267772,-0.639196,3.99851,1.35289,-2.57007,-1.39167,-4.2742,-0.836907,3.49555,-0.378857,-0.267772,-0.639196,3.99851,1.35289,-2.57007
0.425,0.825,28.7597,-1.13542,-4.2786,-0.800186,3.30219,-0.91951,0.203753,-0.659437,4.02945,1.55986,-1.51124,-1.13542,-4.2786,-0.800186,3.30219,-0.91951,0.203753,-0.659437,4.02945,1.55986,-1.51124
0.425,0.875,32.4158,-0.827032,-4.29493,-0.765786,2.73707,-1.10167,0.454985,-0.672432,4.0389,1.48944,-0.471673,-0.827032,-4.29493,-0.765786,2.73707,-1.10167,0.454985,-0.672432,4.0389,1.48944,-0.471673
0.425,0.925,33.932,-0.534555,-4.31752,-0.75482,1.969,-0.986284,0.485922,-0.678179,4.02686,1.11865,0.538914,-0.534555,-4.31752,-0.75482,1.969,-0.986284,0.485922,-0.678179,4.02686,1.11865,0.538914
0.425,0.975,33.6051,-0.326016,-4.3407,-0.788405,1.20392,-0.550152,0.296566,-0.676678,3.99333,0.409935,1.53682,-0.326016,-4.3407,-0.788405,1.20392,-0.550152,0.296566,-0.676678,3.99333,0.409935,1.53682
0.475,0.025,80.6178,-0.929605,-4.09931,-0.597459,4.3224,-0.775078,-1.25285,0.530977,4.31525,1.88621,-7.67253,-0.929605,-4.09931,-0.597459,4.3224,-0.775078,-1.25285,0.530977,4.31525,1.88621,-7.67253
0.475,0.075,50.2276,-0.76629,-4.18662,-0.722788,3.99631,-0.705545,0.148902,-0.0814197,4.31532,1.71572,-5.57671,-0.76629,-4.18662,-0.722788,3.99631,-0.705545,0.148902,-0.0814197,4.31532,1.71572,-5.57671
0.475,0.125,28.7319,-0.636343,-4.2625,-0.7843,2.85645,-0.298815,1.01782,-0.514606,4.27919,1.1181,-2.75209,-0.636343,-4.2625,-0.7843,2.85645,-0.298815,1.01782,-0.514606,4.27919,1.1181,-2.75209
0.475,0.175,24.8991,-0.547868,-4.32633,-0.800625,1.36622,-0.0950398,1.3539,-0.768583,4.20684,0.399819,-0.413844,-0.547868,-4.32633,-0.800625,1.36622,-0.0950398,1.3539,-0.768583,4.20684,0.399819,-0.413844
0.475,0.225,26.8787,-0.508969,-4.37753,-0.79039,-0.109927,-0.0598039,1.15715,-0.843349,4.09828,-0.321106,1.8567,-0.508969,-4.37753,-0.79039,-0.109927,-0.0598039,1.15715,-0.843349,4.09828,-0.321106,1.8567
0.475,0.275,27.2407,-0.527072,-4.4155,-0.771864,-1.25134,0.0055522,0.505303,-0.76366,3.96232,-0.770982,3.18821,-0.527072,-4.4155,-0.771864,-1.25134,0.0055522,0.505303,-0.76366,3.96232,-0.770982,3.18821
0.475,0.325,24.558,-0.593954,-4.4403,-0.755017,-1.82321,0.0888792,-0.135147,-0.678041,3.85187,-0.857953,2.9704,-0.593954,-4.4403,-0.755017,-1.82321,0.0888792,-0.135147,-0.678041,3.85187,-0.857953,2.9704
0.475,0.375,22.6126,-0.685746,-4.45254,-0.741525,-1.83653,0.131408,-0.686458,-0.611246,3.77574,-0.832766,2.5261,-0.685746,-4.45254,-0.741525,-1.83653,0.131408,-0.686458,-0.611246,3.77574,-0.832766,2.5261
0.475,0.425,21.3763,-0.777901,-4.45291,-0.7327,-1.34833,0.139921,-1.14863,-0.563277,3.73393,-0.704858,1.97223,-0.777901,-4.45291,-0.7327,-1.34833,0.139921,-1.14863,-0.563277,3.73393,-0.704858,1.97223
0.475,0.475,22.3328,-0.845869,-4.44207,-0.729856,-0.432481,0.148104,-1.52166,-0.534132,3.72645,-0.482332,1.4169,-0.845869,-4.44207,-0.729856,-0.432481,0.148104,-1.52166,-0.534132,3.72645,-0.482332,1.4169
0.475,0.525,25.0228,-0.865837,-4.42078,-0.734186,0.833726,0.18911,-1.79017,-0.52286,3.7502,-0.139407,0.689861,-0.865837,-4.42078,-0.734186,0.833726,0.18911,-1.79017,-0.52286,3.7502,-0.139407,0.689861
0.475,0.575,28.5139,-0.830866,-4.39194,-0.744111,2.30591,0.306542,-1.86183,-0.523754,3.78669,0.235487,-0.183768,-0.830866,-4.39194,-0.744111,2.30591,0.306542,-1.86183,-0.523754,3.78669,0.235487,-0.183768
0.475,0.625,32.5091,-0.750896,-4.36061,-0.755281,3.78701,0.409508,-1.72128,-0.535863,3.83281,0.594775,-1.06272,-0.750896,-4.36061,-0.755281,3.78701,0.409508,-1.72128,-0.535863,3.83281,0.594775,-1.06272
0.475,0.675,36.3804,-0.636601,-4.33194,-0.763223,5.05587,0.415773,-1.36849,-0.559187,3.88858,0.934597,-2.03972,-0.636601,-4.33194,-0.763223,5.05587,0.415773,-1.36849,-0.559187,3.88858,0.934597,-2.03972
0.475,0.725,41.4008,-0.498654,-4.31107,-0.763467,5.85408,0.308562,-0.803479,-0.593726,3.954,1.22978,-3.13187,-0.498654,-4.31107,-0.763467,5.85408,0.308562,-0.803479,-0.593726,3.954,1.22978,-3.13187
0.475,0.775,38.3015,-0.347967,-4.30294,-0.751879,5.91938,0.188222,-0.0860787,-0.636474,4.02308,1.22885,-3.01298,-0.347967,-4.30294,-0.751879,5.91938,0.188222,-0.0860787,-0.636474,4.02308,1.22885,-3.01298
0.475,0.825,33.6759,-0.20096,-4.30738,-0.732112,5.28319,0.183565,0.424684,-0.669407,4.05997,0.919839,-1.68413,-0.20096,-4.30738,-0.732112,5.28319,0.183565,0.424684,-0.669407,4.05997,0.919839,-1.68413
0.475,0.875,35.455,-0.0795575,-4.31916,-0.715604,4.21509,0.226697,0.668973,-0.689519,4.05869,0.537933,-0.458629,-0.0795575,-4.31916,-0.715604,4.21509,0.226697,0.668973,-0.689519,4.05869,0.537933,-0.458629
0.475,0.925,37.4244,-0.00592538,-4.3328,-0.714131,2.96402,0.301054,0.646788,-0.69681,4.01924,0.0790238,0.723893,-0.00592538,-4.3328,-0.714131,2.96402,0.301054,0.646788,-0.69681,4.01924,0.0790238,0.723893
0.475,0.975,39.0316,-0.00222793,-4.34285,-0.739469,1.7512,0.483125,0.358128,-0.69128,3.94162,-0.502959,1.9919,-0.00222793,-4.34285,-0.739469,1.7512,0.483125,0.358128,-0.69128,3.94162,-0.502959,1.9919
0.525,0.025,79.0472,0.0992189,-4.12949,-0.475861,5.04271,-1.30561,-1.04074,0.396539,4.11936,1.77891,-7.09915,0.0992189,-4.12949,-0.475861,5.04271,-1.30561,-1.04074,0.396539,4.11936,1.77891,-7.09915
0.525,0.075,43.4774,0.195997,-4.26572,-0.664138,4.20914,0.34051,0.206948,-0.174724,4.19142,0.566006,-4.60712,0.195997,-4.26572,-0.664138,4.20914,0.34051,0.206948,-0.174724,4.19142,0.566006,-4.60712
0.525,0.125,26.1773,0.0612985,-4.34084,-0.788903,2.82585,1.30954,0.964011,-0.575599,4.21209,-0.484695,-2.30947,0.0612985,-4.34084,-0.788903,2.82585,1.30954,0.964011,-0.575599,4.21209,-0.484695,-2.30947
0.525,0.175,25.3402,-0.212552,-4.37286,-0.861573,1.2807,1.54375,1.23045,-0.806088,4.18138,-1.28023,-0.390449,-0.212552,-4.37286,-0.861573,1.2807,1.54375,1.23045,-0.806088,4.18138,-1.28023,-0.390449
0.525,0.225,28.4509,-0.533232,-4.37981,-0.89356,-0.156834,1.38196,1.00625,-0.86619,4.09929,-1.76848,1.69987,-0.533232,-4.37981,-0.89356,-0.156834,1.38196,1.00625,-0.86619,4.09929,-1.76848,1.69987
0.525,0.275,27.975,-0.810171,-4.37933,-0.896167,-1.16209,0.936708,0.365963,-0.77952,3.97605,-1.63913,2.95866,-0.810171,-4.37933,-0.896167,-1.16209,0.936708,0.365963,-0.77952,3.97605,-1.63913,2.95866
0.525,0.325,24.2937,-0.993177,-4.37981,-0.878133,-1.57343,0.368095,-0.243271,-0.687769,3.87314,-1.09937,2.69808,-0.993177,-4.37981,-0.878133,-1.57343,0.368095,-0.243271,-0.687769,3.87314,-1.09937,2.69808
0.525,0.375,22.5474,-1.07243,-4.38042,-0.845631,-1.45757,-0.202867,-0.746919,-0.61455,3.80077,-0.514836,2.26525,-1.07243,-4.38042,-0.845631,-1.45757,-0.202867,-0.746919,-0.61455,3.80077,-0.514836,2.26525
0.525,0.425,23.0781,-1.03987,-4.37993,-0.804723,-0.892305,-0.681195,-1.14498,-0.559863,3.75895,0.0980278,1.77774,-1.03987,-4.37993,-0.804723,-0.892305,-0.681195,-1.14498,-0.559863,3.75895,0.0980278,1.77774
0.525,0.475,26.8333,-0.887423,-4.37709,-0.761471,0.0748754,-1.04493,-1.43746,-0.52371,3.74769,0.745799,1.29433,-0.887423,-4.37709,-0.761471,0.0748754,-1.04493,-1.43746,-0.52371,3.74769,0.745799,1.29433
0.525,0.525,32.62,-0.608497,-4.37077,-0.721813,1.41131,-1.31644,-1.61559,-0.505652,3.76464,1.43362,0.680715,-0.608497,-4.37077,-0.721813,1.41131,-1.31644,-1.61559,-0.505652,3.76464,1.43362,0.680715
0.525,0.575,37.1433,-0.230064,-4.36152,-0.688849,2.95516,-1.41803,-1.6268,-0.50306,3.7958,1.93166,-0.113826,-0.230064,-4.36152,-0.688849,2.95516,-1.41803,-1.6268,-0.50306,3.7958,1.93166,-0.113826
0.525,0.625,39.2264,0.187317,-4.3517,-0.662837,4.40757,-1.395,-1.46232,-0.515496,3.83881,2.12259,-0.975675,0.187317,-4.3517,-0.662837,4.40757,-1.395,-1.46232,-0.515496,3.83881,2.12259,-0.975675
0.525,0.675,38.775,0.581628,-4.34369,-0.643914,5.42906,-1.16016,-1.12214,-0.54296,3.89369,1.97171,-1.87583,0.581628,-4.34369,-0.643914,5.42906,-1.16016,-1.12214,-0.54296,3.89369,1.97171,-1.87583
0.525,0.725,38.2805,0.89085,-4.33991,-0.632213,5.78865,-0.528235,-0.606282,-0.585452,3.96043,1.50638,-2.75662,0.89085,-4.33991,-0.632213,5.78865,-0.528235,-0.606282,-0.585452,3.96043,1.50638,-2.75662
0.525,0.775,34.1917,1.05495,-4.34259,-0.627879,5.44894,0.47075,0.0306998,-0.638825,4.03203,0.699635,-2.54855,1.05495,-4.34259,-0.627879,5.44894,0.47075,0.0306998,-0.638825,4.03203,0.699635,-2.54855
0.525,0.825,31.772,1.05959,-4.35037,-0.631214,4.67774,1.19887,0.461394,-0.678197,4.06638,-0.0901604,-1.40103,1.05959,-4.35037,-0.631214,4.67774,1.19887,0.461394,-0.678197,4.06638,-0.0901604,-1.40103
0.525,0.875,34.5151,0.936107,-4.35825,-0.642684,3.67891,1.57285,0.631231,-0.699421,4.05648,-0.720573,-0.335636,0.936107,-4.35825,-0.642684,3.67891,1.57285,0.631231,-0.699421,4.05648,-0.720573,-0.335636
0.525,0.925,38.1175,0.71784,-4.36106,-0.662761,2.5729,1.72629,0.540212,-0.702497,4.00233,-1.24138,0.792593,0.71784,-4.36106,-0.662761,2.5729,1.72629,0.540212,-0.702497,4.00233,-1.24138,0.792593
0.525,0.975,41.817,0.438117,-4.35366,-0.691915,1.50429,1.78181,0.188337,-0.687424,3.90393,-1.68494,2.12064,0.438117,-4.35366,-0.691915,1.50429,1.78181,0.188337,-0.687424,3.90393,-1.68494,2.12064
0.575,0.025,40.6982,0.93555,-4.16285,-0.410572,3.29198,-1.2573,-0.772252,0.194224,3.88533,1.39822,-4.83535,0.93555,-4.16285,-0.410572,3.29198,-1.2573,-0.772252,0.194224,3.88533,1.39822,-4.83535
0.575,0.075,23.7819,0.980835,-4.33045,-0.617467,2.6483,1.14968,0.098307,-0.283493,4.02036,-0.454777,-2.93653,0.980835,-4.33045,-0.617467,2.6483,1.14968,0.098307,-0.283493,4.02036,-0.454777,-2.93653
0.575,0.125,23.982,0.647026,-4.40022,-0.771471,1.72575,2.4613,0.611068,-0.616378,4.09626,-1.7363,-1.64435,0.647026,-4.40022,-0.771471,1.72575,2.4613,0.611068,-0.616378,4.09626,-1.7363,-1.64435
0.575,0.175,29.8468,0.101993,-4.40432,-0.876731,0.706199,2.86994,0.76603,-0.804432,4.11305,-2.54971,-0.375959,0.101993,-4.40432,-0.876731,0.706199,2.86994,0.76603,-0.804432,4.11305,-2.54971,-0.375959
0.575,0.225,32.9363,-0.486395,-4.37491,-0.937399,-0.188793,2.59871,0.563193,-0.847654,4.07072,-2.76907,1.25176,-0.486395,-4.37491,-0.937399,-0.188793,2.59871,0.563193,-0.847654,4.07072,-2.76907,1.25176
0.575,0.275,29.1947,-0.953892,-4.3434,-0.957708,-0.668106,1.70422,0.0605668,-0.766212,3.97954,-2.10944,2.17078,-0.953892,-4.3434,-0.957708,-0.668106,1.70422,0.0605668,-0.766212,3.97954,-2.10944,2.17078
0.575,0.325,24.0078,-1.2196,-4.3245,-0.943898,-0.737346,0.677974,-0.393798,-0.681109,3.9012,-1.11114,1.87914,-1.2196,-4.3245,-0.943898,-0.737346,0.677974,-0.393798,-0.681109,3.9012,-1.11114,1.87914
0.575,0.375,23.2137,-1.28598,-4.31621,-0.904213,-0.5037,-0.284229,-0.741893,-0.612512,3.84597,-0.15568,1.52554,-1.28598,-4.31621,-0.904213,-0.5037,-0.284229,-0.741893,-0.612512,3.84597,-0.15568,1.52554
0.575,0.425,26.367,-1.15912,-4.3158,-0.846981,-0.0253611,-1.13917,-0.983717,-0.560422,3.81384,0.779873,1.15654,-1.15912,-4.3158,-0.846981,-0.0253611,-1.13917,-0.983717,-0.560422,3.81384,0.779873,1.15654
0.575,0.475,32.9961,-0.845076,-4.32051,-0.780533,0.679529,-1.90989,-1.11927,-0.524838,3.80482,1.73518,0.755983,-0.845076,-4.32051,-0.780533,0.679529,-1.90989,-1.11927,-0.524838,3.80482,1.73518,0.755983
0.575,0.525,41.7412,-0.351869,-4.32769,-0.713111,1.57473,-2.60108,-1.1501,-0.505718,3.81723,2.65096,0.312618,-0.351869,-4.32769,-0.713111,1.57473,-2.60108,-1.1501,-0.505718,3.81723,2.65096,0.312618
0.575,0.575,46.1796,0.268277,-4.33593,-0.650933,2.45839,-2.93192,-1.0855,-0.502802,3.84097,3.11328,-0.214506,0.268277,-4.33593,-0.650933,2.45839,-2.93192,-1.0855,-0.502802,3.84097,3.11328,-0.214506
0.575,0.625,43.3371,0.918905,-4.34512,-0.598196,3.07492,-2.80833,-0.927004,-0.516047,3.87437,2.96581,-0.759243,0.918905,-4.34512,-0.598196,3.07492,-2.80833,-0.927004,-0.516047,3.87437,2.96581,-0.759243
0.575,0.675,35.6784,1.50164,-4.35524,-0.55901,3.29144,-2.16971,-0.674621,-0.545453,3.91742,2.30335,-1.21192,1.50164,-4.35524,-0.55901,3.29144,-2.16971,-0.674621,-0.545453,3.91742,2.30335,-1.21192
0.575,0.725,27.9059,1.91809,-4.36621,-0.537483,3.15611,-1.03037,-0.32835,-0.59102,3.97013,1.3319,-1.5908,1.91809,-4.36621,-0.537483,3.15611,-1.03037,-0.32835,-0.59102,3.97013,1.3319,-1.5908
0.575,0.775,24.6045,2.07358,-4.37791,-0.537474,2.77306,0.412711,0.0745936,-0.64785,4.02625,0.165787,-1.39861,2.07358,-4.37791,-0.537474,2.77306,0.412711,0.0745936,-0.64785,4.02625,0.165787,-1.39861
0.575,0.825,26.7225,1.95808,-4.38806,-0.557085,2.28242,1.46336,0.310901,-0.686561,4.04838,-0.793851,-0.69922,1.95808,-4.38806,-0.557085,2.28242,1.46336,0.310901,-0.686561,4.04838,-0.793851,-0.69922
0.575,0.875,30.9583,1.64631,-4.39221,-0.588666,1.72033,2.1096,0.343354,-0.702254,4.03029,-1.53164,0.03066,1.64631,-4.39221,-0.588666,1.72033,2.1096,0.343354,-0.702254,4.03029,-1.53164,0.03066
0.575,0.925,35.6864,1.21662,-4.38585,-0.624313,1.12941,2.43128,0.171954,-0.694931,3.97197,-2.07175,0.929824,1.21662,-4.38585,-0.624313,1.12941,2.43128,0.171954,-0.694931,3.97197,-2.07175,0.929824
0.575,0.975,39.7978,0.747388,-4.36445,-0.656124,0.635466,2.43396,-0.2033,-0.664589,3.87343,-2.35923,2.05447,0.747388,-4.36445,-0.656124,0.635466,2.43396,-0.2033,-0.664589,3.87343,-2.35923,2.05447
0.625,0.025,19.3766,1.47943,-4.18975,-0.414292,1.74453,-1.11441,-0.464964,-0.0487192,3.66893,1.05143,-1.66485,1.47943,-4.18975,-0.414292,1.74453,-1.11441,-0.464964,-0.0487192,3.66893,1.05143,-1.66485
0.625,0.075,20.7412,1.49934,-4.37075,-0.588015,1.34881,1.56595,-0.116144,-0.398289,3.84739,-1.08619,-0.963814,1.49934,-4.37075,-0.588015,1.34881,1.56595,-0.116144,-0.398289,3.84739,-1.08619,-0.963814
0.625,0.125,29.7732,1.05771,-4.43276,-0.730304,0.865077,3.12561,0.0668619,-0.63992,3.96599,-2.4904,-0.684425,1.05771,-4.43276,-0.730304,0.865077,3.12561,0.0668619,-0.63992,3.96599,-2.4904,-0.684425
0.625,0.175,36.8906,0.365176,-4.41649,-0.838563,0.355772,3.75217,0.0840525,-0.773612,4.02474,-3.29287,-0.277337,0.365176,-4.41649,-0.838563,0.355772,3.75217,0.0840525,-0.773612,4.02474,-3.29287,-0.277337
0.625,0.225,36.2682,-0.367627,-4.36264,-0.910195,-0.00964522,3.40414,-0.0645719,-0.799366,4.02365,-3.23702,0.51328,-0.367627,-4.36264,-0.910195,-0.00964522,3.40414,-0.0645719,-0.799366,4.02365,-3.23702,0.51328
0.625,0.275,28.0483,-0.934798,-4.31099,-0.942817,-0.0413582,2.17451,-0.346453,-0.732327,3.97204,-2.17761,0.972294,-0.934798,-4.31099,-0.942817,-0.0413582,2.17451,-0.346453,-0.732327,3.97204,-2.17761,0.972294
0.625,0.325,22.4731,-1.23929,-4.28003,-0.938942,0.131442,0.901272,-0.566241,-0.66337,3.92597,-0.936744,0.753497,-1.23929,-4.28003,-0.938942,0.131442,0.901272,-0.566241,-0.66337,3.92597,-0.936744,0.753497
0.625,0.375,22.742,-1.29292,-4.26693,-0.905978,0.418466,-0.253339,-0.691376,-0.607641,3.89479,0.194833,0.505492,-1.29292,-4.26693,-0.905978,0.418466,-0.253339,-0.691376,-0.607641,3.89479,0.194833,0.505492
0.625,0.425,27.3123,-1.11223,-4.26797,-0.851546,0.78635,-1.32649,-0.72186,-0.56514,3.87849,1.27941,0.215456,-1.11223,-4.26797,-0.851546,0.78635,-1.32649,-0.72186,-0.56514,3.87849,1.27941,0.215456
0.625,0.475,35.2972,-0.713752,-4.27941,-0.783267,1.20516,-2.36076,-0.657692,-0.535867,3.87708,2.36,-0.147909,-0.713752,-4.27941,-0.783267,1.20516,-2.36076,-0.657692,-0.535867,3.87708,2.36,-0.147909
0.625,0.525,46.0255,-0.116105,-4.29754,-0.708751,1.59342,-3.28446,-0.512536,-0.520058,3.8892,3.2743,-0.323056,-0.116105,-4.29754,-0.708751,1.59342,-3.28446,-0.512536,-0.520058,3.8892,3.2743,-0.323056
0.625,0.575,50.9042,0.61468,-4.31952,-0.635321,1.77383,-3.62758,-0.368381,-0.519127,3.90667,3.51935,-0.275844,0.61468,-4.31952,-0.635321,1.77383,-3.62758,-0.368381,-0.519127,3.90667,3.51935,-0.275844
0.625,0.625,45.898,1.36514,-4.34335,-0.57002,1.69642,-3.29086,-0.23889,-0.533309,3.92813,3.06003,-0.22895,1.36514,-4.34335,-0.57002,1.69642,-3.29086,-0.23889,-0.533309,3.92813,3.06003,-0.22895
0.625,0.675,36.1284,2.01975,-4.36708,-0.519875,1.4487,-2.40233,-0.124064,-0.562605,3.9536,2.14758,-0.178899,2.01975,-4.36708,-0.519875,1.4487,-2.40233,-0.124064,-0.562605,3.9536,2.14758,-0.178899
0.625,0.725,27.3211,2.46298,-4.38875,-0.491914,1.13393,-1.11735,-0.0239034,-0.607014,3.98306,1.02278,-0.160187,2.46298,-4.38875,-0.491914,1.13393,-1.11735,-0.0239034,-0.607014,3.98306,1.02278,-0.160187
0.625,0.775,23.611,2.58399,-4.40636,-0.492759,0.787006,0.405828,0.0498371,-0.661264,4.01231,-0.222578,-0.0593445,2.58399,-4.40636,-0.492759,0.787006,0.405828,0.0498371,-0.661264,4.01231,-0.222578,-0.0593445
0.625,0.825,25.4773,2.37984,-4.41718,-0.519658,0.443899,1.55245,0.026622,-0.693715,4.01607,-1.21501,0.199248,2.37984,-4.41718,-0.519658,0.443899,1.55245,0.026622,-0.693715,4.01607,-1.21501,0.199248
0.625,0.875,29.2018,1.95543,-4.41772,-0.560489,0.115018,2.29955,-0.105304,-0.699092,3.99014,-1.96715,0.559767,1.95543,-4.41772,-0.560489,0.115018,2.29955,-0.105304,-0.699092,3.99014,-1.96715,0.559767
0.625,0.925,32.5667,1.42039,-4.40443,-0.602722,-0.127018,2.62405,-0.345942,-0.677398,3.93451,-2.4288,1.07355,1.42039,-4.40443,-0.602722,-0.127018,2.62405,-0.345942,-0.677398,3.93451,-2.4288,1.07355
0.625,0.975,33.9345,0.884313,-4.3738,-0.633825,-0.127617,2.42845,-0.695292,-0.628631,3.84918,-2.45442,1.72652,0.884313,-4.3738,-0.633825,-0.127617,2.42845,-0.695292,-0.628631,3.84918,-2.45442,1.72652
0.675,0.025,30.47,1.73086,-4.21018,-0.487021,0.491832,-1.14763,-0.136272,-0.304703,3.52719,0.720948,1.83726,1.73086,-4.21018,-0.487021,0.491832,-1.14763,-0.136272,-0.304703,3.52719,0.720948,1.83726
0.675,0.075,27.5498,1.75151,-4.38662,-0.575781,0.274846,1.55207,-0.372237,-0.509849,3.71896,-1.36475,1.10853,1.75151,-4.38662,-0.575781,0.274846,1.55207,-0.372237,-0.509849,3.71896,-1.36475,1.10853
0.675,0.125,34.81,1.29335,-4.43845,-0.665403,0.221695,3.14099,-0.555658,-0.649716,3.85664,-2.75358,0.462115,1.29335,-4.43845,-0.665403,0.221695,3.14099,-0.555658,-0.649716,3.85664,-2.75358,0.462115
0.675,0.175,39.7579,0.576998,-4.40936,-0.747066,0.272114,3.84881,-0.686535,-0.724302,3.94021,-3.48291,-0.0805281,0.576998,-4.40936,-0.747066,0.272114,3.84881,-0.686535,-0.724302,3.94021,-3.48291,-0.0805281
0.675,0.225,35.0586,-0.176928,-4.34302,-0.811949,0.455259,3.56417,-0.764869,-0.733608,3.96968,-3.20906,-0.357672,-0.176928,-4.34302,-0.811949,0.455259,3.56417,-0.764869,-0.733608,3.96968,-3.20906,-0.357672
0.675,0.275,24.8051,-0.752891,-4.28212,-0.851497,0.786517,2.33727,-0.787927,-0.686944,3.95292,-1.95138,-0.388597,-0.752891,-4.28212,-0.851497,0.786517,2.33727,-0.787927,-0.686944,3.95292,-1.95138,-0.388597
0.675,0.325,20.4685,-1.05225,-4.24639,-0.863266,1.10341,1.05426,-0.739309,-0.640167,3.93715,-0.66446,-0.483335,-1.05225,-4.24639,-0.863266,1.10341,1.05426,-0.739309,-0.640167,3.93715,-0.66446,-0.483335
0.675,0.375,21.2466,-1.09324,-4.23258,-0.850927,1.37063,-0.138783,-0.616282,-0.602588,3.93023,0.486254,-0.638089,-1.09324,-4.23258,-0.850927,1.37063,-0.138783,-0.616282,-0.602588,3.93023,0.486254,-0.638089
0.675,0.425,25.345,-0.899196,-4.23646,-0.818417,1.56799,-1.26799,-0.418845,-0.574207,3.93218,1.56,-0.876207,-0.899196,-4.23646,-0.818417,1.56799,-1.26799,-0.418845,-0.574207,3.93218,1.56,-0.876207
0.675,0.475,31.9744,-0.49345,-4.25378,-0.769673,1.63716,-2.31976,-0.147,-0.555023,3.94298,2.56616,-1.17875,-0.49345,-4.25378,-0.769673,1.63716,-2.31976,-0.147,-0.555023,3.94298,2.56616,-1.17875
0.675,0.525,41.3451,0.0987956,-4.28032,-0.708734,1.47886,-3.14978,0.173609,-0.54544,3.96103,3.26782,-0.959053,0.0987956,-4.28032,-0.708734,1.47886,-3.14978,0.173609,-0.54544,3.96103,3.26782,-0.959053
0.675,0.575,45.8499,0.809146,-4.3123,-0.642015,1.03511,-3.38206,0.389106,-0.54788,3.97664,3.25773,-0.224108,0.809146,-4.3123,-0.642015,1.03511,-3.38206,0.389106,-0.54788,3.97664,3.25773,-0.224108
0.675,0.625,41.8356,1.52602,-4.34638,-0.578308,0.458305,-3.05068,0.473843,-0.562747,3.98819,2.66936,0.407712,1.52602,-4.34638,-0.578308,0.458305,-3.05068,0.473843,-0.562747,3.98819,2.66936,0.407712
0.675,0.675,34.045,2.13596,-4.37922,-0.526507,-0.0854185,-2.26729,0.427822,-0.590041,3.9957,1.75234,0.889381,2.13596,-4.37922,-0.526507,-0.0854185,-2.26729,0.427822,-0.590041,3.9957,1.75234,0.889381
0.675,0.725,27.3657,2.5255,-4.40751,-0.495505,-0.541206,-1.08008,0.251043,-0.629762,3.99915,0.654806,1.27497,2.5255,-4.40751,-0.495505,-0.541206,-1.08008,0.251043,-0.629762,3.99915,0.654806,1.27497
0.675,0.775,23.7482,2.5862,-4.42794,-0.493733,-0.937761,0.424766,-0.0388045,-0.676612,3.997,-0.565717,1.31706,2.5862,-4.42794,-0.493733,-0.937761,0.424766,-0.0388045,-0.676612,3.997,-0.565717,1.31706
0.675,0.825,23.9322,2.32485,-4.43775,-0.518932,-1.2523,1.5659,-0.335575,-0.698807,3.97999,-1.51263,1.13673,2.32485,-4.43775,-0.518932,-1.2523,1.5659,-0.335575,-0.698807,3.97999,-1.51263,1.13673
0.675,0.875,25.8293,1.86348,-4.43477,-0.558154,-1.43107,2.22519,-0.621577,-0.69105,3.94657,-2.1586,1.05196,1.86348,-4.43477,-0.558154,-1.43107,2.22519,-0.621577,-0.69105,3.94657,-2.1586,1.05196
0.675,0.925,26.31,1.32915,-4.41681,-0.597987,-1.34017,2.33409,-0.896812,-0.653341,3.89673,-2.3723,1.03134,1.32915,-4.41681,-0.597987,-1.34017,2.33409,-0.896812,-0.653341,3.89673,-2.3723,1.03134
0.675,0.975,24.4177,0.848892,-4.3817,-0.625018,-0.82552,1.83667,-1.16128,-0.585681,3.83048,-1.98424,1.07645,0.848892,-4.3817,-0.625018,-0.82552,1.83667,-1.16128,-0.585681,3.83048,-1.98424,1.07645
0.725,0.025,41.6472,1.68984,-4.22415,-0.628758,-0.597901,-1.36382,0.196429,-0.546139,3.51716,0.269219,5.12943,1.68984,-4.22415,-0.628758,-0.597901,-1.36382,0.196429,-0.546139,3.51716,0.269219,5.12943
0.725,0.075,31.581,1.73735,-4.37807,-0.580765,-0.70449,1.04914,-0.605805,-0.608911,3.68155,-1.30843,3.0821,1.73735,-4.37807,-0.580765,-0.70449,1.04914,-0.605805,-0.608911,3.68155,-1.30843,3.0821
0.725,0.125,33.5226,1.35395,-4.4173,-0.576768,-0.267422,2.433,-1.14354,-0.649255,3.80355,-2.46112,1.53402,1.35395,-4.4173,-0.576768,-0.267422,2.433,-1.14354,-0.649255,3.80355,-2.46112,1.53402
0.725,0.175,35.4931,0.737458,-4.38292,-0.602243,0.441563,3.05902,-1.41678,-0.667172,3.88317,-3.04684,0.190008,0.737458,-4.38292,-0.602243,0.441563,3.05902,-1.41678,-0.667172,3.88317,-3.04684,0.190008
0.725,0.225,30.4899,0.0857015,-4.31603,-0.642662,1.2148,3.00283,-1.42553,-0.662661,3.92041,-2.70941,-1.0168,0.0857015,-4.31603,-0.642662,1.2148,3.00283,-1.42553,-0.662661,3.92041,-2.70941,-1.0168
0.725,0.275,23.7504,-0.40817,-4.25678,-0.683745,1.85581,2.16473,-1.19669,-0.639141,3.92156,-1.52139,-1.58356,-0.40817,-4.25678,-0.683745,1.85581,2.16473,-1.19669,-0.639141,3.92156,-1.52139,-1.58356
0.725,0.325,21.5015,-0.658462,-4.22359,-0.716868,2.24113,1.12246,-0.891715,-0.617117,3.92442,-0.377346,-1.65067,-0.658462,-4.22359,-0.716868,2.24113,1.12246,-0.891715,-0.617117,3.92442,-0.377346,-1.65067
0.725,0.375,21.3132,-0.686937,-4.21316,-0.739059,2.39939,0.0588746,-0.537521,-0.600008,3.93528,0.638845,-1.75715,-0.686937,-4.21316,-0.739059,2.39939,0.0588746,-0.537521,-0.600008,3.93528,0.638845,-1.75715
0.725,0.425,22.8491,-0.520028,-4.22126,-0.747595,2.32423,-0.940786,-0.134107,-0.587813,3.95415,1.53846,-1.90972,-0.520028,-4.22126,-0.747595,2.32423,-0.940786,-0.134107,-0.587813,3.95415,1.53846,-1.90972
0.725,0.475,25.9656,-0.18417,-4.24363,-0.73975,1.96021,-1.76969,0.318529,-0.580533,3.98102,2.29191,-2.03961,-0.18417,-4.24363,-0.73975,1.96021,-1.76969,0.318529,-0.580533,3.98102,2.29191,-2.03961
0.725,0.525,31.1212,0.292833,-4.27603,-0.713059,1.25483,-2.31207,0.784836,-0.578633,4.01321,2.66821,-1.39978,0.292833,-4.27603,-0.713059,1.25483,-2.31207,0.784836,-0.578633,4.01321,2.66821,-1.39978
0.725,0.575,33.9138,0.851674,-4.31428,-0.671014,0.282095,-2.47742,1.05151,-0.584909,4.03465,2.46736,-0.188455,0.851674,-4.31428,-0.671014,0.282095,-2.47742,1.05151,-0.584909,4.03465,2.46736,-0.188455
0.725,0.625,31.6673,1.40155,-4.35421,-0.623061,-0.726363,-2.35735,1.08301,-0.599826,4.04264,1.90458,0.836261,1.40155,-4.35421,-0.623061,-0.726363,-2.35735,1.08301,-0.599826,4.04264,1.90458,0.836261
0.725,0.675,27.5654,1.85027,-4.39167,-0.578907,-1.61144,-1.90287,0.879334,-0.623385,4.03719,1.11586,1.72701,1.85027,-4.39167,-0.578907,-1.61144,-1.90287,0.879334,-0.623385,4.03719,1.11586,1.72701
0.725,0.725,26.0835,2.10566,-4.42251,-0.548258,-2.3389,-0.969354,0.440475,-0.655586,4.01831,0.131881,2.59547,2.10566,-4.42251,-0.548258,-2.3389,-0.969354,0.440475,-0.655586,4.01831,0.131881,2.59547
0.725,0.775,25.8196,2.08019,-4.44264,-0.540398,-2.92168,0.423567,-0.186566,-0.691437,3.98714,-0.97497,2.66015,2.08019,-4.44264,-0.540398,-2.92168,0.423567,-0.186566,-0.691437,3.98714,-0.97497,2.66015
0.725,0.825,24.0187,1.79311,-4.44977,-0.554908,-3.24537,1.40469,-0.719822,-0.700986,3.9507,-1.73208,1.94736,1.79311,-4.44977,-0.554908,-3.24537,1.40469,-0.719822,-0.700986,3.9507,-1.73208,1.94736
0.725,0.875,22.4154,1.37045,-4.44337,-0.58166,-3.18327,1.75809,-1.1123,-0.679242,3.91013,-2.0625,1.28586,1.37045,-4.44337,-0.58166,-3.18327,1.75809,-1.1123,-0.679242,3.91013,-2.0625,1.28586
0.725,0.925,19.2105,0.942899,-4.42298,-0.610108,-2.60351,1.51838,-1.36399,-0.626204,3.86544,-1.81703,0.676718,0.942899,-4.42298,-0.610108,-2.60351,1.51838,-1.36399,-0.626204,3.86544,-1.81703,0.676718
0.725,0.975,15.4304,0.641125,-4.38816,-0.629702,-1.46861,0.748494,-1.4749,-0.541872,3.81663,-0.907592,0.150084,0.641125,-4.38816,-0.629702,-1.46861,0.748494,-1.4749,-0.541872,3.81663,-0.907592,0.150084
0.775,0.025,45.5175,1.36713,-4.22257,-0.81318,-1.50718,-1.46034,0.513769,-0.747044,3.69039,-0.441639,7.41772,1.36713,-4.22257,-0.81318,-1.50718,-1.46034,0.513769,-0.747044,3.69039,-0.441639,7.41772
0.775,0.075,33.0091,1.45599,-4.34378,-0.604087,-1.74152,0.157569,-0.754565,-0.68722,3.77789,-0.969723,4.75171,1.45599,-4.34378,-0.604087,-1.74152,0.157569,-0.754565,-0.68722,3.77789,-0.969723,4.75171
0.775,0.125,26.944,1.22786,-4.37261,-0.483174,-1.07876,1.21301,-1.58553,-0.642587,3.83988,-1.59189,2.37891,1.22786,-4.37261,-0.483174,-1.07876,1.21301,-1.58553,-0.642587,3.83988,-1.59189,2.37891
0.775,0.175,26.1396,0.825602,-4.34286,-0.432464,0.0714994,1.69929,-1.97914,-0.613145,3.87636,-1.96441,0.502843,0.825602,-4.34286,-0.432464,0.0714994,1.69929,-1.97914,-0.613145,3.87636,-1.96441,0.502843
0.775,0.225,25.3278,0.392083,-4.2883,-0.433984,1.3191,1.82278,-1.93537,-0.598894,3.88733,-1.74661,-1.26001,0.392083,-4.2883,-0.433984,1.3191,1.82278,-1.93537,-0.598894,3.88733,-1.74661,-1.26001
0.775,0.275,25.7144,0.0666587,-4.24195,-0.469896,2.26453,1.4875,-1.50606,-0.598043,3.87787,-0.923811,-2.33358,0.0666587,-4.24195,-0.469896,2.26453,1.4875,-1.50606,-0.598043,3.87787,-0.923811,-2.33358
0.775,0.325,24.9762,-0.0919091,-4.2188,-0.525538,2.75169,0.910008,-1.00208,-0.599852,3.87846,-0.128875,-2.52902,-0.0919091,-4.2188,-0.525538,2.75169,0.910008,-1.00208,-0.599852,3.87846,-0.128875,-2.52902
0.775,0.375,23.5129,-0.105457,-4.21582,-0.589425,2.8385,0.227698,-0.475241,-0.602529,3.89418,0.58051,-2.64855,-0.105457,-4.21582,-0.589425,2.8385,0.227698,-0.475241,-0.602529,3.89418,0.58051,-2.64855
0.775,0.425,22.3497,0.000673506,-4.22923,-0.650209,2.5617,-0.411729,0.0744483,-0.606076,3.92503,1.16093,-2.67523,0.000673506,-4.22923,-0.650209,2.5617,-0.411729,0.0744483,-0.606076,3.92503,1.16093,-2.67523
0.775,0.475,22.1075,0.201142,-4.2552,-0.696542,1.9353,-0.877708,0.646991,-0.610491,3.97101,1.56563,-2.5735,0.201142,-4.2552,-0.696542,1.9353,-0.877708,0.646991,-0.610491,3.97101,1.56563,-2.5735
0.775,0.525,22.3587,0.470005,-4.28994,-0.71751,0.988598,-1.13411,1.20089,-0.616209,4.02734,1.61429,-1.65137,0.470005,-4.28994,-0.71751,0.988598,-1.13411,1.20089,-0.616209,4.02734,1.61429,-1.65137
0.775,0.575,22.8525,0.76745,-4.32943,-0.712192,-0.15294,-1.24602,1.48714,-0.625829,4.06533,1.28505,-0.251425,0.76745,-4.32943,-0.712192,-0.15294,-1.24602,1.48714,-0.625829,4.06533,1.28505,-0.251425
0.775,0.625,22.3268,1.0398,-4.36944,-0.689657,-1.30847,-1.25724,1.46425,-0.639783,4.0802,0.787175,0.971105,1.0398,-4.36944,-0.689657,-1.30847,-1.25724,1.46425,-0.639783,4.0802,0.787175,0.971105
0.775,0.675,23.6497,1.23277,-4.40575,-0.659409,-2.35387,-1.06097,1.13221,-0.658073,4.07195,0.156024,2.22189,1.23277,-4.40575,-0.659409,-2.35387,-1.06097,1.13221,-0.658073,4.07195,0.156024,2.22189
0.775,0.725,30.5845,1.29208,-4.43414,-0.630951,-3.20642,-0.465067,0.491033,-0.680698,4.04058,-0.642961,3.6492,1.29208,-4.43414,-0.630951,-3.20642,-0.465067,0.491033,-0.680698,4.04058,-0.642961,3.6492
0.775,0.775,33.2565,1.16705,-4.45046,-0.613511,-3.74619,0.506164,-0.387242,-0.70325,3.9894,-1.4379,3.74562,1.16705,-4.45046,-0.613511,-3.74619,0.506164,-0.387242,-0.70325,3.9894,-1.4379,3.74562
0.775,0.825,26.5011,0.889965,-4.45284,-0.609955,-3.76435,0.994264,-1.07032,-0.699276,3.93832,-1.72015,2.37758,0.889965,-4.45284,-0.609955,-3.76435,0.994264,-1.07032,-0.699276,3.93832,-1.72015,2.37758
0.775,0.875,19.8529,0.576058,-4.4416,-0.616788,-3.254,0.912657,-1.48615,-0.664369,3.89064,-1.4987,1.13239,0.576058,-4.4416,-0.616788,-3.254,0.912657,-1.48615,-0.664369,3.89064,-1.4987,1.13239
0.775,0.925,14.4652,0.344169,-4.41719,-0.630238,-2.32417,0.400115,-1.63473,-0.598528,3.84637,-0.71994,0.0493917,0.344169,-4.41719,-0.630238,-2.32417,0.400115,-1.63473,-0.598528,3.84637,-0.71994,0.0493917
0.775,0.975,14.5049,0.313139,-4.38005,-0.646533,-1.10838,-0.587716,-1.51607,-0.501753,3.8055,0.642219,-1.00806,0.313139,-4.38005,-0.646533,-1.10838,-0.587716,-1.51607,-0.501753,3.8055,0.642219,-1.00806
0.825,0.025,47.6761,0.827257,-4.1509,-0.882335,-2.61515,-1.09542,0.75096,-0.918332,3.97222,-1.35598,8.22654,0.827257,-4.1509,-0.882335,-2.61515,-1.09542,0.75096,-0.918332,3.97222,-1.35598,8.22654
0.825,0.075,38.4745,0.902191,-4.27583,-0.652471,-3.02075,-0.580931,-0.799567,-0.759752,3.9654,-0.783047,5.82278,0.902191,-4.27583,-0.652471,-3.02075,-0.580931,-0.799567,-0.759752,3.9654,-0.783047,5.82278
0.825,0.125,24.3869,0.845194,-4.32429,-0.497267,-2.46294,-0.00286801,-1.80926,-0.646615,3.94763,-0.626179,2.9662,0.845194,-4.32429,-0.497267,-2.46294,-0.00286801,-1.80926,-0.646615,3.94763,-0.626179,2.9662
0.825,0.175,18.2974,0.715698,-4.32321,-0.407972,-1.20495,0.333006,-2.27812,-0.57892,3.91891,-0.59048,0.765865,0.715698,-4.32321,-0.407972,-1.20495,0.333006,-2.27812,-0.57892,3.91891,-0.59048,0.765865
0.825,0.225,19.6311,0.573139,-4.29952,-0.375831,0.321343,0.498075,-2.20614,-0.556668,3.87925,-0.423165,-1.24754,0.573139,-4.29952,-0.375831,0.321343,0.498075,-2.20614,-0.556668,3.87925,-0.423165,-1.24754
0.825,0.275,24.225,0.47536,-4.27953,-0.391944,1.5793,0.497082,-1.6608,-0.573845,3.83365,-0.079103,-2.6005,0.47536,-4.27953,-0.391944,1.5793,0.497082,-1.6608,-0.573845,3.83365,-0.079103,-2.6005
0.825,0.325,25.0863,0.443614,-4.27506,-0.44401,2.27862,0.392859,-1.04692,-0.594369,3.8122,0.223658,-2.92814,0.443614,-4.27506,-0.44401,2.27862,0.392859,-1.04692,-0.594369,3.8122,0.223658,-2.92814
0.825,0.375,23.993,0.462561,-4.2835,-0.516327,2.46576,0.220839,-0.431978,-0.612228,3.8199,0.503556,-3.09038,0.462561,-4.2835,-0.516327,2.46576,0.220839,-0.431978,-0.612228,3.8199,0.503556,-3.09038
0.825,0.425,22.1877,0.515273,-4.30157,-0.593043,2.21607,0.04501,0.184031,-0.62742,3.85677,0.705944,-3.03654,0.515273,-4.30157,-0.593043,2.21607,0.04501,0.184031,-0.62742,3.85677,0.705944,-3.03654
0.825,0.475,20.7226,0.58482,-4.32603,-0.658309,1.61109,-0.0763418,0.801105,-0.639947,3.92279,0.785001,-2.789,0.58482,-4.32603,-0.658309,1.61109,-0.0763418,0.801105,-0.639947,3.92279,0.785001,-2.789
0.825,0.525,18.7501,0.654305,-4.35363,-0.696782,0.740262,-0.138397,1.37613,-0.650253,4.01029,0.594519,-1.75451,0.654305,-4.35363,-0.696782,0.740262,-0.138397,1.37613,-0.650253,4.01029,0.594519,-1.75451
0.825,0.575,18.4413,0.707585,-4.3816,-0.704797,-0.250808,-0.191531,1.65044,-0.661009,4.07328,0.197544,-0.307456,0.707585,-4.3816,-0.704797,-0.250808,-0.191531,1.65044,-0.661009,4.07328,0.197544,-0.307456
0.825,0.625,19.4617,0.72927,-4.40765,-0.690369,-1.21531,-0.210924,1.58091,-0.672662,4.10406,-0.229867,1.01263,0.72927,-4.40765,-0.690369,-1.21531,-0.210924,1.58091,-0.672662,4.10406,-0.229867,1.01263
0.825,0.675,23.279,0.704,-4.42949,-0.662017,-2.02351,-0.120701,1.16755,-0.68521,4.10266,-0.678261,2.49038,0.704,-4.42949,-0.662017,-2.02351,-0.120701,1.16755,-0.68521,4.10266,-0.678261,2.49038
0.825,0.725,30.6696,0.616419,-4.44486,-0.628264,-2.52615,0.155176,0.410356,-0.698655,4.06906,-1.16574,4.26961,0.616419,-4.44486,-0.628264,-2.52615,0.155176,0.410356,-0.698655,4.06906,-1.16574,4.26961
0.825,0.775,30.4812,0.453186,-4.45138,-0.597618,-2.53267,0.528963,-0.601481,-0.708725,4.0075,-1.44367,4.25861,0.453186,-4.45138,-0.597618,-2.53267,0.528963,-0.601481,-0.708725,4.0075,-1.44367,4.25861
0.825,0.825,22.5776,0.247385,-4.44459,-0.578294,-2.02299,0.585352,-1.33282,-0.689799,3.94347,-1.23275,2.39107,0.247385,-4.44459,-0.578294,-2.02299,0.585352,-1.33282,-0.689799,3.94347,-1.23275,2.39107
0.825,0.875,17.5266,0.0785199,-4.41797,-0.578215,-1.25883,0.372505,-1.69446,-0.637607,3.88119,-0.710785,0.786111,0.0785199,-4.41797,-0.578215,-1.25883,0.372505,-1.69446,-0.637607,3.88119,-0.710785,0.786111
0.825,0.925,15.6303,0.0281155,-4.36488,-0.605292,-0.506174,-0.131236,-1.68641,-0.552149,3.82068,0.175322,-0.686328,0.0281155,-4.36488,-0.605292,-0.506174,-0.131236,-1.68641,-0.552149,3.82068,0.175322,-0.686328
0.825,0.975,18.9039,0.177695,-4.27869,-0.667433,0.0966541,-1.16167,-1.30867,-0.433425,3.76192,1.57416,-2.39905,0.177695,-4.27869,-0.667433,0.0966541,-1.16167,-1.30867,-0.433425,3.76192,1.57416,-2.39905
0.875,0.025,62.1992,0.0809865,-4.00006,-0.809899,-4.18891,-0.606746,0.797799,-1.10782,4.16184,-2.1944,7.85209,0.0809865,-4.00006,-0.809899,-4.18891,-0.606746,0.797799,-1.10782,4.16184,-2.1944,7.85209
0.875,0.075,52.8109,0.0750923,-4.17292,-0.727035,-4.46893,-1.31138,-0.765196,-0.864708,4.11616,-0.677674,5.98107,0.0750923,-4.17292,-0.727035,-4.46893,-1.31138,-0.765196,-0.864708,4.11616,-0.677674,5.98107
0.875,0.125,30.8055,0.19431,-4.27566,-0.637823,-3.8425,-1.42285,-1.78124,-0.691092,4.05768,0.37596,3.26068,0.19431,-4.27566,-0.637823,-3.8425,-1.42285,-1.78124,-0.691092,4.05768,0.37596,3.26068
0.875,0.175,20.1245,0.386792,-4.32966,-0.557137,-2.43529,-1.21005,-2.25033,-0.586969,3.98639,0.989861,1.00894,0.386792,-4.32966,-0.557137,-2.43529,-1.21005,-2.25033,-0.586969,3.98639,0.989861,1.00894
0.875,0.225,19.1302,0.600692,-4.35631,-0.499855,-0.663511,-0.937153,-2.17248,-0.552339,3.9023,1.20132,-1.07023,0.600692,-4.35631,-0.499855,-0.663511,-0.937153,-2.17248,-0.552339,3.9023,1.20132,-1.07023
0.875,0.275,21.7852,0.785229,-4.37649,-0.480224,0.827328,-0.604635,-1.61709,-0.57781,3.81263,1.00507,-2.46179,0.785229,-4.37649,-0.480224,0.827328,-0.604635,-1.61709,-0.57781,3.81263,1.00507,-2.46179
0.875,0.325,22.7388,0.91414,-4.39955,-0.498074,1.67231,-0.244771,-1.00068,-0.607036,3.76085,0.719788,-2.81966,0.91414,-4.39955,-0.498074,1.67231,-0.244771,-1.00068,-0.607036,3.76085,0.719788,-2.81966
0.875,0.375,22.1739,0.985678,-4.42334,-0.538815,1.9517,0.11459,-0.392659,-0.630628,3.75419,0.500082,-3.01224,0.985678,-4.42334,-0.538815,1.9517,0.11459,-0.392659,-0.630628,3.75419,0.500082,-3.01224
0.875,0.425,20.8265,0.999165,-4.44516,-0.587227,1.77912,0.418632,0.206968,-0.648584,3.79264,0.301124,-2.98495,0.999165,-4.44516,-0.587227,1.77912,0.418632,0.206968,-0.648584,3.79264,0.301124,-2.98495
0.875,0.475,19.508,0.953919,-4.46237,-0.628094,1.26633,0.619946,0.798204,-0.660904,3.87622,0.0789583,-2.75934,0.953919,-4.46237,-0.628094,1.26633,0.619946,0.798204,-0.660904,3.87622,0.0789583,-2.75934
0.875,0.525,17.6117,0.849733,-4.47237,-0.646656,0.523413,0.708946,1.33955,-0.668359,3.99428,-0.292024,-1.76964,0.849733,-4.47237,-0.646656,0.523413,0.708946,1.33955,-0.668359,3.99428,-0.292024,-1.76964
0.875,0.575,18.021,0.697265,-4.47478,-0.638704,-0.294306,0.691409,1.58201,-0.675571,4.08306,-0.707245,-0.350617,0.697265,-4.47478,-0.638704,-0.294306,0.691409,1.58201,-0.675571,4.08306,-0.707245,-0.350617
0.875,0.625,20.1659,0.518039,-4.47143,-0.610575,-1.03535,0.640865,1.48408,-0.683308,4.13192,-1.01274,1.00208,0.518039,-4.47143,-0.610575,-1.03535,0.640865,1.48408,-0.683308,4.13192,-1.01274,1.00208
0.875,0.675,24.5802,0.334051,-4.46423,-0.569067,-1.53514,0.580486,1.04578,-0.691572,4.14086,-1.18166,2.54822,0.334051,-4.46423,-0.569067,-1.53514,0.580486,1.04578,-0.691572,4.14086,-1.18166,2.54822
0.875,0.725,31.8338,0.167298,-4.45508,-0.520978,-1.6029,0.465794,0.267084,-0.700362,4.1099,-1.20001,4.3786,0.167298,-4.45508,-0.520978,-1.6029,0.465794,0.267084,-0.700362,4.1099,-1.20001,4.3786
0.875,0.775,33.1812,0.0396715,-4.44537,-0.473478,-1.06587,0.264803,-0.756787,-0.703707,4.04224,-0.889599,4.26366,0.0396715,-4.44537,-0.473478,-1.06587,0.264803,-0.756787,-0.703707,4.04224,-0.889599,4.26366
0.875,0.825,28.0288,-0.0292997,-4.42465,-0.442295,-0.134739,0.111897,-1.45462,-0.66578,3.95725,-0.392222,2.27396,-0.0292997,-4.42465,-0.442295,-0.134739,0.111897,-1.45462,-0.66578,3.95725,-0.392222,2.27396
0.875,0.875,23.8685,-0.0224545,-4.37057,-0.451722,0.777369,-0.0162311,-1.7312,-0.58061,3.85816,0.0713424,0.523253,-0.0224545,-4.37057,-0.451722,0.777369,-0.0162311,-1.7312,-0.58061,3.85816,0.0713424,0.523253
0.875,0.925,20.7465,0.0772658,-4.26029,-0.526422,1.31967,-0.296545,-1.58654,-0.448197,3.74496,0.649425,-1.28583,0.0772658,-4.26029,-0.526422,1.31967,-0.296545,-1.58654,-0.448197,3.74496,0.649425,-1.28583
0.875,0.975,23.6708,0.28692,-4.07096,-0.691058,1.31476,-1.01084,-1.02063,-0.268541,3.61766,1.72483,-3.69194,0.28692,-4.07096,-0.691058,1.31476,-1.01084,-1.02063,-0.268541,3.61766,1.72483,-3.69194
0.925,0.025,74.8152,-0.871684,-3.77004,-0.595872,-5.87856,-0.24249,0.542103,-1.36491,4.05291,-2.62048,6.31793,-0.871684,-3.77004,-0.595872,-5.87856,-0.24249,0.542103,-1.36491,4.05291,-2.62048,6.31793
0.925,0.075,58.0651,-1.02531,-4.03503,-0.827781,-5.52025,-2.29448,-0.677718,-1.0413,4.09856,-0.285359,4.95912,-1.02531,-4.03503,-0.827781,-5.52025,-2.29448,-0.677718,-1.0413,4.09856,-0.285359,4.95912
0.925,0.125,35.1957,-0.724794,-4.22671,-0.90484,-4.54673,-3.30259,-1.46968,-0.806333,4.0987,1.5367,3.12706,-0.724794,-4.22671,-0.90484,-4.54673,-3.30259,-1.46968,-0.806333,4.0987,1.5367,3.12706
0.925,0.175,34.7668,-0.161117,-4.3622,-0.879962,-2.98664,-3.32247,-1.83379,-0.660017,4.05335,2.75003,1.29996,-0.161117,-4.3622,-0.879962,-2.98664,-3.32247,-1.83379,-0.660017,4.05335,2.75003,1.29996
0.925,0.225,34.0856,0.47474,-4.45867,-0.806056,-1.1086,-2.82545,-1.77004,-0.602349,3.9625,3.00499,-0.599832,0.47474,-4.45867,-0.806056,-1.1086,-2.82545,-1.77004,-0.602349,3.9625,3.00499,-0.599832
0.925,0.275,25.5341,0.996264,-4.53284,-0.734735,0.37231,-1.92213,-1.33162,-0.621248,3.83907,2.17049,-1.83077,0.996264,-4.53284,-0.734735,0.37231,-1.92213,-1.33162,-0.621248,3.83907,2.17049,-1.83077
0.925,0.325,21.1355,1.31967,-4.59228,-0.68773,1.16065,-0.976513,-0.837692,-0.644235,3.7606,1.25753,-2.17766,1.31967,-4.59228,-0.68773,1.16065,-0.976513,-0.837692,-0.644235,3.7606,1.25753,-2.17766
0.925,0.375,19.2938,1.46389,-4.63534,-0.656889,1.42671,-0.0816307,-0.341447,-0.659228,3.74,0.553817,-2.41539,1.46389,-4.63534,-0.656889,1.42671,-0.0816307,-0.341447,-0.659228,3.74,0.553817,-2.41539
0.925,0.425,18.463,1.45235,-4.66,-0.632761,1.31896,0.672758,0.157116,-0.666228,3.77729,-0.00838866,-2.52815,1.45235,-4.66,-0.632761,1.31896,0.672758,0.157116,-0.666228,3.77729,-0.00838866,-2.52815
0.925,0.475,18.2019,1.30844,-4.66421,-0.605898,0.939826,1.19505,0.657997,-0.665234,3.87247,-0.491995,-2.49265,1.30844,-4.66421,-0.605898,0.939826,1.19505,0.657997,-0.665234,3.87247,-0.491995,-2.49265
0.925,0.525,18.2195,1.05629,-4.64615,-0.567134,0.379511,1.45272,1.12336,-0.657929,4.01259,-1.00255,-1.70109,1.05629,-4.64615,-0.567134,0.379511,1.45272,1.12336,-0.657929,4.01259,-1.00255,-1.70109
0.925,0.575,20.3756,0.736489,-4.60897,-0.513911,-0.219982,1.46939,1.3262,-0.654405,4.1201,-1.39791,-0.403965,0.736489,-4.60897,-0.513911,-0.219982,1.46939,1.3262,-0.654405,4.1201,-1.39791,-0.403965
0.925,0.625,23.0281,0.406107,-4.5608,-0.450275,-0.702376,1.33021,1.22867,-0.656343,4.18207,-1.5209,0.876264,0.406107,-4.5608,-0.450275,-0.702376,1.33021,1.22867,-0.656343,4.18207,-1.5209,0.876264
0.925,0.675,27.028,0.122923,-4.50996,-0.380558,-0.881904,1.01458,0.830771,-0.663745,4.19849,-1.31659,2.30164,0.122923,-4.50996,-0.380558,-0.881904,1.01458,0.830771,-0.663745,4.19849,-1.31659,2.30164
0.925,0.725,35.4202,-0.0552851,-4.46479,-0.309093,-0.558726,0.43295,0.132511,-0.676609,4.16938,-0.761769,3.93283,-0.0552851,-4.46479,-0.309093,-0.558726,0.43295,0.132511,-0.676609,4.16938,-0.761769,3.93283
0.925,0.775,42.6711,-0.0734929,-4.43245,-0.241089,0.42221,-0.303616,-0.779222,-0.684002,4.09425,0.138063,3.89497,-0.0734929,-4.43245,-0.241089,0.42221,-0.303616,-0.779222,-0.684002,4.09425,0.138063,3.89497
0.925,0.825,40.9101,0.0599124,-4.393,-0.201958,1.73337,-0.606186,-1.38309,-0.620315,3.97034,0.748712,2.16469,0.0599124,-4.393,-0.201958,1.73337,-0.606186,-1.38309,-0.620315,3.97034,0.748712,2.16469
0.925,0.875,34.4817,0.273134,-4.2994,-0.237308,2.85565,-0.614441,-1.59219,-0.474614,3.79717,0.88042,0.473966,0.273134,-4.2994,-0.237308,2.85565,-0.614441,-1.59219,-0.474614,3.79717,0.88042,0.473966
0.925,0.925,26.7168,0.49162,-4.10343,-0.393628,3.31595,-0.496333,-1.40653,-0.246899,3.57474,0.763562,-1.4506,0.49162,-4.10343,-0.393628,3.31595,-0.496333,-1.40653,-0.246899,3.57474,0.763562,-1.4506
0.925,0.975,32.7934,0.640814,-3.75687,-0.717406,2.75296,-0.348723,-0.826114,0.06283,3.30305,1.05919,-4.28604,0.640814,-3.75687,-0.717406,2.75296,-0.348723,-0.826114,0.06283,3.30305,1.05919,-4.28604
0.975,0.025,55.3645,-2.03076,-3.46084,-0.240255,-6.73491,-0.893004,-0.128307,-1.73904,3.43912,-2.0508,3.33663,-2.03076,-3.46084,-0.240255,-6.73491,-0.893004,-0.128307,-1.73904,3.43912,-2.0508,3.33663
0.975,0.075,38.6841,-2.39902,-3.86218,-0.954708,-5.31357,-3.65756,-0.563401,-1.32873,3.78096,0.758673,2.95641,-2.39902,-3.86218,-0.954708,-5.31357,-3.65756,-0.563401,-1.32873,3.78096,0.758673,2.95641
0.975,0.125,48.0681,-1.91212,-4.17744,-1.29832,-3.9102,-5.33344,-0.84279,-1.02265,3.99936,2.91496,2.32417,-1.91212,-4.17744,-1.29832,-3.9102,-5.33344,-0.84279,-1.02265,3.99936,2.91496,2.32417
0.975,0.175,76.4196,-0.928029,-4.42084,-1.37644,-2.26303,-5.93027,-0.966474,-0.820787,4.09433,4.55866,1.49019,-0.928029,-4.42084,-1.37644,-2.26303,-5.93027,-0.966474,-0.820787,4.09433,4.55866,1.49019
0.975,0.225,75.4269,0.195284,-4.60659,-1.29443,-0.543819,-5.26805,-0.934453,-0.723139,4.06587,4.68655,0.400296,0.195284,-4.60659,-1.29443,-0.543819,-5.26805,-0.934453,-0.723139,4.06587,4.68655,0.400296
0.975,0.275,45.4228,1.10847,-4.74858,-1.15548,0.475712,-3.44917,-0.76106,-0.715471,3.93719,3.0904,-0.434212,1.10847,-4.74858,-1.15548,0.475712,-3.44917,-0.76106,-0.715471,3.93719,3.0904,-0.434212
0.975,0.325,27.3931,1.6602,-4.85323,-1.01298,0.889693,-1.74363,-0.532299,-0.712347,3.84761,1.63768,-0.938758,1.6602,-4.85323,-1.01298,0.889693,-1.74363,-0.532299,-0.712347,3.84761,1.63768,-0.938758
0.975,0.375,19.9285,1.89721,-4.91952,-0.870549,0.984018,-0.342141,-0.262503,-0.699528,3.82033,0.585324,-1.35431,1.89721,-4.91952,-0.870549,0.984018,-0.342141,-0.262503,-0.699528,3.82033,0.585324,-1.35431
0.975,0.425,17.8167,1.87482,-4.94608,-0.729646,0.889852,0.773904,0.0483281,-0.677015,3.85536,-0.219307,-1.71066,1.87482,-4.94608,-0.729646,0.889852,0.773904,0.0483281,-0.677015,3.85536,-0.219307,-1.71066
0.975,0.475,18.2689,1.64838,-4.93156,-0.59172,0.6586,1.57757,0.400194,-0.644808,3.9527,-0.882404,-1.97746,1.64838,-4.93156,-0.59172,0.6586,1.57757,0.400194,-0.644808,3.9527,-0.882404,-1.97746
0.975,0.525,20.7071,1.27397,-4.87498,-0.458215,0.328879,2.0209,0.759797,-0.606362,4.09852,-1.48337,-1.52372,1.27397,-4.87498,-0.458215,0.328879,2.0209,0.759797,-0.606362,4.09852,-1.48337,-1.52372
0.975,0.575,24.391,0.825257,-4.78417,-0.330421,-0.0016864,2.07585,0.92735,-0.582403,4.20984,-1.83142,-0.494888,0.825257,-4.78417,-0.330421,-0.0016864,2.07585,0.92735,-0.582403,4.20984,-1.83142,-0.494888
0.975,0.625,26.4957,0.393474,-4.67574,-0.20947,-0.203807,1.79019,0.869557,-0.576388,4.27282,-1.74276,0.543836,0.393474,-4.67574,-0.20947,-0.203807,1.79019,0.869557,-0.576388,4.27282,-1.74276,0.543836
0.975,0.675,28.8143,0.0706141,-4.56668,-0.0964905,-0.105765,1.13277,0.586417,-0.588316,4.28747,-1.13199,1.65395,0.0706141,-4.56668,-0.0964905,-0.105765,1.13277,0.586417,-0.588316,4.28747,-1.13199,1.65395
0.975,0.725,37.8972,-0.0513297,-4.474,0.0073926,0.491531,0.0417198,0.0779301,-0.618187,4.25378,0.03295,2.91639,-0.0513297,-4.474,0.0073926,0.491531,0.0417198,0.0779301,-0.618187,4.25378,0.03295,2.91639
0.975,0.775,53.9779,0.113692,-4.41261,0.099547,1.76521,-1.26909,-0.594849,-0.645417,4.16421,1.54687,3.1493,0.113692,-4.41261,0.099547,1.76521,-1.26909,-0.594849,-0.645417,4.16421,1.54687,3.1493
0.975,0.825,58.5221,0.515021,-4.34965,0.142718,3.36731,-1.84413,-1.06559,-0.546502,3.97342,2.19066,1.99739,0.515021,-4.34965,0.142718,3.36731,-1.84413,-1.06559,-0.546502,3.97342,2.19066,1.99739
0.975,0.875,48.5561,0.965287,-4.20446,0.0650261,4.67177,-1.885,-1.27325,-0.300858,3.67386,1.8208,0.614524,0.965287,-4.20446,0.0650261,4.67177,-1.885,-1.27325,-0.300858,3.67386,1.8208,0.614524
0.975,0.925,32.0626,1.27118,-3.89429,-0.206911,5.27395,-1.44985,-1.21781,0.0915156,3.26553,0.776283,-0.937134,1.27118,-3.89429,-0.206911,5.27395,-1.44985,-1.21781,0.0915156,3.26553,0.776283,-0.937134
0.975,0.975,31.0629,1.23938,-3.33642,-0.746478,4.61342,0.061489,-0.899291,0.630618,2.74843,-0.489464,-3.10988,1.23938,-3.33642,-0.746478,4.61342,0.061489,-0.899291,0.630618,2.74843,-0.489464,-3.10988
