U, V, weight, dx_u, dy_u, dz_u, dpsi_u, dtheta_u, dx_v, dy_v, dz_v, dpsi_v, dtheta_v, dqeu_x, dqeu_y, dqeu_z, dqeu_psi, dqeu_theta,dqev_x, dqev_y, dqev_z, dqev_psi, dqev_theta
0.025,0.025,15.1426,-1.24644,2.69699,0.0350354,-3.36407,0.89803,0.0157601,0.040577,-2.00247,-0.2443,-1.53858,-1.24644,2.69699,0.0350354,-3.36407,0.89803,0.0157601,0.040577,-2.00247,-0.2443,-1.53858
0.025,0.075,10.8269,-1.22328,2.69173,0.0376125,-3.42316,0.55548,-0.0503107,0.0512584,-1.99434,-0.243065,-1.11777,-1.22328,2.69173,0.0376125,-3.42316,0.55548,-0.0503107,0.0512584,-1.99434,-0.243065,-1.11777
0.025,0.125,9.4031,-1.20338,2.68638,0.0404563,-3.43104,0.280347,-0.0718154,0.0546415,-1.99472,-0.213441,-0.650958,-1.20338,2.68638,0.0404563,-3.43104,0.280347,-0.0718154,0.0546415,-1.99472,-0.213441,-0.650958
0.025,0.175,9.41659,-1.18515,2.68246,0.0423412,-3.4224,0.0980755,-0.0803994,0.055769,-1.99691,-0.167068,-0.150502,-1.18515,2.68246,0.0423412,-3.4224,0.0980755,-0.0803994,0.055769,-1.99691,-0.167068,-0.150502
0.025,0.225,9.44638,-1.16789,2.67984,0.0433392,-3.43138,-0.00769019,-0.0865247,0.056308,-1.99868,-0.112582,-0.0223103,-1.16789,2.67984,0.0433392,-3.43138,-0.00769019,-0.0865247,0.056308,-1.99868,-0.112582,-0.0223103
0.025,0.275,9.48682,-1.15098,2.67822,0.0436429,-3.46667,-0.083886,-0.0901914,0.0562585,-2.00004,-0.0718588,-0.0242433,-1.15098,2.67822,0.0436429,-3.46667,-0.083886,-0.0901914,0.0562585,-2.00004,-0.0718588,-0.0242433
0.025,0.325,9.53282,-1.13382,2.67732,0.0434446,-3.52419,-0.131309,-0.0913994,0.0556204,-2.00098,-0.0479086,-0.0274401,-1.13382,2.67732,0.0434446,-3.52419,-0.131309,-0.0913994,0.0556204,-2.00098,-0.0479086,-0.0274401
0.025,0.375,9.57975,-1.11577,2.67684,0.0429367,-3.59955,-0.149166,-0.0901487,0.0543938,-2.0015,-0.0413155,-0.0318272,-1.11577,2.67684,0.0429367,-3.59955,-0.149166,-0.0901487,0.0543938,-2.0015,-0.0413155,-0.0318272
0.025,0.425,9.62337,-1.09623,2.67648,0.0423116,-3.68842,-0.136918,-0.0864394,0.0525787,-2.00161,-0.0524614,-0.0374203,-1.09623,2.67648,0.0423116,-3.68842,-0.136918,-0.0864394,0.0525787,-2.00161,-0.0524614,-0.0374203
0.025,0.475,9.65978,-1.07458,2.67596,0.0417617,-3.78682,-0.09394,-0.0802714,0.050175,-2.00131,-0.081865,-0.044345,-1.07458,2.67596,0.0417617,-3.78682,-0.09394,-0.0802714,0.050175,-2.00131,-0.081865,-0.044345
0.025,0.525,9.67201,-1.05023,2.67498,0.0414736,-3.89089,-0.0249144,-0.0720639,0.04737,-2.00065,-0.127074,-0.0315138,-1.05023,2.67498,0.0414736,-3.89089,-0.0249144,-0.0720639,0.04737,-2.00065,-0.127074,-0.0315138
0.025,0.575,9.66646,-1.02341,2.67342,0.0414992,-3.99515,0.0368205,-0.0643319,0.0452864,-2.00005,-0.166982,0.00304602,-1.02341,2.67342,0.0414992,-3.99515,0.0368205,-0.0643319,0.0452864,-2.00005,-0.166982,0.00304602
0.025,0.625,9.65721,-0.995128,2.67134,0.0417554,-4.09231,0.0857578,-0.0574946,0.0441115,-1.99955,-0.197265,0.0390214,-0.995128,2.67134,0.0417554,-4.09231,0.0857578,-0.0574946,0.0441115,-1.99955,-0.197265,0.0390214
0.025,0.675,9.64332,-0.966439,2.66878,0.0421537,-4.17445,0.121478,-0.051552,0.0438452,-1.99917,-0.216846,0.0766867,-0.966439,2.66878,0.0421537,-4.17445,0.121478,-0.051552,0.0438452,-1.99917,-0.216846,0.0766867
0.025,0.725,9.62529,-0.938393,2.6658,0.0426053,-4.23312,0.143013,-0.0465041,0.0444876,-1.9989,-0.224291,0.116162,-0.938393,2.6658,0.0426053,-4.23312,0.143013,-0.0465041,0.0444876,-1.9989,-0.224291,0.116162
0.025,0.775,9.60503,-0.912042,2.66244,0.0430215,-4.25972,0.14898,-0.0423508,0.0460385,-1.99874,-0.218053,0.157369,-0.912042,2.66244,0.0430215,-4.25972,0.14898,-0.0423508,0.0460385,-1.99874,-0.218053,0.157369
0.025,0.825,9.58572,-0.888439,2.65877,0.0433135,-4.24599,0.13854,-0.0390923,0.0484982,-1.99869,-0.197247,0.168697,-0.888439,2.65877,0.0433135,-4.24599,0.13854,-0.0390923,0.0484982,-1.99869,-0.197247,0.168697
0.025,0.875,9.57162,-0.868635,2.65483,0.0433925,-4.19467,0.127904,-0.0367284,0.0518664,-1.99876,-0.178279,0.0849192,-0.868635,2.65483,0.0433925,-4.19467,0.127904,-0.0367284,0.0518664,-1.99876,-0.178279,0.0849192
0.025,0.925,9.56461,-0.853515,2.65067,0.0431867,-4.12921,0.125362,-0.0349636,0.0554291,-1.99896,-0.170871,-0.00112646,-0.853515,2.65067,0.0431867,-4.12921,0.125362,-0.0349636,0.0554291,-1.99896,-0.170871,-0.00112646
0.025,0.975,9.55341,-0.84217,2.64636,0.0428046,-4.07484,0.132863,-0.0329039,0.0570261,-1.99939,-0.176837,-0.0892594,-0.84217,2.64636,0.0428046,-4.07484,0.132863,-0.0329039,0.0570261,-1.99939,-0.176837,-0.0892594
0.075,0.025,15.7196,-0.84962,2.63668,0.0382137,-3.77626,0.969909,0.0395496,0.0361013,-2.00048,-0.346234,-1.942,-0.84962,2.63668,0.0382137,-3.77626,0.969909,0.0395496,0.0361013,-2.00048,-0.346234,-1.942
0.075,0.075,10.6525,-0.829291,2.63164,0.0407052,-3.83642,0.56112,-0.030456,0.0456641,-1.99138,-0.273544,-1.46141,-0.829291,2.63164,0.0407052,-3.83642,0.56112,-0.030456,0.0456641,-1.99138,-0.273544,-1.46141
0.075,0.125,8.87074,-0.811299,2.62661,0.0432055,-3.84559,0.25555,-0.0536962,0.0500625,-1.99244,-0.20806,-0.887695,-0.811299,2.62661,0.0432055,-3.84559,0.25555,-0.0536962,0.0500625,-1.99244,-0.20806,-0.887695
0.075,0.175,8.85813,-0.79418,2.62281,0.0448352,-3.83932,0.0864314,-0.0631284,0.0525529,-1.99558,-0.163608,-0.265493,-0.79418,2.62281,0.0448352,-3.83932,0.0864314,-0.0631284,0.0525529,-1.99558,-0.163608,-0.265493
0.075,0.225,8.85492,-0.777507,2.62015,0.0456784,-3.85079,0.026726,-0.0696484,0.0542119,-1.99811,-0.136586,-0.0891266,-0.777507,2.62015,0.0456784,-3.85079,0.026726,-0.0696484,0.0542119,-1.99811,-0.136586,-0.0891266
0.075,0.275,8.85622,-0.760951,2.61846,0.0459087,-3.88659,-0.00839991,-0.0732562,0.0550396,-2.00004,-0.119713,-0.066435,-0.760951,2.61846,0.0459087,-3.88659,-0.00839991,-0.0732562,0.0550396,-2.00004,-0.119713,-0.066435
0.075,0.325,8.85761,-0.744183,2.61753,0.0456995,-3.94167,-0.0221684,-0.0739518,0.0550359,-2.00137,-0.114707,-0.044147,-0.744183,2.61753,0.0456995,-3.94167,-0.0221684,-0.0739518,0.0550359,-2.00137,-0.114707,-0.044147
0.075,0.375,8.85522,-0.726875,2.61717,0.0452245,-4.01059,-0.013858,-0.0717351,0.0542008,-2.0021,-0.122001,-0.0223048,-0.726875,2.61717,0.0452245,-4.01059,-0.013858,-0.0717351,0.0542008,-2.0021,-0.122001,-0.0223048
0.075,0.425,8.84565,-0.708698,2.61719,0.044657,-4.08777,0.0173743,-0.0666063,0.0525343,-2.00222,-0.142034,-0.000859916,-0.708698,2.61719,0.044657,-4.08777,0.0173743,-0.0666063,0.0525343,-2.00222,-0.142034,-0.000859916
0.075,0.475,8.826,-0.689322,2.6174,0.0441707,-4.16751,0.0725549,-0.0585652,0.0500364,-2.00174,-0.175402,0.0203222,-0.689322,2.6174,0.0441707,-4.16751,0.0725549,-0.0585652,0.0500364,-2.00174,-0.175402,0.0203222
0.075,0.525,8.76608,-0.66844,2.61759,0.0439335,-4.24388,0.146649,-0.0481959,0.0469184,-2.00076,-0.219303,0.0380042,-0.66844,2.61759,0.0439335,-4.24388,0.146649,-0.0481959,0.0469184,-2.00076,-0.219303,0.0380042
0.075,0.575,8.67576,-0.646226,2.61762,0.0439869,-4.31162,0.202431,-0.0390022,0.044448,-1.99988,-0.252253,0.0528488,-0.646226,2.61762,0.0439869,-4.31162,0.202431,-0.0390022,0.044448,-1.99988,-0.252253,0.0528488
0.075,0.625,8.58775,-0.623338,2.61736,0.0442456,-4.36721,0.232738,-0.0315679,0.0428365,-1.99921,-0.269818,0.0683604,-0.623338,2.61736,0.0442456,-4.36721,0.232738,-0.0315679,0.0428365,-1.99921,-0.269818,0.0683604
0.075,0.675,8.50458,-0.600454,2.61666,0.0446189,-4.40744,0.236358,-0.0258932,0.0420838,-1.99874,-0.270791,0.0844187,-0.600454,2.61666,0.0446189,-4.40744,0.236358,-0.0258932,0.0420838,-1.99874,-0.270791,0.0844187
0.075,0.725,8.42965,-0.578251,2.61541,0.0450161,-4.42954,0.212013,-0.0219779,0.04219,-1.99848,-0.253855,0.100944,-0.578251,2.61541,0.0450161,-4.42954,0.212013,-0.0219779,0.04219,-1.99848,-0.253855,0.100944
0.075,0.775,8.3673,-0.557408,2.61347,0.0453464,-4.43133,0.158575,-0.0198222,0.0431551,-1.99842,-0.217816,0.117902,-0.557408,2.61347,0.0453464,-4.43133,0.158575,-0.0198222,0.0431551,-1.99842,-0.217816,0.117902
0.075,0.825,8.32277,-0.538603,2.61072,0.0455191,-4.41129,0.0777333,-0.0194259,0.0449791,-1.99857,-0.163172,0.117869,-0.538603,2.61072,0.0455191,-4.41129,0.0777333,-0.0194259,0.0449791,-1.99857,-0.163172,0.117869
0.075,0.875,8.30221,-0.522514,2.60703,0.0454436,-4.37304,0.0230033,-0.0207892,0.0476619,-1.99892,-0.123575,0.0649679,-0.522514,2.60703,0.0454436,-4.37304,0.0230033,-0.0207892,0.0476619,-1.99892,-0.123575,0.0649679
0.075,0.925,8.30601,-0.509714,2.6023,0.0450491,-4.32777,0.0171346,-0.0230217,0.0505815,-1.99942,-0.114893,0.010976,-0.509714,2.6023,0.0450491,-4.32777,0.0171346,-0.0230217,0.0505815,-1.99942,-0.114893,0.010976
0.075,0.975,8.32441,-0.499653,2.59684,0.044482,-4.28677,0.0606898,-0.0234307,0.0518556,-1.9999,-0.138169,-0.0439139,-0.499653,2.59684,0.044482,-4.28677,0.0606898,-0.0234307,0.0518556,-1.9999,-0.138169,-0.0439139
0.125,0.025,15.443,-0.53512,2.58729,0.0425349,-3.89129,0.935876,0.0603843,0.0321702,-1.99891,-0.409556,-2.38999,-0.53512,2.58729,0.0425349,-3.89129,0.935876,0.0603843,0.0321702,-1.99891,-0.409556,-2.38999
0.125,0.075,10.1547,-0.516349,2.58325,0.0439385,-3.8947,0.537864,-0.0121347,0.040718,-1.98913,-0.289644,-1.82711,-0.516349,2.58325,0.0439385,-3.8947,0.537864,-0.0121347,0.040718,-1.98913,-0.289644,-1.82711
0.125,0.125,8.18989,-0.498986,2.57895,0.0454766,-3.88963,0.251027,-0.0366466,0.045856,-1.99072,-0.203524,-1.12068,-0.498986,2.57895,0.0454766,-3.88963,0.251027,-0.0366466,0.045856,-1.99072,-0.203524,-1.12068
0.125,0.175,8.15527,-0.482785,2.57545,0.0464984,-3.88911,0.107741,-0.0468318,0.0494129,-1.99458,-0.165138,-0.346866,-0.482785,2.57545,0.0464984,-3.88911,0.107741,-0.0468318,0.0494129,-1.99458,-0.165138,-0.346866
0.125,0.225,8.12647,-0.467488,2.57277,0.0470447,-3.90238,0.0780906,-0.0538251,0.0519936,-1.99768,-0.159311,-0.119195,-0.467488,2.57277,0.0470447,-3.90238,0.0780906,-0.0538251,0.0519936,-1.99768,-0.159311,-0.119195
0.125,0.275,8.09884,-0.452834,2.57081,0.0472204,-3.92738,0.067057,-0.0576263,0.0535981,-2.00004,-0.159028,-0.0789359,-0.452834,2.57081,0.0472204,-3.92738,0.067057,-0.0576263,0.0535981,-2.00004,-0.159028,-0.0789359
0.125,0.325,8.06834,-0.438566,2.56946,0.0471303,-3.95976,0.0704762,-0.0582355,0.0542263,-2.00166,-0.165533,-0.038609,-0.438566,2.56946,0.0471303,-3.95976,0.0704762,-0.0582355,0.0542263,-2.00166,-0.165533,-0.038609
0.125,0.375,8.03179,-0.424424,2.56864,0.0468792,-3.99496,0.0886772,-0.0556528,0.0538783,-2.00253,-0.179007,0.00188752,-0.424424,2.56864,0.0468792,-3.99496,0.0886772,-0.0556528,0.0538783,-2.00253,-0.179007,0.00188752
0.125,0.425,7.98679,-0.41015,2.56824,0.046572,-4.02821,0.122103,-0.0498781,0.052554,-2.00266,-0.199694,0.0427383,-0.41015,2.56824,0.046572,-4.02821,0.122103,-0.0498781,0.052554,-2.00266,-0.199694,0.0427383
0.125,0.475,7.93174,-0.395483,2.56816,0.0463136,-4.05451,0.171268,-0.0409113,0.0502535,-2.00204,-0.227945,0.0842073,-0.395483,2.56816,0.0463136,-4.05451,0.171268,-0.0409113,0.0502535,-2.00204,-0.227945,0.0842073
0.125,0.525,7.82939,-0.380178,2.56831,0.0462053,-4.0686,0.231464,-0.0294331,0.0471857,-2.0008,-0.260938,0.0995285,-0.380178,2.56831,0.0462053,-4.0686,0.231464,-0.0294331,0.0471857,-2.0008,-0.260938,0.0995285
0.125,0.575,7.69345,-0.364258,2.56854,0.0462711,-4.06828,0.271299,-0.0195258,0.0446048,-1.99972,-0.281326,0.0879773,-0.364258,2.56854,0.0462711,-4.06828,0.271299,-0.0195258,0.0446048,-1.99972,-0.281326,0.0879773
0.125,0.625,7.56756,-0.34802,2.56869,0.0464571,-4.05592,0.284901,-0.01187,0.0427199,-1.99892,-0.286079,0.076141,-0.34802,2.56869,0.0464571,-4.05592,0.284901,-0.01187,0.0427199,-1.99892,-0.286079,0.076141
0.125,0.675,7.455,-0.331772,2.56856,0.0467063,-4.03474,0.271696,-0.00646555,0.041531,-1.9984,-0.274581,0.0638995,-0.331772,2.56856,0.0467063,-4.03474,0.271696,-0.00646555,0.041531,-1.9984,-0.274581,0.0638995
0.125,0.725,7.35928,-0.315824,2.56799,0.0469616,-4.00872,0.231234,-0.00331256,0.0410379,-1.99816,-0.246231,0.0512916,-0.315824,2.56799,0.0469616,-4.00872,0.231234,-0.00331256,0.0410379,-1.99816,-0.246231,0.0512916
0.125,0.775,7.28416,-0.300482,2.56679,0.0471657,-3.98251,0.163186,-0.00241098,0.0412408,-1.99821,-0.200511,0.038517,-0.300482,2.56679,0.0471657,-3.98251,0.163186,-0.00241098,0.0412408,-1.99821,-0.200511,0.038517
0.125,0.825,7.23384,-0.286056,2.56479,0.0472616,-3.96127,0.0698332,-0.00376083,0.0421397,-1.99853,-0.138669,0.0291861,-0.286056,2.56479,0.0472616,-3.96127,0.0698332,-0.00376083,0.0421397,-1.99853,-0.138669,0.0291861
0.125,0.875,7.21314,-0.272854,2.5618,0.0471922,-3.94753,0.00617521,-0.00736211,0.0437345,-1.99914,-0.0953939,0.02968,-0.272854,2.5618,0.0471922,-3.94753,0.00617521,-0.00736211,0.0437345,-1.99914,-0.0953939,0.02968
0.125,0.925,7.2147,-0.261152,2.55769,0.0469138,-3.93573,-0.00480304,-0.0120242,0.0455877,-1.99989,-0.0852909,0.0296531,-0.261152,2.55769,0.0469138,-3.93573,-0.00480304,-0.0120242,0.0455877,-1.99989,-0.0852909,0.0296531
0.125,0.975,7.23815,-0.250874,2.55281,0.0465286,-3.91862,0.0373305,-0.0141458,0.046376,-2.00039,-0.108947,0.0290873,-0.250874,2.55281,0.0465286,-3.91862,0.0373305,-0.0141458,0.046376,-2.00039,-0.108947,0.0290873
0.175,0.025,15.4245,-0.263593,2.54398,0.0465647,-3.58128,0.694314,0.0786814,0.029433,-1.99852,-0.337359,-2.76218,-0.263593,2.54398,0.0465647,-3.58128,0.694314,0.0786814,0.029433,-1.99852,-0.337359,-2.76218
0.175,0.075,10.0827,-0.246302,2.54102,0.0468271,-3.46319,0.438103,0.00555889,0.0367544,-1.98805,-0.255104,-2.12507,-0.246302,2.54102,0.0468271,-3.46319,0.438103,0.00555889,0.0367544,-1.98805,-0.255104,-2.12507
0.175,0.125,7.9666,-0.229564,2.5375,0.0474291,-3.42785,0.251859,-0.0202569,0.0422129,-1.98982,-0.197945,-1.30622,-0.229564,2.5375,0.0474291,-3.42785,0.251859,-0.0202569,0.0422129,-1.98982,-0.197945,-1.30622
0.175,0.175,7.89361,-0.214347,2.53439,0.0478698,-3.43713,0.155105,-0.0317374,0.0464334,-1.99403,-0.176604,-0.403618,-0.214347,2.53439,0.0478698,-3.43713,0.155105,-0.0317374,0.0464334,-1.99403,-0.176604,-0.403618
0.175,0.225,7.84359,-0.200528,2.53174,0.0481401,-3.45189,0.130627,-0.0397831,0.0496222,-1.99742,-0.174387,-0.134126,-0.200528,2.53174,0.0481401,-3.45189,0.130627,-0.0397831,0.0496222,-1.99742,-0.174387,-0.134126
0.175,0.275,7.80858,-0.187886,2.52954,0.0482767,-3.45606,0.119383,-0.0443941,0.0517796,-1.99999,-0.173797,-0.0818284,-0.187886,2.52954,0.0482767,-3.45606,0.119383,-0.0443941,0.0517796,-1.99999,-0.173797,-0.0818284
0.175,0.325,7.7815,-0.176199,2.52777,0.048316,-3.44881,0.118567,-0.0455702,0.0529054,-2.00175,-0.177225,-0.029399,-0.176199,2.52777,0.048316,-3.44881,0.118567,-0.0455702,0.0529054,-2.00175,-0.177225,-0.029399
0.175,0.375,7.75633,-0.165246,2.52643,0.0482946,-3.42949,0.128068,-0.0433115,0.0529997,-2.0027,-0.184708,0.0233289,-0.165246,2.52643,0.0482946,-3.42949,0.128068,-0.0433115,0.0529997,-2.0027,-0.184708,0.0233289
0.175,0.425,7.72803,-0.154805,2.52549,0.0482491,-3.39741,0.147759,-0.0376181,0.0520624,-2.00283,-0.196331,0.076574,-0.154805,2.52549,0.0482491,-3.39741,0.147759,-0.0376181,0.0520624,-2.00283,-0.196331,0.076574
0.175,0.475,7.69262,-0.144653,2.52494,0.048216,-3.35177,0.177492,-0.0284899,0.0500936,-2.00214,-0.212241,0.130599,-0.144653,2.52494,0.048216,-3.35177,0.177492,-0.0284899,0.0500936,-2.00214,-0.212241,0.130599
0.175,0.525,7.60445,-0.134574,2.52476,0.0482306,-3.29172,0.213752,-0.0166555,0.0472861,-2.00079,-0.23007,0.141359,-0.134574,2.52476,0.0482306,-3.29172,0.213752,-0.0166555,0.0472861,-2.00079,-0.23007,0.141359
0.175,0.575,7.47596,-0.12445,2.52484,0.0483006,-3.21987,0.236372,-0.0064869,0.0447974,-1.99961,-0.238908,0.107736,-0.12445,2.52484,0.0483006,-3.21987,0.236372,-0.0064869,0.0447974,-1.99961,-0.238908,0.107736
0.175,0.625,7.3569,-0.114267,2.52501,0.0484064,-3.14335,0.241992,0.00128723,0.0428203,-1.99875,-0.237582,0.0735791,-0.114267,2.52501,0.0484064,-3.14335,0.241992,0.00128723,0.0428203,-1.99875,-0.237582,0.0735791
0.175,0.675,7.25036,-0.104012,2.52508,0.048527,-3.06985,0.230725,0.00666691,0.0413549,-1.99821,-0.226016,0.0388934,-0.104012,2.52508,0.048527,-3.06985,0.230725,0.00666691,0.0413549,-1.99821,-0.226016,0.0388934
0.175,0.725,7.15935,-0.0936744,2.52485,0.0486412,-3.00739,0.202731,0.00965214,0.0404011,-1.99799,-0.204147,0.00377585,-0.0936744,2.52485,0.0486412,-3.00739,0.202731,0.00965214,0.0404011,-1.99799,-0.204147,0.00377585
0.175,0.775,7.08691,-0.0832426,2.52415,0.0487282,-2.96424,0.158108,0.0102429,0.0399589,-1.99809,-0.171909,-0.0315881,-0.0832426,2.52415,0.0487282,-2.96424,0.158108,0.0102429,0.0399589,-1.99809,-0.171909,-0.0315881
0.175,0.825,7.03624,-0.0727051,2.52277,0.0487669,-2.94891,0.0982031,0.00843924,0.0400284,-1.99851,-0.130456,-0.047544,-0.0727051,2.52277,0.0487669,-2.94891,0.0982031,0.00843924,0.0400284,-1.99851,-0.130456,-0.047544
0.175,0.875,7.01086,-0.0620506,2.52054,0.0487363,-2.96124,0.0536694,0.00424112,0.0406095,-1.99926,-0.100174,-0.00515081,-0.0620506,2.52054,0.0487363,-2.96124,0.0536694,0.00424112,0.0406095,-1.99926,-0.100174,-0.00515081
0.175,0.925,6.99971,-0.0512975,2.51731,0.0486213,-2.98217,0.0373653,-0.00116094,0.0414587,-2.00014,-0.0881494,0.0372197,-0.0512975,2.51731,0.0486213,-2.98217,0.0373653,-0.00116094,0.0414587,-2.00014,-0.0881494,0.0372197
0.175,0.975,7.00615,-0.0407864,2.51341,0.048469,-2.98977,0.0498315,-0.00416585,0.0418393,-2.00064,-0.0945388,0.079514,-0.0407864,2.51341,0.048469,-2.98977,0.0498315,-0.00416585,0.0418393,-2.00064,-0.0945388,0.079514
0.225,0.025,14.6418,-0.0220315,2.50516,0.0498288,-3.34465,0.312211,0.0944156,0.0277084,-1.99917,-0.117848,-2.91447,-0.0220315,2.50516,0.0498288,-3.34465,0.312211,0.0944156,0.0277084,-1.99917,-0.117848,-2.91447
0.225,0.075,9.70334,-0.00653629,2.50311,0.0492107,-3.1909,0.278574,0.0222757,0.0337148,-1.98792,-0.164183,-2.25482,-0.00653629,2.50311,0.0492107,-3.1909,0.278574,0.0222757,0.0337148,-1.98792,-0.164183,-2.25482
0.225,0.125,7.62744,0.00915731,2.50033,0.049116,-3.13723,0.236893,-0.00476361,0.0391442,-1.98958,-0.186379,-1.39839,0.00915731,2.50033,0.049116,-3.13723,0.236893,-0.00476361,0.0391442,-1.98958,-0.186379,-1.39839
0.225,0.175,7.51411,0.0232413,2.49762,0.0491276,-3.13538,0.19388,-0.0178722,0.0436691,-1.99384,-0.192714,-0.449135,0.0232413,2.49762,0.0491276,-3.13538,0.19388,-0.0178722,0.0436691,-1.99384,-0.192714,-0.449135
0.225,0.225,7.43925,0.0357048,2.49507,0.0491967,-3.13911,0.155053,-0.0273547,0.0471812,-1.99727,-0.178304,-0.159763,0.0357048,2.49507,0.0491967,-3.13911,0.155053,-0.0273547,0.0471812,-1.99727,-0.178304,-0.159763
0.225,0.275,7.3927,0.0467039,2.49275,0.0493085,-3.13142,0.125809,-0.0332112,0.0496805,-1.99988,-0.163382,-0.0972606,0.0467039,2.49275,0.0493085,-3.13142,0.125809,-0.0332112,0.0496805,-1.99988,-0.163382,-0.0972606
0.225,0.325,7.36539,0.0563944,2.49069,0.0494482,-3.11179,0.106179,-0.0354417,0.051167,-2.00167,-0.152636,-0.0348015,0.0563944,2.49069,0.0494482,-3.11179,0.106179,-0.0354417,0.051167,-2.00167,-0.152636,-0.0348015
0.225,0.375,7.3492,0.0649322,2.48896,0.0496009,-3.07986,0.0959493,-0.0340461,0.0516406,-2.00263,-0.146108,0.0277482,0.0649322,2.48896,0.0496009,-3.07986,0.0959493,-0.0340461,0.0516406,-2.00263,-0.146108,0.0277482
0.225,0.425,7.33701,0.0724732,2.48759,0.0497519,-3.03527,0.0948939,-0.0290246,0.0511014,-2.00277,-0.143846,0.0905782,0.0724732,2.48759,0.0497519,-3.03527,0.0948939,-0.0290246,0.0511014,-2.00277,-0.143846,0.0905782
0.225,0.475,7.32278,0.0791732,2.48665,0.0498864,-2.97759,0.102767,-0.020377,0.0495494,-2.00209,-0.145911,0.153921,0.0791732,2.48665,0.0498864,-2.97759,0.102767,-0.020377,0.0495494,-2.00209,-0.145911,0.153921
0.225,0.525,7.25902,0.0851905,2.48617,0.04999,-2.90647,0.117612,-0.00883794,0.0471517,-2.00072,-0.15053,0.163769,0.0851905,2.48617,0.04999,-2.90647,0.117612,-0.00883794,0.0471517,-2.00072,-0.15053,0.163769
0.225,0.575,7.15341,0.0907358,2.48609,0.0500588,-2.8251,0.129153,0.00118531,0.0449109,-1.99954,-0.152721,0.119233,0.0907358,2.48609,0.0500588,-2.8251,0.129153,0.00118531,0.0449109,-1.99954,-0.152721,0.119233
0.225,0.625,7.05391,0.0960729,2.48623,0.050099,-2.7409,0.135771,0.0089582,0.0429943,-1.99868,-0.152702,0.0742936,0.0960729,2.48623,0.050099,-2.7409,0.135771,0.0089582,0.0429943,-1.99868,-0.152702,0.0742936
0.225,0.675,6.96318,0.101468,2.4864,0.0501174,-2.66154,0.137612,0.0144807,0.0414018,-1.99815,-0.150537,0.0290196,0.101468,2.4864,0.0501174,-2.66154,0.137612,0.0144807,0.0414018,-1.99815,-0.150537,0.0290196
0.225,0.725,6.88385,0.107186,2.48643,0.0501208,-2.59472,0.134842,0.0177529,0.0401333,-1.99794,-0.146299,-0.0165116,0.107186,2.48643,0.0501208,-2.59472,0.134842,0.0177529,0.0401333,-1.99794,-0.146299,-0.0165116
0.225,0.775,6.81862,0.113494,2.48611,0.0501159,-2.54818,0.12759,0.0187748,0.039189,-1.99807,-0.140065,-0.0622137,0.113494,2.48611,0.0501159,-2.54818,0.12759,0.0187748,0.039189,-1.99807,-0.140065,-0.0622137
0.225,0.825,6.77032,0.120657,2.48527,0.0501095,-2.52964,0.115916,0.0175462,0.0385688,-1.99851,-0.132311,-0.0831194,0.120657,2.48527,0.0501095,-2.52964,0.115916,0.0175462,0.0385688,-1.99851,-0.132311,-0.0831194
0.225,0.875,6.74194,0.128941,2.48372,0.0501083,-2.53806,0.100157,0.0140674,0.0382727,-1.99929,-0.122448,-0.0292618,0.128941,2.48372,0.0501083,-2.53806,0.100157,0.0140674,0.0382727,-1.99929,-0.122448,-0.0292618
0.225,0.925,6.72552,0.138536,2.48132,0.050119,-2.55495,0.0805074,0.00929135,0.0382435,-2.0002,-0.108165,0.0248897,0.138536,2.48132,0.050119,-2.55495,0.0805074,0.00929135,0.0382435,-2.0002,-0.108165,0.0248897
0.225,0.975,6.72071,0.148809,2.47836,0.050146,-2.55962,0.0571412,0.00610151,0.0383083,-2.00069,-0.0892354,0.0793694,0.148809,2.47836,0.050146,-2.55962,0.0571412,0.00610151,0.0383083,-2.00069,-0.0892354,0.0793694
0.275,0.025,13.3773,0.189564,2.47083,0.0523273,-3.0425,-0.0145566,0.10752,0.0267381,-2.00063,0.0801384,-2.83799,0.189564,2.47083,0.0523273,-3.0425,-0.0145566,0.10752,0.0267381,-2.00063,0.0801384,-2.83799
0.275,0.075,9.10374,0.202948,2.46951,0.0510892,-2.91686,0.123185,0.0375504,0.0315045,-1.98846,-0.0718113,-2.21657,0.202948,2.46951,0.0510892,-2.91686,0.123185,0.0375504,0.0315045,-1.98846,-0.0718113,-2.21657
0.275,0.125,7.21216,0.217178,2.46744,0.0505372,-2.85985,0.195963,0.0095364,0.036644,-1.9898,-0.159581,-1.39862,0.217178,2.46744,0.0505372,-2.85985,0.195963,0.0095364,0.036644,-1.9898,-0.159581,-1.39862
0.275,0.175,7.06782,0.229978,2.46515,0.050272,-2.84018,0.200857,-0.00524466,0.0411725,-1.9939,-0.190683,-0.485201,0.229978,2.46515,0.050272,-2.84018,0.200857,-0.00524466,0.0411725,-1.9939,-0.190683,-0.485201
0.275,0.225,6.97203,0.24121,2.46278,0.0502146,-2.82869,0.159331,-0.0162887,0.0447647,-1.99722,-0.170979,-0.198078,0.24121,2.46278,0.0502146,-2.82869,0.159331,-0.0162887,0.0447647,-1.99722,-0.170979,-0.198078
0.275,0.275,6.914,0.250936,2.46044,0.0503159,-2.81454,0.122453,-0.0235958,0.0474206,-1.99974,-0.148313,-0.127125,0.250936,2.46044,0.0503159,-2.81454,0.122453,-0.0235958,0.0474206,-1.99974,-0.148313,-0.127125
0.275,0.325,6.8841,0.259216,2.45821,0.0505268,-2.79588,0.092284,-0.0271658,0.0491401,-2.00147,-0.128729,-0.0564444,0.259216,2.45821,0.0505268,-2.79588,0.092284,-0.0271658,0.0491401,-2.00147,-0.128729,-0.0564444
0.275,0.375,6.87339,0.266111,2.45621,0.050798,-2.7709,0.0686128,-0.0269989,0.0499233,-2.00241,-0.112259,0.0141186,0.266111,2.45621,0.050798,-2.7709,0.0686128,-0.0269989,0.0499233,-2.00241,-0.112259,0.0141186
0.275,0.425,6.87379,0.271684,2.45453,0.0510804,-2.73776,0.0512622,-0.0230949,0.0497702,-2.00256,-0.0989277,0.0847613,0.271684,2.45453,0.0510804,-2.73776,0.0512622,-0.0230949,0.0497702,-2.00256,-0.0989277,0.0847613
0.275,0.475,6.8781,0.275996,2.45328,0.0513248,-2.6946,0.0400737,-0.0154539,0.0486807,-2.00192,-0.088752,0.155707,0.275996,2.45328,0.0513248,-2.6946,0.0400737,-0.0154539,0.0486807,-2.00192,-0.088752,0.155707
0.275,0.525,6.84302,0.279115,2.45254,0.0514837,-2.63969,0.0347974,-0.00477863,0.0467901,-2.00062,-0.0807731,0.169424,0.279115,2.45254,0.0514837,-2.63969,0.0347974,-0.00477863,0.0467901,-2.00062,-0.0807731,0.169424
0.275,0.575,6.76974,0.281301,2.45228,0.0515455,-2.57498,0.0347969,0.00471495,0.0449089,-1.9995,-0.0761259,0.12521,0.281301,2.45228,0.0515455,-2.57498,0.0347969,0.00471495,0.0449089,-1.9995,-0.0761259,0.12521
0.275,0.625,6.69802,0.282999,2.45234,0.0515348,-2.50637,0.0399783,0.0123241,0.0431724,-1.99869,-0.0761985,0.0806523,0.282999,2.45234,0.0515348,-2.50637,0.0399783,0.0123241,0.0431724,-1.99869,-0.0761985,0.0806523
0.275,0.675,6.62977,0.284667,2.45254,0.0514776,-2.43988,0.0503446,0.0180489,0.0415806,-1.99818,-0.0810378,0.0358462,0.284667,2.45254,0.0514776,-2.43988,0.0503446,0.0180489,0.0415806,-1.99818,-0.0810378,0.0358462
0.275,0.725,6.56714,0.286757,2.45271,0.0514003,-2.38153,0.0659041,0.0218893,0.0401334,-1.99799,-0.090694,-0.00913034,0.286757,2.45271,0.0514003,-2.38153,0.0659041,0.0218893,0.0401334,-1.99799,-0.090694,-0.00913034
0.275,0.775,6.51257,0.289726,2.45268,0.0513289,-2.33726,0.0866741,0.0238453,0.0388308,-1.9981,-0.105235,-0.0542122,0.289726,2.45268,0.0513289,-2.33726,0.0866741,0.0238453,0.0388308,-1.9981,-0.105235,-0.0542122
0.275,0.825,6.46872,0.294029,2.45228,0.0512894,-2.31291,0.111666,0.0239168,0.0376729,-1.99852,-0.124342,-0.0787406,0.294029,2.45228,0.0512894,-2.31291,0.111666,0.0239168,0.0376729,-1.99852,-0.124342,-0.0787406
0.275,0.875,6.43851,0.300121,2.45134,0.0513082,-2.30768,0.118532,0.022104,0.0366596,-1.99926,-0.130661,-0.0413025,0.300121,2.45134,0.0513082,-2.30768,0.118532,0.022104,0.0366596,-1.99926,-0.130661,-0.0413025
0.275,0.925,6.41986,0.308349,2.44972,0.0514069,-2.309,0.0981451,0.0189552,0.0359018,-2.00012,-0.115241,-0.00353594,0.308349,2.44972,0.0514069,-2.309,0.0981451,0.0189552,0.0359018,-2.00012,-0.115241,-0.00353594
0.275,0.975,6.40797,0.317913,2.44766,0.0515596,-2.30316,0.0505027,0.016129,0.0357351,-2.00059,-0.0778089,0.0346505,0.317913,2.44766,0.0515596,-2.30316,0.0505027,0.016129,0.0357351,-2.00059,-0.0778089,0.0346505
0.325,0.025,11.9327,0.371194,2.44099,0.0540601,-2.58895,-0.23301,0.117929,0.0262638,-2.00266,0.21363,-2.61038,0.371194,2.44099,0.0540601,-2.58895,-0.23301,0.117929,0.0262638,-2.00266,0.21363,-2.61038
0.325,0.075,8.39266,0.38215,2.44024,0.0524626,-2.51082,0.000323149,0.0509174,0.0300288,-1.98942,0.0036736,-2.06272,0.38215,2.44024,0.0524626,-2.51082,0.000323149,0.0509174,0.0300288,-1.98942,0.0036736,-2.06272
0.325,0.125,6.76038,0.394499,2.43881,0.0516928,-2.45958,0.14202,0.0223465,0.0347064,-1.99029,-0.122157,-1.33061,0.394499,2.43881,0.0516928,-2.45958,0.14202,0.0223465,0.0347064,-1.99029,-0.122157,-1.33061
0.325,0.175,6.60293,0.405865,2.43697,0.0513028,-2.42608,0.182553,0.00613659,0.0389957,-1.99411,-0.170757,-0.505218,0.405865,2.43697,0.0513028,-2.42608,0.182553,0.00613659,0.0389957,-1.99411,-0.170757,-0.505218
0.325,0.225,6.49682,0.415989,2.43486,0.0511937,-2.40218,0.150244,-0.00633421,0.0424667,-1.9972,-0.154232,-0.236327,0.415989,2.43486,0.0511937,-2.40218,0.150244,-0.00633421,0.0424667,-1.9972,-0.154232,-0.236327
0.325,0.275,6.43201,0.424809,2.4326,0.0512989,-2.38416,0.117021,-0.0150659,0.0451195,-1.99956,-0.132037,-0.16073,0.424809,2.4326,0.0512989,-2.38416,0.117021,-0.0150659,0.0451195,-1.99956,-0.132037,-0.16073
0.325,0.325,6.39958,0.432264,2.43034,0.0515518,-2.36906,0.0859525,-0.0200585,0.0469539,-2.00119,-0.110493,-0.0856148,0.432264,2.43034,0.0515518,-2.36906,0.0859525,-0.0200585,0.0469539,-2.00119,-0.110493,-0.0856148
0.325,0.375,6.39115,0.438291,2.4282,0.0518859,-2.35388,0.0568909,-0.0213121,0.0479701,-2.00208,-0.0896242,-0.010781,0.438291,2.4282,0.0518859,-2.35388,0.0568909,-0.0213121,0.0479701,-2.00208,-0.0896242,-0.010781
0.325,0.425,6.39893,0.442828,2.42632,0.0522346,-2.33561,0.0297226,-0.0188265,0.0481679,-2.00225,-0.069437,0.0640028,0.442828,2.42632,0.0522346,-2.33561,0.0297226,-0.0188265,0.0481679,-2.00225,-0.069437,0.0640028
0.325,0.475,6.41581,0.445814,2.42484,0.0525313,-2.31126,0.00436355,-0.0126019,0.0475475,-2.00168,-0.0499238,0.13898,0.445814,2.42484,0.0525313,-2.31126,0.00436355,-0.0126019,0.0475475,-2.00168,-0.0499238,0.13898
0.325,0.525,6.40684,0.4472,2.42387,0.0527116,-2.27792,-0.017936,-0.00327574,0.0462091,-2.00051,-0.0310341,0.159168,0.4472,2.42387,0.0527116,-2.27792,-0.017936,-0.00327574,0.0462091,-2.00051,-0.0310341,0.159168
0.325,0.575,6.36743,0.447244,2.42342,0.0527607,-2.23609,-0.0293259,0.00532614,0.0447549,-1.99949,-0.0195206,0.123946,0.447244,2.42342,0.0527607,-2.23609,-0.0293259,0.00532614,0.0447549,-1.99949,-0.0195206,0.123946
0.325,0.625,6.32581,0.446513,2.42334,0.0527137,-2.18946,-0.0285042,0.0125662,0.0432853,-1.99875,-0.0177023,0.0883523,0.446513,2.42334,0.0527137,-2.18946,-0.0285042,0.0125662,0.0432853,-1.99875,-0.0177023,0.0883523
0.325,0.675,6.28279,0.445585,2.42348,0.0526077,-2.14187,-0.015532,0.0184443,0.0418003,-1.99828,-0.0256,0.0524622,0.445585,2.42348,0.0526077,-2.14187,-0.015532,0.0184443,0.0418003,-1.99828,-0.0256,0.0524622
0.325,0.725,6.23978,0.445039,2.42371,0.0524798,-2.09712,0.00950409,0.0229607,0.0402998,-1.99809,-0.043224,0.0163546,0.445039,2.42371,0.0524798,-2.09712,0.00950409,0.0229607,0.0402998,-1.99809,-0.043224,0.0163546
0.325,0.775,6.19867,0.445455,2.42387,0.0523671,-2.05899,0.0465199,0.0261151,0.038784,-1.99818,-0.0705912,-0.0198867,0.445455,2.42387,0.0523671,-2.05899,0.0465199,0.0261151,0.038784,-1.99818,-0.0705912,-0.0198867
0.325,0.825,6.16185,0.447412,2.42381,0.0523068,-2.03113,0.0938276,0.0279077,0.0372527,-1.99854,-0.106652,-0.0464538,0.447412,2.42381,0.0523068,-2.03113,0.0938276,0.0279077,0.0372527,-1.99854,-0.106652,-0.0464538
0.325,0.875,6.13202,0.451488,2.42339,0.052336,-2.01341,0.115614,0.0283385,0.0357059,-1.99918,-0.123464,-0.043607,0.451488,2.42339,0.052336,-2.01341,0.115614,0.0283385,0.0357059,-1.99918,-0.123464,-0.043607
0.325,0.925,6.11093,0.458142,2.4225,0.0524849,-2.00031,0.0973356,0.027453,0.0343937,-1.99995,-0.108716,-0.040398,0.458142,2.4225,0.0524849,-2.00031,0.0973356,0.027453,0.0343937,-1.99995,-0.108716,-0.040398
0.325,0.975,6.09419,0.466525,2.4213,0.0527097,-1.98614,0.0390345,0.0253894,0.0340722,-2.00039,-0.0623099,-0.0367582,0.466525,2.4213,0.0527097,-1.98614,0.0390345,0.0253894,0.0340722,-2.00039,-0.0623099,-0.0367582
0.375,0.025,10.5598,0.522858,2.41563,0.0550273,-2.05721,-0.323274,0.125576,0.026027,-2.00501,0.266828,-2.32437,0.522858,2.41563,0.0550273,-2.05721,-0.323274,0.125576,0.026027,-2.00501,0.266828,-2.32437
0.375,0.075,7.67506,0.53107,2.41528,0.0533309,-2.03241,-0.074549,0.0619116,0.029193,-1.99052,0.052828,-1.85835,0.53107,2.41528,0.0533309,-2.03241,-0.074549,0.0619116,0.029193,-1.99052,0.052828,-1.85835
0.375,0.125,6.31019,0.541119,2.41446,0.0525827,-1.99212,0.0858436,0.0333699,0.0333255,-1.99084,-0.0795821,-1.22643,0.541119,2.41446,0.0525827,-1.99212,0.0858436,0.0333699,0.0333255,-1.99084,-0.0795821,-1.22643
0.375,0.175,6.16002,0.550901,2.4131,0.0522201,-1.94938,0.145932,0.0162631,0.037191,-1.99434,-0.136787,-0.506099,0.550901,2.4131,0.0522201,-1.94938,0.145932,0.0162631,0.037191,-1.99434,-0.136787,-0.506099
0.375,0.225,6.05739,0.560041,2.41131,0.052134,-1.91683,0.131747,0.00275988,0.0403814,-1.99718,-0.131062,-0.263631,0.560041,2.41131,0.052134,-1.91683,0.131747,0.00275988,0.0403814,-1.99718,-0.131062,-0.263631
0.375,0.275,5.99364,0.568325,2.40925,0.0522574,-1.89741,0.111227,-0.00713971,0.042897,-1.99936,-0.116837,-0.188496,0.568325,2.40925,0.0522574,-1.89741,0.111227,-0.00713971,0.042897,-1.99936,-0.116837,-0.188496
0.375,0.325,5.96129,0.575539,2.40707,0.0525233,-1.8874,0.0874308,-0.0134357,0.0447375,-2.00087,-0.0998276,-0.113942,0.575539,2.40707,0.0525233,-1.8874,0.0874308,-0.0134357,0.0447375,-2.00087,-0.0998276,-0.113942
0.375,0.375,5.95338,0.581471,2.40493,0.0528647,-1.88296,0.0603283,-0.0161281,0.0459031,-2.00172,-0.0800621,-0.039757,0.581471,2.40493,0.0528647,-1.88296,0.0603283,-0.0161281,0.0459031,-2.00172,-0.0800621,-0.039757
0.375,0.425,5.96352,0.585905,2.40296,0.0532145,-1.8803,0.0298751,-0.0152168,0.0463938,-2.00191,-0.0575401,0.0343067,0.585905,2.40296,0.0532145,-1.8803,0.0298751,-0.0152168,0.0463938,-2.00191,-0.0575401,0.0343067
0.375,0.475,5.98576,0.588628,2.40132,0.0535057,-1.87559,-0.00397482,-0.010702,0.0462095,-2.00144,-0.0322365,0.108512,0.588628,2.40132,0.0535057,-1.87559,-0.00397482,-0.010702,0.0462095,-2.00144,-0.0322365,0.108512
0.375,0.525,5.99552,0.589445,2.40016,0.0536736,-1.86515,-0.0388635,-0.00312745,0.0454165,-2.00041,-0.00497194,0.135421,0.589445,2.40016,0.0536736,-1.86515,-0.0388635,-0.00312745,0.0454165,-2.00041,-0.00497194,0.135421
0.375,0.575,5.98497,0.588566,2.3995,0.0537045,-1.84805,-0.0604265,0.00424302,0.0444124,-1.99951,0.0129357,0.114479,0.588566,2.3995,0.0537045,-1.84805,-0.0604265,0.00424302,0.0444124,-1.99951,0.0129357,0.114479
0.375,0.625,5.97048,0.586613,2.39923,0.0536359,-1.82563,-0.0662205,0.0108655,0.0432635,-1.99884,0.0185294,0.0931514,0.586613,2.39923,0.0536359,-1.82563,-0.0662205,0.0108655,0.0432635,-1.99884,0.0185294,0.0931514
0.375,0.675,5.95157,0.584222,2.39924,0.0535076,-1.79931,-0.0562526,0.01674,0.0419699,-1.99842,0.0117792,0.071462,0.584222,2.39924,0.0535076,-1.79931,-0.0562526,0.01674,0.0419699,-1.99842,0.0117792,0.071462
0.375,0.725,5.92857,0.582033,2.39942,0.0533593,-1.77054,-0.0305809,0.0218665,0.0405314,-1.99823,-0.0073245,0.0494615,0.582033,2.39942,0.0533593,-1.77054,-0.0305809,0.0218665,0.0405314,-1.99823,-0.0073245,0.0494615
0.375,0.775,5.90249,0.580681,2.39966,0.0532307,-1.74076,0.0107006,0.026245,0.0389482,-1.99828,-0.0387726,0.0272289,0.580681,2.39966,0.0532307,-1.74076,0.0107006,0.026245,0.0389482,-1.99828,-0.0387726,0.0272289
0.375,0.825,5.87497,0.580806,2.39985,0.0531615,-1.71136,0.0656749,0.0298756,0.0372202,-1.99857,-0.0810196,0.000575865,0.580806,2.39985,0.0531615,-1.71136,0.0656749,0.0298756,0.0372202,-1.99857,-0.0810196,0.000575865
0.375,0.875,5.84814,0.583044,2.39989,0.0531916,-1.68313,0.0946492,0.0327581,0.0353474,-1.99909,-0.102488,-0.0386015,0.583044,2.39989,0.0531916,-1.68313,0.0946492,0.0327581,0.0353474,-1.99909,-0.102488,-0.0386015
0.375,0.925,5.82308,0.587915,2.39967,0.053353,-1.65788,0.0815231,0.0344074,0.0336791,-1.99973,-0.0906592,-0.0773041,0.587915,2.39967,0.053353,-1.65788,0.0815231,0.0344074,0.0336791,-1.99973,-0.0906592,-0.0773041
0.375,0.975,5.80226,0.594645,2.39929,0.0535965,-1.63797,0.0263809,0.0333554,0.0332718,-2.00014,-0.0456369,-0.115541,0.594645,2.39929,0.0535965,-1.63797,0.0263809,0.0333554,0.0332718,-2.00014,-0.0456369,-0.115541
0.425,0.025,9.42344,0.644555,2.39476,0.0552288,-1.50483,-0.292703,0.130394,0.0257695,-2.00748,0.241051,-2.06763,0.644555,2.39476,0.0552288,-1.50483,-0.292703,0.130394,0.0257695,-2.00748,0.241051,-2.06763
0.425,0.075,7.0304,0.649709,2.39463,0.0536941,-1.53018,-0.099495,0.0700673,0.0289023,-1.9915,0.0733079,-1.66695,0.649709,2.39463,0.0536941,-1.53018,-0.099495,0.0700673,0.0289023,-1.9915,0.0733079,-1.66695
0.425,0.125,5.89409,0.657039,2.39438,0.0532069,-1.50222,0.0338085,0.0423099,0.0324956,-1.99127,-0.0356675,-1.11888,0.657039,2.39438,0.0532069,-1.50222,0.0338085,0.0423099,0.0324956,-1.99127,-0.0356675,-1.11888
0.425,0.175,5.76894,0.665086,2.39352,0.0530238,-1.45351,0.0975636,0.0251263,0.0358105,-1.9945,-0.0928178,-0.487396,0.665086,2.39352,0.0530238,-1.45351,0.0975636,0.0251263,0.0358105,-1.9945,-0.0928178,-0.487396
0.425,0.225,5.68324,0.673365,2.39213,0.0530355,-1.41534,0.10783,0.0112445,0.0386029,-1.99713,-0.10424,-0.271753,0.673365,2.39213,0.0530355,-1.41534,0.10783,0.0112445,0.0386029,-1.99713,-0.10424,-0.271753
0.425,0.275,5.62946,0.681482,2.39038,0.0531915,-1.39628,0.106905,0.000664724,0.0408728,-1.99915,-0.104276,-0.202818,0.681482,2.39038,0.0531915,-1.39628,0.106905,0.000664724,0.0408728,-1.99915,-0.104276,-0.202818
0.425,0.325,5.60151,0.689042,2.38841,0.0534412,-1.39207,0.0968886,-0.00661319,0.0426201,-2.00057,-0.0973973,-0.134398,0.689042,2.38841,0.0534412,-1.39207,0.0968886,-0.00661319,0.0426201,-2.00057,-0.0973973,-0.134398
0.425,0.375,5.5942,0.695651,2.38638,0.0537343,-1.39831,0.0778887,-0.0105892,0.0438448,-2.00139,-0.0836523,-0.0663331,0.695651,2.38638,0.0537343,-1.39831,0.0778887,-0.0105892,0.0438448,-2.00139,-0.0836523,-0.0663331
0.425,0.425,5.60301,0.700915,2.38444,0.0540201,-1.41062,0.0499393,-0.0112633,0.044547,-2.00161,-0.0630481,0.00158684,0.700915,2.38444,0.0540201,-1.41062,0.0499393,-0.0112633,0.044547,-2.00161,-0.0630481,0.00158684
0.425,0.475,5.62394,0.704439,2.38273,0.0542482,-1.42463,0.0130185,-0.00863545,0.0447266,-2.00122,-0.0355574,0.0696067,0.704439,2.38273,0.0542482,-1.42463,0.0130185,-0.00863545,0.0447266,-2.00122,-0.0355574,0.0696067
0.425,0.525,5.64276,0.70585,2.38141,0.0543699,-1.43615,-0.0298049,-0.00313196,0.0444199,-2.00033,-0.00276602,0.101432,0.70585,2.38141,0.0543699,-1.43615,-0.0298049,-0.00313196,0.0444199,-2.00033,-0.00276602,0.101432
0.425,0.575,5.65183,0.705267,2.38052,0.0543769,-1.44295,-0.0598101,0.00268972,0.0438449,-1.99954,0.02073,0.0966155,0.705267,2.38052,0.0543769,-1.44295,-0.0598101,0.00268972,0.0438449,-1.99954,0.02073,0.0966155
0.425,0.625,5.65764,0.7033,2.38001,0.0543014,-1.44418,-0.0737711,0.00840332,0.0430377,-1.99895,0.0316618,0.0914798,0.7033,2.38001,0.0543014,-1.44418,-0.0737711,0.00840332,0.0430377,-1.99895,0.0316618,0.0914798
0.425,0.675,5.65842,0.700579,2.3798,0.0541773,-1.43895,-0.0716028,0.0140089,0.0419983,-1.99856,0.0299833,0.0859961,0.700579,2.3798,0.0541773,-1.43895,-0.0716028,0.0140089,0.0419983,-1.99856,0.0299833,0.0859961
0.425,0.725,5.65324,0.697737,2.37984,0.0540387,-1.42641,-0.0532645,0.0195063,0.0407268,-1.99837,0.0156609,0.0801656,0.697737,2.37984,0.0540387,-1.42641,-0.0532645,0.0195063,0.0407268,-1.99837,0.0156609,0.0801656
0.425,0.775,5.64191,0.695403,2.38007,0.0539195,-1.40572,-0.0187708,0.0248958,0.0392232,-1.99838,-0.0113085,0.0740199,0.695403,2.38007,0.0539195,-1.40572,-0.0187708,0.0248958,0.0392232,-1.99838,-0.0113085,0.0740199
0.425,0.825,5.62494,0.69421,2.38041,0.0538536,-1.37606,0.0302381,0.0301771,0.0374874,-1.99859,-0.0492458,0.0496132,0.69421,2.38041,0.0538536,-1.37606,0.0302381,0.0301771,0.0374874,-1.99859,-0.0492458,0.0496132
0.425,0.875,5.6034,0.694788,2.38082,0.0538751,-1.33926,0.0592967,0.0353504,0.0355195,-1.999,-0.0699677,-0.0284767,0.694788,2.38082,0.0538751,-1.33926,0.0592967,0.0353504,0.0355195,-1.999,-0.0699677,-0.0284767
0.425,0.925,5.57371,0.697667,2.38123,0.0540114,-1.30419,0.0543064,0.0394408,0.0337177,-1.99953,-0.0635355,-0.106021,0.697667,2.38123,0.0540114,-1.30419,0.0543064,0.0394408,0.0337177,-1.99953,-0.0635355,-0.106021
0.425,0.975,5.54929,0.702274,2.38163,0.0542199,-1.28074,0.0152402,0.0394998,0.0332863,-1.9999,-0.0301288,-0.183099,0.702274,2.38163,0.0542199,-1.28074,0.0152402,0.0394998,0.0332863,-1.9999,-0.0301288,-0.183099
0.475,0.025,8.6095,0.736287,2.37838,0.0546647,-0.962605,-0.16096,0.132317,0.0252329,-2.00981,0.145337,-1.91252,0.736287,2.37838,0.0546647,-0.962605,-0.16096,0.132317,0.0252329,-2.00981,0.145337,-1.91252
0.475,0.075,6.508,0.738066,2.37831,0.0535523,-1.03191,-0.0803702,0.0749193,0.029062,-1.99208,0.0670607,-1.54279,0.738066,2.37831,0.0535523,-1.03191,-0.0803702,0.0749193,0.029062,-1.99208,0.0670607,-1.54279
0.475,0.125,5.53731,0.742258,2.37858,0.0535655,-1.0153,-0.0123769,0.0488699,0.0322106,-1.99137,0.00798859,-1.03693,0.742258,2.37858,0.0535655,-1.0153,-0.0123769,0.0488699,0.0322106,-1.99137,0.00798859,-1.03693
0.475,0.175,5.44937,0.74842,2.37824,0.0537141,-0.962,0.0413803,0.0327177,0.0349066,-1.99446,-0.0415683,-0.449686,0.74842,2.37824,0.0537141,-0.962,0.0413803,0.0327177,0.0349066,-1.99446,-0.0415683,-0.449686
0.475,0.225,5.39125,0.755962,2.37733,0.0538983,-0.919865,0.0812097,0.0193708,0.0372252,-1.99699,-0.0756115,-0.254338,0.755962,2.37733,0.0538983,-0.919865,0.0812097,0.0193708,0.0372252,-1.99699,-0.0756115,-0.254338
0.475,0.275,5.35562,0.764281,2.37599,0.0541011,-0.902181,0.105607,0.00882929,0.0391666,-1.99894,-0.0952715,-0.197634,0.764281,2.37599,0.0541011,-0.902181,0.105607,0.00882929,0.0391666,-1.99894,-0.0952715,-0.197634
0.475,0.325,5.33714,0.772772,2.37436,0.0543056,-0.904187,0.114824,0.0010931,0.0407306,-2.00033,-0.103354,-0.14122,0.772772,2.37436,0.0543056,-0.904187,0.114824,0.0010931,0.0407306,-2.00033,-0.103354,-0.14122
0.475,0.375,5.33203,0.780832,2.37257,0.0544947,-0.920957,0.109096,-0.00383777,0.0419173,-2.00115,-0.0999217,-0.0850346,0.780832,2.37257,0.0544947,-0.920957,0.109096,-0.00383777,0.0419173,-2.00115,-0.0999217,-0.0850346
0.475,0.425,5.33761,0.787858,2.37076,0.0546514,-0.947596,0.0885509,-0.0059633,0.0427266,-2.0014,-0.0850166,-0.0289588,0.787858,2.37076,0.0546514,-0.947596,0.0885509,-0.0059633,0.0427266,-2.0014,-0.0850166,-0.0289588
0.475,0.475,5.35209,0.793246,2.36907,0.0547587,-0.979269,0.0532208,-0.00528349,0.0431587,-2.00109,-0.0586475,0.027186,0.793246,2.36907,0.0547587,-0.979269,0.0532208,-0.00528349,0.0431587,-2.00109,-0.0586475,0.027186
0.475,0.525,5.37012,0.796416,2.36762,0.0548004,-1.01132,0.00658873,-0.00208743,0.0432273,-2.0003,-0.0230524,0.0604665,0.796416,2.36762,0.0548004,-1.01132,0.00658873,-0.00208743,0.0432273,-2.0003,-0.0230524,0.0604665
0.475,0.575,5.38756,0.797347,2.36649,0.0547778,-1.04043,-0.0301891,0.00189036,0.0430159,-1.99959,0.00516571,0.0705705,0.797347,2.36649,0.0547778,-1.04043,-0.0301891,0.00189036,0.0430159,-1.99959,0.00516571,0.0705705
0.475,0.625,5.40442,0.796574,2.36568,0.05471,-1.06375,-0.0534833,0.00636079,0.0425383,-1.99905,0.022738,0.0804745,0.796574,2.36568,0.05471,-1.06375,-0.0534833,0.00636079,0.0425383,-1.99905,0.022738,0.0804745
0.475,0.675,5.41791,0.794656,2.36517,0.0546168,-1.07834,-0.0631655,0.0113239,0.0417946,-1.99868,0.0296362,0.0901342,0.794656,2.36517,0.0546168,-1.07834,-0.0631655,0.0113239,0.0417946,-1.99868,0.0296362,0.0901342
0.475,0.725,5.42591,0.792152,2.36498,0.0545181,-1.08121,-0.0591104,0.0167796,0.0407847,-1.99849,0.025818,0.0995147,0.792152,2.36498,0.0545181,-1.08121,-0.0591104,0.0167796,0.0407847,-1.99849,0.025818,0.0995147
0.475,0.775,5.42697,0.789622,2.36508,0.0544336,-1.06942,-0.0412212,0.022728,0.0395087,-1.99847,0.0112551,0.108592,0.789622,2.36508,0.0544336,-1.06942,-0.0412212,0.022728,0.0395087,-1.99847,0.0112551,0.108592
0.475,0.825,5.42022,0.787625,2.36549,0.0543831,-1.04005,-0.0103996,0.029169,0.0379665,-1.99862,-0.0126589,0.0890799,0.787625,2.36549,0.0543831,-1.04005,-0.0103996,0.029169,0.0379665,-1.99862,-0.0126589,0.0890799
0.475,0.875,5.40547,0.78672,2.36619,0.0543865,-0.996081,0.0124201,0.0361026,0.0361581,-1.99895,-0.0278736,-0.0151014,0.78672,2.36619,0.0543865,-0.996081,0.0124201,0.0361026,0.0361581,-1.99895,-0.0278736,-0.0151014
0.475,0.925,5.37299,0.787398,2.36718,0.0544599,-0.952908,0.0183883,0.0421758,0.0344695,-1.99938,-0.0294024,-0.1189,0.787398,2.36718,0.0544599,-0.952908,0.0183883,0.0421758,0.0344695,-1.99938,-0.0294024,-0.1189
0.475,0.975,5.34631,0.78941,2.36832,0.0545798,-0.927402,0.00719251,0.0432953,0.034068,-1.99972,-0.0173474,-0.222399,0.78941,2.36832,0.0545798,-0.927402,0.00719251,0.0432953,0.034068,-1.99972,-0.0173474,-0.222399
0.525,0.025,8.22438,0.799844,2.36636,0.0534763,-0.578303,0.0287914,0.131299,0.0241702,-2.01178,0.00101001,-1.91085,0.799844,2.36636,0.0534763,-0.578303,0.0287914,0.131299,0.0241702,-2.01178,0.00101001,-1.91085
0.525,0.075,6.18622,0.79809,2.36621,0.0529912,-0.657224,-0.033944,0.0760308,0.0295793,-1.99201,0.0404424,-1.52801,0.79809,2.36621,0.0529912,-0.657224,-0.033944,0.0760308,0.0295793,-1.99201,0.0404424,-1.52801
0.525,0.125,5.30544,0.798866,2.36695,0.0536902,-0.6493,-0.0552893,0.0527685,0.0324632,-1.99096,0.0495901,-1.00398,0.798866,2.36695,0.0536902,-0.6493,-0.0552893,0.0527685,0.0324632,-1.99096,0.0495901,-1.00398
0.525,0.175,5.25761,0.803034,2.36714,0.0542873,-0.602261,-0.021119,0.0390276,0.0345282,-1.99413,0.0131569,-0.393377,0.803034,2.36714,0.0542873,-0.602261,-0.021119,0.0390276,0.0345282,-1.99413,0.0131569,-0.393377
0.525,0.225,5.23068,0.809912,2.36676,0.0547007,-0.56341,0.0509429,0.0273745,0.0363383,-1.99672,-0.0466119,-0.206006,0.809912,2.36676,0.0547007,-0.56341,0.0509429,0.0273745,0.0363383,-1.99672,-0.0466119,-0.206006
0.525,0.275,5.21631,0.818674,2.36591,0.0549601,-0.545737,0.104173,0.0178094,0.0378935,-1.99874,-0.089,-0.167765,0.818674,2.36591,0.0549601,-0.545737,0.104173,0.0178094,0.0378935,-1.99874,-0.089,-0.167765
0.525,0.325,5.20887,0.828496,2.36472,0.0550953,-0.545585,0.136295,0.0103322,0.0391938,-2.00019,-0.115019,-0.129495,0.828496,2.36472,0.0550953,-0.545585,0.136295,0.0103322,0.0391938,-2.00019,-0.115019,-0.129495
0.525,0.375,5.20505,0.838551,2.36328,0.0551361,-0.559155,0.14759,0.00494289,0.0402392,-2.00106,-0.124734,-0.0912276,0.838551,2.36328,0.0551361,-0.559155,0.14759,0.00494289,0.0402392,-2.00106,-0.124734,-0.0912276
0.525,0.425,5.20347,0.848014,2.3617,0.0551122,-0.58268,0.138274,0.00164151,0.0410298,-2.00136,-0.118254,-0.052938,0.848014,2.3617,0.0551122,-0.58268,0.138274,0.00164151,0.0410298,-2.00136,-0.118254,-0.052938
0.525,0.475,5.2042,0.856061,2.36009,0.0550535,-0.612487,0.108476,0.000428042,0.0415654,-2.00108,-0.0956887,-0.0145474,0.856061,2.36009,0.0550535,-0.612487,0.108476,0.000428042,0.0415654,-2.00108,-0.0956887,-0.0145474
0.525,0.525,5.20835,0.861891,2.35856,0.054989,-0.645091,0.0618832,0.00116529,0.0418485,-2.00032,-0.0598139,0.0154163,0.861891,2.35856,0.054989,-0.645091,0.0618832,0.00116529,0.0418485,-2.00032,-0.0598139,0.0154163
0.525,0.575,5.21769,0.865309,2.35719,0.0549331,-0.677459,0.020454,0.00303006,0.0418929,-1.99964,-0.0280184,0.0367164,0.865309,2.35719,0.0549331,-0.677459,0.020454,0.00303006,0.0418929,-1.99964,-0.0280184,0.0367164
0.525,0.625,5.23001,0.866719,2.35605,0.0548854,-0.706109,-0.0121266,0.00588515,0.0417009,-1.99911,-0.00331104,0.0579096,0.866719,2.35605,0.0548854,-0.706109,-0.0121266,0.00588515,0.0417009,-1.99911,-0.00331104,0.0579096
0.525,0.675,5.24254,0.86655,2.35519,0.054845,-0.727422,-0.0357867,0.00973057,0.0412726,-1.99875,0.0143377,0.0789825,0.86655,2.35519,0.054845,-0.727422,-0.0357867,0.00973057,0.0412726,-1.99875,0.0143377,0.0789825
0.525,0.725,5.25288,0.865236,2.35469,0.0548109,-0.737728,-0.0504146,0.0145663,0.0406079,-1.99855,0.024917,0.0999114,0.865236,2.35469,0.0548109,-0.737728,-0.0504146,0.0145663,0.0406079,-1.99855,0.024917,0.0999114
0.525,0.775,5.25906,0.863206,2.3546,0.0547819,-0.733328,-0.0558724,0.0203924,0.0397069,-1.99852,0.0283975,0.120662,0.863206,2.3546,0.0547819,-0.733328,-0.0558724,0.0203924,0.0397069,-1.99852,0.0283975,0.120662
0.525,0.825,5.25957,0.860891,2.35498,0.0547572,-0.710578,-0.0520764,0.0272088,0.0385695,-1.99865,0.0255281,0.108841,0.860891,2.35498,0.0547572,-0.710578,-0.0520764,0.0272088,0.0385695,-1.99865,0.0255281,0.108841
0.525,0.875,5.25338,0.858723,2.35589,0.0547357,-0.672362,-0.0404986,0.0350155,0.0371958,-1.99894,0.019193,-0.000161769,0.858723,2.35589,0.0547357,-0.672362,-0.0404986,0.0350155,0.0371958,-1.99894,0.019193,-0.000161769
0.525,0.925,5.22647,0.857109,2.35737,0.0547169,-0.634253,-0.0222018,0.0422594,0.0358883,-1.99933,0.0079178,-0.109266,0.857109,2.35737,0.0547169,-0.634253,-0.0222018,0.0422594,0.0358883,-1.99933,0.0079178,-0.109266
0.525,0.975,5.20483,0.856217,2.35917,0.0547062,-0.61322,0.00231537,0.0442428,0.0355627,-1.99966,-0.00825876,-0.218481,0.856217,2.35917,0.0547062,-0.61322,0.00231537,0.0442428,0.0355627,-1.99966,-0.00825876,-0.218481
0.575,0.025,8.16833,0.845971,2.35788,0.052512,-0.342513,0.18077,0.12775,0.0225961,-2.01334,-0.115163,-2.05059,0.845971,2.35788,0.052512,-0.342513,0.18077,0.12775,0.0225961,-2.01334,-0.115163,-2.05059
0.575,0.075,6.00145,0.841468,2.35774,0.0525259,-0.400528,0.0110212,0.0736238,0.030403,-1.99126,0.014435,-1.62257,0.841468,2.35774,0.0525259,-0.400528,0.0110212,0.0736238,0.030403,-1.99126,0.014435,-1.62257
0.575,0.125,5.1603,0.839395,2.35889,0.0537711,-0.399122,-0.0830836,0.0540791,0.033207,-1.99002,0.0782265,-1.02466,0.839395,2.35889,0.0537711,-0.399122,-0.0830836,0.0540791,0.033207,-1.99002,0.0782265,-1.02466
0.575,0.175,5.14497,0.841707,2.35953,0.0547227,-0.368452,-0.0699942,0.0440174,0.0346498,-1.99349,0.0548506,-0.32408,0.841707,2.35953,0.0547227,-0.368452,-0.0699942,0.0440174,0.0346498,-1.99349,0.0548506,-0.32408
0.575,0.225,5.14465,0.847689,2.3596,0.0553134,-0.339224,0.0213165,0.0351414,0.0359352,-1.99634,-0.0207069,-0.131017,0.847689,2.3596,0.0553134,-0.339224,0.0213165,0.0351414,0.0359352,-1.99634,-0.0207069,-0.131017
0.575,0.275,5.1497,0.856379,2.35917,0.0556112,-0.319784,0.0929965,0.027451,0.0370632,-1.99856,-0.077411,-0.1157,0.856379,2.35917,0.0556112,-0.319784,0.0929965,0.027451,0.0370632,-1.99856,-0.077411,-0.1157
0.575,0.325,5.15386,0.866813,2.35834,0.0556838,-0.309153,0.140789,0.0209462,0.0380339,-2.00016,-0.115358,-0.100083,0.866813,2.35834,0.0556838,-0.309153,0.140789,0.0209462,0.0380339,-2.00016,-0.115358,-0.100083
0.575,0.375,5.15374,0.878029,2.35721,0.0555992,-0.306328,0.164939,0.015627,0.0388471,-2.00113,-0.134609,-0.0842135,0.878029,2.35721,0.0555992,-0.306328,0.164939,0.015627,0.0388471,-2.00113,-0.134609,-0.0842135
0.575,0.425,5.14837,0.889065,2.35585,0.0554252,-0.310316,0.16568,0.0114935,0.039503,-2.00148,-0.135325,-0.0681221,0.889065,2.35585,0.0554252,-0.310316,0.16568,0.0114935,0.039503,-2.00148,-0.135325,-0.0681221
0.575,0.475,5.13881,0.898959,2.35435,0.0552297,-0.320164,0.143188,0.00854559,0.0400014,-2.00121,-0.117695,-0.0518174,0.898959,2.35435,0.0552297,-0.320164,0.143188,0.00854559,0.0400014,-2.00121,-0.117695,-0.0518174
0.575,0.525,5.12858,0.906773,2.35281,0.0550787,-0.335,0.101007,0.00680441,0.0403433,-2.00041,-0.0847483,-0.029568,0.906773,2.35281,0.0550787,-0.335,0.101007,0.00680441,0.0403433,-2.00041,-0.0847483,-0.029568
0.575,0.575,5.1246,0.912175,2.35132,0.0549972,-0.353302,0.0599252,0.00639659,0.0405331,-1.99969,-0.0530348,-0.00163657,0.912175,2.35132,0.0549972,-0.353302,0.0599252,0.00639659,0.0405331,-1.99969,-0.0530348,-0.00163657
0.575,0.625,5.12583,0.915439,2.34999,0.0549686,-0.372116,0.0233896,0.00734324,0.0405717,-1.99914,-0.0250795,0.0262026,0.915439,2.34999,0.0549686,-0.372116,0.0233896,0.00734324,0.0405717,-1.99914,-0.0250795,0.0262026
0.575,0.675,5.13022,0.91686,2.34891,0.0549748,-0.388362,-0.00858788,0.00964434,0.0404591,-1.99876,-0.000815412,0.0539808,0.91686,2.34891,0.0549748,-0.388362,-0.00858788,0.00964434,0.0404591,-1.99876,-0.000815412,0.0539808
0.575,0.725,5.13594,0.916739,2.34819,0.0549974,-0.398937,-0.0359556,0.0132999,0.0401952,-1.99856,0.0197831,0.0817154,0.916739,2.34819,0.0549974,-0.398937,-0.0359556,0.0132999,0.0401952,-1.99856,0.0197831,0.0817154
0.575,0.775,5.14143,0.915371,2.34794,0.0550184,-0.400708,-0.0586176,0.0183099,0.0397801,-1.99852,0.0367109,0.109408,0.915371,2.34794,0.0550184,-0.400708,-0.0586176,0.0183099,0.0397801,-1.99852,0.0367109,0.109408
0.575,0.825,5.14536,0.913057,2.34826,0.0550194,-0.390567,-0.0758204,0.0246744,0.0392138,-1.99867,0.050126,0.107058,0.913057,2.34826,0.0550194,-0.390567,-0.0758204,0.0246744,0.0392138,-1.99867,0.050126,0.107058
0.575,0.875,5.14671,0.910093,2.34926,0.0549822,-0.370009,-0.0740871,0.0323934,0.0384962,-1.99898,0.0509589,0.0143958,0.910093,2.34926,0.0549822,-0.370009,-0.0740871,0.0323934,0.0384962,-1.99898,0.0509589,0.0143958
0.575,0.925,5.1308,0.906796,2.35099,0.0548926,-0.348785,-0.0482567,0.0399061,0.0377867,-1.9994,0.0330543,-0.0788553,0.906796,2.35099,0.0548926,-0.348785,-0.0482567,0.0399061,0.0377867,-1.9994,0.0330543,-0.0788553
0.575,0.975,5.11795,0.903667,2.35312,0.0547785,-0.33751,0.00128894,0.0424917,0.0375674,-1.99972,-0.00350555,-0.172608,0.903667,2.35312,0.0547785,-0.33751,0.00128894,0.0424917,0.0375674,-1.99972,-0.00350555,-0.172608
0.625,0.025,8.30777,0.876458,2.35282,0.0519132,-0.110481,0.285354,0.122538,0.0207867,-2.01463,-0.191762,-2.27957,0.876458,2.35282,0.0519132,-0.110481,0.285354,0.122538,0.0207867,-2.01463,-0.191762,-2.27957
0.625,0.075,5.87652,0.870148,2.35281,0.0522422,-0.148172,0.0517383,0.0685792,0.0315238,-1.99003,-0.00707963,-1.79422,0.870148,2.35281,0.0522422,-0.148172,0.0517383,0.0685792,0.0315238,-1.99003,-0.00707963,-1.79422
0.625,0.125,5.06036,0.865934,2.35431,0.05384,-0.152744,-0.092378,0.0532294,0.0343571,-1.98871,0.092884,-1.08833,0.865934,2.35431,0.05384,-0.152744,-0.092378,0.0532294,0.0343571,-1.98871,0.092884,-1.08833
0.625,0.175,5.06386,0.86657,2.35531,0.0550167,-0.137685,-0.0999134,0.0476201,0.0351714,-1.99264,0.0815493,-0.252854,0.86657,2.35531,0.0550167,-0.137685,-0.0999134,0.0476201,0.0351714,-1.99264,0.0815493,-0.252854
0.625,0.225,5.08044,0.871374,2.35571,0.0557149,-0.117443,-0.00417562,0.0422071,0.0359123,-1.99587,0.00187924,-0.0432544,0.871374,2.35571,0.0557149,-0.117443,-0.00417562,0.0422071,0.0359123,-1.99587,0.00187924,-0.0432544
0.625,0.275,5.09959,0.879347,2.3556,0.0560281,-0.0960274,0.0736777,0.0369905,0.0365799,-1.99839,-0.059258,-0.0518931,0.879347,2.3556,0.0560281,-0.0960274,0.0736777,0.0369905,0.0365799,-1.99839,-0.059258,-0.0518931
0.625,0.325,5.11455,0.889491,2.35505,0.05605,-0.0750805,0.12827,0.0319703,0.0371741,-2.00021,-0.102008,-0.0600218,0.889491,2.35505,0.05605,-0.0750805,0.12827,0.0319703,0.0371741,-2.00021,-0.102008,-0.0600218
0.625,0.375,5.1216,0.900806,2.35415,0.0558741,-0.0563359,0.159791,0.0271464,0.037695,-2.00133,-0.126427,-0.0676775,0.900806,2.35415,0.0558741,-0.0563359,0.159791,0.0271464,0.037695,-2.00133,-0.126427,-0.0676775
0.625,0.425,5.11964,0.912292,2.35298,0.055594,-0.0415089,0.168417,0.022519,0.0381424,-2.00173,-0.132675,-0.0749173,0.912292,2.35298,0.055594,-0.0415089,0.168417,0.022519,0.0381424,-2.00173,-0.132675,-0.0749173
0.625,0.475,5.10971,0.922952,2.35162,0.0553035,-0.0322782,0.154276,0.0180879,0.0385165,-2.00144,-0.120945,-0.0818224,0.922952,2.35162,0.0553035,-0.0322782,0.154276,0.0180879,0.0385165,-2.00144,-0.120945,-0.0818224
0.625,0.525,5.09376,0.931809,2.35015,0.0550936,-0.0302608,0.120369,0.0140272,0.0388216,-2.00055,-0.094151,-0.0698147,0.931809,2.35015,0.0550936,-0.0302608,0.120369,0.0140272,0.0388216,-2.00055,-0.094151,-0.0698147
0.625,0.575,5.08131,0.93845,2.34867,0.054996,-0.0353199,0.084449,0.0113804,0.039084,-1.99974,-0.0664138,-0.0391825,0.93845,2.34867,0.054996,-0.0353199,0.084449,0.0113804,0.039084,-1.99974,-0.0664138,-0.0391825
0.625,0.625,5.07458,0.943018,2.3473,0.0549831,-0.0449757,0.0494947,0.0103215,0.0393081,-1.99913,-0.0395992,-0.00864357,0.943018,2.3473,0.0549831,-0.0449757,0.0494947,0.0103215,0.0393081,-1.99913,-0.0395992,-0.00864357
0.625,0.675,5.07228,0.945684,2.34616,0.0550249,-0.0566363,0.0155202,0.0108504,0.039494,-1.99872,-0.0136465,0.0218534,0.945684,2.34616,0.0550249,-0.0566363,0.0155202,0.0108504,0.039494,-1.99872,-0.0136465,0.0218534
0.625,0.725,5.07324,0.946618,2.34535,0.0550912,-0.0677229,-0.0174518,0.0129672,0.0396415,-1.99851,0.0114844,0.052357,0.946618,2.34535,0.0550912,-0.0677229,-0.0174518,0.0129672,0.0396415,-1.99851,0.0114844,0.052357
0.625,0.775,5.07647,0.945987,2.34501,0.0551519,-0.0756461,-0.0493752,0.0166719,0.0397507,-1.99849,0.035814,0.0829107,0.945987,2.34501,0.0551519,-0.0756461,-0.0493752,0.0166719,0.0397507,-1.99849,0.035814,0.0829107
0.625,0.825,5.08109,0.943963,2.34525,0.0551769,-0.0778294,-0.0791583,0.0219644,0.0398216,-1.99868,0.0590585,0.0902142,0.943963,2.34525,0.0551769,-0.0778294,-0.0791583,0.0219644,0.0398216,-1.99868,0.0590585,0.0902142
0.625,0.875,5.08636,0.940714,2.34618,0.0551361,-0.0743343,-0.0845751,0.0288449,0.0398542,-1.99905,0.0647508,0.0270721,0.940714,2.34618,0.0551361,-0.0743343,-0.0845751,0.0288449,0.0398542,-1.99905,0.0647508,0.0270721
0.625,0.925,5.07987,0.936458,2.34788,0.0550054,-0.0692435,-0.0566726,0.0358974,0.0398361,-1.99954,0.0442132,-0.0369468,0.936458,2.34788,0.0550054,-0.0692435,-0.0566726,0.0358974,0.0398361,-1.99954,0.0442132,-0.0369468
0.625,0.975,5.0733,0.931923,2.35,0.0548266,-0.067011,0.0044048,0.0388396,0.0397296,-1.99987,-0.00252162,-0.101697,0.931923,2.35,0.0548266,-0.067011,0.0044048,0.0388396,0.0397296,-1.99987,-0.00252162,-0.101697
0.675,0.025,8.61392,0.891306,2.35118,0.0516798,0.121361,0.343227,0.116551,0.0190293,-2.01578,-0.231151,-2.5478,0.891306,2.35118,0.0516798,0.121361,0.343227,0.116551,0.0190293,-2.01578,-0.231151,-2.5478
0.675,0.075,5.80971,0.884131,2.35142,0.0521401,0.102321,0.0867382,0.0618065,0.0329343,-1.98852,-0.0243755,-2.00963,0.884131,2.35142,0.0521401,0.102321,0.0867382,0.0618065,0.0329343,-1.98852,-0.0243755,-2.00963
0.675,0.125,5.02,0.878484,2.3532,0.0538968,0.0914813,-0.0843727,0.050663,0.0358266,-1.98718,0.0939479,-1.18287,0.878484,2.3532,0.0538968,0.0914813,-0.0843727,0.050663,0.0358266,-1.98718,0.0939479,-1.18287
0.675,0.175,5.02549,0.877621,2.35446,0.0551695,0.0911732,-0.111496,0.0497672,0.0359896,-1.99168,0.0938737,-0.190259,0.877621,2.35446,0.0551695,0.0911732,-0.111496,0.0497672,0.0359896,-1.99168,0.0938737,-0.190259
0.675,0.225,5.04577,0.880965,2.35509,0.0559052,0.102953,-0.025805,0.0480921,0.0361618,-1.99537,0.0216032,0.043529,0.880965,2.35509,0.0559052,0.102953,-0.025805,0.0480921,0.0361618,-1.99537,0.0216032,0.043529
0.675,0.275,5.07024,0.887579,2.35519,0.056211,0.126774,0.0462535,0.0456379,0.0363431,-1.99826,-0.0343459,0.0132593,0.887579,2.35519,0.056211,0.126774,0.0462535,0.0456379,0.0363431,-1.99826,-0.0343459,0.0132593
0.675,0.325,5.09193,0.896529,2.35483,0.0561938,0.158354,0.0990376,0.0424045,0.0365336,-2.00033,-0.0750023,-0.0163395,0.896529,2.35483,0.0561938,0.158354,0.0990376,0.0424045,0.0365336,-2.00033,-0.0750023,-0.0163395
0.675,0.375,5.10673,0.90688,2.3541,0.0559608,0.193225,0.132657,0.0383919,0.0367333,-2.0016,-0.10042,-0.0453261,0.90688,2.3541,0.0559608,0.193225,0.132657,0.0383919,0.0367333,-2.0016,-0.10042,-0.0453261
0.675,0.425,5.11291,0.917695,2.35309,0.0556188,0.226961,0.147161,0.0336001,0.0369421,-2.00207,-0.110704,-0.0738031,0.917695,2.35309,0.0556188,0.226961,0.147161,0.0336001,0.0369421,-2.00207,-0.110704,-0.0738031
0.675,0.475,5.1107,0.92804,2.35189,0.0552751,0.255221,0.142534,0.0280291,0.0371601,-2.00173,-0.105975,-0.101919,0.92804,2.35189,0.0552751,0.255221,0.142534,0.0280291,0.0371601,-2.00173,-0.105975,-0.101919
0.675,0.525,5.09732,0.937001,2.35057,0.0550336,0.273857,0.120835,0.0219882,0.0373954,-2.00071,-0.0886317,-0.100858,0.937001,2.35057,0.0550336,0.273857,0.120835,0.0219882,0.0373954,-2.00071,-0.0886317,-0.100858
0.675,0.575,5.08209,0.944132,2.34924,0.0549294,0.281646,0.0948953,0.0173328,0.0376968,-1.99979,-0.0687703,-0.070814,0.944132,2.34924,0.0549294,0.281646,0.0948953,0.0173328,0.0376968,-1.99979,-0.0687703,-0.070814
0.675,0.625,5.07164,0.949457,2.34799,0.0549289,0.28066,0.066955,0.0143723,0.0380722,-1.9991,-0.047426,-0.0408161,0.949457,2.34799,0.0549289,0.28066,0.066955,0.0143723,0.0380722,-1.9991,-0.047426,-0.0408161
0.675,0.675,5.06528,0.953023,2.34694,0.0549954,0.273088,0.0370777,0.0131065,0.0385218,-1.99865,-0.0245793,-0.0108319,0.953023,2.34694,0.0549954,0.273088,0.0370777,0.0131065,0.0385218,-1.99865,-0.0245793,-0.0108319
0.675,0.725,5.06244,0.954873,2.34617,0.0550922,0.261082,0.00529636,0.0135355,0.0390456,-1.99842,-0.000204817,0.0191832,0.954873,2.34617,0.0550922,0.261082,0.00529636,0.0135355,0.0390456,-1.99842,-0.000204817,0.0191832
0.675,0.775,5.06269,0.955054,2.3458,0.0551826,0.246776,-0.0283724,0.0156594,0.0396435,-1.99843,0.0257282,0.0492848,0.955054,2.3458,0.0551826,0.246776,-0.0283724,0.0156594,0.0396435,-1.99843,0.0257282,0.0492848
0.675,0.825,5.06566,0.953609,2.34593,0.0552298,0.232293,-0.0627741,0.019478,0.0403155,-1.99867,0.0526596,0.0649543,0.953609,2.34593,0.0552298,0.232293,-0.0627741,0.019478,0.0403155,-1.99867,0.0526596,0.0649543
0.675,0.875,5.07104,0.950586,2.34666,0.0551973,0.219088,-0.0728225,0.0249914,0.0410617,-1.99914,0.0611769,0.0364664,0.950586,2.34666,0.0551973,0.219088,-0.0728225,0.0249914,0.0410617,-1.99914,0.0611769,0.0364664
0.675,0.925,5.07021,0.946095,2.34805,0.0550553,0.208578,-0.0481651,0.0310394,0.0417018,-1.99972,0.04206,0.00709026,0.946095,2.34805,0.0550553,0.208578,-0.0481651,0.0310394,0.0417018,-1.99972,0.04206,0.00709026
0.675,0.975,5.06688,0.940985,2.3498,0.0548504,0.202295,0.0113233,0.0341124,0.0416907,-2.00006,-0.00474065,-0.0230192,0.940985,2.3498,0.0548504,0.202295,0.0113233,0.0341124,0.0416907,-2.00006,-0.00474065,-0.0230192
0.725,0.025,9.06102,0.890515,2.35296,0.0518118,0.356773,0.35842,0.110678,0.0176116,-2.01694,-0.236646,-2.81063,0.890515,2.35296,0.0518118,0.356773,0.35842,0.110678,0.0176116,-2.01694,-0.236646,-2.81063
0.725,0.075,5.80017,0.883417,2.35356,0.0522197,0.353795,0.1167,0.0542151,0.034627,-1.98694,-0.0386784,-2.23642,0.883417,2.35356,0.0522197,0.353795,0.1167,0.0542151,0.034627,-1.98694,-0.0386784,-2.23642
0.725,0.125,5.04026,0.877043,2.35557,0.0539415,0.335538,-0.058871,0.0468231,0.037529,-1.98561,0.0810886,-1.29585,0.877043,2.35557,0.0539415,0.335538,-0.058871,0.0468231,0.037529,-1.98561,0.0810886,-1.29585
0.725,0.175,5.03344,0.874862,2.357,0.0551809,0.319558,-0.104737,0.0503903,0.0370012,-1.9907,0.0920975,-0.146843,0.874862,2.357,0.0551809,0.319558,-0.104737,0.0503903,0.0370012,-1.9907,0.0920975,-0.146843
0.725,0.225,5.04545,0.876463,2.35775,0.0558842,0.323242,-0.0439499,0.052317,0.0365757,-1.99488,0.0389694,0.115599,0.876463,2.35775,0.0558842,0.323242,-0.0439499,0.052317,0.0365757,-1.99488,0.0389694,0.115599
0.725,0.275,5.06665,0.881075,2.35795,0.0561597,0.350077,0.0101279,0.0526033,0.0362524,-1.99814,-0.0021382,0.0694263,0.881075,2.35795,0.0561597,0.350077,0.0101279,0.0526033,0.0362524,-1.99814,-0.0021382,0.0694263
0.725,0.325,5.09031,0.887928,2.35769,0.0561153,0.393046,0.0523804,0.051249,0.0360314,-2.00049,-0.0337955,0.0240228,0.887928,2.35769,0.0561153,0.393046,0.0523804,0.051249,0.0360314,-2.00049,-0.0337955,0.0240228
0.725,0.375,5.11197,0.896251,2.35706,0.0558593,0.444906,0.0827962,0.0482543,0.0359126,-2.00192,-0.0560576,-0.0207593,0.896251,2.35706,0.0558593,0.444906,0.0827962,0.0482543,0.0359126,-2.00192,-0.0560576,-0.0207593
0.725,0.425,5.12898,0.905273,2.35619,0.0554996,0.498437,0.101261,0.043619,0.0358961,-2.00244,-0.0689617,-0.0651022,0.905273,2.35619,0.0554996,0.498437,0.101261,0.043619,0.0358961,-2.00244,-0.0689617,-0.0651022
0.725,0.475,5.14012,0.914224,2.35516,0.0551443,0.546494,0.107585,0.0373433,0.0359819,-2.00204,-0.0725248,-0.10922,0.914224,2.35516,0.0551443,0.546494,0.107585,0.0373433,0.0359819,-2.00204,-0.0725248,-0.10922
0.725,0.525,5.1361,0.922348,2.35408,0.0548986,0.582187,0.102507,0.0298421,0.0361768,-2.00088,-0.0682278,-0.117966,0.922348,2.35408,0.0548986,0.582187,0.102507,0.0298421,0.0361768,-2.00088,-0.0682278,-0.117966
0.725,0.575,5.12372,0.929222,2.35302,0.0547975,0.602873,0.0917757,0.0236054,0.0365225,-1.99983,-0.0603903,-0.0912774,0.929222,2.35302,0.0547975,0.602873,0.0917757,0.0236054,0.0365225,-1.99983,-0.0603903,-0.0912774
0.725,0.625,5.11402,0.934756,2.35206,0.0548061,0.610291,0.0765158,0.0190482,0.0370261,-1.99906,-0.0490072,-0.0645174,0.934756,2.35206,0.0548061,0.610291,0.0765158,0.0190482,0.0370261,-1.99906,-0.0490072,-0.0645174
0.725,0.675,5.10671,0.938875,2.35125,0.0548863,0.606344,0.0568439,0.0161705,0.0376874,-1.99855,-0.0341105,-0.0377023,0.938875,2.35125,0.0548863,0.606344,0.0568439,0.0161705,0.0376874,-1.99855,-0.0341105,-0.0377023
0.725,0.725,5.10166,0.941505,2.35065,0.0550004,0.592891,0.0328255,0.0149723,0.0385065,-1.99831,-0.0157107,-0.0108265,0.941505,2.35065,0.0550004,0.592891,0.0328255,0.0149723,0.0385065,-1.99831,-0.0157107,-0.0108265
0.725,0.775,5.09884,0.942571,2.35031,0.0551103,0.571756,0.00447948,0.0154536,0.0394833,-1.99835,0.00620818,0.0161381,0.942571,2.35031,0.0551103,0.571756,0.00447948,0.0154536,0.0394833,-1.99835,0.00620818,0.0161381
0.725,0.825,5.09833,0.941996,2.35031,0.0551781,0.544736,-0.0271914,0.0176144,0.040618,-1.99865,0.0309861,0.0374623,0.941996,2.35031,0.0551781,0.544736,-0.0271914,0.0176144,0.040618,-1.99865,0.0309861,0.0374623
0.725,0.875,5.10025,0.939707,2.35069,0.0551657,0.514917,-0.0396384,0.0214547,0.0419104,-1.99922,0.0405798,0.0411557,0.939707,2.35069,0.0551657,0.514917,-0.0396384,0.0214547,0.0419104,-1.99922,0.0405798,0.0411557
0.725,0.925,5.09992,0.935708,2.35151,0.0550422,0.489085,-0.0233781,0.0261383,0.0430491,-1.99991,0.0270291,0.0442035,0.935708,2.35151,0.0550422,0.489085,-0.0233781,0.0261383,0.0430491,-1.99991,0.0270291,0.0442035
0.725,0.975,5.09631,0.930853,2.35253,0.0548499,0.474617,0.021919,0.0291358,0.0430919,-2.00026,-0.00976206,0.0467284,0.930853,2.35253,0.0548499,0.474617,0.021919,0.0291358,0.0430919,-2.00026,-0.00976206,0.0467284
0.775,0.025,9.62324,0.874085,2.35815,0.0523094,0.599248,0.337201,0.105807,0.0168209,-2.01823,-0.212332,-3.02962,0.874085,2.35815,0.0523094,0.599248,0.337201,0.105807,0.0168209,-2.01823,-0.212332,-3.02962
0.775,0.075,5.84969,0.868005,2.35924,0.0524808,0.608766,0.144196,0.0467147,0.0365945,-1.98551,-0.0521868,-2.44379,0.868005,2.35924,0.0524808,0.608766,0.144196,0.0467147,0.0365945,-1.98551,-0.0521868,-2.44379
0.775,0.125,5.10874,0.861613,2.36142,0.0539742,0.581078,-0.0143799,0.0421529,0.0393775,-1.98415,0.0532629,-1.4153,0.861613,2.36142,0.0539742,0.581078,-0.0143799,0.0421529,0.0393775,-1.98415,0.0532629,-1.4153
0.775,0.175,5.08344,0.858292,2.36291,0.055051,0.548644,-0.0790378,0.049421,0.0381029,-1.9898,0.0761658,-0.133902,0.858292,2.36291,0.055051,0.548644,-0.0790378,0.049421,0.0381029,-1.9898,0.0761658,-0.133902
0.775,0.225,5.08131,0.857868,2.36369,0.055652,0.544466,-0.0590327,0.0544022,0.0370462,-1.99444,0.0544934,0.158643,0.857868,2.36369,0.055652,0.544466,-0.0590327,0.0544022,0.0370462,-1.99444,0.0544934,0.158643
0.775,0.275,5.09455,0.859835,2.36388,0.0558743,0.575037,-0.035829,0.0570965,0.0362074,-1.99806,0.0381781,0.105899,0.859835,2.36388,0.0558743,0.575037,-0.035829,0.0570965,0.0362074,-1.99806,0.0381781,0.105899
0.775,0.325,5.11728,0.863687,2.36362,0.0558146,0.630484,-0.0133193,0.0575038,0.0355865,-2.00066,0.0226597,0.05389,0.863687,2.36362,0.0558146,0.630484,-0.0133193,0.0575038,0.0355865,-2.00066,0.0226597,0.05389
0.775,0.375,5.1449,0.86892,2.36304,0.0555696,0.700702,0.00831832,0.0556243,0.0351835,-2.00224,0.00786175,0.00235847,0.86892,2.36304,0.0555696,0.700702,0.00831832,0.0556243,0.0351835,-2.00224,0.00786175,0.00235847
0.775,0.425,5.17376,0.875027,2.36226,0.0552362,0.775536,0.0288412,0.0514579,0.0349984,-2.0028,-0.00624484,-0.0489559,0.875027,2.36226,0.0552362,0.775536,0.0288412,0.0514579,0.0349984,-2.0028,-0.00624484,-0.0489559
0.775,0.475,5.20087,0.881503,2.36143,0.0549113,0.844776,0.0479705,0.0450045,0.0350311,-2.00235,-0.0196446,-0.100311,0.881503,2.36143,0.0549113,0.844776,0.0479705,0.0450045,0.0350311,-2.00235,-0.0196446,-0.100311
0.775,0.525,5.21051,0.88785,2.36066,0.0546888,0.898452,0.0647723,0.0367434,0.0352776,-2.00104,-0.0324871,-0.115734,0.88785,2.36066,0.0546888,0.898452,0.0647723,0.0367434,0.0352776,-2.00104,-0.0324871,-0.115734
0.775,0.575,5.20568,0.89372,2.36003,0.0546002,0.932384,0.0752351,0.0295494,0.0357126,-1.99987,-0.0412755,-0.0948248,0.89372,2.36003,0.0546002,0.932384,0.0752351,0.0295494,0.0357126,-1.99987,-0.0412755,-0.0948248
0.775,0.625,5.20066,0.898914,2.35951,0.0546145,0.94808,0.0788249,0.0239016,0.0363318,-1.999,-0.0446856,-0.0736989,0.898914,2.35951,0.0546145,0.94808,0.0788249,0.0239016,0.0363318,-1.999,-0.0446856,-0.0736989
0.775,0.675,5.19532,0.903242,2.35909,0.0546976,0.947312,0.0756594,0.0198001,0.0371354,-1.99844,-0.0427743,-0.0524152,0.903242,2.35909,0.0546976,0.947312,0.0756594,0.0198001,0.0371354,-1.99844,-0.0427743,-0.0524152
0.775,0.725,5.18973,0.906514,2.35878,0.0548158,0.931828,0.0658315,0.0172448,0.0381231,-1.99819,-0.0355955,-0.0310128,0.906514,2.35878,0.0548158,0.931828,0.0658315,0.0172448,0.0381231,-1.99819,-0.0355955,-0.0310128
0.775,0.775,5.1841,0.908538,2.35854,0.0549351,0.903319,0.0493973,0.0162357,0.0392952,-1.99824,-0.0231792,-0.00951089,0.908538,2.35854,0.0549351,0.903319,0.0493973,0.0162357,0.0392952,-1.99824,-0.0231792,-0.00951089
0.775,0.825,5.17877,0.909123,2.35838,0.0550216,0.863425,0.0270581,0.0167729,0.0406515,-1.9986,-0.00610614,0.0133122,0.909123,2.35838,0.0550216,0.863425,0.0270581,0.0167729,0.0406515,-1.9986,-0.00610614,0.0133122
0.775,0.875,5.17422,0.90808,2.35829,0.0550415,0.81698,0.0140853,0.0188563,0.0421921,-1.99926,0.00309696,0.0396636,0.90808,2.35829,0.0550415,0.81698,0.0140853,0.0188563,0.0421921,-1.99926,0.00309696,0.0396636
0.775,0.925,5.16891,0.905296,2.35823,0.0549662,0.775994,0.0170157,0.0220003,0.0435432,-2.00006,-0.000631518,0.0657481,0.905296,2.35823,0.0549662,0.775994,0.0170157,0.0220003,0.0435432,-2.00006,-0.000631518,0.0657481
0.775,0.975,5.16105,0.901526,2.35817,0.0548252,0.753545,0.0362282,0.0247359,0.0435745,-2.00044,-0.0173334,0.0916414,0.901526,2.35817,0.0548252,0.753545,0.0362282,0.0247359,0.0435745,-2.00044,-0.0173334,0.0916414
0.825,0.025,10.2729,0.842015,2.36675,0.0531724,0.894393,0.285884,0.102824,0.0169447,-2.0198,-0.161485,-3.17203,0.842015,2.36675,0.0531724,0.894393,0.285884,0.102824,0.0169447,-2.0198,-0.161485,-3.17203
0.825,0.075,5.96461,0.837896,2.36846,0.0529235,0.926913,0.172387,0.0402146,0.0388292,-1.98444,-0.0662323,-2.60291,0.837896,2.36846,0.0529235,0.926913,0.172387,0.0402146,0.0388292,-1.98444,-0.0662323,-2.60291
0.825,0.125,5.20284,0.832193,2.37074,0.0539949,0.900713,0.0516169,0.0370959,0.0412855,-1.98297,0.0102504,-1.53023,0.832193,2.37074,0.0539949,0.900713,0.0516169,0.0370959,0.0412855,-1.98297,0.0102504,-1.53023
0.825,0.175,5.1651,0.827911,2.37221,0.0547797,0.85891,-0.0320345,0.0467909,0.0391914,-1.98909,0.046378,-0.163957,0.827911,2.37221,0.0547797,0.85891,-0.0320345,0.0467909,0.0391914,-1.98909,0.046378,-0.163957
0.825,0.225,5.15296,0.82518,2.37289,0.0552086,0.847647,-0.0689304,0.0538681,0.0374655,-1.9941,0.0682957,0.15737,0.82518,2.37289,0.0552086,0.847647,-0.0689304,0.0538681,0.0374655,-1.9941,0.0682957,0.15737
0.825,0.275,5.16083,0.823858,2.37298,0.0553548,0.876558,-0.0898317,0.0583275,0.0361076,-1.99801,0.0864642,0.111234,0.823858,2.37298,0.0553548,0.876558,-0.0898317,0.0583275,0.0361076,-1.99801,0.0864642,0.111234
0.825,0.325,5.18395,0.823807,2.37263,0.0552915,0.934647,-0.0967429,0.0601691,0.0351179,-2.00082,0.0941172,0.065565,0.823807,2.37263,0.0552915,0.934647,-0.0967429,0.0601691,0.0351179,-2.00082,0.0941172,0.065565
0.825,0.375,5.21789,0.824886,2.37202,0.0550917,1.01072,-0.0899627,0.0593928,0.0344963,-2.00252,0.0910988,0.0201207,0.824886,2.37202,0.0550917,1.01072,-0.0899627,0.0593928,0.0344963,-2.00252,0.0910988,0.0201207
0.825,0.425,5.25819,0.826956,2.37132,0.0548288,1.09341,-0.0696642,0.0559988,0.0342429,-2.00312,0.0772253,-0.0253415,0.826956,2.37132,0.0548288,1.09341,-0.0696642,0.0559988,0.0342429,-2.00312,0.0772253,-0.0253415
0.825,0.475,5.30022,0.829878,2.37071,0.0545759,1.17112,-0.0359486,0.0499869,0.0343576,-2.00261,0.0523585,-0.0710695,0.829878,2.37071,0.0545759,1.17112,-0.0359486,0.0499869,0.0343576,-2.00261,0.0523585,-0.0710695
0.825,0.525,5.32422,0.833508,2.37034,0.054404,1.23241,0.00829185,0.0418468,0.03481,-2.00117,0.0180859,-0.087827,0.833508,2.37034,0.054404,1.23241,0.00829185,0.0418468,0.03481,-2.00117,0.0180859,-0.087827
0.825,0.575,5.3298,0.837626,2.37025,0.0543376,1.27249,0.0461195,0.0345163,0.0354182,-1.99989,-0.0120136,-0.0750334,0.837626,2.37025,0.0543376,1.27249,0.0461195,0.0345163,0.0354182,-1.99989,-0.0120136,-0.0750334
0.825,0.625,5.33208,0.841932,2.37033,0.0543543,1.29288,0.0746428,0.0284851,0.0361516,-1.99895,-0.0349688,-0.0619635,0.841932,2.37033,0.0543543,1.29288,0.0746428,0.0284851,0.0361516,-1.99895,-0.0349688,-0.0619635
0.825,0.675,5.33077,0.846124,2.37047,0.0544293,1.29542,0.0938785,0.0237532,0.0370104,-1.99834,-0.0508021,-0.0486451,0.846124,2.37047,0.0544293,1.29542,0.0938785,0.0237532,0.0370104,-1.99834,-0.0508021,-0.0486451
0.825,0.725,5.32591,0.849899,2.37056,0.0545384,1.28194,0.103921,0.0203205,0.0379945,-1.99807,-0.0596089,-0.0351088,0.849899,2.37056,0.0545384,1.28194,0.103921,0.0203205,0.0379945,-1.99807,-0.0596089,-0.0351088
0.825,0.775,5.31775,0.852955,2.3705,0.054657,1.25424,0.104908,0.018187,0.0391039,-1.99813,-0.0615086,-0.021388,0.852955,2.3705,0.054657,1.25424,0.104908,0.018187,0.0391039,-1.99813,-0.0615086,-0.021388
0.825,0.825,5.30674,0.854991,2.37016,0.0547605,1.21402,0.0971902,0.0173528,0.0403386,-1.99853,-0.0568534,-0.00268096,0.854991,2.37016,0.0547605,1.21402,0.0971902,0.0173528,0.0403386,-1.99853,-0.0568534,-0.00268096
0.825,0.875,5.29351,0.855702,2.36944,0.0548246,1.16658,0.0853599,0.0178179,0.0416987,-1.99926,-0.0491386,0.0305491,0.855702,2.36944,0.0548246,1.16658,0.0853599,0.0178179,0.0416987,-1.99926,-0.0491386,0.0305491
0.825,0.925,5.27843,0.854859,2.36824,0.0548273,1.12481,0.0713046,0.0194316,0.0428496,-2.00013,-0.0391947,0.0637917,0.854859,2.36824,0.0548273,1.12481,0.0713046,0.0194316,0.0428496,-2.00013,-0.0391947,0.0637917
0.825,0.975,5.26214,0.853006,2.36674,0.0547762,1.10279,0.0551266,0.0217383,0.0427798,-2.00056,-0.026846,0.0971395,0.853006,2.36674,0.0547762,1.10279,0.0551266,0.0217383,0.0427798,-2.00056,-0.026846,0.0971395
0.875,0.025,10.9764,0.794306,2.37878,0.0544009,1.33748,0.163654,0.102619,0.0182705,-2.02179,-0.0516278,-3.2138,0.794306,2.37878,0.0544009,1.33748,0.163654,0.102619,0.0182705,-2.02179,-0.0516278,-3.2138
0.875,0.075,6.15795,0.79309,2.38122,0.0535479,1.4342,0.154627,0.0356244,0.0413237,-1.98392,-0.0421932,-2.68327,0.79309,2.38122,0.0535479,1.4342,0.154627,0.0356244,0.0413237,-1.98392,-0.0421932,-2.68327
0.875,0.125,5.29768,0.788783,2.38354,0.0540035,1.44935,0.10478,0.0320954,0.0431663,-1.98223,-0.0179287,-1.62104,0.788783,2.38354,0.0540035,1.44935,0.10478,0.0320954,0.0431663,-1.98223,-0.0179287,-1.62104
0.875,0.175,5.26738,0.78372,2.38488,0.0543671,1.42297,0.0253712,0.0424317,0.0401634,-1.98865,0.0151444,-0.238196,0.78372,2.38488,0.0543671,1.42297,0.0253712,0.0424317,0.0401634,-1.98865,0.0151444,-0.238196
0.875,0.225,5.26151,0.778399,2.38537,0.054554,1.40677,-0.0591257,0.0502354,0.0377256,-1.99391,0.0722306,0.105691,0.778399,2.38537,0.054554,1.40677,-0.0591257,0.0502354,0.0377256,-1.99391,0.0722306,0.105691
0.875,0.275,5.27579,0.773145,2.38525,0.0546012,1.41532,-0.118407,0.0555064,0.0358526,-1.998,0.118719,0.0801171,0.773145,2.38525,0.0546012,1.41532,-0.118407,0.0555064,0.0358526,-1.998,0.118719,0.0801171
0.875,0.325,5.30622,0.768286,2.38472,0.054546,1.44217,-0.151923,0.0582449,0.0345447,-2.00094,0.145776,0.0545822,0.768286,2.38472,0.054546,1.44217,-0.151923,0.0582449,0.0345447,-2.00094,0.145776,0.0545822
0.875,0.375,5.34863,0.764149,2.38402,0.0544257,1.48073,-0.159947,0.0584507,0.0338017,-2.00272,0.153189,0.0291205,0.764149,2.38402,0.0544257,1.48073,-0.159947,0.0584507,0.0338017,-2.00272,0.153189,0.0291205
0.875,0.425,5.39823,0.761061,2.38336,0.0542773,1.5244,-0.142461,0.0561239,0.0336237,-2.00333,0.140634,0.00366206,0.761061,2.38336,0.0542773,1.5244,-0.142461,0.0561239,0.0336237,-2.00333,0.140634,0.00366206
0.875,0.475,5.44953,0.759348,2.38298,0.0541381,1.56656,-0.0992913,0.0512645,0.0340106,-2.00278,0.107825,-0.0219733,0.759348,2.38298,0.0541381,1.56656,-0.0992913,0.0512645,0.0340106,-2.00278,0.107825,-0.0219733
0.875,0.525,5.48365,0.759321,2.38309,0.0540444,1.60085,-0.0349095,0.0443068,0.0348859,-2.00126,0.0579511,-0.0338018,0.759321,2.38309,0.0540444,1.60085,-0.0349095,0.0443068,0.0348859,-2.00126,0.0579511,-0.0338018
0.875,0.575,5.49951,0.760939,2.38368,0.0540097,1.6253,0.0225906,0.0378576,0.0357904,-1.99991,0.0128206,-0.0314885,0.760939,2.38368,0.0540097,1.6253,0.0225906,0.0378576,0.0357904,-1.99991,0.0128206,-0.0314885
0.875,0.625,5.50946,0.763809,2.38453,0.0540253,1.64133,0.0682893,0.0323512,0.0366475,-1.99891,-0.0234602,-0.0290169,0.763809,2.38453,0.0540253,1.64133,0.0682893,0.0323512,0.0366475,-1.99891,-0.0234602,-0.0290169
0.875,0.675,5.5127,0.767519,2.38538,0.0540814,1.65042,0.102096,0.0277875,0.0374572,-1.99826,-0.0508705,-0.0262755,0.767519,2.38538,0.0540814,1.65042,0.102096,0.0277875,0.0374572,-1.99826,-0.0508705,-0.0262755
0.875,0.725,5.50893,0.771661,2.38601,0.0541683,1.65408,0.124053,0.0241667,0.0382195,-1.99796,-0.0695102,-0.0231984,0.771661,2.38601,0.0541683,1.65408,0.124053,0.0241667,0.0382195,-1.99796,-0.0695102,-0.0231984
0.875,0.775,5.49821,0.775824,2.38617,0.054276,1.65384,0.13429,0.0214887,0.0389344,-1.99801,-0.079537,-0.0197653,0.775824,2.38617,0.054276,1.65384,0.13429,0.0214887,0.0389344,-1.99801,-0.079537,-0.0197653
0.875,0.825,5.48093,0.779598,2.38563,0.0543948,1.65126,0.133028,0.0197534,0.0396019,-1.99842,-0.0811828,-0.0104682,0.779598,2.38563,0.0543948,1.65126,0.133028,0.0197534,0.0396019,-1.99842,-0.0811828,-0.0104682
0.875,0.875,5.45773,0.782575,2.38414,0.0545149,1.6481,0.1215,0.018961,0.040222,-1.99918,-0.0737476,0.0153952,0.782575,2.38414,0.0545149,1.6481,0.1215,0.018961,0.040222,-1.99918,-0.0737476,0.0153952
0.875,0.925,5.42967,0.784398,2.38153,0.0546254,1.64653,0.0999527,0.0192383,0.0406335,-2.0001,-0.0561509,0.0411159,0.784398,2.38153,0.0546254,1.64653,0.0999527,0.0192383,0.0406335,-2.0001,-0.0561509,0.0411159
0.875,0.975,5.40103,0.785291,2.37823,0.054703,1.64872,0.0681789,0.020969,0.0403491,-2.00057,-0.0281087,0.0669239,0.785291,2.37823,0.054703,1.64872,0.0681789,0.020969,0.0403491,-2.00057,-0.0281087,0.0669239
0.925,0.025,11.9397,0.726379,2.39392,0.0557625,1.79838,-0.0449346,0.105913,0.0210248,-2.02427,0.128208,-3.14773,0.726379,2.39392,0.0557625,1.79838,-0.0449346,0.105913,0.0210248,-2.02427,0.128208,-3.14773
0.925,0.075,6.59106,0.72843,2.39697,0.0542708,1.95789,0.0651728,0.0337575,0.0440214,-1.98416,0.036164,-2.65517,0.72843,2.39697,0.0542708,1.95789,0.0651728,0.0337575,0.0440214,-1.98416,0.036164,-2.65517
0.925,0.125,5.49632,0.725987,2.39911,0.0539717,2.01683,0.118012,0.0275815,0.0449096,-1.98208,-0.0164867,-1.65285,0.725987,2.39911,0.0539717,2.01683,0.118012,0.0275815,0.0449096,-1.98208,-0.0164867,-1.65285
0.925,0.175,5.50014,0.720431,2.40018,0.0538152,2.00999,0.0757379,0.0363352,0.0409162,-1.98858,-0.0105273,-0.332739,0.720431,2.40018,0.0538152,2.00999,0.0757379,0.0363352,0.0409162,-1.98858,-0.0105273,-0.332739
0.925,0.225,5.52108,0.71263,2.40042,0.053705,1.99032,-0.0321596,0.0431413,0.0377363,-1.99389,0.062522,0.0194792,0.71263,2.40042,0.053705,1.99032,-0.0321596,0.0431413,0.0377363,-1.99389,0.062522,0.0194792
0.925,0.275,5.55263,0.703405,2.40007,0.0536336,1.9765,-0.112354,0.048,0.0353698,-1.99804,0.122927,0.0233353,0.703405,2.40007,0.0536336,1.9765,-0.112354,0.048,0.0353698,-1.99804,0.122927,0.0233353
0.925,0.325,5.58976,0.693577,2.3994,0.053593,1.96781,-0.161224,0.0509112,0.0338169,-2.001,0.160014,0.0267627,0.693577,2.3994,0.053593,1.96781,-0.161224,0.0509112,0.0338169,-2.001,0.160014,0.0267627
0.925,0.375,5.62843,0.683966,2.39867,0.0535757,1.96339,-0.179081,0.0518748,0.0330775,-2.00279,0.173616,0.0301284,0.683966,2.39867,0.0535757,1.96339,-0.179081,0.0518748,0.0330775,-2.00279,0.173616,0.0301284
0.925,0.425,5.66527,0.675392,2.39813,0.0535738,1.96256,-0.166024,0.050891,0.0331515,-2.0034,0.163551,0.0335822,0.675392,2.39813,0.0535738,1.96256,-0.166024,0.050891,0.0331515,-2.0034,0.163551,0.0335822
0.925,0.475,5.69726,0.668676,2.39805,0.0535796,1.96496,-0.121993,0.0479597,0.0340391,-2.00284,0.129691,0.0370594,0.668676,2.39805,0.0535796,1.96496,-0.121993,0.0479597,0.0340391,-2.00284,0.129691,0.0370594
0.925,0.525,5.71522,0.664612,2.39867,0.0535857,1.97062,-0.0523797,0.0433848,0.0355944,-2.00129,0.0763361,0.0336286,0.664612,2.39867,0.0535857,1.97062,-0.0523797,0.0433848,0.0355944,-2.00129,0.0763361,0.0336286
0.925,0.575,5.72434,0.663358,2.39994,0.0535921,1.98042,0.0094556,0.0389898,0.0369425,-1.99991,0.0286295,0.0232453,0.663358,2.39994,0.0535921,1.98042,0.0094556,0.0389898,0.0369425,-1.99991,0.0286295,0.0232453
0.925,0.625,5.73145,0.664441,2.40152,0.0536063,1.99471,0.0578142,0.0350786,0.0379376,-1.99888,-0.00930787,0.0128613,0.664441,2.40152,0.0536063,1.99471,0.0578142,0.0350786,0.0379376,-1.99888,-0.00930787,0.0128613
0.925,0.675,5.73504,0.66736,2.40305,0.0536361,2.01362,0.0926013,0.0316513,0.0385799,-1.9982,-0.0374755,0.00269935,0.66736,2.40305,0.0536361,2.01362,0.0926013,0.0316513,0.0385799,-1.9982,-0.0374755,0.00269935
0.925,0.725,5.73414,0.671615,2.40418,0.0536892,2.03726,0.113751,0.0287078,0.0388691,-1.99787,-0.0559266,-0.00710014,0.671615,2.40418,0.0536892,2.03726,0.113751,0.0287078,0.0388691,-1.99787,-0.0559266,-0.00710014
0.925,0.775,5.72826,0.676702,2.40456,0.0537735,2.06586,0.12121,0.0262481,0.0388055,-1.9979,-0.0647329,-0.0164787,0.676702,2.40456,0.0537735,2.06586,0.12121,0.0262481,0.0388055,-1.9979,-0.0647329,-0.0164787
0.925,0.825,5.71724,0.682123,2.40383,0.0538967,2.09976,0.115222,0.0242723,0.0383888,-1.99829,-0.0641687,-0.0186788,0.682123,2.40383,0.0538967,2.09976,0.115222,0.0242723,0.0383888,-1.99829,-0.0641687,-0.0186788
0.925,0.875,5.70125,0.687375,2.40163,0.0540667,2.13699,0.102514,0.0227803,0.0376193,-1.99902,-0.056105,-0.00065684,0.687375,2.40163,0.0540667,2.13699,0.102514,0.0227803,0.0376193,-1.99902,-0.056105,-0.00065684
0.925,0.925,5.68065,0.691989,2.39771,0.0542858,2.17106,0.0858695,0.0220817,0.0366656,-1.99993,-0.0406188,0.0170626,0.691989,2.39771,0.0542858,2.17106,0.0858695,0.0220817,0.0366656,-1.99993,-0.0406188,0.0170626
0.925,0.975,5.65949,0.695827,2.39275,0.0544988,2.19474,0.0652804,0.0231129,0.0360387,-2.00045,-0.0176035,0.0347584,0.695827,2.39275,0.0544988,2.19474,0.0652804,0.0231129,0.0360387,-2.00045,-0.0176035,0.0347584
0.975,0.025,13.1338,0.624386,2.41127,0.0565548,2.25491,-0.338276,0.111633,0.0247764,-2.02677,0.376656,-2.97141,0.624386,2.41127,0.0565548,2.25491,-0.338276,0.111633,0.0247764,-2.02677,0.376656,-2.97141
0.975,0.075,7.29634,0.628321,2.41406,0.0548412,2.47654,-0.10014,0.0343912,0.0463352,-1.98513,0.169871,-2.49801,0.628321,2.41406,0.0548412,2.47654,-0.10014,0.0343912,0.0463352,-1.98513,0.169871,-2.49801
0.975,0.125,5.83574,0.62748,2.4153,0.0538136,2.58305,0.0780272,0.0238431,0.0461525,-1.98259,0.0200431,-1.59306,0.62748,2.4153,0.0538136,2.58305,0.0780272,0.0238431,0.0461525,-1.98259,0.0200431,-1.59306
0.975,0.175,5.88168,0.62205,2.41582,0.0531296,2.60305,0.106731,0.0291444,0.0413527,-1.98891,-0.025607,-0.415097,0.62205,2.41582,0.0531296,2.60305,0.106731,0.0291444,0.0413527,-1.98891,-0.025607,-0.415097
0.975,0.225,5.9312,0.613069,2.41586,0.0527131,2.58328,0.00974749,0.0334858,0.0375973,-1.99409,0.038913,-0.0765164,0.613069,2.41586,0.0527131,2.58328,0.00974749,0.0334858,0.0375973,-1.99409,0.038913,-0.0765164
0.975,0.275,5.97534,0.60166,2.4156,0.0525127,2.54479,-0.0665162,0.0368674,0.0348862,-1.99812,0.0949934,-0.042125,0.60166,2.4156,0.0525127,2.54479,-0.0665162,0.0368674,0.0348862,-1.99812,0.0949934,-0.042125
0.975,0.325,6.00858,0.588941,2.41522,0.052477,2.49477,-0.115272,0.0392891,0.0332194,-2.001,0.130616,-0.00847201,0.588941,2.41522,0.052477,2.49477,-0.115272,0.0392891,0.0332194,-2.001,0.130616,-0.00847201
0.975,0.375,6.02827,0.576032,2.41492,0.0525547,2.44024,-0.136742,0.040751,0.0325969,-2.00274,0.145688,0.0248567,0.576032,2.41492,0.0525547,2.44024,-0.136742,0.040751,0.0325969,-2.00274,0.145688,0.0248567
0.975,0.425,6.03402,0.564054,2.41487,0.0526943,2.38838,-0.131225,0.0412531,0.0330188,-2.00332,0.140334,0.0581085,0.564054,2.41487,0.0526943,2.38838,-0.131225,0.0412531,0.0330188,-2.00332,0.140334,0.0581085
0.975,0.475,6.02734,0.554125,2.41526,0.0528445,2.34666,-0.0989491,0.0407953,0.034485,-2.00277,0.11478,0.0913712,0.554125,2.41526,0.0528445,2.34666,-0.0989491,0.0407953,0.034485,-2.00277,0.11478,0.0913712
0.975,0.525,6.01178,0.547332,2.41625,0.0529553,2.32268,-0.0448141,0.0394924,0.0367762,-2.00125,0.0734116,0.0963173,0.547332,2.41625,0.0529553,2.32268,-0.0448141,0.0394924,0.0367762,-2.00125,0.0734116,0.0963173
0.975,0.575,6.00229,0.543963,2.41779,0.0530115,2.31977,0.00199957,0.038033,0.0385761,-1.99989,0.0378432,0.0727911,0.543963,2.41779,0.0530115,2.31977,0.00199957,0.038033,0.0385761,-1.99989,0.0378432,0.0727911
0.975,0.625,5.99994,0.543513,2.41953,0.0530326,2.33578,0.0367035,0.0365319,0.0396656,-1.99886,0.0109614,0.0492196,0.543513,2.41953,0.0530326,2.33578,0.0367035,0.0365319,0.0396656,-1.99886,0.0109614,0.0492196
0.975,0.675,6.00204,0.54544,2.42114,0.0530393,2.36809,0.0592412,0.0349891,0.0400445,-1.99818,-0.00729338,0.025767,0.54544,2.42114,0.0530393,2.36809,0.0592412,0.0349891,0.0400445,-1.99818,-0.00729338,0.025767
0.975,0.725,6.00663,0.549204,2.42229,0.0530526,2.41407,0.0694363,0.0334045,0.0397129,-1.99783,-0.0169214,0.0025287,0.549204,2.42229,0.0530526,2.41407,0.0694363,0.0334045,0.0397129,-1.99783,-0.0169214,0.0025287
0.975,0.775,6.01239,0.554262,2.42263,0.0530934,2.47113,0.0670394,0.0317782,0.0386708,-1.99782,-0.0178965,-0.0204686,0.554262,2.42263,0.0530934,2.47113,0.0670394,0.0317782,0.0386708,-1.99782,-0.0178965,-0.0204686
0.975,0.825,6.01851,0.560075,2.42184,0.0531825,2.53662,0.0524673,0.0301102,0.0369181,-1.99815,-0.0107683,-0.0324419,0.560075,2.42184,0.0531825,2.53662,0.0524673,0.0301102,0.0369181,-1.99815,-0.0107683,-0.0324419
0.975,0.875,6.02464,0.566101,2.41958,0.0533409,2.60468,0.0408361,0.0284004,0.0344549,-1.99882,-0.00361843,-0.0119948,0.566101,2.41958,0.0533409,2.60468,0.0408361,0.0284004,0.0344549,-1.99882,-0.00361843,-0.0119948
0.975,0.925,6.03023,0.571816,2.41559,0.0535821,2.66413,0.0386661,0.0270602,0.0318539,-1.99967,0.00107662,0.00836313,0.571816,2.41559,0.0535821,2.66413,0.0386661,0.0270602,0.0318539,-1.99967,0.00107662,0.00836313
0.975,0.975,6.03635,0.576886,2.41061,0.0538405,2.70341,0.0461525,0.0273335,0.0308478,-2.00024,0.00332192,0.0287007,0.576886,2.41061,0.0538405,2.70341,0.0461525,0.0273335,0.0308478,-2.00024,0.00332192,0.0287007
