U, V, weight, dx_u, dy_u, dz_u, dpsi_u, dtheta_u, dx_v, dy_v, dz_v, dpsi_v, dtheta_v, dqeu_x, dqeu_y, dqeu_z, dqeu_psi, dqeu_theta,dqev_x, dqev_y, dqev_z, dqev_psi, dqev_theta
0.025,0.025,24.9446,-1.08293,4.19795,0.169344,1.42562,-0.237973,1.09646,0.310543,-3.92137,0.313257,0.424455,-1.08293,4.19795,0.169344,1.42562,-0.237973,1.09646,0.310543,-3.92137,0.313257,0.424455
0.025,0.075,28.9298,-1.26208,4.19605,0.156497,2.03808,-0.452157,0.709288,0.301341,-3.93886,0.664857,-0.999842,-1.26208,4.19605,0.156497,2.03808,-0.452157,0.709288,0.301341,-3.93886,0.664857,-0.999842
0.025,0.125,30.6073,-1.38953,4.1965,0.146585,2.64588,-0.590828,0.203889,0.277169,-3.94143,0.870215,-2.53855,-1.38953,4.1965,0.146585,2.64588,-0.590828,0.203889,0.277169,-3.94143,0.870215,-2.53855
0.025,0.175,26.6017,-1.45087,4.20043,0.140233,3.08431,-0.647897,-0.26372,0.25242,-3.93799,0.949894,-4.37994,-1.45087,4.20043,0.140233,3.08431,-0.647897,-0.26372,0.25242,-3.93799,0.949894,-4.37994
0.025,0.225,23.1516,-1.45295,4.20634,0.136365,3.20568,-0.571727,-0.641961,0.23185,-3.93147,0.856187,-4.26764,-1.45295,4.20634,0.136365,3.20568,-0.571727,-0.641961,0.23185,-3.93147,0.856187,-4.26764
0.025,0.275,20.9528,-1.40462,4.21253,0.133745,3.01702,-0.440734,-0.930834,0.215461,-3.92187,0.730282,-3.23596,-1.40462,4.21253,0.133745,3.01702,-0.440734,-0.930834,0.215461,-3.92187,0.730282,-3.23596
0.025,0.325,19.9771,-1.31473,4.21728,0.131137,2.59294,-0.315566,-1.13034,0.203251,-3.9092,0.600959,-2.19353,-1.31473,4.21728,0.131137,2.59294,-0.315566,-1.13034,0.203251,-3.9092,0.600959,-2.19353
0.025,0.375,19.702,-1.1921,4.21888,0.127307,2.00103,-0.227496,-1.24048,0.19522,-3.89345,0.468485,-1.23719,-1.1921,4.21888,0.127307,2.00103,-0.227496,-1.24048,0.19522,-3.89345,0.468485,-1.23719
0.025,0.425,19.54,-1.0456,4.21562,0.121018,1.30068,-0.181242,-1.26125,0.19137,-3.87463,0.334766,-0.353572,-1.0456,4.21562,0.121018,1.30068,-0.181242,-1.26125,0.19137,-3.87463,0.334766,-0.353572
0.025,0.475,19.0905,-0.884048,4.20577,0.111035,0.544399,-0.167154,-1.19265,0.191699,-3.85273,0.203469,0.518794,-0.884048,4.20577,0.111035,0.544399,-0.167154,-1.19265,0.191699,-3.85273,0.203469,0.518794
0.025,0.525,18.8102,-0.716278,4.18773,0.0961766,-0.219792,-0.166753,-1.03996,0.195493,-3.82904,0.0851949,1.25765,-0.716278,4.18773,0.0961766,-0.219792,-0.166753,-1.03996,0.195493,-3.82904,0.0851949,1.25765
0.025,0.575,18.8481,-0.550591,4.16216,0.0765045,-0.938915,-0.139106,-0.834893,0.198465,-3.8113,-0.0310923,1.85346,-0.550591,4.16216,0.0765045,-0.938915,-0.139106,-0.834893,0.198465,-3.8113,-0.0310923,1.85346
0.025,0.625,19.1409,-0.394773,4.13198,0.0533228,-1.5431,-0.048681,-0.582717,0.199899,-3.80079,-0.157614,2.4745,-0.394773,4.13198,0.0533228,-1.5431,-0.048681,-0.582717,0.199899,-3.80079,-0.157614,2.4745
0.025,0.675,20.2709,-0.256588,4.10023,0.0279896,-1.9558,0.126133,-0.283436,0.199795,-3.79752,-0.300648,3.07169,-0.256588,4.10023,0.0279896,-1.9558,0.126133,-0.283436,0.199795,-3.79752,-0.300648,3.07169
0.025,0.725,22.2952,-0.143801,4.06995,0.00186321,-2.0938,0.374074,0.0629499,0.198154,-3.80149,-0.470005,3.55636,-0.143801,4.06995,0.00186321,-2.0938,0.374074,0.0629499,0.198154,-3.80149,-0.470005,3.55636
0.025,0.775,24.3444,-0.0641759,4.04415,-0.0236981,-1.86707,0.637789,0.456441,0.194975,-3.81269,-0.678449,3.82417,-0.0641759,4.04415,-0.0236981,-1.86707,0.637789,0.456441,0.194975,-3.81269,-0.678449,3.82417
0.025,0.825,25.1697,-0.0254771,4.02589,-0.047336,-1.18415,0.837338,0.897036,0.190258,-3.83112,-0.932702,3.26343,-0.0254771,4.02589,-0.047336,-1.18415,0.837338,0.897036,0.190258,-3.83112,-0.932702,3.26343
0.025,0.875,23.9142,-0.0354691,4.01818,-0.0676923,-0.129482,0.968658,1.38474,0.184004,-3.85679,-1.18655,1.32306,-0.0354691,4.01818,-0.0676923,-0.129482,0.968658,1.38474,0.184004,-3.85679,-1.18655,1.32306
0.025,0.925,17.909,-0.100004,4.02367,-0.0832415,1.03373,1.14744,1.86357,0.175653,-3.88188,-1.42081,-0.327509,-0.100004,4.02367,-0.0832415,1.03373,1.14744,1.86357,0.175653,-3.88188,-1.42081,-0.327509
0.025,0.975,16.3632,-0.204303,4.04065,-0.0906524,2.06474,1.45979,2.16421,0.163509,-3.88273,-1.61872,-2.10811,-0.204303,4.04065,-0.0906524,2.06474,1.45979,2.16421,0.163509,-3.88273,-1.61872,-2.10811
0.075,0.025,24.0424,-1.46344,4.1666,0.150091,1.84254,-0.744439,0.89292,0.305355,-3.93545,0.867774,0.098212,-1.46344,4.1666,0.150091,1.84254,-0.744439,0.89292,0.305355,-3.93545,0.867774,0.098212
0.075,0.075,26.1956,-1.64548,4.15946,0.137318,2.35734,-1.01575,0.553774,0.297933,-3.95058,1.22399,-1.18376,-1.64548,4.15946,0.137318,2.35734,-1.01575,0.553774,0.297933,-3.95058,1.22399,-1.18376
0.075,0.125,26.7724,-1.75458,4.15582,0.128482,2.7589,-1.09668,0.123485,0.277774,-3.94888,1.30283,-2.58349,-1.75458,4.15582,0.128482,2.7589,-1.09668,0.123485,0.277774,-3.94888,1.30283,-2.58349
0.075,0.175,23.7758,-1.77626,4.15651,0.124574,2.94272,-0.908231,-0.270516,0.256284,-3.94167,1.1202,-4.19292,-1.77626,4.15651,0.124574,2.94272,-0.908231,-0.270516,0.256284,-3.94167,1.1202,-4.19292
0.075,0.225,22.0673,-1.72127,4.16001,0.124422,2.84521,-0.453941,-0.586102,0.237233,-3.93269,0.715845,-3.97312,-1.72127,4.16001,0.124422,2.84521,-0.453941,-0.586102,0.237233,-3.93269,0.715845,-3.97312
0.075,0.275,21.8954,-1.60273,4.16457,0.126656,2.51441,-0.0447671,-0.823272,0.220622,-3.92195,0.355306,-2.98533,-1.60273,4.16457,0.126656,2.51441,-0.0447671,-0.823272,0.220622,-3.92195,0.355306,-2.98533
0.075,0.325,22.6869,-1.43374,4.16845,0.129905,2.01613,0.239457,-0.982027,0.206449,-3.90944,0.0573422,-2.02413,-1.43374,4.16845,0.129905,2.01613,0.239457,-0.982027,0.206449,-3.90944,0.0573422,-2.02413
0.075,0.375,23.6403,-1.22741,4.16989,0.132797,1.40082,0.407187,-1.06237,0.194716,-3.89515,-0.188923,-1.14135,-1.22741,4.16989,0.132797,1.40082,0.407187,-1.06237,0.194716,-3.89515,-0.188923,-1.14135
0.075,0.425,24.1099,-0.99683,4.16717,0.133963,0.710662,0.495249,-1.06429,0.185423,-3.8791,-0.389131,-0.308055,-0.99683,4.16717,0.133963,0.710662,0.495249,-1.06429,0.185423,-3.8791,-0.389131,-0.308055
0.075,0.475,23.7037,-0.75512,4.15852,0.132031,-0.0145258,0.538854,-0.987797,0.178568,-3.86129,-0.543016,0.536714,-0.75512,4.15852,0.132031,-0.0145258,0.538854,-0.987797,0.178568,-3.86129,-0.543016,0.536714
0.075,0.525,23.0101,-0.515313,4.14231,0.125678,-0.732751,0.559062,-0.837916,0.174044,-3.84268,-0.640009,1.26828,-0.515313,4.14231,0.125678,-0.732751,0.559062,-0.837916,0.174044,-3.84268,-0.640009,1.26828
0.075,0.575,22.357,-0.288892,4.11922,0.114704,-1.39687,0.560642,-0.644812,0.171194,-3.82915,-0.677857,1.87725,-0.288892,4.11922,0.114704,-1.39687,0.560642,-0.644812,0.171194,-3.82915,-0.677857,1.87725
0.075,0.625,21.5994,-0.0857832,4.09229,0.100025,-1.94769,0.538851,-0.41351,0.16991,-3.82167,-0.656115,2.52224,-0.0857832,4.09229,0.100025,-1.94769,0.538851,-0.41351,0.16991,-3.82167,-0.656115,2.52224
0.075,0.675,21.3577,0.0841533,4.06464,0.0826103,-2.31521,0.481625,-0.144012,0.17019,-3.82025,-0.572208,3.1409,0.0841533,4.06464,0.0826103,-2.31521,0.481625,-0.144012,0.17019,-3.82025,-0.572208,3.1409
0.075,0.725,21.9464,0.211058,4.0394,0.0634254,-2.42266,0.379698,0.163683,0.172036,-3.82488,-0.429858,3.62706,0.211058,4.0394,0.0634254,-2.42266,0.379698,0.163683,0.172036,-3.82488,-0.429858,3.62706
0.075,0.775,22.9119,0.285073,4.01968,0.043438,-2.19183,0.239973,0.509575,0.175448,-3.83557,-0.240381,3.86506,0.285073,4.01968,0.043438,-2.19183,0.239973,0.509575,0.175448,-3.83557,-0.240381,3.86506
0.075,0.825,23.3337,0.296337,4.00863,0.0236149,-1.55126,0.0918063,0.893663,0.180424,-3.85231,-0.041991,3.2787,0.296337,4.00863,0.0236149,-1.55126,0.0918063,0.893663,0.180424,-3.85231,-0.041991,3.2787
0.075,0.875,22.5214,0.234991,4.00936,0.00492319,-0.548652,0.0721097,1.31595,0.186966,-3.87511,-0.0483492,1.41504,0.234991,4.00936,0.00492319,-0.548652,0.0721097,1.31595,0.186966,-3.87511,-0.0483492,1.41504
0.075,0.925,19.6198,0.0936369,4.02457,-0.0114958,0.603609,0.202972,1.73007,0.192693,-3.89537,-0.274187,-0.10599,0.0936369,4.02457,-0.0114958,0.603609,0.202972,1.73007,0.192693,-3.89537,-0.274187,-0.10599
0.075,0.975,20.3436,-0.108581,4.05223,-0.0226211,1.70073,0.51699,1.99577,0.190406,-3.88712,-0.665048,-1.69137,-0.108581,4.05223,-0.0226211,1.70073,0.51699,1.99577,0.190406,-3.88712,-0.665048,-1.69137
0.125,0.025,22.0536,-1.84362,4.13419,0.118053,2.23007,-1.27345,0.684511,0.2943,-3.9485,1.37356,-0.271155,-1.84362,4.13419,0.118053,2.23007,-1.27345,0.684511,0.2943,-3.9485,1.37356,-0.271155
0.125,0.075,22.7088,-2.01295,4.12159,0.108347,2.60861,-1.49072,0.413707,0.289604,-3.96003,1.60547,-1.32359,-2.01295,4.12159,0.108347,2.60861,-1.49072,0.413707,0.289604,-3.96003,1.60547,-1.32359
0.125,0.125,22.978,-2.08881,4.11315,0.104187,2.78107,-1.40378,0.0800568,0.274308,-3.95265,1.48565,-2.43982,-2.08881,4.11315,0.104187,2.78107,-1.40378,0.0800568,0.274308,-3.95265,1.48565,-2.43982
0.125,0.175,21.8762,-2.05795,4.10985,0.106375,2.72597,-0.930272,-0.221802,0.256929,-3.9403,1.05379,-3.66081,-2.05795,4.10985,0.106375,2.72597,-0.930272,-0.221802,0.256929,-3.9403,1.05379,-3.66081
0.125,0.225,22.5421,-1.93532,4.11027,0.113658,2.45536,-0.176849,-0.460581,0.240283,-3.9276,0.419264,-3.38693,-1.93532,4.11027,0.113658,2.45536,-0.176849,-0.460581,0.240283,-3.9276,0.419264,-3.38693
0.125,0.275,24.6257,-1.73844,4.11275,0.12459,2.02601,0.421012,-0.63628,0.224369,-3.91455,-0.105941,-2.56005,-1.73844,4.11275,0.12459,2.02601,0.421012,-0.63628,0.224369,-3.91455,-0.105941,-2.56005
0.125,0.325,27.2034,-1.48487,4.11564,0.137726,1.47593,0.813235,-0.7489,0.209187,-3.90113,-0.524709,-1.7626,-1.48487,4.11564,0.137726,1.47593,0.813235,-0.7489,0.209187,-3.90113,-0.524709,-1.7626
0.125,0.375,29.3388,-1.19214,4.11729,0.151621,0.83315,1.04064,-0.79844,0.194738,-3.88737,-0.855784,-0.998262,-1.19214,4.11729,0.151621,0.83315,1.04064,-0.79844,0.194738,-3.88737,-0.855784,-0.998262
0.125,0.425,30.2892,-0.877794,4.11605,0.164829,0.128625,1.16133,-0.784901,0.181022,-3.87325,-1.1043,-0.234925,-0.877794,4.11605,0.164829,0.128625,1.16133,-0.784901,0.181022,-3.87325,-1.1043,-0.234925
0.125,0.475,29.6048,-0.559373,4.11026,0.175905,-0.596483,1.21936,-0.708282,0.168038,-3.85878,-1.26417,0.571318,-0.559373,4.11026,0.175905,-0.596483,1.21936,-0.708282,0.168038,-3.85878,-1.26417,0.571318
0.125,0.525,28.0066,-0.254278,4.09838,0.183442,-1.289,1.22868,-0.572998,0.156274,-3.84467,-1.31818,1.26836,-0.254278,4.09838,0.183442,-1.289,1.22868,-0.572998,0.156274,-3.84467,-1.31818,1.26836
0.125,0.575,26.1961,0.0233043,4.08105,0.186905,-1.89493,1.17021,-0.405531,0.148646,-3.83521,-1.26244,1.82514,0.0233043,4.08105,0.186905,-1.89493,1.17021,-0.405531,0.148646,-3.83521,-1.26244,1.82514
0.125,0.625,24.0404,0.262404,4.06113,0.186631,-2.36506,1.00555,-0.210297,0.145642,-3.83113,-1.08884,2.3915,0.262404,4.06113,0.186631,-2.36506,1.00555,-0.210297,0.145642,-3.83113,-1.08884,2.3915
0.125,0.675,22.1328,0.452188,4.04156,0.182995,-2.65003,0.702916,0.0127043,0.147261,-3.83242,-0.790183,2.9139,0.452188,4.04156,0.182995,-2.65003,0.702916,0.0127043,0.147261,-3.83242,-0.790183,2.9139
0.125,0.725,20.9344,0.581827,4.02531,0.176372,-2.70283,0.270269,0.263474,0.153503,-3.83908,-0.369033,3.3212,0.581827,4.02531,0.176372,-2.70283,0.270269,0.263474,0.153503,-3.83908,-0.369033,3.3212
0.125,0.775,20.4694,0.640489,4.01532,0.167137,-2.47698,-0.223307,0.542011,0.164369,-3.85111,0.162388,3.54058,0.640489,4.01532,0.167137,-2.47698,-0.223307,0.542011,0.164369,-3.85111,0.162388,3.54058
0.125,0.825,20.3861,0.617343,4.01454,0.155665,-1.92275,-0.661646,0.848316,0.179857,-3.86852,0.755434,3.06991,0.617343,4.01454,0.155665,-1.92275,-0.661646,0.848316,0.179857,-3.86852,0.755434,3.06991
0.125,0.875,20.4753,0.501557,4.02593,0.142331,-1.02759,-0.7985,1.18239,0.19997,-3.89129,1.02493,1.44578,0.501557,4.02593,0.142331,-1.02759,-0.7985,1.18239,0.19997,-3.89129,1.02493,1.44578
0.125,0.925,21.9675,0.285115,4.05195,0.127629,0.0716512,-0.692256,1.50944,0.220302,-3.9102,0.880049,0.099667,0.285115,4.05195,0.127629,0.0716512,-0.692256,1.50944,0.220302,-3.9102,0.880049,0.099667
0.125,0.975,25.5375,-0.00963082,4.08975,0.113325,1.21068,-0.380407,1.72425,0.227535,-3.89727,0.398099,-1.25192,-0.00963082,4.08975,0.113325,1.21068,-0.380407,1.72425,0.227535,-3.89727,0.398099,-1.25192
0.175,0.025,21.5686,-2.10401,4.10733,0.092291,2.5463,-1.79863,0.483618,0.278099,-3.95879,1.78378,-0.559346,-2.10401,4.10733,0.092291,2.5463,-1.79863,0.483618,0.278099,-3.95879,1.78378,-0.559346
0.175,0.075,21.1869,-2.25458,4.09045,0.0864522,2.75173,-1.82414,0.299293,0.276488,-3.965,1.78218,-1.29503,-2.25458,4.09045,0.0864522,2.75173,-1.82414,0.299293,0.276488,-3.965,1.78218,-1.29503
0.175,0.125,21.5921,-2.29701,4.07811,0.0873782,2.70708,-1.4826,0.080113,0.26668,-3.95064,1.43505,-2.03856,-2.29701,4.07811,0.0873782,2.70708,-1.4826,0.080113,0.26668,-3.95064,1.43505,-2.03856
0.175,0.175,22.3616,-2.2197,4.0715,0.0955355,2.46677,-0.744082,-0.11485,0.254193,-3.93198,0.802467,-2.83882,-2.2197,4.0715,0.0955355,2.46677,-0.744082,-0.11485,0.254193,-3.93198,0.802467,-2.83882
0.175,0.225,24.9206,-2.04074,4.06933,0.109654,2.07898,0.217024,-0.266067,0.240853,-3.91442,0.0142646,-2.60141,-2.04074,4.06933,0.109654,2.07898,0.217024,-0.266067,0.240853,-3.91442,0.0142646,-2.60141
0.175,0.275,28.5582,-1.78102,4.07008,0.128301,1.57844,0.950704,-0.373539,0.226659,-3.89796,-0.63052,-2.01032,-1.78102,4.07008,0.128301,1.57844,0.950704,-0.373539,0.226659,-3.89796,-0.63052,-2.01032
0.175,0.325,32.3271,-1.46141,4.07222,0.150048,0.970764,1.4411,-0.437264,0.211612,-3.88258,-1.15183,-1.42266,-1.46141,4.07222,0.150048,0.970764,1.4411,-0.437264,0.211612,-3.88258,-1.15183,-1.42266
0.175,0.375,35.2022,-1.10278,4.07426,0.173461,0.267,1.7356,-0.457244,0.195711,-3.86829,-1.56243,-0.809135,-1.10278,4.07426,0.173461,0.267,1.7356,-0.457244,0.195711,-3.86829,-1.56243,-0.809135
0.175,0.425,36.2625,-0.725995,4.07465,0.197109,-0.499204,1.88919,-0.433477,0.178957,-3.8551,-1.85053,-0.142871,-0.725995,4.07465,0.197109,-0.499204,1.88919,-0.433477,0.178957,-3.8551,-1.85053,-0.142871
0.175,0.475,34.9733,-0.351936,4.07189,0.219562,-1.26449,1.93638,-0.365965,0.161349,-3.843,-1.99001,0.59135,-0.351936,4.07189,0.219562,-1.26449,1.93638,-0.365965,0.161349,-3.843,-1.99001,0.59135
0.175,0.525,32.1195,-0.00126881,4.06453,0.239415,-1.94339,1.87424,-0.258083,0.143924,-3.83252,-1.95272,1.20674,-0.00126881,4.06453,0.239415,-1.94339,1.87424,-0.258083,0.143924,-3.83252,-1.95272,1.20674
0.175,0.575,28.8779,0.309997,4.05317,0.255869,-2.46621,1.68201,-0.130087,0.132903,-3.82679,-1.75673,1.64353,0.309997,4.05317,0.255869,-2.46621,1.68201,-0.130087,0.132903,-3.82679,-1.75673,1.64353
0.175,0.625,25.3336,0.570516,4.04038,0.268734,-2.80108,1.3144,0.0146463,0.129323,-3.82634,-1.40597,2.047,0.570516,4.04038,0.268734,-2.80108,1.3144,0.0146463,0.129323,-3.82634,-1.40597,2.047
0.175,0.675,22.0514,0.769141,4.02885,0.277846,-2.93687,0.753388,0.176117,0.133182,-3.83116,-0.902948,2.3989,0.769141,4.02885,0.277846,-2.93687,0.753388,0.176117,0.133182,-3.83116,-0.902948,2.3989
0.175,0.725,19.5177,0.894728,4.02124,0.283041,-2.87396,0.0348739,0.354326,0.144482,-3.84127,-0.254311,2.68974,0.894728,4.02124,0.283041,-2.87396,0.0348739,0.354326,0.144482,-3.84127,-0.254311,2.68974
0.175,0.775,18.0695,0.936133,4.02023,0.284154,-2.60818,-0.748751,0.549273,0.163223,-3.85665,0.534338,2.90432,0.936133,4.02023,0.284154,-2.60818,-0.748751,0.549273,0.163223,-3.85665,0.534338,2.90432
0.175,0.825,17.9741,0.88221,4.02849,0.281022,-2.11519,-1.45706,0.760957,0.189403,-3.87731,1.43579,2.64908,0.88221,4.02849,0.281022,-2.11519,-1.45706,0.760957,0.189403,-3.87731,1.43579,2.64908
0.175,0.875,19.776,0.721814,4.0487,0.273479,-1.34359,-1.74343,0.989379,0.223024,-3.90325,1.99073,1.41347,0.721814,4.0487,0.273479,-1.34359,-1.74343,0.989379,0.223024,-3.90325,1.99073,1.41347
0.175,0.925,25.1709,0.446813,4.083,0.261411,-0.343471,-1.68207,1.21252,0.257446,-3.92486,1.99769,0.294981,0.446813,4.083,0.261411,-0.343471,-1.68207,1.21252,0.257446,-3.92486,1.99769,0.294981
0.175,0.975,30.8702,0.0815642,4.12785,0.245221,0.775544,-1.38269,1.36376,0.272584,-3.91309,1.53038,-0.815576,0.0815642,4.12785,0.245221,0.775544,-1.38269,1.36376,0.272584,-3.91309,1.53038,-0.815576
0.225,0.025,22.0583,-2.2051,4.08823,0.0791084,1.68007,-2.18042,0.297133,0.258349,-3.96579,2.0266,-0.623594,-2.2051,4.08823,0.0791084,1.68007,-2.18042,0.297133,0.258349,-3.96579,2.0266,-0.623594
0.225,0.075,20.8522,-2.33401,4.06869,0.0772103,1.71382,-1.94391,0.210708,0.260015,-3.96554,1.77885,-1.00887,-2.33401,4.06869,0.0772103,1.71382,-1.94391,0.210708,0.260015,-3.96554,1.77885,-1.00887
0.225,0.125,21.1366,-2.34772,4.05388,0.0825789,1.59058,-1.37654,0.11624,0.256065,-3.94359,1.25021,-1.39173,-2.34772,4.05388,0.0825789,1.59058,-1.37654,0.11624,0.256065,-3.94359,1.25021,-1.39173
0.225,0.175,23.0929,-2.23628,4.04511,0.0953258,1.36433,-0.483891,0.0361908,0.24899,-3.91813,0.488903,-1.82719,-2.23628,4.04511,0.0953258,1.36433,-0.483891,0.0361908,0.24899,-3.91813,0.488903,-1.82719
0.225,0.225,26.8223,-2.01958,4.04123,0.114252,1.06002,0.58124,-0.0220137,0.239613,-3.89513,-0.397819,-1.68263,-2.01958,4.04123,0.114252,1.06002,0.58124,-0.0220137,0.239613,-3.89513,-0.397819,-1.68263
0.225,0.275,31.563,-1.72031,4.04086,0.138038,0.676742,1.4271,-0.0583736,0.227933,-3.87462,-1.14311,-1.34176,-1.72031,4.04086,0.138038,0.676742,1.4271,-0.0583736,0.227933,-3.87462,-1.14311,-1.34176
0.225,0.325,36.3221,-1.36115,4.04263,0.165362,0.199815,2.04803,-0.0728887,0.213952,-3.85657,-1.76916,-0.97831,-1.36115,4.04263,0.165362,0.199815,2.04803,-0.0728887,0.213952,-3.85657,-1.76916,-0.97831
0.225,0.375,39.8751,-0.964765,4.04515,0.194905,-0.367163,2.45884,-0.0655592,0.197667,-3.84101,-2.26507,-0.550348,-0.964765,4.04515,0.194905,-0.367163,2.45884,-0.0655592,0.197667,-3.84101,-2.26507,-0.550348
0.225,0.425,41.0614,-0.553834,4.04706,0.225347,-0.984365,2.66963,-0.036385,0.179081,-3.82792,-2.58168,-0.0392481,-0.553834,4.04706,0.225347,-0.984365,2.66963,-0.036385,0.179081,-3.82792,-2.58168,-0.0392481
0.225,0.475,39.2909,-0.151034,4.04698,0.255367,-1.57223,2.67521,0.0146339,0.158191,-3.81731,-2.65929,0.540477,-0.151034,4.04698,0.255367,-1.57223,2.67521,0.0146339,0.158191,-3.81731,-2.65929,0.540477
0.225,0.525,35.3959,0.221203,4.0436,0.28366,-2.03565,2.45875,0.0854727,0.136532,-3.80957,-2.46709,0.994387,0.221203,4.0436,0.28366,-2.03565,2.45875,0.0854727,0.136532,-3.80957,-2.46709,0.994387
0.225,0.575,31.0245,0.546062,4.03741,0.309283,-2.31989,2.0521,0.163983,0.123297,-3.80709,-2.07923,1.25421,0.546062,4.03741,0.309283,-2.31989,2.0521,0.163983,0.123297,-3.80709,-2.07923,1.25421
0.225,0.625,26.5876,0.812346,4.03069,0.331654,-2.42457,1.45359,0.248139,0.120019,-3.81026,-1.53529,1.46124,0.812346,4.03069,0.331654,-2.42457,1.45359,0.248139,0.120019,-3.81026,-1.53529,1.46124
0.225,0.675,22.6379,1.0091,4.02579,0.350205,-2.37446,0.681452,0.337941,0.126697,-3.81909,-0.856207,1.63823,1.0091,4.02579,0.350205,-2.37446,0.681452,0.337941,0.126697,-3.81909,-0.856207,1.63823
0.225,0.725,19.6394,1.12537,4.02504,0.36437,-2.19819,-0.222898,0.433389,0.143331,-3.83357,-0.0480381,1.81625,1.12537,4.02504,0.36437,-2.19819,-0.222898,0.433389,0.143331,-3.83357,-0.0480381,1.81625
0.225,0.775,18.0532,1.1502,4.03082,0.373581,-1.91046,-1.20176,0.534484,0.169921,-3.85371,0.90151,2.01287,1.1502,4.03082,0.373581,-1.91046,-1.20176,0.534484,0.169921,-3.85371,0.90151,2.01287
0.225,0.825,18.5041,1.07264,4.04546,0.377272,-1.50334,-2.15971,0.641225,0.206468,-3.8795,1.99691,1.98191,1.07264,4.04546,0.377272,-1.50334,-2.15971,0.641225,0.206468,-3.8795,1.99691,1.98191
0.225,0.875,21.9522,0.881738,4.07131,0.374876,-0.959368,-2.67529,0.753612,0.252971,-3.91095,2.76609,1.25053,0.881738,4.07131,0.374876,-0.959368,-2.67529,0.753612,0.252971,-3.91095,2.76609,1.25053
0.225,0.925,29.0439,0.569598,4.11019,0.365807,-0.29174,-2.73524,0.86293,0.30046,-3.93839,2.92463,0.449238,0.569598,4.11019,0.365807,-0.29174,-2.73524,0.86293,0.30046,-3.93839,2.92463,0.449238
0.225,0.975,35.5195,0.161372,4.15814,0.349276,0.446339,-2.46061,0.942819,0.321799,-3.93256,2.51912,-0.393763,0.161372,4.15814,0.349276,0.446339,-2.46061,0.942819,0.321799,-3.93256,2.51912,-0.393763
0.275,0.025,22.3044,-2.14688,4.07688,0.0785049,0.54169,-2.30781,0.131437,0.236729,-3.96911,2.07205,-0.45337,-2.14688,4.07688,0.0785049,0.54169,-2.30781,0.131437,0.236729,-3.96911,2.07205,-0.45337
0.275,0.075,20.4998,-2.25124,4.05631,0.0806213,0.458109,-1.9053,0.1472,0.241735,-3.96192,1.68803,-0.526513,-2.25124,4.05631,0.0806213,0.458109,-1.9053,0.1472,0.241735,-3.96192,1.68803,-0.526513
0.275,0.125,20.6348,-2.24093,4.04047,0.0897889,0.308336,-1.23057,0.179733,0.24376,-3.93254,1.07557,-0.617117,-2.24093,4.04047,0.0897889,0.308336,-1.23057,0.179733,0.24376,-3.93254,1.07557,-0.617117
0.275,0.175,23.4397,-2.10769,4.03069,0.105746,0.12055,-0.28485,0.215609,0.242336,-3.90044,0.25747,-0.747882,-2.10769,4.03069,0.105746,0.12055,-0.28485,0.215609,0.242336,-3.90044,0.25747,-0.747882
0.275,0.225,27.8485,-1.87184,4.02597,0.127454,-0.101305,0.819841,0.250388,0.237309,-3.87204,-0.684104,-0.689842,-1.87184,4.02597,0.127454,-0.101305,0.819841,0.250388,0.237309,-3.87204,-0.684104,-0.689842
0.275,0.275,33.1739,-1.55632,4.0251,0.153799,-0.368324,1.73953,0.284069,0.228678,-3.84735,-1.50077,-0.560009,-1.55632,4.0251,0.153799,-0.368324,1.73953,0.284069,0.228678,-3.84735,-1.50077,-0.560009
0.275,0.325,38.4076,-1.18409,4.02685,0.18367,-0.690494,2.46382,0.316653,0.216442,-3.82635,-2.20449,-0.405407,-1.18409,4.02685,0.18367,-0.690494,2.46382,0.316653,0.216442,-3.82635,-2.20449,-0.405407
0.275,0.375,42.2242,-0.778104,4.02999,0.215955,-1.05392,2.96743,0.34814,0.200604,-3.80905,-2.75422,-0.199539,-0.778104,4.02999,0.215955,-1.05392,2.96743,0.34814,0.200604,-3.80905,-2.75422,-0.199539
0.275,0.425,43.3828,-0.361312,4.03329,0.249542,-1.41131,3.20494,0.37853,0.181161,-3.79545,-3.06149,0.0655901,-0.361312,4.03329,0.249542,-1.41131,3.20494,0.37853,0.181161,-3.79545,-3.06149,0.0655901
0.275,0.475,41.3477,0.0433313,4.03554,0.283318,-1.69162,3.13282,0.407822,0.158115,-3.78555,-3.04331,0.371095,0.0433313,4.03554,0.283318,-1.69162,3.13282,0.407822,0.158115,-3.78555,-3.04331,0.371095
0.275,0.525,36.8912,0.413137,4.03558,0.316178,-1.83534,2.74996,0.435528,0.133431,-3.77969,-2.69097,0.585986,0.413137,4.03558,0.316178,-1.83534,2.74996,0.435528,0.133431,-3.77969,-2.69097,0.585986
0.275,0.575,31.9257,0.731498,4.03378,0.347149,-1.83654,2.16858,0.458721,0.118905,-3.77986,-2.14189,0.661734,0.731498,4.03378,0.347149,-1.83654,2.16858,0.458721,0.118905,-3.77986,-2.14189,0.661734
0.275,0.625,27.1707,0.987893,4.03205,0.375391,-1.72597,1.43377,0.476912,0.116504,-3.78639,-1.46501,0.705075,0.987893,4.03205,0.375391,-1.72597,1.43377,0.476912,0.116504,-3.78639,-1.46501,0.705075
0.275,0.675,23.1614,1.17206,4.03238,0.400072,-1.54109,0.574097,0.490101,0.126227,-3.79929,-0.687443,0.748371,1.17206,4.03238,0.400072,-1.54109,0.574097,0.490101,0.126227,-3.79929,-0.687443,0.748371
0.275,0.725,20.3487,1.27375,4.03673,0.420359,-1.31063,-0.393305,0.498289,0.148073,-3.81856,0.195217,0.823031,1.27375,4.03673,0.420359,-1.31063,-0.393305,0.498289,0.148073,-3.81856,0.195217,0.823031
0.275,0.775,19.2191,1.2827,4.0471,0.435418,-1.04902,-1.46056,0.501474,0.182045,-3.8442,1.21347,0.951616,1.2827,4.0471,0.435418,-1.04902,-1.46056,0.501474,0.182045,-3.8442,1.21347,0.951616
0.275,0.825,20.4421,1.18864,4.06545,0.444417,-0.76,-2.59063,0.499657,0.22814,-3.8762,2.38133,1.06399,1.18864,4.06545,0.444417,-0.76,-2.59063,0.499657,0.22814,-3.8762,2.38133,1.06399
0.275,0.875,24.944,0.981331,4.09377,0.446522,-0.469119,-3.32355,0.492839,0.286359,-3.91456,3.21622,0.888895,0.981331,4.09377,0.446522,-0.469119,-3.32355,0.492839,0.286359,-3.91456,3.21622,0.888895
0.275,0.925,31.9064,0.653471,4.13351,0.440818,-0.173914,-3.52045,0.485515,0.345436,-3.94985,3.42789,0.532957,0.653471,4.13351,0.440818,-0.173914,-3.52045,0.485515,0.345436,-3.94985,3.42789,0.532957
0.275,0.975,37.7609,0.229793,4.18063,0.425491,0.130993,-3.25132,0.491286,0.371289,-3.95348,3.04515,0.0590293,0.229793,4.18063,0.425491,0.130993,-3.25132,0.491286,0.371289,-3.95348,3.04515,0.0590293
0.325,0.025,22.4888,-1.92936,4.07328,0.0904803,-0.541338,-2.23865,-0.0070902,0.21492,-3.96834,1.96243,-0.147737,-1.92936,4.07328,0.0904803,-0.541338,-2.23865,-0.0070902,0.21492,-3.96834,1.96243,-0.147737
0.325,0.075,20.6716,-2.00628,4.05331,0.0966853,-0.735905,-1.77815,0.108015,0.2232,-3.95441,1.52942,0.0428834,-2.00628,4.05331,0.0966853,-0.735905,-1.77815,0.108015,0.2232,-3.95441,1.52942,0.0428834
0.325,0.125,20.8931,-1.97664,4.03786,0.109008,-0.932437,-1.07747,0.261889,0.231059,-3.91851,0.896834,0.201256,-1.97664,4.03786,0.109008,-0.932437,-1.07747,0.261889,0.231059,-3.91851,0.896834,0.201256
0.325,0.175,23.9075,-1.83395,4.02823,0.126797,-1.12233,-0.121626,0.407694,0.235246,-3.88066,0.0651213,0.351211,-1.83395,4.02823,0.126797,-1.12233,-0.121626,0.407694,0.235246,-3.88066,0.0651213,0.351211
0.325,0.225,28.2915,-1.59752,4.02356,0.149258,-1.30777,0.993261,0.529945,0.234685,-3.84748,-0.894695,0.338862,-1.59752,4.02356,0.149258,-1.30777,0.993261,0.529945,0.234685,-3.84748,-0.894695,0.338862
0.325,0.275,33.4332,-1.28904,4.0228,0.175586,-1.49006,1.93131,0.628644,0.229376,-3.81897,-1.73859,0.280891,-1.28904,4.0228,0.175586,-1.49006,1.93131,0.628644,0.229376,-3.81897,-1.73859,0.280891
0.325,0.325,38.3243,-0.930234,4.02488,0.204972,-1.65975,2.66636,0.703789,0.21932,-3.79512,-2.45944,0.226522,-0.930234,4.02488,0.204972,-1.65975,2.66636,0.703789,0.21932,-3.79512,-2.45944,0.226522
0.325,0.375,41.7203,-0.542795,4.02875,0.236611,-1.78411,3.15163,0.755381,0.204517,-3.77594,-2.98945,0.1705,-0.542795,4.02875,0.236611,-1.78411,3.15163,0.755381,0.204517,-3.77594,-2.98945,0.1705
0.325,0.425,42.567,-0.148428,4.03333,0.269695,-1.81884,3.32767,0.78342,0.184966,-3.76144,-3.22163,0.116864,-0.148428,4.03333,0.269695,-1.81884,3.32767,0.78342,0.184966,-3.76144,-3.22163,0.116864
0.325,0.475,40.5078,0.231161,4.03757,0.303418,-1.73483,3.16087,0.787905,0.160668,-3.75159,-3.08284,0.078624,0.231161,4.03757,0.303418,-1.73483,3.16087,0.787905,0.160668,-3.75159,-3.08284,0.078624
0.325,0.525,36.0987,0.574533,4.04047,0.336969,-1.54119,2.68429,0.769943,0.133953,-3.74675,-2.60688,0.041164,0.574533,4.04047,0.336969,-1.54119,2.68429,0.769943,0.133953,-3.74675,-2.60688,0.041164
0.325,0.575,31.1885,0.866306,4.04226,0.369465,-1.28388,2.04746,0.736173,0.118804,-3.74885,-1.97081,-0.0293549,0.866306,4.04226,0.369465,-1.28388,2.04746,0.736173,0.118804,-3.74885,-1.97081,-0.0293549
0.325,0.625,26.6961,1.09716,4.04446,0.399945,-1.00578,1.29978,0.687701,0.117551,-3.75822,-1.24563,-0.102739,1.09716,4.04446,0.399945,-1.00578,1.29978,0.687701,0.117551,-3.75822,-1.24563,-0.102739
0.325,0.675,23.1189,1.25803,4.04862,0.427447,-0.736506,0.45423,0.624527,0.130195,-3.77488,-0.449378,-0.162894,1.25803,4.04862,0.427447,-0.736506,0.45423,0.624527,0.130195,-3.77488,-0.449378,-0.162894
0.325,0.725,20.8857,1.33987,4.0563,0.451008,-0.493965,-0.494469,0.54665,0.156736,-3.79881,0.434159,-0.194693,1.33987,4.0563,0.451008,-0.493965,-0.494469,0.54665,0.156736,-3.79881,0.434159,-0.194693
0.325,0.775,20.4246,1.33362,4.06907,0.469665,-0.291067,-1.56199,0.454072,0.197173,-3.83001,1.44339,-0.180302,1.33362,4.06907,0.469665,-0.291067,-1.56199,0.454072,0.197173,-3.83001,1.44339,-0.180302
0.325,0.825,22.2503,1.23021,4.08847,0.482456,-0.14607,-2.73622,0.346791,0.251506,-3.86849,2.57824,-0.00664824,1.23021,4.08847,0.482456,-0.14607,-2.73622,0.346791,0.251506,-3.86849,2.57824,-0.00664824
0.325,0.875,27.0443,1.02059,4.11607,0.488417,-0.112466,-3.56262,0.224808,0.319736,-3.91425,3.35174,0.371944,1.02059,4.11607,0.488417,-0.112466,-3.56262,0.224808,0.319736,-3.91425,3.35174,0.371944
0.325,0.925,32.6013,0.698431,4.15297,0.486443,-0.167129,-3.84288,0.1051,0.388465,-3.95833,3.53612,0.552362,0.698431,4.15297,0.486443,-0.167129,-3.84288,0.1051,0.388465,-3.95833,3.53612,0.552362
0.325,0.975,36.7154,0.286827,4.19531,0.473865,-0.245451,-3.59307,0.0390163,0.417166,-3.97367,3.16234,0.550844,0.286827,4.19531,0.473865,-0.245451,-3.59307,0.0390163,0.417166,-3.97367,3.16234,0.550844
0.375,0.025,23.7361,-1.55253,4.07743,0.115035,-1.6617,-1.98142,-0.112066,0.1946,-3.96306,1.69007,0.183173,-1.55253,4.07743,0.115035,-1.6617,-1.98142,-0.112066,0.1946,-3.96306,1.69007,0.183173
0.375,0.075,23.2166,-1.59912,4.05969,0.125402,-2.00927,-1.5584,0.0924007,0.205961,-3.94329,1.27434,0.609027,-1.59912,4.05969,0.125402,-2.00927,-1.5584,0.0924007,0.205961,-3.94329,1.27434,0.609027
0.375,0.125,24.0569,-1.55485,4.04606,0.140237,-2.30397,-0.899465,0.354001,0.219258,-3.90252,0.672188,1.00987,-1.55485,4.04606,0.140237,-2.30397,-0.899465,0.354001,0.219258,-3.90252,0.672188,1.00987
0.375,0.175,25.7395,-1.41504,4.03773,0.158478,-2.54091,0.0228819,0.596732,0.228733,-3.8605,-0.129821,1.44005,-1.41504,4.03773,0.158478,-2.54091,0.0228819,0.596732,0.228733,-3.8605,-0.129821,1.44005
0.375,0.225,28.8654,-1.19661,4.03399,0.179666,-2.70856,1.09407,0.795466,0.232486,-3.82376,-1.05076,1.35227,-1.19661,4.03399,0.179666,-2.70856,1.09407,0.795466,0.232486,-3.82376,-1.05076,1.35227
0.375,0.275,32.8322,-0.918477,4.03396,0.203398,-2.78276,1.95293,0.950204,0.230515,-3.7923,-1.84511,1.0823,-0.918477,4.03396,0.203398,-2.78276,1.95293,0.950204,0.230515,-3.7923,-1.84511,1.0823
0.375,0.325,36.5262,-0.599577,4.03674,0.229267,-2.7348,2.55931,1.06094,0.222821,-3.76613,-2.48524,0.784463,-0.599577,4.03674,0.229267,-2.7348,2.55931,1.06094,0.222821,-3.76613,-2.48524,0.784463
0.375,0.375,38.8584,-0.258836,4.04144,0.256871,-2.53045,2.89159,1.12769,0.209404,-3.74523,-2.89687,0.442155,-0.258836,4.04144,0.256871,-2.53045,2.89159,1.12769,0.209404,-3.74523,-2.89687,0.442155
0.375,0.425,39.1112,0.0848168,4.04719,0.285805,-2.16446,2.945,1.15044,0.190263,-3.72962,-2.99613,0.0756341,0.0848168,4.04719,0.285805,-2.16446,2.945,1.15044,0.190263,-3.72962,-2.99613,0.0756341
0.375,0.475,37.1563,0.412455,4.05308,0.315664,-1.68254,2.73388,1.12919,0.165399,-3.71929,-2.75271,-0.268135,0.412455,4.05308,0.315664,-1.68254,2.73388,1.12919,0.165399,-3.71929,-2.75271,-0.268135
0.375,0.525,33.2504,0.705391,4.05827,0.346033,-1.16494,2.29457,1.06658,0.137431,-3.71461,-2.23356,-0.510044,0.705391,4.05827,0.346033,-1.16494,2.29457,1.06658,0.137431,-3.71461,-2.23356,-0.510044
0.375,0.575,28.9183,0.950485,4.06287,0.376231,-0.685063,1.73727,0.978382,0.12207,-3.71781,-1.60756,-0.688981,0.950485,4.06287,0.376231,-0.685063,1.73727,0.978382,0.12207,-3.71781,-1.60756,-0.688981
0.375,0.625,25.1539,1.14014,4.06792,0.405315,-0.277633,1.08299,0.867237,0.121935,-3.72925,-0.922112,-0.85939,1.14014,4.06792,0.405315,-0.277633,1.08299,0.867237,0.121935,-3.72925,-0.922112,-0.85939
0.375,0.675,22.3847,1.26701,4.07452,0.432329,0.0422261,0.327609,0.733143,0.137026,-3.74894,-0.181709,-1.01987,1.26701,4.07452,0.432329,0.0422261,0.327609,0.733143,0.137026,-3.74894,-0.181709,-1.01987
0.375,0.725,20.9638,1.32373,4.08375,0.456316,0.264519,-0.537117,0.5761,0.167343,-3.77688,0.633806,-1.16434,1.32373,4.08375,0.456316,0.264519,-0.537117,0.5761,0.167343,-3.77688,0.633806,-1.16434
0.375,0.775,21.1615,1.30296,4.09672,0.476321,0.372153,-1.51542,0.396106,0.212886,-3.81306,1.55681,-1.27277,1.30296,4.09672,0.476321,0.372153,-1.51542,0.396106,0.212886,-3.81306,1.55681,-1.27277
0.375,0.825,23.2435,1.19734,4.11452,0.491388,0.33124,-2.57722,0.193162,0.273655,-3.85749,2.55918,-1.05862,1.19734,4.11452,0.491388,0.33124,-2.57722,0.193162,0.273655,-3.85749,2.55918,-1.05862
0.375,0.875,27.6161,0.999518,4.13823,0.500562,0.0854754,-3.32191,-0.0327308,0.34965,-3.91016,3.17398,-0.172746,0.999518,4.13823,0.500562,0.0854754,-3.32191,-0.0327308,0.34965,-3.91016,3.17398,-0.172746
0.375,0.925,31.0534,0.70448,4.16857,0.502683,-0.308451,-3.59867,-0.253485,0.425638,-3.9629,3.28023,0.5261,0.70448,4.16857,0.502683,-0.308451,-3.59867,-0.253485,0.425638,-3.9629,3.28023,0.5261
0.375,0.975,32.9599,0.332473,4.20219,0.494398,-0.737524,-3.40513,-0.384136,0.45554,-3.99092,2.92194,1.01858,0.332473,4.20219,0.494398,-0.737524,-3.40513,-0.384136,0.45554,-3.99092,2.92194,1.01858
0.425,0.025,27.4547,-1.01641,4.08934,0.152168,-2.89362,-1.4914,-0.177111,0.177449,-3.95288,1.2013,0.449142,-1.01641,4.08934,0.152168,-2.89362,-1.4914,-0.177111,0.177449,-3.95288,1.2013,0.449142
0.425,0.075,29.8512,-1.02976,4.07545,0.166772,-3.47035,-1.18038,0.0996048,0.191569,-3.92883,0.856865,1.09228,-1.02976,4.07545,0.166772,-3.47035,-1.18038,0.0996048,0.191569,-3.92883,0.856865,1.09228
0.425,0.125,31.7783,-0.97557,4.06507,0.183474,-3.93493,-0.645604,0.447367,0.20965,-3.88559,0.344167,1.74204,-0.97557,4.06507,0.183474,-3.93493,-0.645604,0.447367,0.20965,-3.88559,0.344167,1.74204
0.425,0.175,30.1661,-0.850974,4.0592,0.200789,-4.25617,0.139986,0.767012,0.223814,-3.84167,-0.352415,2.44327,-0.850974,4.0592,0.200789,-4.25617,0.139986,0.767012,0.223814,-3.84167,-0.352415,2.44327
0.425,0.225,30.4221,-0.669117,4.05727,0.218677,-4.37778,1.02501,1.02576,0.231457,-3.8032,-1.12068,2.24165,-0.669117,4.05727,0.218677,-4.37778,1.02501,1.02576,0.231457,-3.8032,-1.12068,2.24165
0.425,0.275,32.1854,-0.444624,4.05857,0.237234,-4.24715,1.65155,1.2236,0.232579,-3.77017,-1.73637,1.70462,-0.444624,4.05857,0.237234,-4.24715,1.65155,1.2236,0.232579,-3.77017,-1.73637,1.70462
0.425,0.325,34.0447,-0.19212,4.06241,0.256556,-3.8526,2.00643,1.36055,0.22718,-3.74259,-2.17246,1.13897,-0.19212,4.06241,0.256556,-3.8526,2.00643,1.36055,0.22718,-3.74259,-2.17246,1.13897
0.425,0.375,34.9271,0.073771,4.06807,0.276737,-3.21297,2.14016,1.43659,0.21526,-3.72045,-2.38524,0.554117,0.073771,4.06807,0.276737,-3.21297,2.14016,1.43659,0.21526,-3.72045,-2.38524,0.554117
0.425,0.425,34.3853,0.338423,4.07486,0.297872,-2.40196,2.11265,1.45174,0.196819,-3.70376,-2.3463,-0.0214539,0.338423,4.07486,0.297872,-2.40196,2.11265,1.45174,0.196819,-3.70376,-2.3463,-0.0214539
0.425,0.475,32.478,0.587213,4.08205,0.320058,-1.5355,1.95381,1.40598,0.171857,-3.69251,-2.06491,-0.556728,0.587213,4.08205,0.320058,-1.5355,1.95381,1.40598,0.171857,-3.69251,-2.06491,-0.556728
0.425,0.525,29.2025,0.805712,4.08899,0.343369,-0.729337,1.66043,1.30329,0.143197,-3.68716,-1.60429,-0.94105,0.805712,4.08899,0.343369,-0.729337,1.66043,1.30329,0.143197,-3.68716,-1.60429,-0.94105
0.425,0.575,25.6858,0.984036,4.0956,0.367449,-0.0554799,1.2722,1.16739,0.127779,-3.6905,-1.08374,-1.21451,0.984036,4.0956,0.367449,-0.0554799,1.2722,1.16739,0.127779,-3.6905,-1.08374,-1.21451
0.425,0.625,22.9176,1.11684,4.10243,0.391503,0.463436,0.782567,1.00225,0.128427,-3.70297,-0.520018,-1.48829,1.11684,4.10243,0.391503,0.463436,0.782567,1.00225,0.128427,-3.70297,-0.520018,-1.48829
0.425,0.675,21.2057,1.19899,4.11007,0.414719,0.817646,0.18137,0.807879,0.145141,-3.72459,0.0901533,-1.75868,1.19899,4.11007,0.414719,0.817646,0.18137,0.807879,0.145141,-3.72459,0.0901533,-1.75868
0.425,0.725,20.7149,1.22534,4.11909,0.436284,0.994103,-0.52654,0.584263,0.17792,-3.75535,0.761008,-2.01035,1.22534,4.11909,0.436284,0.994103,-0.52654,0.584263,0.17792,-3.75535,0.761008,-2.01035
0.425,0.775,21.4516,1.19074,4.13007,0.455387,0.965939,-1.31468,0.331406,0.226764,-3.79525,1.5094,-2.20598,1.19074,4.13007,0.455387,0.965939,-1.31468,0.331406,0.226764,-3.79525,1.5094,-2.20598
0.425,0.825,23.4404,1.09004,4.14359,0.471215,0.689134,-2.12312,0.0493091,0.291674,-3.8443,2.28155,-1.9179,1.09004,4.14359,0.471215,0.689134,-2.12312,0.0493091,0.291674,-3.8443,2.28155,-1.9179
0.425,0.875,26.9317,0.918114,4.16023,0.482956,0.134412,-2.66033,-0.262028,0.37265,-3.90248,2.67306,-0.616516,0.918114,4.16023,0.482956,0.134412,-2.66033,-0.262028,0.37265,-3.90248,2.67306,-0.616516
0.425,0.925,28.196,0.671616,4.1803,0.489537,-0.600191,-2.87147,-0.565408,0.453047,-3.96263,2.67626,0.476405,0.671616,4.1803,0.489537,-0.600191,-2.87147,-0.565408,0.453047,-3.96263,2.67626,0.476405
0.425,0.975,28.1761,0.366733,4.20126,0.487091,-1.37558,-2.75101,-0.748314,0.482521,-4.00303,2.34256,1.3873,0.366733,4.20126,0.487091,-1.37558,-2.75101,-0.748314,0.482521,-4.00303,2.34256,1.3873
0.475,0.025,33.3621,-0.320973,4.109,0.201881,-4.21668,-0.683555,-0.195842,0.165146,-3.93739,0.429442,0.602516,-0.320973,4.109,0.201881,-4.21668,-0.683555,-0.195842,0.165146,-3.93739,0.429442,0.602516
0.475,0.075,38.9643,-0.298212,4.10058,0.220795,-5.06869,-0.532069,0.128874,0.181574,-3.91129,0.207093,1.41487,-0.298212,4.10058,0.220795,-5.06869,-0.532069,0.128874,0.181574,-3.91129,0.207093,1.41487
0.475,0.125,41.7545,-0.238788,4.09489,0.238721,-5.72799,-0.246306,0.533281,0.203531,-3.86874,-0.128235,2.2689,-0.238788,4.09489,0.238721,-5.72799,-0.246306,0.533281,0.203531,-3.86874,-0.128235,2.2689
0.475,0.175,36.1956,-0.141742,4.09263,0.25373,-6.10328,0.170748,0.902822,0.221503,-3.8259,-0.57888,3.16026,-0.141742,4.09263,0.25373,-6.10328,0.170748,0.902822,0.221503,-3.8259,-0.57888,3.16026
0.475,0.225,32.9054,-0.0150432,4.09338,0.266291,-6.07684,0.589849,1.19963,0.232344,-3.78812,-1.00306,2.80965,-0.0150432,4.09338,0.266291,-6.07684,0.589849,1.19963,0.232344,-3.78812,-1.00306,2.80965
0.475,0.275,32.0468,0.132515,4.09664,0.277097,-5.61173,0.826835,1.42369,0.236054,-3.7554,-1.27802,2.02622,0.132515,4.09664,0.277097,-5.61173,0.826835,1.42369,0.236054,-3.7554,-1.27802,2.02622
0.475,0.325,31.9134,0.292137,4.1019,0.286838,-4.78197,0.927815,1.57502,0.232634,-3.72773,-1.41693,1.27352,0.292137,4.1019,0.286838,-4.78197,0.927815,1.57502,0.232634,-3.72773,-1.41693,1.27352
0.475,0.375,31.3201,0.455027,4.10863,0.296207,-3.69898,0.962609,1.65362,0.222083,-3.70513,-1.42166,0.573432,0.455027,4.10863,0.296207,-3.69898,0.962609,1.65362,0.222083,-3.70513,-1.42166,0.573432
0.475,0.425,29.9306,0.612392,4.11634,0.305897,-2.49818,0.970071,1.65947,0.204402,-3.68758,-1.3004,-0.0783436,0.612392,4.11634,0.305897,-2.49818,0.970071,1.65947,0.204402,-3.68758,-1.3004,-0.0783436
0.475,0.475,27.9109,0.755435,4.1245,0.316599,-1.31515,0.942135,1.59259,0.17959,-3.67509,-1.06573,-0.701625,0.755435,4.1245,0.316599,-1.31515,0.942135,1.59259,0.17959,-3.67509,-1.06573,-0.701625
0.475,0.525,25.1216,0.875495,4.13262,0.328979,-0.263572,0.837125,1.45793,0.150585,-3.66826,-0.750233,-1.18581,0.875495,4.13262,0.328979,-0.263572,0.837125,1.45793,0.150585,-3.66826,-0.750233,-1.18581
0.475,0.575,22.3958,0.966958,4.14045,0.343117,0.591174,0.649142,1.28524,0.13501,-3.67066,-0.411474,-1.55072,0.966958,4.14045,0.343117,0.591174,0.649142,1.28524,0.13501,-3.67066,-0.411474,-1.55072
0.475,0.625,20.7092,1.02726,4.14799,0.358507,1.22303,0.367188,1.07949,0.135803,-3.68288,-0.045197,-1.93084,1.02726,4.14799,0.358507,1.22303,0.367188,1.07949,0.135803,-3.68288,-0.045197,-1.93084
0.475,0.675,20.1753,1.05398,4.15527,0.374617,1.60901,-0.0107829,0.84066,0.152963,-3.70492,0.35189,-2.30595,1.05398,4.15527,0.374617,1.60901,-0.0107829,0.84066,0.152963,-3.70492,0.35189,-2.30595
0.475,0.725,20.6131,1.04468,4.1623,0.390913,1.72053,-0.463911,0.568765,0.186491,-3.7368,0.784238,-2.63665,1.04468,4.1623,0.390913,1.72053,-0.463911,0.568765,0.186491,-3.7368,0.784238,-2.63665
0.475,0.775,21.6859,0.996933,4.1691,0.406863,1.51978,-0.948315,0.263801,0.236387,-3.77849,1.25459,-2.86287,0.996933,4.1691,0.406863,1.51978,-0.948315,0.263801,0.236387,-3.77849,1.25459,-2.86287
0.475,0.825,23.2652,0.908308,4.17568,0.421936,0.963625,-1.41009,-0.0742324,0.302651,-3.83002,1.70209,-2.47899,0.908308,4.17568,0.421936,0.963625,-1.41009,-0.0742324,0.302651,-3.83002,1.70209,-2.47899
0.475,0.875,25.6633,0.776377,4.18207,0.435599,0.0723355,-1.70375,-0.445335,0.385282,-3.89137,1.83317,-0.901293,0.776377,4.18207,0.435599,0.0723355,-1.70375,-0.445335,0.385282,-3.89137,1.83317,-0.901293
0.475,0.925,25.2116,0.59984,4.18816,0.447006,-1.01865,-1.82419,-0.80584,0.466782,-3.95661,1.71877,0.429574,0.59984,4.18816,0.447006,-1.01865,-1.82419,-0.80584,0.466782,-3.95661,1.71877,0.429574
0.475,0.975,24.0679,0.389605,4.19253,0.451942,-2.16695,-1.74285,-1.02366,0.49422,-4.00782,1.40326,1.6438,0.389605,4.19253,0.451942,-2.16695,-1.74285,-1.02366,0.49422,-4.00782,1.40326,1.6438
0.525,0.025,33.1505,0.490821,4.13457,0.260881,-4.14309,0.439305,-0.16222,0.159296,-3.91623,-0.54577,0.636559,0.490821,4.13457,0.260881,-4.14309,0.439305,-0.16222,0.159296,-3.91623,-0.54577,0.636559
0.525,0.075,38.7348,0.551369,4.13283,0.283989,-4.93943,0.403358,0.179396,0.17746,-3.89097,-0.586357,1.49503,0.551369,4.13283,0.283989,-4.93943,0.403358,0.179396,0.17746,-3.89097,-0.586357,1.49503
0.525,0.125,41.1064,0.611901,4.13288,0.302525,-5.50132,0.317578,0.603294,0.202138,-3.85298,-0.640467,2.3836,0.611901,4.13288,0.302525,-5.50132,0.317578,0.603294,0.202138,-3.85298,-0.640467,2.3836
0.525,0.175,34.8609,0.671468,4.13506,0.314107,-5.73213,0.143387,0.988988,0.222767,-3.81484,-0.69614,3.27028,0.671468,4.13506,0.314107,-5.73213,0.143387,0.988988,0.222767,-3.81484,-0.69614,3.27028
0.525,0.225,30.7029,0.728357,4.13913,0.319768,-5.54328,-0.0951379,1.29664,0.235854,-3.78075,-0.632979,2.85148,0.728357,4.13913,0.319768,-5.54328,-0.0951379,1.29664,0.235854,-3.78075,-0.632979,2.85148
0.525,0.275,28.8498,0.780788,4.14476,0.320855,-4.96602,-0.264811,1.52626,0.241398,-3.75068,-0.503163,2.0359,0.780788,4.14476,0.320855,-4.96602,-0.264811,1.52626,0.241398,-3.75068,-0.503163,2.0359
0.525,0.325,27.9146,0.826979,4.15166,0.318718,-4.10675,-0.331828,1.67784,0.239399,-3.72465,-0.354586,1.29367,0.826979,4.15166,0.318718,-4.10675,-0.331828,1.67784,0.239399,-3.72465,-0.354586,1.29367
0.525,0.375,26.9427,0.86515,4.15949,0.314703,-3.0693,-0.311122,1.75138,0.229858,-3.70266,-0.199773,0.617978,0.86515,4.15949,0.314703,-3.0693,-0.311122,1.75138,0.229858,-3.70266,-0.199773,0.617978
0.525,0.425,25.6672,0.89352,4.16795,0.31016,-1.95239,-0.240259,1.74688,0.212775,-3.6847,-0.0455055,-0.0268451,0.89352,4.16795,0.31016,-1.95239,-0.240259,1.74688,0.212775,-3.6847,-0.0455055,-0.0268451
0.525,0.475,24.2464,0.910306,4.17673,0.306436,-0.851104,-0.165396,1.66435,0.188149,-3.67077,0.106909,-0.686487,0.910306,4.17673,0.306436,-0.851104,-0.165396,1.66435,0.188149,-3.67077,0.106909,-0.686487
0.525,0.525,22.43,0.913779,4.1855,0.30485,0.142047,-0.131938,1.50929,0.158934,-3.66164,0.246432,-1.24462,0.913779,4.1855,0.30485,0.142047,-0.131938,1.50929,0.158934,-3.66164,0.246432,-1.24462
0.525,0.575,20.744,0.903371,4.19383,0.306005,0.959999,-0.15142,1.31476,0.142854,-3.66192,0.36606,-1.68256,0.903371,4.19383,0.306005,0.959999,-0.15142,1.31476,0.142854,-3.66192,0.36606,-1.68256
0.525,0.625,20.057,0.879676,4.20114,0.309795,1.55949,-0.213768,1.08627,0.142862,-3.67235,0.479143,-2.13488,0.879676,4.20114,0.309795,1.55949,-0.213768,1.08627,0.142862,-3.67235,0.479143,-2.13488
0.525,0.675,20.3133,0.843341,4.20687,0.31608,1.89884,-0.301595,0.823833,0.158958,-3.69295,0.587526,-2.56649,0.843341,4.20687,0.31608,1.89884,-0.301595,0.823833,0.158958,-3.69295,0.587526,-2.56649
0.525,0.725,21.1849,0.795011,4.21044,0.324722,1.93802,-0.392736,0.527438,0.191143,-3.72372,0.69253,-2.92265,0.795011,4.21044,0.324722,1.93802,-0.392736,0.527438,0.191143,-3.72372,0.69253,-2.92265
0.525,0.775,22.2825,0.735332,4.21128,0.335583,1.63999,-0.470629,0.197087,0.239416,-3.76465,0.794892,-3.14087,0.735332,4.21128,0.335583,1.63999,-0.470629,0.197087,0.239416,-3.76465,0.794892,-3.14087
0.525,0.825,23.4937,0.664949,4.20882,0.348524,0.973843,-0.538069,-0.167219,0.303778,-3.81575,0.849437,-2.70809,0.664949,4.20882,0.348524,0.973843,-0.538069,-0.167219,0.303778,-3.81575,0.849437,-2.70809
0.525,0.875,25.1667,0.584508,4.20249,0.363406,-0.00820056,-0.58313,-0.565481,0.384227,-3.87701,0.706611,-1.01838,0.584508,4.20249,0.363406,-0.00820056,-0.58313,-0.565481,0.384227,-3.87701,0.706611,-1.01838
0.525,0.925,23.5801,0.494996,4.19177,0.379731,-1.17016,-0.573073,-0.950814,0.463093,-3.94397,0.462478,0.432571,0.494996,4.19177,0.379731,-1.17016,-0.573073,-0.950814,0.463093,-3.94397,0.462478,0.432571
0.525,0.975,21.6287,0.401083,4.17658,0.393106,-2.38606,-0.45008,-1.1814,0.486916,-4.00317,0.148164,1.84994,0.401083,4.17658,0.393106,-2.38606,-0.45008,-1.1814,0.486916,-4.00317,0.148164,1.84994
0.575,0.025,26.9339,1.16132,4.15508,0.309419,-2.71652,1.29631,-0.078041,0.159783,-3.89015,-1.26008,0.554142,1.16132,4.15508,0.309419,-2.71652,1.29631,-0.078041,0.159783,-3.89015,-1.26008,0.554142
0.575,0.075,29.6102,1.25398,4.15859,0.335467,-3.19819,1.09263,0.248962,0.179123,-3.86849,-1.12602,1.32619,1.25398,4.15859,0.335467,-3.19819,1.09263,0.248962,0.179123,-3.86849,-1.12602,1.32619
0.575,0.125,30.8746,1.31495,4.16312,0.35417,-3.4953,0.738614,0.654832,0.205368,-3.83873,-0.932555,2.08472,1.31495,4.16312,0.35417,-3.4953,0.738614,0.654832,0.205368,-3.83873,-0.932555,2.08472
0.575,0.175,27.1539,1.34155,4.1687,0.362754,-3.56254,0.209138,1.02269,0.227492,-3.80877,-0.673528,2.8238,1.34155,4.1687,0.362754,-3.56254,0.209138,1.02269,0.227492,-3.80877,-0.673528,2.8238
0.575,0.225,24.7903,1.33754,4.1752,0.362664,-3.37396,-0.385861,1.31391,0.241848,-3.78125,-0.276975,2.46971,1.33754,4.1752,0.362664,-3.37396,-0.385861,1.31391,0.241848,-3.78125,-0.276975,2.46971
0.575,0.275,23.7755,1.30728,4.18248,0.355739,-2.97543,-0.795032,1.52848,0.248438,-3.75614,0.104293,1.81737,1.30728,4.18248,0.355739,-2.97543,-0.795032,1.52848,0.248438,-3.75614,0.104293,1.81737
0.575,0.325,23.3774,1.25513,4.19041,0.343819,-2.42001,-1.01428,1.66639,0.247261,-3.73346,0.43062,1.2194,1.25513,4.19041,0.343819,-2.42001,-1.01428,1.66639,0.247261,-3.73346,0.43062,1.2194
0.575,0.375,23.0902,1.18545,4.19883,0.328741,-1.74907,-1.08818,1.72767,0.238316,-3.7132,0.695328,0.641374,1.18545,4.19883,0.328741,-1.74907,-1.08818,1.72767,0.238316,-3.7132,0.695328,0.641374
0.575,0.425,22.745,1.1026,4.20761,0.312345,-1.00648,-1.07035,1.71229,0.221605,-3.69537,0.889451,0.0431656,1.1026,4.20761,0.312345,-1.00648,-1.07035,1.71229,0.221605,-3.69537,0.889451,0.0431656
0.575,0.475,22.4198,1.01093,4.21661,0.296468,-0.248868,-1.00702,1.62027,0.197126,-3.67996,1.00381,-0.614438,1.01093,4.21661,0.296468,-0.248868,-1.00702,1.62027,0.197126,-3.67996,1.00381,-0.614438
0.575,0.525,21.72,0.914801,4.22567,0.282916,0.451828,-0.928842,1.45718,0.167758,-3.66793,1.02509,-1.19974,0.914801,4.22567,0.282916,0.451828,-0.928842,1.45718,0.167758,-3.66793,1.02509,-1.19974
0.575,0.575,20.8645,0.817985,4.23419,0.272725,1.03331,-0.844975,1.25654,0.150768,-3.66506,0.976482,-1.65486,0.817985,4.23419,0.272725,1.03331,-0.844975,1.25654,0.150768,-3.66506,0.976482,-1.65486
0.575,0.625,20.5811,0.723734,4.24109,0.26616,1.45053,-0.731532,1.02394,0.149034,-3.6723,0.877933,-2.10226,0.723734,4.24109,0.26616,1.45053,-0.731532,1.02394,0.149034,-3.6723,0.877933,-2.10226
0.575,0.675,20.8526,0.635268,4.24531,0.263454,1.66506,-0.564262,0.759364,0.162556,-3.68966,0.735647,-2.50812,0.635268,4.24531,0.263454,1.66506,-0.564262,0.759364,0.162556,-3.68966,0.735647,-2.50812
0.575,0.725,21.5291,0.555811,4.24578,0.26484,1.64539,-0.336037,0.462821,0.191333,-3.71713,0.555948,-2.83084,0.555811,4.24578,0.26484,1.64539,-0.336037,0.462821,0.191333,-3.71713,0.555948,-2.83084
0.575,0.775,22.4375,0.488585,4.24141,0.270549,1.36489,-0.068627,0.134311,0.235366,-3.75471,0.343927,-3.03172,0.488585,4.24141,0.270549,1.36489,-0.068627,0.134311,0.235366,-3.75471,0.343927,-3.03172
0.575,0.825,23.5833,0.436812,4.23112,0.280815,0.799897,0.186616,-0.226168,0.294655,-3.80241,0.0723448,-2.62797,0.436812,4.23112,0.280815,0.799897,0.186616,-0.226168,0.294655,-3.80241,0.0723448,-2.62797
0.575,0.875,25.2549,0.403715,4.21385,0.29587,-0.00137368,0.345228,-0.618614,0.369199,-3.86022,-0.280738,-0.964108,0.403715,4.21385,0.29587,-0.00137368,0.345228,-0.618614,0.369199,-3.86022,-0.280738,-0.964108
0.575,0.925,23.4249,0.392155,4.18872,0.315556,-0.920843,0.465282,-0.996228,0.441858,-3.92533,-0.613183,0.528463,0.392155,4.18872,0.315556,-0.920843,0.465282,-0.996228,0.441858,-3.92533,-0.613183,0.528463
0.575,0.975,21.0004,0.401123,4.15696,0.335499,-1.83717,0.606309,-1.21745,0.460785,-3.98925,-0.891732,2.03613,0.401123,4.15696,0.335499,-1.83717,0.606309,-1.21745,0.460785,-3.98925,-0.891732,2.03613
0.625,0.025,22.5689,1.6476,4.16867,0.344204,-1.41399,1.83896,0.0470592,0.164771,-3.86098,-1.68633,0.359906,1.6476,4.16867,0.344204,-1.41399,1.83896,0.0470592,0.164771,-3.86098,-1.68633,0.359906
0.625,0.075,22.4247,1.76546,4.17561,0.371747,-1.67757,1.5123,0.333974,0.184878,-3.84478,-1.41981,0.975257,1.76546,4.17561,0.371747,-1.67757,1.5123,0.333974,0.184878,-3.84478,-1.41981,0.975257
0.625,0.125,22.5956,1.82678,4.18299,0.390205,-1.82003,1.0038,0.691194,0.211777,-3.82586,-1.05566,1.5542,1.82678,4.18299,0.390205,-1.82003,1.0038,0.691194,0.211777,-3.82586,-1.05566,1.5542
0.625,0.175,21.1375,1.82733,4.19059,0.396475,-1.81887,0.314065,1.01348,0.234476,-3.80657,-0.600027,2.11806,1.82733,4.19059,0.396475,-1.81887,0.314065,1.01348,0.234476,-3.80657,-0.600027,2.11806
0.625,0.225,20.4441,1.77525,4.19839,0.392238,-1.6701,-0.433914,1.26605,0.249342,-3.78771,-0.0229537,1.87966,1.77525,4.19839,0.392238,-1.6701,-0.433914,1.26605,0.249342,-3.78771,-0.0229537,1.87966
0.625,0.275,20.4273,1.67984,4.20639,0.37962,-1.41299,-0.982527,1.44889,0.256373,-3.76927,0.490832,1.43491,1.67984,4.20639,0.37962,-1.41299,-0.982527,1.44889,0.256373,-3.76927,0.490832,1.43491
0.625,0.325,20.765,1.55037,4.2146,0.360746,-1.06968,-1.34146,1.56201,0.25557,-3.75126,0.922656,1.01251,1.55037,4.2146,0.360746,-1.06968,-1.34146,1.56201,0.25557,-3.75126,0.922656,1.01251
0.625,0.375,21.2176,1.39613,4.22301,0.337741,-0.653835,-1.54474,1.60541,0.246933,-3.73367,1.2677,0.564295,1.39613,4.22301,0.337741,-0.653835,-1.54474,1.60541,0.246933,-3.73367,1.2677,0.564295
0.625,0.425,21.6548,1.22642,4.23164,0.312732,-0.185731,-1.62686,1.57908,0.230462,-3.71651,1.50562,0.0526679,1.22642,4.23164,0.312732,-0.185731,-1.62686,1.57908,0.230462,-3.71651,1.50562,0.0526679
0.625,0.475,22.0512,1.0505,4.24047,0.287842,0.297763,-1.6129,1.48303,0.206157,-3.69977,1.60846,-0.547173,1.0505,4.24047,0.287842,0.297763,-1.6129,1.48303,0.206157,-3.69977,1.60846,-0.547173
0.625,0.525,21.9315,0.877599,4.24948,0.265166,0.742078,-1.51341,1.32251,0.176743,-3.68462,1.55187,-1.09351,0.877599,4.24948,0.265166,0.742078,-1.51341,1.32251,0.176743,-3.68462,1.55187,-1.09351
0.625,0.575,21.3821,0.71492,4.25793,0.246045,1.09929,-1.34303,1.12901,0.158575,-3.67802,1.38044,-1.50067,0.71492,4.25793,0.246045,1.09929,-1.34303,1.12901,0.158575,-3.67802,1.38044,-1.50067
0.625,0.625,21.0512,0.56771,4.26438,0.23107,1.33687,-1.08197,0.907787,0.154377,-3.68114,1.12321,-1.87367,0.56771,4.26438,0.23107,1.33687,-1.08197,0.907787,0.154377,-3.68114,1.12321,-1.87367
0.625,0.675,21.0221,0.441128,4.26735,0.220798,1.43114,-0.716407,0.658839,0.164149,-3.69397,0.794519,-2.19368,0.441128,4.26735,0.220798,1.43114,-0.716407,0.658839,0.164149,-3.69397,0.794519,-2.19368
0.625,0.725,21.323,0.340328,4.26536,0.215787,1.36441,-0.256833,0.382166,0.187892,-3.71651,0.405876,-2.4475,0.340328,4.26536,0.215787,1.36441,-0.256833,0.382166,0.187892,-3.71651,0.405876,-2.4475
0.625,0.775,21.9678,0.270468,4.25694,0.216596,1.11909,0.257487,0.0777686,0.225605,-3.74878,-0.037426,-2.6268,0.270468,4.25694,0.216596,1.11909,0.257487,0.0777686,0.225605,-3.74878,-0.037426,-2.6268
0.625,0.825,23.0831,0.236705,4.2406,0.223783,0.673668,0.759661,-0.254354,0.277289,-3.79075,-0.552356,-2.30425,0.236705,4.2406,0.223783,0.673668,0.759661,-0.254354,0.277289,-3.79075,-0.552356,-2.30425
0.625,0.875,24.966,0.244196,4.21488,0.237906,0.064846,1.07938,-0.614202,0.342943,-3.84244,-1.04991,-0.782646,0.244196,4.21488,0.237906,0.064846,1.07938,-0.614202,0.342943,-3.84244,-1.04991,-0.782646
0.625,0.925,23.6073,0.29716,4.17862,0.259122,-0.601614,1.25583,-0.957845,0.406589,-3.90277,-1.41134,0.661148,0.29716,4.17862,0.259122,-0.601614,1.25583,-0.957845,0.406589,-3.90277,-1.41134,0.661148
0.625,0.975,21.4254,0.389717,4.13428,0.283274,-1.20337,1.32871,-1.15241,0.419897,-3.96848,-1.58993,2.12267,0.389717,4.13428,0.283274,-1.20337,1.32871,-1.15241,0.419897,-3.96848,-1.58993,2.12267
0.675,0.025,20.472,1.94964,4.17536,0.365235,-0.214265,2.17031,0.203106,0.172348,-3.83061,-1.91008,0.103327,1.94964,4.17536,0.365235,-0.214265,2.17031,0.203106,0.172348,-3.83061,-1.91008,0.103327
0.675,0.075,18.4054,2.08581,4.18387,0.392828,-0.340537,1.79873,0.430771,0.192969,-3.82083,-1.57031,0.520512,2.08581,4.18387,0.392828,-0.340537,1.79873,0.430771,0.192969,-3.82083,-1.57031,0.520512
0.675,0.125,17.4996,2.14737,4.19247,0.410629,-0.408432,1.2221,0.715935,0.219864,-3.81421,-1.10301,0.912634,2.14737,4.19247,0.410629,-0.408432,1.2221,0.715935,0.219864,-3.81421,-1.10301,0.912634
0.675,0.175,17.2783,2.12879,4.20072,0.415272,-0.391824,0.462894,0.971434,0.242475,-3.80706,-0.52686,1.30405,2.12879,4.20072,0.415272,-0.391824,0.462894,0.971434,0.242475,-3.80706,-0.52686,1.30405
0.675,0.225,17.5841,2.04149,4.20869,0.408491,-0.285362,-0.357625,1.16845,0.257311,-3.79814,0.148681,1.18602,2.04149,4.20869,0.408491,-0.285362,-0.357625,1.16845,0.257311,-3.79814,0.148681,1.18602
0.675,0.275,18.3108,1.89846,4.21649,0.392498,-0.121813,-0.993084,1.30699,0.264373,-3.78747,0.731702,0.933714,1.89846,4.21649,0.392498,-0.121813,-0.993084,1.30699,0.264373,-3.78747,0.731702,0.933714
0.675,0.325,19.2997,1.7127,4.22424,0.369499,0.0852506,-1.46103,1.38705,0.263661,-3.77504,1.22197,0.676544,1.7127,4.22424,0.369499,0.0852506,-1.46103,1.38705,0.263661,-3.77504,1.22197,0.676544
0.675,0.375,20.3857,1.49721,4.23204,0.341704,0.325941,-1.7801,1.40863,0.255174,-3.76085,1.61342,0.369258,1.49721,4.23204,0.341704,0.325941,-1.7801,1.40863,0.255174,-3.76085,1.61342,0.369258
0.675,0.425,21.3965,1.26498,4.24002,0.311321,0.584221,-1.95798,1.37173,0.238914,-3.7449,1.87432,-0.0182872,1.26498,4.24002,0.311321,0.584221,-1.95798,1.37173,0.238914,-3.7449,1.87432,-0.0182872
0.675,0.475,22.1851,1.02902,4.24829,0.28056,0.833195,-1.99023,1.27635,0.214879,-3.72719,1.9607,-0.496621,1.02902,4.24829,0.28056,0.833195,-1.99023,1.27635,0.214879,-3.72719,1.9607,-0.496621
0.675,0.525,22.2631,0.802173,4.25691,0.251601,1.03768,-1.86677,1.12706,0.185583,-3.70907,1.8416,-0.933097,0.802173,4.25691,0.251601,1.03768,-1.86677,1.12706,0.185583,-3.70907,1.8416,-0.933097
0.675,0.575,21.7144,0.594175,4.26507,0.225966,1.17436,-1.6184,0.95133,0.16611,-3.69861,1.58094,-1.23715,0.594175,4.26507,0.225966,1.17436,-1.6184,0.95133,0.16611,-3.69861,1.58094,-1.23715
0.675,0.625,21.1286,0.411607,4.27101,0.204523,1.23307,-1.24434,0.753731,0.158974,-3.69717,1.21676,-1.49398,0.411607,4.27101,0.204523,1.23307,-1.24434,0.753731,0.158974,-3.69717,1.21676,-1.49398
0.675,0.675,20.6943,0.260919,4.27298,0.18811,1.2092,-0.749279,0.534264,0.164174,-3.70474,0.769614,-1.70291,0.260919,4.27298,0.18811,1.2092,-0.749279,0.534264,0.164174,-3.70474,0.769614,-1.70291
0.675,0.725,20.5888,0.148561,4.2692,0.177564,1.09872,-0.153365,0.292928,0.18171,-3.72132,0.251502,-1.87325,0.148561,4.2692,0.177564,1.09872,-0.153365,0.292928,0.18171,-3.72132,0.251502,-1.87325
0.675,0.775,20.9797,0.0809806,4.25788,0.173724,0.892521,0.510059,0.029724,0.211583,-3.74692,-0.337837,-2.01612,0.0809806,4.25788,0.173724,0.892521,0.510059,0.029724,0.211583,-3.74692,-0.337837,-2.01612
0.675,0.825,22.1002,0.0646281,4.23727,0.177428,0.573704,1.1873,-0.255349,0.253792,-3.78153,-1.01236,-1.78554,0.0646281,4.23727,0.177428,0.573704,1.1873,-0.255349,0.253792,-3.78153,-1.01236,-1.78554
0.675,0.875,24.281,0.105952,4.20557,0.189513,0.168852,1.62959,-0.56229,0.308337,-3.82515,-1.58953,-0.511658,0.105952,4.20557,0.189513,0.168852,1.62959,-0.56229,0.308337,-3.82515,-1.58953,-0.511658
0.675,0.925,23.816,0.210012,4.16148,0.210429,-0.232419,1.81143,-0.852293,0.360954,-3.87844,-1.92166,0.761555,0.210012,4.16148,0.210429,-0.232419,1.81143,-0.852293,0.360954,-3.87844,-1.92166,0.761555
0.675,0.975,22.3336,0.366864,4.10851,0.23643,-0.521566,1.74353,-1.00797,0.368492,-3.94336,-1.95072,2.02228,0.366864,4.10851,0.23643,-0.521566,1.74353,-1.00797,0.368492,-3.94336,-1.95072,2.02228
0.725,0.025,19.6435,2.06744,4.17514,0.372513,0.995905,2.32186,0.380123,0.180604,-3.80093,-1.97781,-0.122522,2.06744,4.17514,0.372513,0.995905,2.32186,0.380123,0.180604,-3.80093,-1.97781,-0.122522
0.725,0.075,16.751,2.21502,4.18339,0.398712,0.983835,2.00866,0.535693,0.201643,-3.79758,-1.6344,0.0493908,2.21502,4.18339,0.398712,0.983835,2.00866,0.535693,0.201643,-3.79758,-1.6344,0.0493908
0.725,0.125,15.0215,2.27674,4.19157,0.415442,0.961993,1.44376,0.732608,0.228128,-3.80362,-1.12241,0.233187,2.27674,4.19157,0.415442,0.961993,1.44376,0.732608,0.228128,-3.80362,-1.12241,0.233187
0.725,0.175,15.06,2.24595,4.19909,0.419143,0.974021,0.664407,0.906627,0.25024,-3.80905,-0.473625,0.439752,2.24595,4.19909,0.419143,0.974021,0.664407,0.906627,0.25024,-3.80905,-0.473625,0.439752
0.725,0.225,15.75,2.13626,4.2061,0.411423,1.03784,-0.198626,1.03651,0.264734,-3.81055,0.257368,0.431866,2.13626,4.2061,0.411423,1.03784,-0.198626,1.03651,0.264734,-3.81055,0.257368,0.431866
0.725,0.275,16.8999,1.96315,4.21277,0.394372,1.12605,-0.89098,1.12226,0.271609,-3.80813,0.872562,0.350691,1.96315,4.21277,0.394372,1.12605,-0.89098,1.12226,0.271609,-3.80813,0.872562,0.350691
0.725,0.325,18.3381,1.74213,4.21932,0.370077,1.22331,-1.43065,1.16388,0.270866,-3.80179,1.38326,0.243376,1.74213,4.21932,0.370077,1.22331,-1.43065,1.16388,0.270866,-3.80179,1.38326,0.243376
0.725,0.375,19.8514,1.48868,4.22592,0.340628,1.31324,-1.82394,1.16136,0.262505,-3.79151,1.78056,0.0821543,1.48868,4.22592,0.340628,1.31324,-1.82394,1.16136,0.262505,-3.79151,1.78056,0.0821543
0.725,0.425,21.1757,1.21829,4.23278,0.308113,1.37667,-2.05762,1.11471,0.246526,-3.77731,2.02679,-0.148756,1.21829,4.23278,0.308113,1.37667,-2.05762,1.11471,0.246526,-3.77731,2.02679,-0.148756
0.725,0.475,22.0564,0.946471,4.24008,0.274621,1.39499,-2.10532,1.02393,0.222928,-3.75919,2.07366,-0.44806,0.946471,4.24008,0.274621,1.39499,-2.10532,1.02393,0.222928,-3.75919,2.07366,-0.44806
0.725,0.525,22.0707,0.688524,4.24798,0.242219,1.3567,-1.94806,0.892646,0.193971,-3.73864,1.89618,-0.719356,0.688524,4.24798,0.242219,1.3567,-1.94806,0.892646,0.193971,-3.73864,1.89618,-0.719356
0.725,0.575,21.3898,0.45575,4.25559,0.212488,1.26925,-1.64217,0.742686,0.173212,-3.72465,1.57718,-0.891642,0.45575,4.25559,0.212488,1.26925,-1.64217,0.742686,0.173212,-3.72465,1.57718,-0.891642
0.725,0.625,20.542,0.255423,4.26099,0.186521,1.14743,-1.20827,0.577686,0.162911,-3.71871,1.15876,-1.02313,0.255423,4.26099,0.186521,1.14743,-1.20827,0.577686,0.162911,-3.71871,1.15876,-1.02313
0.725,0.675,19.7851,0.0946434,4.2622,0.165391,1.00407,-0.663163,0.397645,0.163066,-3.72082,0.661293,-1.12326,0.0946434,4.2622,0.165391,1.00407,-0.663163,0.397645,0.163066,-3.72082,0.661293,-1.12326
0.725,0.725,19.3845,-0.0194901,4.25728,0.150171,0.846486,-0.0249208,0.202563,0.173679,-3.73099,0.0920235,-1.20766,-0.0194901,4.25728,0.150171,0.846486,-0.0249208,0.202563,0.173679,-3.73099,0.0920235,-1.20766
0.725,0.775,19.6048,-0.0798775,4.24423,0.141933,0.674889,0.690596,-0.00755917,0.194749,-3.74921,-0.557147,-1.29142,-0.0798775,4.24423,0.141933,0.674889,0.690596,-0.00755917,0.194749,-3.74921,-0.557147,-1.29142
0.725,0.825,20.7539,-0.0794192,4.22111,0.141749,0.48311,1.45438,-0.232722,0.226276,-3.77549,-1.30017,-1.13222,-0.0794192,4.22111,0.141749,0.48311,1.45438,-0.232722,0.226276,-3.77549,-1.30017,-1.13222
0.725,0.875,23.1995,-0.0110156,4.18593,0.150692,0.293674,1.95754,-0.472925,0.26826,-3.80982,-1.88501,-0.196032,-0.0110156,4.18593,0.150692,0.293674,1.95754,-0.472925,0.26826,-3.80982,-1.88501,-0.196032
0.725,0.925,23.7948,0.130711,4.13729,0.169477,0.172435,2.09296,-0.696197,0.308619,-3.85449,-2.13508,0.771559,0.130711,4.13729,0.169477,0.172435,2.09296,-0.696197,0.308619,-3.85449,-2.13508,0.771559
0.725,0.975,23.2251,0.332566,4.07968,0.194969,0.19523,1.85296,-0.805826,0.310808,-3.91642,-1.99153,1.69722,0.332566,4.07968,0.194969,0.19523,1.85296,-0.805826,0.310808,-3.91642,-1.99153,1.69722
0.775,0.025,19.0055,2.00102,4.16801,0.366038,2.34438,2.24016,0.568136,0.187627,-3.77384,-1.87224,-0.204874,2.00102,4.16801,0.366038,2.34438,2.24016,0.568136,0.187627,-3.77384,-1.87224,-0.204874
0.775,0.075,16.1686,2.15309,4.17416,0.389398,2.49215,2.10248,0.645079,0.209144,-3.77601,-1.60905,-0.333384,2.15309,4.17416,0.389398,2.49215,2.10248,0.645079,0.209144,-3.77601,-1.60905,-0.333384
0.775,0.125,14.1235,2.21488,4.18028,0.404645,2.54142,1.65051,0.744769,0.235067,-3.79394,-1.12073,-0.414329,2.21488,4.18028,0.404645,2.54142,1.65051,0.744769,0.235067,-3.79394,-1.12073,-0.414329
0.775,0.175,13.8684,2.1788,4.18571,0.408089,2.55346,0.911675,0.829144,0.256526,-3.81138,-0.447733,-0.440923,2.1788,4.18571,0.408089,2.55346,0.911675,0.829144,0.256526,-3.81138,-0.447733,-0.440923
0.775,0.225,14.5061,2.05955,4.19062,0.401034,2.5652,0.0354114,0.885619,0.270587,-3.82295,0.301877,-0.359697,2.05955,4.19062,0.401034,2.5652,0.0354114,0.885619,0.270587,-3.82295,0.301877,-0.359697
0.775,0.275,15.7538,1.87391,4.19525,0.385243,2.55943,-0.684305,0.914194,0.277252,-3.82865,0.914532,-0.280586,1.87391,4.19525,0.385243,2.55943,-0.684305,0.914194,0.277252,-3.82865,0.914532,-0.280586
0.775,0.325,17.3527,1.63864,4.19984,0.362481,2.51921,-1.25077,0.914868,0.27652,-3.82848,1.40465,-0.240304,1.63864,4.19984,0.362481,2.51921,-1.25077,0.914868,0.27652,-3.82848,1.40465,-0.240304
0.775,0.375,18.9981,1.37054,4.20464,0.334514,2.4233,-1.65975,0.887642,0.268391,-3.82244,1.76102,-0.244064,1.37054,4.20464,0.334514,2.4233,-1.65975,0.887642,0.268391,-3.82244,1.76102,-0.244064
0.775,0.425,20.3412,1.08635,4.20989,0.303107,2.25475,-1.89057,0.832516,0.252865,-3.81053,1.94969,-0.292184,1.08635,4.20989,0.303107,2.25475,-1.89057,0.832516,0.252865,-3.81053,1.94969,-0.292184
0.775,0.475,21.0738,0.802867,4.21584,0.270025,2.01102,-1.91588,0.74949,0.229942,-3.79275,1.93354,-0.378119,0.802867,4.21584,0.270025,2.01102,-1.91588,0.74949,0.229942,-3.79275,1.93354,-0.378119
0.775,0.525,20.9102,0.536652,4.22268,0.237021,1.70988,-1.72687,0.641065,0.201602,-3.7707,1.70614,-0.465073,0.536652,4.22268,0.237021,1.70988,-1.72687,0.641065,0.201602,-3.7707,1.70614,-0.465073
0.775,0.575,20.1353,0.299646,4.2295,0.20561,1.3887,-1.40424,0.522256,0.179718,-3.75394,1.36477,-0.51157,0.299646,4.2295,0.20561,1.3887,-1.40424,0.522256,0.179718,-3.75394,1.36477,-0.51157
0.775,0.625,19.1861,0.0991595,4.2343,0.177063,1.08176,-0.97822,0.395562,0.166272,-3.74406,0.94668,-0.534435,0.0991595,4.2343,0.177063,1.08176,-0.97822,0.395562,0.166272,-3.74406,0.94668,-0.534435
0.775,0.675,18.3287,-0.0577,4.23502,0.152642,0.813902,-0.464415,0.260986,0.161262,-3.74106,0.465256,-0.542213,-0.0577,4.23502,0.152642,0.813902,-0.464415,0.260986,0.161262,-3.74106,0.465256,-0.542213
0.775,0.725,17.8426,-0.163824,4.2296,0.133608,0.601574,0.128302,0.118526,0.164689,-3.74495,-0.0794304,-0.544995,-0.163824,4.2296,0.133608,0.601574,0.128302,0.118526,0.164689,-3.74495,-0.0794304,-0.544995
0.775,0.775,18.0204,-0.212106,4.21599,0.121222,0.456402,0.799128,-0.0318171,0.176553,-3.75572,-0.700831,-0.552178,-0.212106,4.21599,0.121222,0.456402,0.799128,-0.0318171,0.176553,-3.75572,-0.700831,-0.552178
0.775,0.825,19.194,-0.195437,4.19213,0.116747,0.389476,1.53734,-0.190044,0.196853,-3.77338,-1.41098,-0.437831,-0.195437,4.19213,0.116747,0.389476,1.53734,-0.190044,0.196853,-3.77338,-1.41098,-0.437831
0.775,0.875,21.745,-0.106708,4.15596,0.121443,0.426412,2.00643,-0.356153,0.225589,-3.79792,-1.92008,0.099052,-0.106708,4.15596,0.121443,0.426412,2.00643,-0.356153,0.225589,-3.79792,-1.92008,0.099052
0.775,0.925,23.2784,0.0592569,4.10605,0.136267,0.602379,2.04537,-0.506185,0.253254,-3.83308,-2.03873,0.656762,0.0592569,4.10605,0.136267,0.602379,2.04537,-0.506185,0.253254,-3.83308,-2.03873,0.656762
0.775,0.975,23.5357,0.286822,4.04777,0.158889,0.946972,1.64866,-0.567659,0.251086,-3.89016,-1.71775,1.1729,0.286822,4.04777,0.158889,0.946972,1.64866,-0.567659,0.251086,-3.89016,-1.71775,1.1729
0.825,0.025,18.4617,1.75036,4.15397,0.34581,3.27708,1.74626,0.757169,0.191507,-3.75121,-1.51198,-0.0593908,1.75036,4.15397,0.34581,3.27708,1.74626,0.757169,0.191507,-3.75121,-1.51198,-0.0593908
0.825,0.075,16.4316,1.90003,4.15617,0.364885,3.67597,1.84892,0.755268,0.213717,-3.75708,-1.41931,-0.509354,1.90003,4.15617,0.364885,3.67597,1.84892,0.755268,0.213717,-3.75708,-1.41931,-0.509354
0.825,0.125,14.7337,1.96179,4.15861,0.378237,3.90166,1.62573,0.755973,0.23918,-3.78501,-1.05338,-0.924048,1.96179,4.15861,0.378237,3.90166,1.62573,0.755973,0.23918,-3.78501,-1.05338,-0.924048
0.825,0.175,14.0483,1.92733,4.16058,0.382111,3.98674,1.04747,0.749064,0.260085,-3.81286,-0.442431,-1.26963,1.92733,4.16058,0.382111,3.98674,1.04747,0.749064,0.260085,-3.81286,-0.442431,-1.26963
0.825,0.225,14.2043,1.81137,4.16226,0.377323,3.96606,0.253021,0.731161,0.273849,-3.83333,0.258042,-1.14388,1.81137,4.16226,0.377323,3.96606,0.253021,0.731161,0.273849,-3.83333,0.258042,-1.14388
0.825,0.275,15.0274,1.63073,4.16392,0.36511,3.84525,-0.415946,0.702265,0.280472,-3.8464,0.811998,-0.910063,1.63073,4.16392,0.36511,3.84525,-0.415946,0.702265,0.280472,-3.8464,0.811998,-0.910063
0.825,0.325,16.2682,1.40226,4.16581,0.346711,3.62617,-0.930207,0.662375,0.279955,-3.8521,1.22804,-0.711814,1.40226,4.16581,0.346711,3.62617,-0.930207,0.662375,0.279955,-3.8521,1.22804,-0.711814
0.825,0.375,17.5873,1.14279,4.16821,0.323363,3.3053,-1.27722,0.611491,0.272297,-3.8504,1.49625,-0.543608,1.14279,4.16821,0.323363,3.3053,-1.27722,0.611491,0.272297,-3.8504,1.49625,-0.543608
0.825,0.425,18.6071,0.869156,4.17138,0.296304,2.88901,-1.44512,0.549613,0.257498,-3.84132,1.59709,-0.400242,0.869156,4.17138,0.296304,2.88901,-1.44512,0.549613,0.257498,-3.84132,1.59709,-0.400242
0.825,0.475,19.0259,0.598206,4.17557,0.266771,2.40254,-1.42472,0.476742,0.235558,-3.82485,1.515,-0.277359,0.598206,4.17557,0.266771,2.40254,-1.42472,0.476742,0.235558,-3.82485,1.515,-0.277359
0.825,0.525,18.7066,0.346556,4.18101,0.236007,1.8892,-1.22523,0.394121,0.208168,-3.80261,1.26459,-0.203796,0.346556,4.18101,0.236007,1.8892,-1.22523,0.394121,0.208168,-3.80261,1.26459,-0.203796
0.825,0.575,17.9924,0.125862,4.1868,0.205333,1.40075,-0.936335,0.309217,0.185466,-3.7843,0.945989,-0.158163,0.125862,4.1868,0.205333,1.40075,-0.936335,0.309217,0.185466,-3.7843,0.945989,-0.158163
0.825,0.625,17.187,-0.0571846,4.19095,0.176149,0.97522,-0.582505,0.223275,0.169142,-3.77153,0.583523,-0.102648,-0.0571846,4.19095,0.176149,0.97522,-0.582505,0.223275,0.169142,-3.77153,0.583523,-0.102648
0.825,0.675,16.5064,-0.196111,4.19143,0.149861,0.640547,-0.169872,0.136293,0.159197,-3.76432,0.1812,-0.0401139,-0.196111,4.19143,0.149861,0.640547,-0.169872,0.136293,0.159197,-3.76432,0.1812,-0.0401139
0.825,0.725,16.1799,-0.284442,4.18617,0.127874,0.419939,0.30087,0.048273,0.155631,-3.76264,-0.265816,0.0266743,-0.284442,4.18617,0.127874,0.419939,0.30087,0.048273,0.155631,-3.76264,-0.265816,0.0266743
0.825,0.775,16.4551,-0.315705,4.17315,0.111592,0.337671,0.834026,-0.040786,0.158443,-3.76652,-0.770425,0.0946582,-0.315705,4.17315,0.111592,0.337671,0.834026,-0.040786,0.158443,-3.76652,-0.770425,0.0946582
0.825,0.825,17.6165,-0.283424,4.15033,0.102421,0.424192,1.42297,-0.130884,0.167634,-3.77594,-1.338,0.17271,-0.283424,4.15033,0.102421,0.424192,1.42297,-0.130884,0.167634,-3.77594,-1.338,0.17271
0.825,0.875,20.0032,-0.181126,4.11565,0.101765,0.706124,1.74774,-0.22202,0.183203,-3.79091,-1.67989,0.291698,-0.181126,4.11565,0.101765,0.706124,1.74774,-0.22202,0.183203,-3.79091,-1.67989,0.291698
0.825,0.925,22.0609,-0.00435065,4.06777,0.110798,1.16835,1.65003,-0.298883,0.198526,-3.81634,-1.62231,0.408401,-0.00435065,4.06777,0.110798,1.16835,1.65003,-0.298883,0.198526,-3.81634,-1.62231,0.408401
0.825,0.975,22.7554,0.229632,4.01278,0.128191,1.77234,1.13853,-0.315156,0.193565,-3.8671,-1.13195,0.513508,0.229632,4.01278,0.128191,1.77234,1.13853,-0.315156,0.193565,-3.8671,-1.13195,0.513508
0.875,0.025,20.1204,1.31547,4.13303,0.311828,2.30003,0.990725,0.937246,0.190332,-3.73494,-0.979946,0.217519,1.31547,4.13303,0.311828,2.30003,0.990725,0.937246,0.190332,-3.73494,-0.979946,0.217519
0.875,0.075,19.9932,1.45584,4.12944,0.325175,2.82918,1.17218,0.8626,0.213607,-3.74175,-1.00929,-0.484922,1.45584,4.12944,0.325175,2.82918,1.17218,0.8626,0.213607,-3.74175,-1.00929,-0.484922
0.875,0.125,19.4453,1.51748,4.12656,0.336217,3.25767,1.12159,0.769774,0.238966,-3.77665,-0.796687,-1.21242,1.51748,4.12656,0.336217,3.25767,1.12159,0.769774,0.238966,-3.77665,-0.796687,-1.21242
0.875,0.175,18.225,1.49156,4.12369,0.341207,3.5241,0.774209,0.676467,0.259672,-3.81231,-0.341725,-1.90916,1.49156,4.12369,0.341207,3.5241,0.774209,0.676467,0.259672,-3.81231,-0.341725,-1.90916
0.875,0.225,17.2403,1.39171,4.12101,0.34029,3.59009,0.204911,0.58853,0.273496,-3.8397,0.202557,-1.79476,1.39171,4.12101,0.34029,3.59009,0.204911,0.58853,0.273496,-3.8397,0.202557,-1.79476
0.875,0.275,16.6191,1.23362,4.11877,0.333974,3.4692,-0.286955,0.505963,0.280441,-3.8588,0.623315,-1.42911,1.23362,4.11877,0.333974,3.4692,-0.286955,0.505963,0.280441,-3.8588,0.623315,-1.42911
0.875,0.325,16.4026,1.03296,4.11723,0.322766,3.19956,-0.654793,0.428767,0.280505,-3.86963,0.921936,-1.07981,1.03296,4.11723,0.322766,3.19956,-0.654793,0.428767,0.280505,-3.86963,0.921936,-1.07981
0.875,0.375,16.4656,0.805425,4.11663,0.307173,2.81507,-0.884143,0.35694,0.273688,-3.87218,1.09048,-0.751011,0.805425,4.11663,0.307173,2.81507,-0.884143,0.35694,0.273688,-3.87218,1.09048,-0.751011
0.875,0.425,16.5421,0.566705,4.11722,0.287703,2.35424,-0.972229,0.290483,0.259991,-3.86646,1.12132,-0.442976,0.566705,4.11722,0.287703,2.35424,-0.972229,0.290483,0.259991,-3.86646,1.12132,-0.442976
0.875,0.475,16.3659,0.332486,4.11927,0.264861,1.86313,-0.920258,0.229397,0.239413,-3.85246,1.01205,-0.153856,0.332486,4.11927,0.264861,1.86313,-0.920258,0.229397,0.239413,-3.85246,1.01205,-0.153856
0.875,0.525,15.8721,0.118236,4.12297,0.239178,1.3928,-0.741424,0.173615,0.213363,-3.83173,0.786225,0.0309992,0.118236,4.12297,0.239178,1.3928,-0.741424,0.173615,0.213363,-3.83173,0.786225,0.0309992
0.875,0.575,15.3349,-0.0656011,4.12749,0.211656,0.988222,-0.515255,0.12275,0.190291,-3.81354,0.531928,0.12646,-0.0656011,4.12749,0.211656,0.988222,-0.515255,0.12275,0.190291,-3.81354,0.531928,0.12646
0.875,0.625,14.883,-0.213609,4.13095,0.183779,0.676343,-0.2573,0.0767355,0.171606,-3.79944,0.26116,0.227291,-0.213609,4.13095,0.183779,0.676343,-0.2573,0.0767355,0.171606,-3.79944,0.26116,0.227291
0.875,0.675,14.6288,-0.320589,4.13142,0.15705,0.479939,0.0315958,0.0355719,0.157308,-3.78942,-0.0259784,0.33402,-0.320589,4.13142,0.15705,0.479939,0.0315958,0.0355719,0.157308,-3.78942,-0.0259784,0.33402
0.875,0.725,14.6842,-0.381344,4.12699,0.13297,0.422783,0.351824,-0.000740659,0.147396,-3.7835,-0.333285,0.446938,-0.381344,4.12699,0.13297,0.422783,0.351824,-0.000740659,0.147396,-3.7835,-0.333285,0.446938
0.875,0.775,15.1725,-0.390674,4.11573,0.113043,0.533574,0.704602,-0.0322023,0.141871,-3.78167,-0.667882,0.565377,-0.390674,4.11573,0.113043,0.533574,0.704602,-0.0322023,0.141871,-3.78167,-0.667882,0.565377
0.875,0.825,16.2529,-0.343382,4.09571,0.0987724,0.848886,1.08131,-0.0588129,0.140732,-3.78392,-1.02726,0.597341,-0.343382,4.09571,0.0987724,0.848886,1.08131,-0.0588129,0.140732,-3.78392,-1.02726,0.597341
0.875,0.875,18.1515,-0.234268,4.06501,0.0916598,1.37305,1.24328,-0.0805726,0.14398,-3.79027,-1.1853,0.345318,-0.234268,4.06501,0.0916598,1.37305,1.24328,-0.0805726,0.14398,-3.79027,-1.1853,0.345318
0.875,0.925,20.1254,-0.0601114,4.02244,0.0930701,2.00472,1.08631,-0.0909191,0.148104,-3.80643,-1.0257,0.0816711,-0.0601114,4.02244,0.0930701,2.00472,1.08631,-0.0909191,0.148104,-3.80643,-1.0257,0.0816711
0.875,0.975,20.6886,0.160997,3.97472,0.102875,2.60676,0.62042,-0.0700028,0.142484,-3.84975,-0.529239,-0.162165,0.160997,3.97472,0.102875,2.60676,0.62042,-0.0700028,0.142484,-3.84975,-0.529239,-0.162165
0.925,0.025,21.3867,0.763484,4.11094,0.270377,1.238,0.377712,1.09839,0.182539,-3.72675,-0.432432,0.455917,0.763484,4.11094,0.270377,1.238,0.377712,1.09839,0.182539,-3.72675,-0.432432,0.455917
0.925,0.075,23.3499,0.886938,4.10105,0.276882,1.80117,0.510344,0.963099,0.207324,-3.73099,-0.471082,-0.4,0.886938,4.10105,0.276882,1.80117,0.510344,0.963099,0.207324,-3.73099,-0.471082,-0.4
0.925,0.125,24.1319,0.946364,4.09223,0.284938,2.34544,0.523853,0.78914,0.233128,-3.76884,-0.366027,-1.32929,0.946364,4.09223,0.284938,2.34544,0.523853,0.78914,0.233128,-3.76884,-0.366027,-1.32929
0.925,0.175,22.4931,0.932828,4.08394,0.291053,2.74666,0.37581,0.620612,0.254195,-3.80876,-0.109064,-2.28866,0.932828,4.08394,0.291053,2.74666,0.37581,0.620612,0.254195,-3.80876,-0.109064,-2.28866
0.925,0.225,20.6178,0.857897,4.07636,0.294625,2.89746,0.0862082,0.472093,0.268623,-3.84032,0.194214,-2.21168,0.857897,4.07636,0.294625,2.89746,0.0862082,0.472093,0.268623,-3.84032,0.194214,-2.21168
0.925,0.275,18.7745,0.735039,4.06974,0.295325,2.80636,-0.172869,0.343584,0.276412,-3.86352,0.424316,-1.76291,0.735039,4.06974,0.295325,2.80636,-0.172869,0.343584,0.276412,-3.86352,0.424316,-1.76291
0.925,0.325,17.2127,0.57772,4.06432,0.292821,2.5356,-0.36755,0.235083,0.277561,-3.87837,0.581114,-1.30841,0.57772,4.06432,0.292821,2.5356,-0.36755,0.235083,0.277561,-3.87837,0.581114,-1.30841
0.925,0.375,16.032,0.399407,4.06034,0.286781,2.14498,-0.48592,0.146592,0.272071,-3.88486,0.656262,-0.867992,0.399407,4.06034,0.286781,2.14498,-0.48592,0.146592,0.272071,-3.88486,0.656262,-0.867992
0.925,0.425,15.1507,0.213568,4.05804,0.276876,1.6937,-0.524452,0.0781105,0.259942,-3.883,0.645222,-0.448434,0.213568,4.05804,0.276876,1.6937,-0.524452,0.0781105,0.259942,-3.883,0.645222,-0.448434
0.925,0.475,14.3921,0.0336694,4.05767,0.262773,1.24044,-0.48111,0.0296379,0.241173,-3.87278,0.547875,-0.0475878,0.0336694,4.05767,0.262773,1.24044,-0.48111,0.0296379,0.241173,-3.87278,0.547875,-0.0475878
0.925,0.525,13.7719,-0.12703,4.05943,0.24418,0.842198,-0.362158,-0.000178457,0.216916,-3.85557,0.38662,0.204516,-0.12703,4.05943,0.24418,0.842198,-0.362158,-0.000178457,0.216916,-3.85557,0.38662,0.204516
0.925,0.575,13.4397,-0.260067,4.06261,0.221699,0.539863,-0.225221,-0.0194574,0.194078,-3.83956,0.226558,0.31965,-0.260067,4.06261,0.221699,0.539863,-0.225221,-0.0194574,0.194078,-3.83956,0.226558,0.31965
0.925,0.625,13.3053,-0.361777,4.06556,0.196825,0.354135,-0.0807754,-0.0295519,0.17381,-3.8261,0.0712423,0.439235,-0.361777,4.06556,0.196825,0.354135,-0.0807754,-0.0295519,0.17381,-3.8261,0.0712423,0.439235
0.925,0.675,13.3527,-0.428703,4.0666,0.171092,0.304491,0.069837,-0.030462,0.156113,-3.81521,-0.0789204,0.563893,-0.428703,4.0666,0.171092,0.304491,0.069837,-0.030462,0.156113,-3.81521,-0.0789204,0.563893
0.925,0.725,13.5671,-0.457386,4.06407,0.146035,0.41206,0.224257,-0.0221878,0.140985,-3.80688,-0.224566,0.693657,-0.457386,4.06407,0.146035,0.41206,0.224257,-0.0221878,0.140985,-3.80688,-0.224566,0.693657
0.925,0.775,13.9568,-0.444371,4.05628,0.123188,0.700976,0.379199,-0.0047292,0.128428,-3.80111,-0.367231,0.827704,-0.444371,4.05628,0.123188,0.700976,0.379199,-0.0047292,0.128428,-3.80111,-0.367231,0.827704
0.925,0.825,14.5743,-0.3862,4.04155,0.104084,1.19904,0.526117,0.0219138,0.118442,-3.7979,-0.500689,0.810785,-0.3862,4.04155,0.104084,1.19904,0.526117,0.0219138,0.118442,-3.7979,-0.500689,0.810785
0.925,0.875,15.5377,-0.279415,4.01821,0.0902592,1.87955,0.558265,0.0577411,0.111025,-3.79725,-0.514269,0.319897,-0.279415,4.01821,0.0902592,1.87955,0.558265,0.0577411,0.111025,-3.79725,-0.514269,0.319897
0.925,0.925,16.809,-0.122357,3.9853,0.0832218,2.58264,0.446063,0.101018,0.1059,-3.80525,-0.370977,-0.175444,-0.122357,3.9853,0.0832218,2.58264,0.446063,0.101018,0.1059,-3.80525,-0.370977,-0.175444
0.925,0.975,16.9222,0.0672357,3.94972,0.0842159,3.12278,0.195374,0.146494,0.102223,-3.84035,-0.0572561,-0.642323,0.0672357,3.94972,0.0842159,3.12278,0.195374,0.146494,0.102223,-3.84035,-0.0572561,-0.642323
0.975,0.025,19.5967,0.297454,4.10517,0.240465,0.159469,-0.117824,1.23061,0.170319,-3.72663,0.0916616,0.568773,0.297454,4.10517,0.240465,0.159469,-0.117824,1.23061,0.170319,-3.72663,0.0916616,0.568773
0.975,0.075,22.8594,0.394231,4.09247,0.240014,0.739704,-0.0934203,1.04937,0.196221,-3.72578,0.125996,-0.349597,0.394231,4.09247,0.240014,0.739704,-0.0934203,1.04937,0.196221,-3.72578,0.125996,-0.349597
0.975,0.125,24.7076,0.443353,4.08014,0.243608,1.35168,-0.0772843,0.8107,0.222573,-3.76273,0.172535,-1.34815,0.443353,4.08014,0.243608,1.35168,-0.0772843,0.8107,0.222573,-3.76273,0.172535,-1.34815
0.975,0.175,23.075,0.436689,4.06822,0.24881,1.83967,-0.0644457,0.581891,0.244258,-3.8033,0.223461,-2.40796,0.436689,4.06822,0.24881,1.83967,-0.0644457,0.581891,0.244258,-3.8033,0.223461,-2.40796
0.975,0.225,20.9348,0.383265,4.057,0.254509,2.05829,-0.0660631,0.385183,0.259583,-3.83619,0.241131,-2.35725,0.383265,4.057,0.254509,2.05829,-0.0660631,0.385183,0.259583,-3.83619,0.241131,-2.35725
0.975,0.275,18.6573,0.293699,4.04683,0.259717,2.01163,-0.0774907,0.220575,0.26855,-3.86139,0.250013,-1.88572,0.293699,4.04683,0.259717,2.01163,-0.0774907,0.220575,0.26855,-3.86139,0.250013,-1.88572
0.975,0.325,16.6125,0.178606,4.03803,0.263448,1.77244,-0.0953162,0.0880695,0.271156,-3.87892,0.253026,-1.39631,0.178606,4.03803,0.263448,1.77244,-0.0953162,0.0880695,0.271156,-3.87892,0.253026,-1.39631
0.975,0.375,15.0149,0.048603,4.03095,0.264714,1.41174,-0.112969,-0.0123353,0.267404,-3.88877,0.240052,-0.913828,0.048603,4.03095,0.264714,1.41174,-0.112969,-0.0123353,0.267404,-3.88877,0.240052,-0.913828
0.975,0.425,13.8743,-0.085693,4.02591,0.262527,0.998882,-0.121745,-0.080639,0.257293,-3.89094,0.205129,-0.446641,-0.085693,4.02591,0.262527,0.998882,-0.121745,-0.080639,0.257293,-3.89094,0.205129,-0.446641
0.975,0.475,13.0531,-0.213665,4.02326,0.255901,0.601615,-0.112304,-0.116841,0.240822,-3.88543,0.146335,0.00787711,-0.213665,4.02326,0.255901,0.601615,-0.112304,-0.116841,0.240822,-3.88543,0.146335,0.00787711
0.975,0.525,12.6352,-0.324882,4.02329,0.243898,0.285011,-0.0817691,-0.123481,0.218924,-3.87333,0.0798589,0.288232,-0.324882,4.02329,0.243898,0.285011,-0.0817691,-0.123481,0.218924,-3.87333,0.0798589,0.288232
0.975,0.575,12.628,-0.413141,4.02557,0.226743,0.0898342,-0.0575644,-0.115785,0.197194,-3.86121,0.0386931,0.401164,-0.413141,4.02557,0.226743,0.0898342,-0.0575644,-0.115785,0.197194,-3.86121,0.0386931,0.401164
0.975,0.625,12.7296,-0.476473,4.02889,0.20582,0.0331758,-0.0459817,-0.0962925,0.176563,-3.85015,0.0196973,0.517103,-0.476473,4.02889,0.20582,0.0331758,-0.0459817,-0.0962925,0.176563,-3.85015,0.0196973,0.517103
0.975,0.675,12.8537,-0.513092,4.03202,0.182566,0.129723,-0.0492717,-0.0650029,0.157032,-3.84015,0.0231175,0.635596,-0.513092,4.03202,0.182566,0.129723,-0.0492717,-0.0650029,0.157032,-3.84015,0.0231175,0.635596
0.975,0.725,12.9394,-0.521213,4.03374,0.158415,0.391702,-0.070409,-0.0219163,0.1386,-3.83122,0.0483232,0.755655,-0.521213,4.03374,0.158415,0.391702,-0.070409,-0.0219163,0.1386,-3.83122,0.0483232,0.755655
0.975,0.775,12.959,-0.499051,4.03282,0.134804,0.827573,-0.112991,0.0329672,0.121268,-3.82335,0.0936557,0.875692,-0.499051,4.03282,0.134804,0.827573,-0.112991,0.0329672,0.121268,-3.82335,0.0936557,0.875692
0.975,0.825,12.9251,-0.444819,4.02802,0.113168,1.44015,-0.179294,0.0996477,0.105036,-3.81655,0.159603,0.828048,-0.444819,4.02802,0.113168,1.44015,-0.179294,0.0996477,0.105036,-3.81655,0.159603,0.828048
0.975,0.875,12.9009,-0.356732,4.01813,0.0949424,2.16374,-0.223931,0.178125,0.0899034,-3.81081,0.217243,0.283079,-0.356732,4.01813,0.0949424,2.16374,-0.223931,0.178125,0.0899034,-3.81081,0.217243,0.283079
0.975,0.925,13.3155,-0.234437,4.00248,0.0816717,2.81867,-0.214959,0.259547,0.07848,-3.81206,0.244257,-0.252259,-0.234437,4.00248,0.0816717,2.81867,-0.214959,0.259547,0.07848,-3.81206,0.244257,-0.252259
0.975,0.975,13.2392,-0.0930286,3.98657,0.0760696,3.23884,-0.155083,0.317137,0.0786591,-3.83818,0.269061,-0.769691,-0.0930286,3.98657,0.0760696,3.23884,-0.155083,0.317137,0.0786591,-3.83818,0.269061,-0.769691
