U, V, weight, dx_u, dy_u, dz_u, dpsi_u, dtheta_u, dx_v, dy_v, dz_v, dpsi_v, dtheta_v, dqeu_x, dqeu_y, dqeu_z, dqeu_psi, dqeu_theta,dqev_x, dqev_y, dqev_z, dqev_psi, dqev_theta
0.025,0.025,83.2652,-0.123742,-12.1552,6.89044,0.115645,0.638251,0.647625,2.00488,3.53252,-2.54434,-4.27414,-0.123742,-12.1552,6.89044,0.115645,0.638251,0.647625,2.00488,3.53252,-2.54434,-4.27414
0.025,0.075,70.2963,-0.106848,-12.1023,6.96695,0.145981,0.570169,1.09917,1.8951,3.32235,-2.60998,-4.51453,-0.106848,-12.1023,6.96695,0.145981,0.570169,1.09917,1.8951,3.32235,-2.60998,-4.51453
0.025,0.125,61.1246,-0.0896789,-12.0637,7.02103,0.18097,0.477413,1.37291,1.81686,3.18546,-2.23416,-3.64283,-0.0896789,-12.0637,7.02103,0.18097,0.477413,1.37291,1.81686,3.18546,-2.23416,-3.64283
0.025,0.175,59.0054,-0.0766973,-12.0472,7.04429,0.156989,0.31928,1.57839,1.75557,3.08153,-1.35847,-2.0088,-0.0766973,-12.0472,7.04429,0.156989,0.31928,1.57839,1.75557,3.08153,-1.35847,-2.0088
0.025,0.225,57.1243,-0.066783,-12.0492,7.04166,0.0731144,0.120444,1.75182,1.70641,2.99724,-0.920451,-1.32635,-0.066783,-12.0492,7.04166,0.0731144,0.120444,1.75182,1.70641,2.99724,-0.920451,-1.32635
0.025,0.275,55.6162,-0.0582979,-12.0651,7.01929,-0.0262913,-0.0550672,1.8932,1.66938,2.93259,-0.696588,-1.03798,-0.0582979,-12.0651,7.01929,-0.0262913,-0.0550672,1.8932,1.66938,2.93259,-0.696588,-1.03798
0.025,0.325,54.5759,-0.049604,-12.0904,6.98334,-0.117455,-0.189703,2.00254,1.64448,2.88757,-0.473832,-0.772142,-0.049604,-12.0904,6.98334,-0.117455,-0.189703,2.00254,1.64448,2.88757,-0.473832,-0.772142
0.025,0.375,54.0549,-0.0390636,-12.1206,6.93999,-0.184469,-0.276238,2.07983,1.63171,2.86219,-0.260986,-0.520797,-0.0390636,-12.1206,6.93999,-0.184469,-0.276238,2.07983,1.63171,2.86219,-0.260986,-0.520797
0.025,0.425,54.0665,-0.0250387,-12.1509,6.89537,-0.217797,-0.312348,2.12508,1.63107,2.85644,-0.062992,-0.274306,-0.0250387,-12.1509,6.89537,-0.217797,-0.312348,2.12508,1.63107,2.85644,-0.062992,-0.274306
0.025,0.475,54.5959,-0.00589125,-12.1768,6.85567,-0.212933,-0.298275,2.13828,1.64256,2.87033,0.11819,-0.0232874,-0.00589125,-12.1768,6.85567,-0.212933,-0.298275,2.13828,1.64256,2.87033,0.11819,-0.0232874
0.025,0.525,55.4132,0.0199644,-12.194,6.82683,-0.176461,-0.245956,2.12121,1.66416,2.90124,0.252109,0.192053,0.0199644,-12.194,6.82683,-0.176461,-0.245956,2.12121,1.66416,2.90124,0.252109,0.192053
0.025,0.575,56.0483,0.0529137,-12.2015,6.81018,-0.15467,-0.21709,2.08454,1.68382,2.93348,0.35807,0.361545,0.0529137,-12.2015,6.81018,-0.15467,-0.21709,2.08454,1.68382,2.93348,0.35807,0.361545
0.025,0.625,56.5558,0.0921423,-12.2019,6.80238,-0.155946,-0.221349,2.03007,1.69951,2.96444,0.47184,0.530025,0.0921423,-12.2019,6.80238,-0.155946,-0.221349,2.03007,1.69951,2.96444,0.47184,0.530025
0.025,0.675,56.9471,0.136783,-12.1981,6.79992,-0.179275,-0.257178,1.95778,1.71125,2.99411,0.590938,0.698459,0.136783,-12.1981,6.79992,-0.179275,-0.257178,1.95778,1.71125,2.99411,0.590938,0.698459
0.025,0.725,57.2371,0.18597,-12.1929,6.79928,-0.221735,-0.321209,1.86769,1.71902,3.0225,0.711671,0.867132,0.18597,-12.1929,6.79928,-0.221735,-0.321209,1.86769,1.71902,3.0225,0.711671,0.867132
0.025,0.775,57.4442,0.238836,-12.189,6.79692,-0.278663,-0.407393,1.75977,1.72283,3.0496,0.829099,1.03511,0.238836,-12.189,6.79692,-0.278663,-0.407393,1.75977,1.72283,3.0496,0.829099,1.03511
0.025,0.825,57.5901,0.294514,-12.1892,6.78932,-0.340333,-0.501069,1.63405,1.72268,3.07542,1.13949,1.53462,0.294514,-12.1892,6.78932,-0.340333,-0.501069,1.63405,1.72268,3.07542,1.13949,1.53462
0.025,0.875,57.6991,0.352138,-12.1964,6.77296,-0.320921,-0.490628,1.49051,1.71856,3.09995,1.81557,2.82372,0.352138,-12.1964,6.77296,-0.320921,-0.490628,1.49051,1.71856,3.09995,1.81557,2.82372
0.025,0.925,63.2092,0.411294,-12.213,6.74455,-0.224247,-0.39927,1.30368,1.73932,3.15629,2.04421,3.44872,0.411294,-12.213,6.74455,-0.224247,-0.39927,1.30368,1.73932,3.15629,2.04421,3.44872
0.025,0.975,72.364,0.476477,-12.2385,6.7035,-0.121447,-0.341224,0.9965,1.87214,3.3445,1.93856,3.29185,0.476477,-12.2385,6.7035,-0.121447,-0.341224,0.9965,1.87214,3.3445,1.93856,3.29185
0.075,0.025,83.0633,-0.146635,-12.1067,6.91487,0.00612956,0.317138,0.667689,2.053,3.6097,-2.57426,-4.38116,-0.146635,-12.1067,6.91487,0.00612956,0.317138,0.667689,2.053,3.6097,-2.57426,-4.38116
0.075,0.075,70.2388,-0.121159,-12.068,6.98257,-0.00547086,0.228367,1.12126,1.93576,3.38737,-2.5731,-4.56873,-0.121159,-12.068,6.98257,-0.00547086,0.228367,1.12126,1.93576,3.38737,-2.5731,-4.56873
0.075,0.125,61.3178,-0.0993579,-12.042,7.03124,0.0361487,0.20764,1.38963,1.83841,3.22201,-2.205,-3.70926,-0.0993579,-12.042,7.03124,0.0361487,0.20764,1.38963,1.83841,3.22201,-2.205,-3.70926
0.075,0.175,59.2252,-0.0853302,-12.0341,7.05171,0.0522152,0.155979,1.58949,1.75827,3.09002,-1.39658,-2.14757,-0.0853302,-12.0341,7.05171,0.0522152,0.155979,1.58949,1.75827,3.09002,-1.39658,-2.14757
0.075,0.225,57.2584,-0.0771354,-12.0411,7.04832,0.00687991,0.0403436,1.75939,1.69446,2.98361,-1.00057,-1.48326,-0.0771354,-12.0411,7.04832,0.00687991,0.0403436,1.75939,1.69446,2.98361,-1.00057,-1.48326
0.075,0.275,55.5979,-0.0722732,-12.0592,7.02671,-0.0678127,-0.0816815,1.89933,1.64699,2.90279,-0.785855,-1.1734,-0.0722732,-12.0592,7.02671,-0.0678127,-0.0816815,1.89933,1.64699,2.90279,-0.785855,-1.1734
0.075,0.325,54.4028,-0.0682433,-12.0847,6.99248,-0.14645,-0.18395,2.00933,1.61584,2.84755,-0.550916,-0.870729,-0.0682433,-12.0847,6.99248,-0.14645,-0.18395,2.00933,1.61584,2.84755,-0.550916,-0.870729
0.075,0.375,53.7839,-0.0625453,-12.1139,6.95125,-0.209275,-0.252209,2.08937,1.60104,2.81789,-0.311231,-0.575367,-0.0625453,-12.1139,6.95125,-0.209275,-0.252209,2.08937,1.60104,2.81789,-0.311231,-0.575367
0.075,0.425,53.7925,-0.0526791,-12.1428,6.90864,-0.243147,-0.280248,2.13945,1.60256,2.81381,-0.0781613,-0.282852,-0.0526791,-12.1428,6.90864,-0.243147,-0.280248,2.13945,1.60256,2.81381,-0.0781613,-0.282852
0.075,0.475,54.4227,-0.0361443,-12.1677,6.87027,-0.24167,-0.267602,2.15959,1.62042,2.83531,0.140908,0.0127208,-0.0361443,-12.1677,6.87027,-0.24167,-0.267602,2.15959,1.62042,2.83531,0.140908,0.0127208
0.075,0.525,55.3863,-0.0105235,-12.1849,6.84158,-0.210519,-0.226292,2.15114,1.65176,2.87861,0.284109,0.2326,-0.0105235,-12.1849,6.84158,-0.210519,-0.226292,2.15114,1.65176,2.87861,0.284109,0.2326
0.075,0.575,56.1194,0.0246949,-12.1937,6.82375,-0.18899,-0.207539,2.12233,1.67945,2.92101,0.370189,0.370116,0.0246949,-12.1937,6.82375,-0.18899,-0.207539,2.12233,1.67945,2.92101,0.370189,0.370116
0.075,0.625,56.6902,0.0681167,-12.1963,6.81375,-0.184363,-0.21814,2.07452,1.70064,2.95871,0.463861,0.507994,0.0681167,-12.1963,6.81375,-0.184363,-0.21814,2.07452,1.70064,2.95871,0.463861,0.507994
0.075,0.675,57.1109,0.118265,-12.1948,6.80836,-0.196437,-0.255568,2.00772,1.71532,2.99173,0.564286,0.648593,0.118265,-12.1948,6.80836,-0.196437,-0.255568,2.00772,1.71532,2.99173,0.564286,0.648593
0.075,0.725,57.3978,0.173662,-12.1915,6.80436,-0.223598,-0.315775,1.92192,1.7235,3.02006,0.669449,0.794229,0.173662,-12.1915,6.80436,-0.223598,-0.315775,1.92192,1.7235,3.02006,0.669449,0.794229
0.075,0.775,57.5717,0.232831,-12.1887,6.79853,-0.262688,-0.392566,1.81714,1.72518,3.0437,0.776018,0.946809,0.232831,-12.1887,6.79853,-0.262688,-0.392566,1.81714,1.72518,3.0437,0.776018,0.946809
0.075,0.825,57.659,0.294295,-12.1887,6.78764,-0.307514,-0.475397,1.69335,1.72036,3.06265,1.10231,1.46744,0.294295,-12.1887,6.78764,-0.307514,-0.475397,1.69335,1.72036,3.06265,1.10231,1.46744
0.075,0.875,57.6923,0.356577,-12.1937,6.76848,-0.314916,-0.522099,1.55058,1.70904,3.07691,1.85986,2.84544,0.356577,-12.1937,6.76848,-0.314916,-0.522099,1.55058,1.70904,3.07691,1.85986,2.84544
0.075,0.925,62.8371,0.418824,-12.206,6.73795,-0.273842,-0.529404,1.36572,1.7205,3.12042,2.12559,3.49236,0.418824,-12.206,6.73795,-0.273842,-0.529404,1.36572,1.7205,3.12042,2.12559,3.49236
0.075,0.975,71.701,0.486927,-12.2285,6.69446,-0.219212,-0.537177,1.06893,1.84336,3.2958,2.00553,3.28754,0.486927,-12.2285,6.69446,-0.219212,-0.537177,1.06893,1.84336,3.2958,2.00553,3.28754
0.125,0.025,82.7932,-0.169756,-12.0941,6.94042,-0.0489877,0.117916,0.6946,2.08916,3.67406,-2.65577,-4.54163,-0.169756,-12.0941,6.94042,-0.0489877,0.117916,0.6946,2.08916,3.67406,-2.65577,-4.54163
0.125,0.075,69.9979,-0.141944,-12.0655,6.99429,-0.0918107,0.0191086,1.14718,1.96478,3.44253,-2.55587,-4.60138,-0.141944,-12.0655,6.99429,-0.0918107,0.0191086,1.14718,1.96478,3.44253,-2.55587,-4.60138
0.125,0.125,61.2953,-0.119865,-12.047,7.03288,-0.0570673,0.035613,1.40728,1.85215,3.25283,-2.15833,-3.69847,-0.119865,-12.047,7.03288,-0.0570673,0.035613,1.40728,1.85215,3.25283,-2.15833,-3.69847
0.125,0.175,59.297,-0.107384,-12.0421,7.0487,-0.0214214,0.047919,1.59915,1.75721,3.09657,-1.3982,-2.20234,-0.107384,-12.0421,7.0487,-0.0214214,0.047919,1.59915,1.75721,3.09657,-1.3982,-2.20234
0.125,0.225,57.3292,-0.102015,-12.0486,7.04518,-0.0376581,-0.00454746,1.76387,1.68191,2.97094,-1.05175,-1.57996,-0.102015,-12.0486,7.04518,-0.0376581,-0.00454746,1.76387,1.68191,2.97094,-1.05175,-1.57996
0.125,0.275,55.5909,-0.100683,-12.0635,7.02676,-0.0909033,-0.0823147,1.90145,1.62624,2.87597,-0.858149,-1.27079,-0.100683,-12.0635,7.02676,-0.0909033,-0.0823147,1.90145,1.62624,2.87597,-0.858149,-1.27079
0.125,0.325,54.2884,-0.100312,-12.0843,6.99785,-0.158873,-0.157483,2.01189,1.59022,2.81163,-0.621571,-0.947431,-0.100312,-12.0843,6.99785,-0.158873,-0.157483,2.01189,1.59022,2.81163,-0.621571,-0.947431
0.125,0.375,53.5875,-0.0978268,-12.108,6.96289,-0.220694,-0.212227,2.09518,1.57384,2.77795,-0.362337,-0.619807,-0.0978268,-12.108,6.96289,-0.220694,-0.212227,2.09518,1.57384,2.77795,-0.362337,-0.619807
0.125,0.425,53.5803,-0.0901531,-12.1318,6.9263,-0.260569,-0.238209,2.15133,1.57711,2.7749,-0.0986429,-0.291379,-0.0901531,-12.1318,6.9263,-0.260569,-0.238209,2.15133,1.57711,2.7749,-0.0986429,-0.291379
0.125,0.475,54.274,-0.0742152,-12.153,6.89252,-0.269912,-0.235111,2.18034,1.60001,2.80251,0.154969,0.0375695,-0.0742152,-12.153,6.89252,-0.269912,-0.235111,2.18034,1.60001,2.80251,0.154969,0.0375695
0.125,0.525,55.3514,-0.0470432,-12.1688,6.86582,-0.252102,-0.214597,2.18301,1.63904,2.85597,0.309157,0.256885,-0.0470432,-12.1688,6.86582,-0.252102,-0.214597,2.18301,1.63904,2.85597,0.309157,0.256885
0.125,0.575,56.1758,-0.00808572,-12.1786,6.84714,-0.237015,-0.214407,2.16414,1.67315,2.90662,0.382647,0.366563,-0.00808572,-12.1786,6.84714,-0.237015,-0.214407,2.16414,1.67315,2.90662,0.382647,0.366563
0.125,0.625,56.8102,0.0407895,-12.184,6.83406,-0.230785,-0.237874,2.12455,1.69881,2.94965,0.462961,0.479074,0.0407895,-12.184,6.83406,-0.230785,-0.237874,2.12455,1.69881,2.94965,0.462961,0.479074
0.125,0.675,57.267,0.0976097,-12.1865,6.82402,-0.234166,-0.281604,2.06423,1.71603,2.98509,0.550338,0.597874,0.0976097,-12.1865,6.82402,-0.234166,-0.281604,2.06423,1.71603,2.98509,0.550338,0.597874
0.125,0.725,57.5628,0.160402,-12.1878,6.81445,-0.246916,-0.341121,1.98318,1.7248,3.01292,0.644071,0.726817,0.160402,-12.1878,6.81445,-0.246916,-0.341121,1.98318,1.7248,3.01292,0.644071,0.726817
0.125,0.775,57.7204,0.227194,-12.1895,6.80279,-0.267486,-0.410377,1.8814,1.72514,3.03315,0.742351,0.870016,0.227194,-12.1895,6.80279,-0.267486,-0.410377,1.8814,1.72514,3.03315,0.742351,0.870016
0.125,0.825,57.7697,0.296012,-12.193,6.78646,-0.293002,-0.482261,1.75889,1.71703,3.04577,1.06987,1.39161,0.296012,-12.193,6.78646,-0.293002,-0.482261,1.75889,1.71703,3.04577,1.06987,1.39161
0.125,0.875,57.7512,0.364884,-12.2002,6.76292,-0.316017,-0.568127,1.61565,1.70048,3.05079,1.86238,2.78823,0.364884,-12.2002,6.76292,-0.316017,-0.568127,1.61565,1.70048,3.05079,1.86238,2.78823
0.125,0.925,62.4709,0.432543,-12.2127,6.72959,-0.316452,-0.6472,1.43153,1.70417,3.08245,2.15745,3.4566,0.432543,-12.2127,6.72959,-0.316452,-0.6472,1.43153,1.70417,3.08245,2.15745,3.4566
0.125,0.975,70.8562,0.505331,-12.2347,6.68398,-0.298033,-0.700888,1.14555,1.81483,3.24435,2.04088,3.25576,0.505331,-12.2347,6.68398,-0.298033,-0.700888,1.14555,1.81483,3.24435,2.04088,3.25576
0.175,0.025,82.5605,-0.188904,-12.0909,6.96379,-0.0583911,0.00638129,0.723377,2.11577,3.72362,-2.76375,-4.7176,-0.188904,-12.0909,6.96379,-0.0583911,0.00638129,0.723377,2.11577,3.72362,-2.76375,-4.7176
0.175,0.075,69.6706,-0.160529,-12.0707,7.0038,-0.12104,-0.0841351,1.17336,1.98569,3.48455,-2.56002,-4.62125,-0.160529,-12.0707,7.0038,-0.12104,-0.0841351,1.17336,1.98569,3.48455,-2.56002,-4.62125
0.175,0.125,61.1007,-0.139141,-12.0579,7.03192,-0.103807,-0.0542987,1.42368,1.86184,3.27592,-2.1129,-3.65127,-0.139141,-12.0579,7.03192,-0.103807,-0.0542987,1.42368,1.86184,3.27592,-2.1129,-3.65127
0.175,0.175,59.232,-0.128322,-12.0547,7.04278,-0.0654344,-0.0116187,1.60647,1.75604,3.10076,-1.37794,-2.20169,-0.128322,-12.0547,7.04278,-0.0654344,-0.0116187,1.60647,1.75604,3.10076,-1.37794,-2.20169
0.175,0.225,57.3292,-0.1252,-12.0596,7.03889,-0.0605872,-0.0170976,1.7654,1.67221,2.96006,-1.07889,-1.62802,-0.1252,-12.0596,7.03889,-0.0605872,-0.0170976,1.7654,1.67221,2.96006,-1.07889,-1.62802
0.175,0.275,55.5849,-0.126308,-12.0707,7.02347,-0.0944863,-0.0569266,1.90046,1.61034,2.85381,-0.914697,-1.33515,-0.126308,-12.0707,7.02347,-0.0944863,-0.0569266,1.90046,1.61034,2.85381,-0.914697,-1.33515
0.175,0.325,54.23,-0.128176,-12.0862,6.99975,-0.152135,-0.107753,2.01167,1.57044,2.78202,-0.687279,-1.00577,-0.128176,-12.0862,6.99975,-0.152135,-0.107753,2.01167,1.57044,2.78202,-0.687279,-1.00577
0.175,0.375,53.4705,-0.127335,-12.1042,6.97095,-0.215023,-0.152317,2.09902,1.55251,2.74468,-0.418296,-0.658916,-0.127335,-12.1042,6.97095,-0.215023,-0.152317,2.09902,1.55251,2.74468,-0.418296,-0.658916
0.175,0.425,53.4355,-0.120317,-12.1229,6.94029,-0.266459,-0.182346,2.16251,1.55654,2.7418,-0.131425,-0.307272,-0.120317,-12.1229,6.94029,-0.266459,-0.182346,2.16251,1.55654,2.7418,-0.131425,-0.307272
0.175,0.475,54.1502,-0.103654,-12.1402,6.91101,-0.295469,-0.198247,2.20214,1.58254,2.77338,0.151335,0.0411507,-0.103654,-12.1402,6.91101,-0.295469,-0.198247,2.20214,1.58254,2.77338,0.151335,0.0411507
0.175,0.525,55.3065,-0.0739978,-12.1546,6.88622,-0.300834,-0.209804,2.21802,1.62654,2.83387,0.319384,0.25504,-0.0739978,-12.1546,6.88622,-0.300834,-0.209804,2.21802,1.62654,2.83387,0.319384,0.25504
0.175,0.575,56.217,-0.0307945,-12.1654,6.86659,-0.299306,-0.23715,2.21089,1.66478,2.89008,0.389968,0.343274,-0.0307945,-12.1654,6.86659,-0.299306,-0.23715,2.21089,1.66478,2.89008,0.389968,0.343274
0.175,0.625,56.9155,0.0237166,-12.1736,6.85033,-0.296208,-0.280209,2.18085,1.69329,2.93646,0.465567,0.437577,0.0237166,-12.1736,6.85033,-0.296208,-0.280209,2.18085,1.69329,2.93646,0.465567,0.437577
0.175,0.675,57.4138,0.0871748,-12.1803,6.83555,-0.293798,-0.335294,2.12791,1.71207,2.97302,0.547179,0.542177,0.0871748,-12.1803,6.83555,-0.293798,-0.335294,2.12791,1.71207,2.97302,0.547179,0.542177
0.175,0.725,57.7286,0.157219,-12.1863,6.82036,-0.293485,-0.397918,2.05206,1.72113,2.99975,0.63515,0.662022,0.157219,-12.1863,6.82036,-0.293485,-0.397918,2.05206,1.72113,2.99975,0.63515,0.662022
0.175,0.775,57.884,0.23149,-12.1927,6.80287,-0.295494,-0.462388,1.95331,1.72047,3.01666,0.72909,0.802917,0.23149,-12.1927,6.80287,-0.295494,-0.462388,1.95331,1.72047,3.01666,0.72909,0.802917
0.175,0.825,57.9138,0.307625,-12.2004,6.78118,-0.299831,-0.524018,1.83166,1.71007,3.02374,1.04868,1.31416,0.307625,-12.2004,6.78118,-0.299831,-0.524018,1.83166,1.71007,3.02374,1.04868,1.31416
0.175,0.875,57.8659,0.383265,-12.2105,6.7534,-0.324913,-0.628726,1.6871,1.68995,3.021,1.83893,2.67986,0.383265,-12.2105,6.7534,-0.324913,-0.628726,1.6871,1.68995,3.021,1.83893,2.67986
0.175,0.925,62.1557,0.456797,-12.2242,6.71752,-0.350155,-0.748879,1.50266,1.68763,3.04243,2.15325,3.36733,0.456797,-12.2242,6.71752,-0.350155,-0.748879,1.50266,1.68763,3.04243,2.15325,3.36733
0.175,0.975,69.9637,0.534677,-12.2462,6.67026,-0.358282,-0.829156,1.22697,1.78634,3.19087,2.05165,3.20743,0.534677,-12.2462,6.67026,-0.358282,-0.829156,1.22697,1.78634,3.19087,2.05165,3.20743
0.225,0.025,82.3607,-0.20269,-12.0885,6.98387,-0.0590645,-0.0370246,0.753202,2.1341,3.75981,-2.86993,-4.87237,-0.20269,-12.0885,6.98387,-0.0590645,-0.0370246,0.753202,2.1341,3.75981,-2.86993,-4.87237
0.225,0.075,69.2913,-0.174047,-12.0756,7.01166,-0.118013,-0.115045,1.19938,1.99964,3.51447,-2.58126,-4.6371,-0.174047,-12.0756,7.01166,-0.118013,-0.115045,1.19938,1.99964,3.51447,-2.58126,-4.6371
0.225,0.125,60.784,-0.153201,-12.0678,7.03036,-0.11188,-0.0940309,1.43907,1.86807,3.29167,-2.08008,-3.60011,-0.153201,-12.0678,7.03036,-0.11188,-0.0940309,1.43907,1.86807,3.29167,-2.08008,-3.60011
0.225,0.175,59.0608,-0.143339,-12.0662,7.03645,-0.0757773,-0.0458203,1.61224,1.75482,3.10239,-1.34601,-2.16878,-0.143339,-12.0662,7.03645,-0.0757773,-0.0458203,1.61224,1.75482,3.10239,-1.34601,-2.16878
0.225,0.225,57.269,-0.141329,-12.0701,7.03166,-0.0522028,-0.0194744,1.76516,1.66502,2.95028,-1.08422,-1.63735,-0.141329,-12.0701,7.03166,-0.0522028,-0.0194744,1.76516,1.66502,2.95028,-1.08422,-1.63735
0.225,0.275,55.5779,-0.143457,-12.0782,7.01819,-0.0634925,-0.0305058,1.89782,1.59864,2.83533,-0.953213,-1.37108,-0.143457,-12.0782,7.01819,-0.0634925,-0.0305058,1.89782,1.59864,2.83533,-0.953213,-1.37108
0.225,0.325,54.2219,-0.146006,-12.0896,6.99828,-0.103003,-0.0642506,2.01023,1.55571,2.75754,-0.744811,-1.04981,-0.146006,-12.0896,6.99828,-0.103003,-0.0642506,2.01023,1.55571,2.75754,-0.744811,-1.04981
0.225,0.375,53.4309,-0.14526,-12.103,6.97413,-0.158011,-0.106905,2.10238,1.5362,2.71691,-0.478377,-0.699045,-0.14526,-12.103,6.97413,-0.158011,-0.106905,2.10238,1.5362,2.71691,-0.478377,-0.699045
0.225,0.425,53.3635,-0.137505,-12.1175,6.94796,-0.214752,-0.150898,2.17428,1.54014,2.71344,-0.180154,-0.339873,-0.137505,-12.1175,6.94796,-0.214752,-0.150898,2.17428,1.54014,2.71344,-0.180154,-0.339873
0.225,0.475,54.066,-0.119023,-12.132,6.92199,-0.262447,-0.195935,2.22592,1.56751,2.74713,0.122144,0.0121965,-0.119023,-12.132,6.92199,-0.262447,-0.195935,2.22592,1.56751,2.74713,0.122144,0.0121965
0.225,0.525,55.271,-0.0862309,-12.1453,6.89837,-0.295573,-0.246901,2.25667,1.61408,2.81191,0.306275,0.218018,-0.0862309,-12.1453,6.89837,-0.295573,-0.246901,2.25667,1.61408,2.81191,0.306275,0.218018
0.225,0.575,56.2596,-0.0385934,-12.1571,6.87753,-0.315203,-0.304189,2.26264,1.65445,2.87135,0.384714,0.294671,-0.0385934,-12.1571,6.87753,-0.315203,-0.304189,2.26264,1.65445,2.87135,0.384714,0.294671
0.225,0.625,57.0195,0.0213796,-12.1679,6.85825,-0.325025,-0.365921,2.2432,1.68438,2.91936,0.465043,0.380227,0.0213796,-12.1679,6.85825,-0.325025,-0.365921,2.2432,1.68438,2.91936,0.465043,0.380227
0.225,0.675,57.5608,0.091045,-12.1782,6.83919,-0.327992,-0.429691,2.19834,1.70387,2.95595,0.549024,0.479649,0.091045,-12.1782,6.83919,-0.327992,-0.429691,2.19834,1.70387,2.95595,0.549024,0.479649
0.225,0.725,57.9002,0.16776,-12.1884,6.81906,-0.326152,-0.492176,2.12807,1.71293,2.98111,0.637994,0.598843,0.16776,-12.1884,6.81906,-0.326152,-0.492176,2.12807,1.71293,2.98111,0.637994,0.598843
0.225,0.775,58.063,0.248881,-12.1989,6.79652,-0.320427,-0.548812,2.03239,1.71155,2.99486,0.732899,0.745088,0.248881,-12.1989,6.79652,-0.320427,-0.548812,2.03239,1.71155,2.99486,0.732899,0.745088
0.225,0.825,58.0869,0.331767,-12.2102,6.77026,-0.312217,-0.596909,1.91129,1.69973,2.99719,1.04189,1.24309,0.331767,-12.2102,6.77026,-0.312217,-0.596909,1.91129,1.69973,2.99719,1.04189,1.24309
0.225,0.875,58.0279,0.413772,-12.2228,6.73897,-0.333992,-0.702308,1.76477,1.67747,2.9881,1.80668,2.55011,0.413772,-12.2228,6.73897,-0.333992,-0.702308,1.76477,1.67747,2.9881,1.80668,2.55011
0.225,0.925,61.8898,0.493025,-12.2375,6.70111,-0.367316,-0.839639,1.57918,1.67073,3.00082,2.1297,3.25113,0.493025,-12.2375,6.70111,-0.367316,-0.839639,1.57918,1.67073,3.00082,2.1297,3.25113
0.225,0.975,69.0454,0.575953,-12.2595,6.65271,-0.384704,-0.935823,1.31319,1.75801,3.13593,2.04669,3.15097,0.575953,-12.2595,6.65271,-0.384704,-0.935823,1.31319,1.75801,3.13593,2.04669,3.15097
0.275,0.025,82.1834,-0.211113,-12.0868,7.00067,-0.0656115,-0.0726308,0.783642,2.14527,3.78438,-2.95462,-4.99841,-0.211113,-12.0868,7.00067,-0.0656115,-0.0726308,0.783642,2.14527,3.78438,-2.95462,-4.99841
0.275,0.075,68.8864,-0.182497,-12.0801,7.01786,-0.113812,-0.138774,1.22512,2.00755,3.53373,-2.60377,-4.65707,-0.182497,-12.0801,7.01786,-0.113812,-0.138774,1.22512,2.00755,3.53373,-2.60377,-4.65707
0.275,0.125,60.3936,-0.162044,-12.0766,7.0282,-0.1126,-0.126073,1.45389,1.87116,3.30067,-2.05526,-3.55812,-0.162044,-12.0766,7.0282,-0.1126,-0.126073,1.45389,1.87116,3.30067,-2.05526,-3.55812
0.275,0.175,58.82,-0.152434,-12.0768,7.0297,-0.0787723,-0.0773978,1.61742,1.75329,3.10125,-1.30584,-2.11877,-0.152434,-12.0768,7.0297,-0.0787723,-0.0773978,1.61742,1.75329,3.10125,-1.30584,-2.11877
0.275,0.225,57.1674,-0.150401,-12.08,7.02347,-0.0423118,-0.0314539,1.76447,1.65962,2.94079,-1.0694,-1.62028,-0.150401,-12.08,7.02347,-0.0423118,-0.0314539,1.76447,1.65962,2.94079,-1.0694,-1.62028
0.275,0.275,55.5732,-0.15213,-12.0861,7.01091,-0.0354946,-0.0236365,1.89505,1.59015,2.81928,-0.970633,-1.38772,-0.15213,-12.0861,7.01091,-0.0354946,-0.0236365,1.89505,1.59015,2.81928,-0.970633,-1.38772
0.275,0.325,54.2591,-0.153803,-12.0943,6.99343,-0.058006,-0.0468651,2.00915,1.54488,2.73673,-0.786964,-1.08716,-0.153803,-12.0943,6.99343,-0.058006,-0.0468651,2.00915,1.54488,2.73673,-0.786964,-1.08716
0.275,0.375,53.4637,-0.151603,-12.1044,6.97243,-0.102815,-0.0909739,2.10678,1.52381,2.69313,-0.533779,-0.746967,-0.151603,-12.1044,6.97243,-0.102815,-0.0909739,2.10678,1.52381,2.69313,-0.533779,-0.746967
0.275,0.425,53.3666,-0.141715,-12.1158,6.94931,-0.160035,-0.148989,2.18793,1.52693,2.68848,-0.23729,-0.394203,-0.141715,-12.1158,6.94931,-0.160035,-0.148989,2.18793,1.52693,2.68848,-0.23729,-0.394203
0.275,0.475,54.0363,-0.120321,-12.1281,6.92547,-0.220206,-0.219148,2.2526,1.55426,2.72279,0.0716698,-0.0504703,-0.120321,-12.1281,6.92547,-0.220206,-0.219148,2.2526,1.55426,2.72279,0.0716698,-0.0504703
0.275,0.525,55.2651,-0.0837427,-12.1408,6.90226,-0.274743,-0.301153,2.29934,1.60143,2.78962,0.269829,0.149139,-0.0837427,-12.1408,6.90226,-0.274743,-0.301153,2.29934,1.60143,2.78962,0.269829,0.149139
0.275,0.575,56.3201,-0.0314825,-12.1538,6.87998,-0.311966,-0.380158,2.31938,1.64229,2.85039,0.362767,0.225978,-0.0314825,-12.1538,6.87998,-0.311966,-0.380158,2.31938,1.64229,2.85039,0.362767,0.225978
0.275,0.625,57.1352,0.0337784,-12.1669,6.85782,-0.334065,-0.453991,2.31127,1.67247,2.89867,0.454021,0.312701,0.0337784,-12.1669,6.85782,-0.334065,-0.453991,2.31127,1.67247,2.89867,0.454021,0.312701
0.275,0.675,57.7179,0.10922,-12.1803,6.83495,-0.344237,-0.522036,2.275,1.69198,2.93446,0.54632,0.415331,0.10922,-12.1803,6.83495,-0.344237,-0.522036,2.275,1.69198,2.93446,0.54632,0.415331
0.275,0.725,58.0841,0.192024,-12.194,6.81054,-0.344614,-0.582396,2.21057,1.70082,2.95776,0.642032,0.540941,0.192024,-12.194,6.81054,-0.344614,-0.582396,2.21057,1.70082,2.95776,0.642032,0.540941
0.275,0.775,58.2605,0.279369,-12.208,6.78374,-0.336172,-0.631688,2.118,1.69899,2.96857,0.743363,0.698422,0.279369,-12.208,6.78374,-0.336172,-0.631688,2.118,1.69899,2.96857,0.743363,0.698422
0.275,0.825,58.2886,0.368436,-12.2223,6.75371,-0.320877,-0.66881,1.99726,1.68649,2.96689,1.04282,1.1822,0.368436,-12.2223,6.75371,-0.320877,-0.66881,1.99726,1.68649,2.96689,1.04282,1.1822
0.275,0.875,58.2328,0.456404,-12.237,6.71963,-0.34154,-0.774808,1.84838,1.66332,2.95272,1.77067,2.41044,0.456404,-12.237,6.71963,-0.34154,-0.774808,1.84838,1.66332,2.95272,1.77067,2.41044
0.275,0.925,61.6705,0.541226,-12.2526,6.68034,-0.381496,-0.928839,1.66104,1.65354,2.95813,2.09804,3.11426,0.541226,-12.2526,6.68034,-0.381496,-0.928839,1.66104,1.65354,2.95813,2.09804,3.11426
0.275,0.975,68.1163,0.629159,-12.2744,6.63131,-0.405456,-1.04513,1.40412,1.72999,3.0801,2.03772,3.08094,0.629159,-12.2744,6.63131,-0.405456,-1.04513,1.40412,1.72999,3.0801,2.03772,3.08094
0.325,0.025,82.0212,-0.214173,-12.0858,7.01417,-0.07165,-0.10719,0.814262,2.15045,3.79907,-3.01648,-5.09616,-0.214173,-12.0858,7.01417,-0.07165,-0.10719,0.814262,2.15045,3.79907,-3.01648,-5.09616
0.325,0.075,68.481,-0.185881,-12.0842,7.02241,-0.107707,-0.159457,1.25048,2.01034,3.54376,-2.62482,-4.67777,-0.185881,-12.0842,7.02241,-0.107707,-0.159457,1.25048,2.01034,3.54376,-2.62482,-4.67777
0.325,0.125,59.9745,-0.165671,-12.0845,7.02544,-0.109639,-0.151767,1.46856,1.87144,3.30353,-2.03706,-3.52395,-0.165671,-12.0845,7.02544,-0.109639,-0.151767,1.46856,1.87144,3.30353,-2.03706,-3.52395
0.325,0.175,58.547,-0.155608,-12.0863,7.02253,-0.0798001,-0.105654,1.62293,1.75117,3.09713,-1.26245,-2.06043,-0.155608,-12.0863,7.02253,-0.0798001,-0.105654,1.62293,1.75117,3.09713,-1.26245,-2.06043
0.325,0.225,57.0478,-0.152417,-12.0895,7.01433,-0.0374376,-0.05083,1.76463,1.65532,2.93076,-1.04166,-1.58757,-0.152417,-12.0895,7.01433,-0.0374376,-0.05083,1.76463,1.65532,2.93076,-1.04166,-1.58757
0.325,0.275,55.5784,-0.152326,-12.0943,7.00164,-0.0194134,-0.0334409,1.89366,1.58387,2.80441,-0.972491,-1.39257,-0.152326,-12.0943,7.00164,-0.0194134,-0.0334409,1.89366,1.58387,2.80441,-0.972491,-1.39257
0.325,0.325,54.3385,-0.151565,-12.1005,6.98522,-0.0297418,-0.0518566,2.01001,1.53682,2.7181,-0.816294,-1.12146,-0.151565,-12.1005,6.98522,-0.0297418,-0.0518566,2.01001,1.53682,2.7181,-0.816294,-1.12146
0.325,0.375,53.5631,-0.146363,-12.1084,6.96585,-0.0659979,-0.0990235,2.1137,1.51419,2.67182,-0.583804,-0.802505,-0.146363,-12.1084,6.96585,-0.0659979,-0.0990235,2.1137,1.51419,2.67182,-0.583804,-0.802505
0.325,0.425,53.4449,-0.132947,-12.1178,6.94433,-0.121885,-0.16854,2.20471,1.51596,2.66556,-0.299183,-0.466232,-0.132947,-12.1178,6.94433,-0.121885,-0.16854,2.20471,1.51596,2.66556,-0.299183,-0.466232
0.325,0.475,54.074,-0.107548,-12.1287,6.92143,-0.189522,-0.257157,2.28306,1.54214,2.69934,0.006082,-0.13864,-0.107548,-12.1287,6.92143,-0.189522,-0.257157,2.28306,1.54214,2.69934,0.006082,-0.13864
0.325,0.525,55.3068,-0.066533,-12.1413,6.89791,-0.25842,-0.360247,2.34644,1.58836,2.7665,0.216158,0.0577357,-0.066533,-12.1413,6.89791,-0.25842,-0.360247,2.34644,1.58836,2.7665,0.216158,0.0577357
0.325,0.575,56.4127,-0.00946189,-12.1554,6.87392,-0.30791,-0.452852,2.3811,1.62842,2.82717,0.328057,0.144097,-0.00946189,-12.1554,6.87392,-0.30791,-0.452852,2.3811,1.62842,2.82717,0.328057,0.144097
0.325,0.625,57.274,0.0609132,-12.1706,6.84904,-0.339019,-0.533355,2.38473,1.65796,2.87472,0.434429,0.239303,0.0609132,-12.1706,6.84904,-0.339019,-0.533355,2.38473,1.65796,2.87472,0.434429,0.239303
0.325,0.675,57.8939,0.141701,-12.1866,6.82282,-0.354959,-0.602856,2.35735,1.67697,2.90914,0.539202,0.350905,0.141701,-12.1866,6.82282,-0.354959,-0.602856,2.35735,1.67697,2.90914,0.539202,0.350905
0.325,0.725,58.2869,0.230011,-12.2032,6.7948,-0.357727,-0.660792,2.29895,1.68546,2.93043,0.645872,0.487459,0.230011,-12.2032,6.7948,-0.357727,-0.660792,2.29895,1.68546,2.93043,0.645872,0.487459
0.325,0.775,58.4801,0.322952,-12.2201,6.76452,-0.348121,-0.704848,2.20953,1.68343,2.93859,0.757898,0.659701,0.322952,-12.2201,6.76452,-0.348121,-0.704848,2.20953,1.68343,2.93859,0.757898,0.659701
0.325,0.825,58.5192,0.417632,-12.2369,6.73154,-0.328288,-0.735171,2.08909,1.67087,2.93362,1.04898,1.12794,0.417632,-12.2369,6.73154,-0.328288,-0.735171,2.08909,1.67087,2.93362,1.04898,1.12794
0.325,0.875,58.4769,0.511162,-12.2533,6.69538,-0.348774,-0.843016,1.93764,1.64779,2.91553,1.73086,2.26128,0.511162,-12.2533,6.69538,-0.348774,-0.843016,1.93764,1.64779,2.91553,1.73086,2.26128
0.325,0.925,61.4969,0.6014,-12.2695,6.65523,-0.395211,-1.01292,1.74819,1.63616,2.91485,2.05832,2.95594,0.6014,-12.2695,6.65523,-0.395211,-1.01292,1.74819,1.63616,2.91485,2.05832,2.95594
0.325,0.975,67.1949,0.694294,-12.2911,6.60608,-0.426556,-1.1514,1.49967,1.70243,3.02394,2.02374,2.99255,0.694294,-12.2911,6.60608,-0.426556,-1.1514,1.49967,1.70243,3.02394,2.02374,2.99255
0.375,0.025,81.8692,-0.211871,-12.0855,7.02439,-0.0770647,-0.140906,0.84463,2.15077,3.80562,-3.05504,-5.16579,-0.211871,-12.0855,7.02439,-0.0770647,-0.140906,0.84463,2.15077,3.80562,-3.05504,-5.16579
0.375,0.075,68.0998,-0.184197,-12.088,7.0253,-0.0995434,-0.177014,1.27533,2.00894,3.54599,-2.64236,-4.69543,-0.184197,-12.088,7.0253,-0.0995434,-0.177014,1.27533,2.00894,3.54599,-2.64236,-4.69543
0.375,0.125,59.5681,-0.16408,-12.0914,7.02207,-0.103003,-0.171316,1.48354,1.86922,3.30085,-2.0248,-3.4964,-0.16408,-12.0914,7.02207,-0.103003,-0.171316,1.48354,1.86922,3.30085,-2.0248,-3.4964
0.375,0.175,58.2791,-0.15286,-12.0948,7.01494,-0.0790466,-0.130892,1.62973,1.7482,3.08982,-1.22081,-2.00185,-0.15286,-12.0948,7.01494,-0.0790466,-0.130892,1.62973,1.7482,3.08982,-1.22081,-2.00185
0.375,0.225,56.9357,-0.147376,-12.0985,7.00425,-0.0376135,-0.0776623,1.76693,1.6514,2.91936,-1.00833,-1.54981,-0.147376,-12.0985,7.00425,-0.0376135,-0.0776623,1.76693,1.6514,2.91936,-1.00833,-1.54981
0.375,0.275,55.6048,-0.144047,-12.1028,6.99036,-0.0153735,-0.0602196,1.89515,1.5788,2.78949,-0.96506,-1.39352,-0.144047,-12.1028,6.99036,-0.0153735,-0.0602196,1.89515,1.5788,2.78949,-0.96506,-1.39352
0.375,0.325,54.4589,-0.139294,-12.1082,6.97362,-0.0187666,-0.0799772,2.01439,1.53041,2.70019,-0.836422,-1.15659,-0.139294,-12.1082,6.97362,-0.0187666,-0.0799772,2.01439,1.53041,2.70019,-0.836422,-1.15659
0.375,0.375,53.7226,-0.129539,-12.1149,6.9544,-0.0485695,-0.131979,2.12464,1.50622,2.65148,-0.628529,-0.865167,-0.129539,-12.1149,6.9544,-0.0485695,-0.131979,2.12464,1.50622,2.65148,-0.628529,-0.865167
0.375,0.425,53.5951,-0.111203,-12.1233,6.93303,-0.101403,-0.210182,2.22591,1.50625,2.64335,-0.362249,-0.551123,-0.111203,-12.1233,6.93303,-0.101403,-0.210182,2.22591,1.50625,2.64335,-0.362249,-0.551123
0.375,0.475,54.1856,-0.0807054,-12.1338,6.90988,-0.17111,-0.310038,2.3182,1.53048,2.67579,-0.0678765,-0.243273,-0.0807054,-12.1338,6.90988,-0.17111,-0.310038,2.3182,1.53048,2.67579,-0.0678765,-0.243273
0.375,0.525,55.408,-0.034602,-12.1467,6.8853,-0.246736,-0.423885,2.39838,1.57463,2.74207,0.151938,-0.0466483,-0.034602,-12.1467,6.8853,-0.246736,-0.423885,2.39838,1.57463,2.74207,0.151938,-0.0466483
0.375,0.575,56.5476,0.0274686,-12.1619,6.85936,-0.302822,-0.521939,2.44779,1.61297,2.80166,0.28496,0.0557834,0.0274686,-12.1619,6.85936,-0.302822,-0.521939,2.44779,1.61297,2.80166,0.28496,0.0557834
0.375,0.625,57.4447,0.102784,-12.1789,6.83192,-0.339468,-0.603668,2.46329,1.64123,2.84783,0.408658,0.16417,0.102784,-12.1789,6.83192,-0.339468,-0.603668,2.46329,1.64123,2.84783,0.408658,0.16417
0.375,0.675,58.0964,0.188487,-12.1971,6.80281,-0.359591,-0.671663,2.44488,1.6594,2.88056,0.528324,0.288026,0.188487,-12.1971,6.80281,-0.359591,-0.671663,2.44488,1.6594,2.88056,0.528324,0.288026
0.375,0.725,58.5142,0.281721,-12.2161,6.77185,-0.364814,-0.726571,2.39258,1.66748,2.89986,0.648653,0.437659,0.281721,-12.2161,6.77185,-0.364814,-0.726571,2.39258,1.66748,2.89986,0.648653,0.437659
0.375,0.775,58.7257,0.37963,-12.2351,6.73888,-0.355554,-0.767128,2.30638,1.66547,2.90573,0.774348,0.625822,0.37963,-12.2351,6.73888,-0.355554,-0.767128,2.30638,1.66547,2.90573,0.774348,0.625822
0.375,0.825,58.7797,0.479357,-12.2538,6.70373,-0.333832,-0.794574,2.18627,1.65337,2.89816,1.05811,1.07677,0.479357,-12.2538,6.70373,-0.333832,-0.794574,2.18627,1.65337,2.89816,1.05811,1.07677
0.375,0.875,58.7572,0.578045,-12.2715,6.66623,-0.355036,-0.905015,2.03226,1.63119,2.87717,1.68737,2.10374,0.578045,-12.2715,6.66623,-0.355036,-0.905015,2.03226,1.63119,2.87717,1.68737,2.10374
0.375,0.925,61.3689,0.673547,-12.2882,6.62577,-0.407452,-1.08851,1.84057,1.61865,2.87147,2.01063,2.77705,0.673547,-12.2882,6.62577,-0.407452,-1.08851,1.84057,1.61865,2.87147,2.01063,2.77705
0.375,0.975,66.3034,0.771359,-12.3095,6.57701,-0.446621,-1.24931,1.59977,1.67547,2.968,2.00336,2.88244,0.771359,-12.3095,6.57701,-0.446621,-1.24931,1.59977,1.67547,2.968,2.00336,2.88244
0.425,0.025,81.724,-0.204207,-12.0859,7.03131,-0.0817281,-0.17393,0.874312,2.14738,3.80577,-3.06999,-5.20724,-0.204207,-12.0859,7.03131,-0.0817281,-0.17393,0.874312,2.14738,3.80577,-3.06999,-5.20724
0.425,0.075,67.7681,-0.177446,-12.0915,7.02654,-0.0890896,-0.191192,1.29956,2.00427,3.54185,-2.65427,-4.70616,-0.177446,-12.0915,7.02654,-0.0890896,-0.191192,1.29956,2.00427,3.54185,-2.65427,-4.70616
0.425,0.125,59.2125,-0.157273,-12.0973,7.0181,-0.0924914,-0.18455,1.49927,1.86482,3.29325,-2.01804,-3.47463,-0.157273,-12.0973,7.0181,-0.0924914,-0.18455,1.49927,1.86482,3.29325,-2.01804,-3.47463
0.425,0.175,58.0523,-0.144192,-12.1023,7.00693,-0.0765473,-0.153188,1.63876,1.74412,3.07912,-1.18594,-1.95106,-0.144192,-12.1023,7.00693,-0.0765473,-0.153188,1.63876,1.74412,3.07912,-1.18594,-1.95106
0.425,0.225,56.8583,-0.135278,-12.1069,6.99321,-0.0429618,-0.112077,1.77268,1.64716,2.90579,-0.976695,-1.5176,-0.135278,-12.1069,6.99321,-0.0429618,-0.112077,1.77268,1.64716,2.90579,-0.976695,-1.5176
0.425,0.275,55.6659,-0.12729,-12.1117,6.97708,-0.0235616,-0.104252,1.90105,1.57396,2.77326,-0.954815,-1.39879,-0.12729,-12.1117,6.97708,-0.0235616,-0.104252,1.90105,1.57396,2.77326,-0.954815,-1.39879
0.425,0.325,54.6212,-0.116989,-12.1172,6.95866,-0.0254931,-0.131731,2.02385,1.5245,2.68153,-0.851364,-1.19669,-0.116989,-12.1172,6.95866,-0.0254931,-0.131731,2.02385,1.5245,2.68153,-0.851364,-1.19669
0.425,0.375,53.9349,-0.101133,-12.124,6.93806,-0.0512403,-0.190379,2.1411,1.49879,2.63061,-0.668316,-0.934373,-0.101133,-12.124,6.93806,-0.0512403,-0.190379,2.1411,1.49879,2.63061,-0.668316,-0.934373
0.425,0.425,53.809,-0.0764811,-12.1325,6.91541,-0.099434,-0.274183,2.25278,1.49683,2.62048,-0.422828,-0.643606,-0.0764811,-12.1325,6.91541,-0.099434,-0.274183,2.25278,1.49683,2.62048,-0.422828,-0.643606
0.425,0.475,54.3689,-0.0397922,-12.1433,6.89082,-0.165623,-0.377651,2.3589,1.51862,2.65116,-0.14301,-0.354879,-0.0397922,-12.1433,6.89082,-0.165623,-0.377651,2.3589,1.51862,2.65116,-0.14301,-0.354879
0.425,0.525,55.5724,0.0120505,-12.157,6.86443,-0.239885,-0.491697,2.45557,1.56,2.71586,0.0843062,-0.154353,0.0120505,-12.157,6.86443,-0.239885,-0.491697,2.45557,1.56,2.71586,0.0843062,-0.154353
0.425,0.575,56.73,0.0793088,-12.1734,6.8363,-0.296472,-0.587031,2.51943,1.59608,2.77384,0.238165,-0.032214,0.0793088,-12.1734,6.8363,-0.296472,-0.587031,2.51943,1.59608,2.77384,0.238165,-0.032214
0.425,0.625,57.6533,0.15939,-12.1919,6.80645,-0.334847,-0.66452,2.5466,1.62269,2.81833,0.379329,0.0915159,0.15939,-12.1919,6.80645,-0.334847,-0.66452,2.5466,1.62269,2.81833,0.379329,0.0915159
0.425,0.675,58.3312,0.249578,-12.2118,6.7749,-0.357321,-0.727904,2.53707,1.63983,2.84931,0.514504,0.228577,0.249578,-12.2118,6.7749,-0.357321,-0.727904,2.53707,1.63983,2.84931,0.514504,0.228577
0.425,0.725,58.7715,0.347155,-12.2325,6.74168,-0.364923,-0.778902,2.49084,1.64752,2.8668,0.649596,0.391149,0.347155,-12.2325,6.74168,-0.364923,-0.778902,2.49084,1.64752,2.8668,0.649596,0.391149
0.425,0.775,59.0011,0.449404,-12.2531,6.7068,-0.357519,-0.817345,2.40792,1.64574,2.87079,0.790502,0.594031,0.449404,-12.2531,6.7068,-0.357519,-0.817345,2.40792,1.64574,2.87079,0.790502,0.594031
0.425,0.825,59.0713,0.55361,-12.273,6.67029,-0.336734,-0.845536,2.28829,1.6345,2.86129,1.06781,1.02541,0.55361,-12.273,6.67029,-0.336734,-0.845536,2.28829,1.6345,2.86129,1.06781,1.02541
0.425,0.875,59.0701,0.657054,-12.2916,6.63216,-0.359493,-0.958737,2.13197,1.6138,2.83828,1.6406,1.93987,0.657054,-12.2916,6.63216,-0.359493,-0.958737,2.13197,1.6138,2.83828,1.6406,1.93987
0.425,0.925,61.2876,0.757667,-12.3087,6.59196,-0.416856,-1.15181,1.93814,1.6011,2.82851,1.95559,2.58075,0.757667,-12.3087,6.59196,-0.416856,-1.15181,1.93814,1.6011,2.82851,1.95559,2.58075
0.425,0.975,65.4667,0.860353,-12.3296,6.54411,-0.463561,-1.33204,1.70433,1.64925,2.91285,1.97563,2.74955,0.860353,-12.3296,6.54411,-0.463561,-1.33204,1.70433,1.64925,2.91285,1.97563,2.74955
0.475,0.025,81.5836,-0.19118,-12.087,7.03495,-0.0855002,-0.206363,0.902875,2.14142,3.80126,-3.06105,-5.22,-0.19118,-12.087,7.03495,-0.0855002,-0.206363,0.902875,2.14142,3.80126,-3.06105,-5.22
0.475,0.075,67.5127,-0.165628,-12.0946,7.02613,-0.0760594,-0.201606,1.32307,1.99726,3.53279,-2.65827,-4.70576,-0.165628,-12.0946,7.02613,-0.0760594,-0.201606,1.32307,1.99726,3.53279,-2.65827,-4.70576
0.475,0.125,58.9445,-0.14525,-12.1022,7.01353,-0.0777576,-0.191043,1.51618,1.85856,3.28133,-2.01653,-3.45809,-0.14525,-12.1022,7.01353,-0.0777576,-0.191043,1.51618,1.85856,3.28133,-2.01653,-3.45809
0.475,0.175,57.9026,-0.129601,-12.1088,6.9985,-0.0722159,-0.172439,1.65096,1.73864,3.06482,-1.16317,-1.91632,-0.129601,-12.1088,6.9985,-0.0722159,-0.172439,1.65096,1.73864,3.06482,-1.16317,-1.91632
0.475,0.225,56.8442,-0.116123,-12.1149,6.98123,-0.0536913,-0.154236,1.78319,1.6419,2.8892,-0.954151,-1.50168,-0.116123,-12.1149,6.98123,-0.0536913,-0.154236,1.78319,1.6419,2.8892,-0.954151,-1.50168
0.475,0.275,55.7783,-0.102058,-12.121,6.96181,-0.0443382,-0.165818,1.91286,1.56834,2.75448,-0.948355,-1.41677,-0.102058,-12.121,6.96181,-0.0443382,-0.165818,1.91286,1.56834,2.75448,-0.948355,-1.41677
0.475,0.325,54.8279,-0.0846506,-12.1277,6.94032,-0.0504572,-0.207451,2.03999,1.51796,2.66064,-0.865379,-1.246,-0.0846506,-12.1277,6.94032,-0.0504572,-0.207451,2.03999,1.51796,2.66064,-0.865379,-1.246
0.475,0.375,54.1915,-0.0611441,-12.1356,6.91684,-0.0747679,-0.274454,2.16457,1.49077,2.60769,-0.703761,-1.00938,-0.0611441,-12.1356,6.91684,-0.0747679,-0.274454,2.16457,1.49077,2.60769,-0.703761,-1.00938
0.475,0.425,54.0732,-0.0287822,-12.1453,6.89146,-0.116867,-0.360489,2.28659,1.48675,2.59562,-0.477272,-0.738053,-0.0287822,-12.1453,6.89146,-0.116867,-0.360489,2.28659,1.48675,2.59562,-0.477272,-0.738053
0.475,0.475,54.612,0.0151915,-12.1573,6.86426,-0.173816,-0.459632,2.40607,1.50591,2.62445,-0.211796,-0.463662,0.0151915,-12.1573,6.86426,-0.173816,-0.459632,2.40607,1.50591,2.62445,-0.211796,-0.463662
0.475,0.525,55.7946,0.0734243,-12.1722,6.83532,-0.238141,-0.563209,2.5184,1.54426,2.68737,0.0208926,-0.255678,0.0734243,-12.1722,6.83532,-0.238141,-0.563209,2.5184,1.54426,2.68737,0.0208926,-0.255678
0.475,0.575,56.9599,0.146059,-12.1899,6.80474,-0.288613,-0.647703,2.59603,1.57786,2.74367,0.192799,-0.113178,0.146059,-12.1899,6.80474,-0.288613,-0.647703,2.59603,1.57786,2.74367,0.192799,-0.113178
0.475,0.625,57.9028,0.230733,-12.2096,6.77263,-0.324461,-0.715518,2.63435,1.60272,2.78653,0.349407,0.0256005,0.230733,-12.2096,6.77263,-0.324461,-0.715518,2.63435,1.60272,2.78653,0.349407,0.0256005
0.475,0.675,58.603,0.324974,-12.2307,6.73912,-0.347127,-0.771112,2.63338,1.61884,2.81598,0.498788,0.174622,0.324974,-12.2307,6.73912,-0.347127,-0.771112,2.63338,1.61884,2.81598,0.498788,0.174622
0.475,0.725,59.0636,0.426312,-12.2524,6.7043,-0.356862,-0.8171,2.59311,1.62621,2.832,0.647998,0.347847,0.426312,-12.2524,6.7043,-0.356862,-0.8171,2.59311,1.62621,2.832,0.647998,0.347847
0.475,0.775,59.31,0.532274,-12.274,6.6683,-0.352853,-0.854473,2.51353,1.62485,2.8346,0.804034,0.561935,0.532274,-12.274,6.6683,-0.352853,-0.854473,2.51353,1.62485,2.8346,0.804034,0.561935
0.475,0.825,59.395,0.64039,-12.2947,6.63122,-0.33606,-0.886643,2.39466,1.61475,2.82377,1.07555,0.970939,0.64039,-12.2947,6.63122,-0.33606,-0.886643,2.39466,1.61475,2.82377,1.07555,0.970939
0.475,0.875,59.4123,0.748188,-12.3138,6.59318,-0.361123,-1.00213,2.23648,1.59591,2.79952,1.59127,1.77276,0.748188,-12.3138,6.59318,-0.361123,-1.00213,2.23648,1.59591,2.79952,1.59127,1.77276
0.475,0.925,61.2552,0.853761,-12.331,6.5538,-0.421675,-1.19889,2.04084,1.58358,2.78646,1.89471,2.37293,0.853761,-12.331,6.5538,-0.421675,-1.19889,2.04084,1.58358,2.78646,1.89471,2.37293
0.475,0.975,64.7116,0.961278,-12.3515,6.50736,-0.474428,-1.39177,1.81327,1.62393,2.85903,1.94049,2.59669,0.961278,-12.3515,6.50736,-0.474428,-1.39177,1.81327,1.62393,2.85903,1.94049,2.59669
0.525,0.025,81.4458,-0.172719,-12.0891,7.03446,-0.080956,-0.237455,0.929865,2.13403,3.79383,-3.02916,-5.20267,-0.172719,-12.0891,7.03446,-0.080956,-0.237455,0.929865,2.13403,3.79383,-3.02916,-5.20267
0.525,0.075,67.3613,-0.148794,-12.0976,7.0232,-0.056476,-0.207465,1.3457,1.98883,3.52023,-2.65226,-4.68982,-0.148794,-12.0976,7.0232,-0.056476,-0.207465,1.3457,1.98883,3.52023,-2.65226,-4.68982
0.525,0.125,58.8003,-0.128251,-12.1063,7.0076,-0.0553814,-0.190681,1.53468,1.85078,3.26572,-2.02002,-3.44641,-0.128251,-12.1063,7.0076,-0.0553814,-0.190681,1.53468,1.85078,3.26572,-2.02002,-3.44641
0.525,0.175,57.8661,-0.109642,-12.1144,6.98916,-0.0627088,-0.187606,1.66722,1.73154,3.04678,-1.15839,-1.90576,-0.109642,-12.1144,6.98916,-0.0627088,-0.187606,1.66722,1.73154,3.04678,-1.15839,-1.90576
0.525,0.225,56.9234,-0.0908757,-12.1222,6.96818,-0.0684662,-0.199136,1.79967,1.63495,2.86887,-0.949284,-1.51188,-0.0908757,-12.1222,6.96818,-0.0684662,-0.199136,1.79967,1.63495,2.86887,-0.949284,-1.51188
0.525,0.275,55.96,-0.0698057,-12.1303,6.94487,-0.0811716,-0.234166,1.93202,1.561,2.73198,-0.954099,-1.45443,-0.0698057,-12.1303,6.94487,-0.0811716,-0.234166,1.93202,1.561,2.73198,-0.954099,-1.45443
0.525,0.325,55.0822,-0.0442831,-12.1391,6.91944,-0.10459,-0.289538,2.06428,1.50971,2.63613,-0.885151,-1.30701,-0.0442831,-12.1391,6.91944,-0.10459,-0.289538,2.06428,1.50971,2.63613,-0.885151,-1.30701
0.525,0.375,54.4819,-0.0121596,-12.1491,6.89209,-0.139739,-0.359332,2.19645,1.48106,2.5813,-0.738268,-1.08746,-0.0121596,-12.1491,6.89209,-0.139739,-0.359332,2.19645,1.48106,2.5813,-0.738268,-1.08746
0.525,0.425,54.3679,0.028713,-12.1607,6.86302,-0.185298,-0.437297,2.32852,1.47506,2.5675,-0.52474,-0.826915,0.028713,-12.1607,6.86302,-0.185298,-0.437297,2.32852,1.47506,2.5675,-0.52474,-0.826915
0.525,0.475,54.8922,0.0804831,-12.1745,6.83243,-0.238518,-0.518457,2.4605,1.49171,2.59472,-0.269086,-0.558346,0.0804831,-12.1745,6.83243,-0.238518,-0.518457,2.4605,1.49171,2.59472,-0.269086,-0.558346
0.525,0.525,56.0584,0.14521,-12.1909,6.80054,-0.294494,-0.597018,2.5872,1.52718,2.65619,-0.0324088,-0.340021,0.14521,-12.1909,6.80054,-0.294494,-0.597018,2.5872,1.52718,2.65619,-0.0324088,-0.340021
0.525,0.575,57.2293,0.222902,-12.2098,6.7675,-0.340458,-0.659725,2.67748,1.55846,2.71114,0.152637,-0.179756,0.222902,-12.2098,6.7675,-0.340458,-0.659725,2.67748,1.55846,2.71114,0.152637,-0.179756
0.525,0.625,58.1901,0.311519,-12.2304,6.73343,-0.376198,-0.710213,2.72615,1.58172,2.75279,0.320718,-0.0287725,0.311519,-12.2304,6.73343,-0.376198,-0.710213,2.72615,1.58172,2.75279,0.320718,-0.0287725
0.525,0.675,58.9109,0.408929,-12.2522,6.69848,-0.40251,-0.752895,2.73322,1.59697,2.78114,0.481139,0.128816,0.408929,-12.2522,6.69848,-0.40251,-0.752895,2.73322,1.59697,2.78114,0.481139,0.128816
0.525,0.725,59.3901,0.513004,-12.2744,6.66276,-0.419151,-0.790776,2.69868,1.60421,2.79619,0.641995,0.308403,0.513004,-12.2744,6.66276,-0.419151,-0.790776,2.69868,1.60421,2.79619,0.641995,0.308403
0.525,0.775,59.6509,0.621613,-12.2962,6.6264,-0.424952,-0.825736,2.62254,1.60343,2.79794,0.811246,0.528066,0.621613,-12.2962,6.6264,-0.424952,-0.825736,2.62254,1.60343,2.79794,0.811246,0.528066
0.525,0.825,59.7465,0.732626,-12.3171,6.58953,-0.420323,-0.862086,2.50479,1.59463,2.78639,1.07726,0.911531,0.732626,-12.3171,6.58953,-0.420323,-0.862086,2.50479,1.59463,2.78639,1.07726,0.911531
0.525,0.875,59.7735,0.843911,-12.3363,6.55226,-0.453507,-0.976531,2.34543,1.57782,2.76153,1.5393,1.60688,0.843911,-12.3363,6.55226,-0.453507,-0.976531,2.34543,1.57782,2.76153,1.5393,1.60688
0.525,0.925,61.2665,0.953803,-12.3535,6.51424,-0.519106,-1.16848,2.14854,1.56619,2.74582,1.82994,2.1625,0.953803,-12.3535,6.51424,-0.519106,-1.16848,2.14854,1.56619,2.74582,1.82994,2.1625
0.525,0.975,64.0545,1.06563,-12.3733,6.46973,-0.577061,-1.36392,1.92644,1.59964,2.80712,1.89944,2.43152,1.06563,-12.3733,6.46973,-0.577061,-1.36392,1.92644,1.59964,2.80712,1.89944,2.43152
0.575,0.025,81.3116,-0.148395,-12.0936,7.0248,-0.0547396,-0.245662,0.954371,2.12619,3.78492,-2.98527,-5.15725,-0.148395,-12.0936,7.0248,-0.0547396,-0.245662,0.954371,2.12619,3.78492,-2.98527,-5.15725
0.575,0.075,67.3188,-0.127251,-12.1021,7.01257,-0.0236106,-0.197814,1.36679,1.97985,3.50577,-2.63864,-4.65901,-0.127251,-12.1021,7.01257,-0.0236106,-0.197814,1.36679,1.97985,3.50577,-2.63864,-4.65901
0.575,0.125,58.7881,-0.107731,-12.1111,6.99581,-0.0213,-0.177523,1.5542,1.84206,3.24778,-2.02792,-3.43947,-0.107731,-12.1111,6.99581,-0.0213,-0.177523,1.5542,1.84206,3.24778,-2.02792,-3.43947
0.575,0.175,57.9524,-0.0876245,-12.1199,6.97594,-0.0399029,-0.18694,1.68702,1.72311,3.02607,-1.17469,-1.91897,-0.0876245,-12.1199,6.97594,-0.0399029,-0.18694,1.68702,1.72311,3.02607,-1.17469,-1.91897
0.575,0.225,57.1045,-0.0653224,-12.1288,6.95334,-0.0691176,-0.220439,1.8216,1.62638,2.84563,-0.97026,-1.5454,-0.0653224,-12.1288,6.95334,-0.0691176,-0.220439,1.8216,1.62638,2.84563,-0.97026,-1.5454
0.575,0.275,56.2152,-0.0392708,-12.1382,6.92828,-0.105864,-0.269705,1.95793,1.55188,2.70646,-0.983974,-1.5057,-0.0392708,-12.1382,6.92828,-0.105864,-0.269705,1.95793,1.55188,2.70646,-0.983974,-1.5057
0.575,0.325,55.381,-0.00791576,-12.1485,6.90103,-0.15138,-0.328883,2.09602,1.4996,2.60857,-0.925089,-1.37027,-0.00791576,-12.1485,6.90103,-0.15138,-0.328883,2.09602,1.4996,2.60857,-0.925089,-1.37027
0.575,0.375,54.7942,0.0302965,-12.1599,6.87187,-0.204658,-0.391566,2.23586,1.46956,2.55195,-0.787043,-1.15639,0.0302965,-12.1599,6.87187,-0.204658,-0.391566,2.23586,1.46956,2.55195,-0.787043,-1.15639
0.575,0.425,54.6729,0.0769199,-12.1728,6.84107,-0.262813,-0.452546,2.37746,1.46174,2.53661,-0.579478,-0.896523,0.0769199,-12.1728,6.84107,-0.262813,-0.452546,2.37746,1.46174,2.53661,-0.579478,-0.896523
0.575,0.475,55.1826,0.133508,-12.1877,6.8089,-0.322381,-0.50884,2.52082,1.47615,2.56253,-0.326647,-0.62562,0.133508,-12.1877,6.8089,-0.322381,-0.50884,2.52082,1.47615,2.56253,-0.326647,-0.62562
0.575,0.525,56.3387,0.201547,-12.2049,6.77564,-0.379844,-0.558231,2.66026,1.50909,2.62293,-0.0849725,-0.3968,0.201547,-12.2049,6.77564,-0.379844,-0.558231,2.66026,1.50909,2.62293,-0.0849725,-0.3968
0.575,0.575,57.5184,0.280937,-12.2241,6.7415,-0.429687,-0.596433,2.76182,1.53838,2.67697,0.109413,-0.224323,0.280937,-12.2241,6.7415,-0.429687,-0.596433,2.76182,1.53838,2.67697,0.109413,-0.224323
0.575,0.625,58.4983,0.369995,-12.2449,6.70664,-0.472389,-0.627514,2.81983,1.56033,2.71785,0.285643,-0.0660629,0.369995,-12.2449,6.70664,-0.472389,-0.627514,2.81983,1.56033,2.71785,0.285643,-0.0660629
0.575,0.675,59.2396,0.466969,-12.2666,6.67123,-0.508475,-0.65532,2.83429,1.57493,2.74557,0.454046,0.0953304,0.466969,-12.2666,6.67123,-0.508475,-0.65532,2.83429,1.57493,2.74557,0.454046,0.0953304
0.575,0.725,59.7356,0.570109,-12.2885,6.63542,-0.537637,-0.682755,2.8052,1.58219,2.76012,0.623592,0.276205,0.570109,-12.2885,6.63542,-0.537637,-0.682755,2.8052,1.58219,2.76012,0.623592,0.276205
0.575,0.775,60.0071,0.677662,-12.31,6.59937,-0.558798,-0.712127,2.73256,1.5821,2.76152,0.803086,0.495455,0.677662,-12.31,6.59937,-0.558798,-0.712127,2.73256,1.5821,2.76152,0.803086,0.495455
0.575,0.825,60.106,0.787877,-12.3304,6.56325,-0.57221,-0.748194,2.61637,1.57467,2.74975,1.06329,0.851106,0.787877,-12.3304,6.56325,-0.57221,-0.748194,2.61637,1.57467,2.74975,1.06329,0.851106
0.575,0.875,60.1298,0.899003,-12.3491,6.52721,-0.619254,-0.854885,2.45663,1.55989,2.72482,1.4776,1.44992,0.899003,-12.3491,6.52721,-0.619254,-0.854885,2.45663,1.55989,2.72482,1.4776,1.44992
0.575,0.925,61.2997,1.00965,-12.366,6.49093,-0.695652,-1.03374,2.25921,1.54911,2.70704,1.75678,1.95895,1.00965,-12.366,6.49093,-0.695652,-1.03374,2.25921,1.54911,2.70704,1.75678,1.95895
0.575,0.975,63.4848,1.12237,-12.3849,6.44892,-0.765198,-1.22515,2.04191,1.57663,2.75781,1.8504,2.26009,1.12237,-12.3849,6.44892,-0.765198,-1.22515,2.04191,1.57663,2.75781,1.8504,2.26009
0.625,0.025,81.1894,-0.118136,-12.1006,7.00512,-0.0101453,-0.224609,0.975026,2.11874,3.77567,-2.93956,-5.09527,-0.118136,-12.1006,7.00512,-0.0101453,-0.224609,0.975026,2.11874,3.77567,-2.93956,-5.09527
0.625,0.075,67.3694,-0.101052,-12.1083,6.99339,0.0209448,-0.169198,1.3851,1.97119,3.49114,-2.62178,-4.62035,-0.101052,-12.1083,6.99339,0.0209448,-0.169198,1.3851,1.97119,3.49114,-2.62178,-4.62035
0.625,0.125,58.8899,-0.083931,-12.1168,6.9774,0.0229054,-0.148773,1.57321,1.83326,3.22961,-2.03947,-3.43693,-0.083931,-12.1168,6.9774,0.0229054,-0.148773,1.57321,1.83326,3.22961,-2.03947,-3.43693
0.625,0.175,58.144,-0.0641022,-12.1255,6.95836,-0.00383177,-0.166775,1.70845,1.71418,3.00501,-1.20767,-1.94895,-0.0641022,-12.1255,6.95836,-0.00383177,-0.166775,1.70845,1.71418,3.00501,-1.20767,-1.94895
0.625,0.225,57.3715,-0.0404271,-12.1346,6.9366,-0.0503424,-0.213775,1.84672,1.61703,2.82196,-1.01241,-1.5936,-0.0404271,-12.1346,6.9366,-0.0503424,-0.213775,1.84672,1.61703,2.82196,-1.01241,-1.5936
0.625,0.275,56.5305,-0.0119096,-12.1444,6.91236,-0.104849,-0.269355,1.98801,1.5418,2.68045,-1.03428,-1.5626,-0.0119096,-12.1444,6.91236,-0.104849,-0.269355,1.98801,1.5418,2.68045,-1.03428,-1.5626
0.625,0.325,55.7138,0.0224464,-12.1552,6.88592,-0.166832,-0.326058,2.13234,1.48849,2.5805,-0.982974,-1.4292,0.0224464,-12.1552,6.88592,-0.166832,-0.326058,2.13234,1.48849,2.5805,-0.982974,-1.4292
0.625,0.375,55.1198,0.0636367,-12.1672,6.85753,-0.233987,-0.377765,2.27968,1.4571,2.52208,-0.849749,-1.21168,0.0636367,-12.1672,6.85753,-0.233987,-0.377765,2.27968,1.4571,2.52208,-0.849749,-1.21168
0.625,0.425,54.9791,0.112658,-12.1806,6.82744,-0.302472,-0.420773,2.43006,1.44762,2.50522,-0.643181,-0.94498,0.112658,-12.1806,6.82744,-0.302472,-0.420773,2.43006,1.44762,2.50522,-0.643181,-0.94498
0.625,0.475,55.4714,0.170505,-12.1957,6.79591,-0.368414,-0.454147,2.58346,1.46007,2.5299,-0.388025,-0.666406,0.170505,-12.1957,6.79591,-0.368414,-0.454147,2.58346,1.46007,2.5299,-0.388025,-0.666406
0.625,0.525,56.6222,0.238126,-12.2127,6.76321,-0.429327,-0.478568,2.73387,1.49085,2.58931,-0.140767,-0.428232,0.238126,-12.2127,6.76321,-0.429327,-0.478568,2.73387,1.49085,2.58931,-0.140767,-0.428232
0.625,0.575,57.8144,0.315346,-12.2315,6.72956,-0.484982,-0.495943,2.8452,1.51848,2.64257,0.0598402,-0.248599,0.315346,-12.2315,6.72956,-0.484982,-0.495943,2.8452,1.51848,2.64257,0.0598402,-0.248599
0.625,0.625,58.8142,0.400869,-12.2516,6.69522,-0.536162,-0.510204,2.91143,1.53935,2.68286,0.241526,-0.0872392,0.400869,-12.2516,6.69522,-0.536162,-0.510204,2.91143,1.53935,2.68286,0.241526,-0.0872392
0.625,0.675,59.5751,0.493348,-12.2723,6.66039,-0.583107,-0.524519,2.93256,1.55349,2.71018,0.415367,0.0741812,0.493348,-12.2723,6.66039,-0.583107,-0.524519,2.93256,1.55349,2.71018,0.415367,0.0741812
0.625,0.725,60.0857,0.591439,-12.2931,6.62533,-0.625483,-0.541561,2.90858,1.56087,2.72453,0.591009,0.252503,0.591439,-12.2931,6.62533,-0.625483,-0.541561,2.90858,1.56087,2.72453,0.591009,0.252503
0.625,0.775,60.364,0.693796,-12.3135,6.59025,-0.662379,-0.563877,2.83951,1.56152,2.72591,0.777953,0.466878,0.693796,-12.3135,6.59025,-0.662379,-0.563877,2.83951,1.56152,2.72591,0.777953,0.466878
0.625,0.825,60.4601,0.799073,-12.333,6.55539,-0.693959,-0.596366,2.72534,1.55541,2.71432,1.03227,0.794485,0.799073,-12.333,6.55539,-0.693959,-0.596366,2.72534,1.55541,2.71432,1.03227,0.794485
0.625,0.875,60.47,0.905925,-12.3508,6.52098,-0.754108,-0.689022,2.56606,1.54257,2.68976,1.40475,1.30954,0.905925,-12.3508,6.52098,-0.754108,-0.689022,2.56606,1.54257,2.68976,1.40475,1.30954
0.625,0.925,61.35,1.01328,-12.3669,6.48681,-0.840873,-0.844611,2.36895,1.5327,2.67052,1.672,1.7719,1.01328,-12.3669,6.48681,-0.840873,-0.844611,2.36895,1.5327,2.67052,1.672,1.7719
0.625,0.975,63.0039,1.12302,-12.3846,6.44789,-0.924442,-1.01913,2.156,1.55523,2.7119,1.78653,2.08997,1.12302,-12.3846,6.44789,-0.924442,-1.01913,2.156,1.55523,2.7119,1.78653,2.08997
0.675,0.025,81.0866,-0.081944,-12.1103,6.97542,0.0520075,-0.174138,0.990443,2.1125,3.76724,-2.90083,-5.02911,-0.081944,-12.1103,6.97542,0.0520075,-0.174138,0.990443,2.1125,3.76724,-2.90083,-5.02911
0.675,0.075,67.496,-0.0701948,-12.1163,6.96565,0.0767942,-0.121331,1.39938,1.96369,3.47808,-2.60568,-4.58101,-0.0701948,-12.1163,6.96565,0.0767942,-0.121331,1.39938,1.96369,3.47808,-2.60568,-4.58101
0.675,0.125,59.0868,-0.0568512,-12.1234,6.95239,0.0771227,-0.103925,1.59015,1.82522,3.2133,-2.05358,-3.43819,-0.0568512,-12.1234,6.95239,0.0771227,-0.103925,1.59015,1.82522,3.2133,-2.05358,-3.43819
0.675,0.175,58.4206,-0.0390747,-12.1311,6.93642,0.0457867,-0.1264,1.72953,1.70564,2.98596,-1.25186,-1.98847,-0.0390747,-12.1311,6.93642,0.0457867,-0.1264,1.72953,1.70564,2.98596,-1.25186,-1.98847
0.675,0.225,57.7051,-0.0161899,-12.1396,6.91794,-0.0113057,-0.178266,1.87268,1.60778,2.80039,-1.06909,-1.64798,-0.0161899,-12.1396,6.91794,-0.0113057,-0.178266,1.87268,1.60778,2.80039,-1.06909,-1.64798
0.675,0.275,56.8901,0.0122779,-12.149,6.89712,-0.0766668,-0.232237,2.01958,1.53165,2.65658,-1.09862,-1.61791,0.0122779,-12.149,6.89712,-0.0766668,-0.232237,2.01958,1.53165,2.65658,-1.09862,-1.61791
0.675,0.325,56.0693,0.0468033,-12.1594,6.87411,-0.148841,-0.280563,2.17024,1.47725,2.55452,-1.05344,-1.47888,0.0468033,-12.1594,6.87411,-0.148841,-0.280563,2.17024,1.47725,2.55452,-1.05344,-1.47888
0.675,0.375,55.4513,0.0878611,-12.171,6.84906,-0.225049,-0.31827,2.32466,1.44457,2.49422,-0.9228,-1.25137,0.0878611,-12.171,6.84906,-0.225049,-0.31827,2.32466,1.44457,2.49422,-0.9228,-1.25137
0.675,0.425,55.2813,0.135926,-12.184,6.82213,-0.301212,-0.343462,2.48284,1.43361,2.47569,-0.714573,-0.973399,0.135926,-12.184,6.82213,-0.301212,-0.343462,2.48284,1.43361,2.47569,-0.714573,-0.973399
0.675,0.475,55.7523,0.191473,-12.1984,6.79347,-0.373418,-0.356997,2.64478,1.44437,2.49891,-0.454394,-0.684589,0.191473,-12.1984,6.79347,-0.373418,-0.356997,2.64478,1.44437,2.49891,-0.454394,-0.684589
0.675,0.525,56.9004,0.254947,-12.2144,6.76325,-0.439811,-0.361448,2.80423,1.47337,2.55709,-0.201954,-0.438838,0.254947,-12.2144,6.76325,-0.439811,-0.361448,2.80423,1.47337,2.55709,-0.201954,-0.438838
0.675,0.575,58.1066,0.326131,-12.2319,6.7317,-0.50326,-0.362124,2.9237,1.49962,2.60939,0.00216904,-0.255938,0.326131,-12.2319,6.7317,-0.50326,-0.362124,2.9237,1.49962,2.60939,0.00216904,-0.255938
0.675,0.625,59.1252,0.404141,-12.2504,6.69916,-0.564436,-0.362418,2.99694,1.51965,2.64899,0.187074,-0.0944395,0.404141,-12.2504,6.69916,-0.564436,-0.362418,2.99694,1.51965,2.64899,0.187074,-0.0944395
0.675,0.675,59.903,0.488065,-12.2693,6.66598,-0.62328,-0.364833,3.02394,1.53344,2.67592,0.36425,0.0645054,0.488065,-12.2693,6.66598,-0.62328,-0.364833,3.02394,1.53344,2.67592,0.36425,0.0645054
0.675,0.725,60.425,0.576993,-12.2884,6.63249,-0.679476,-0.37177,3.00471,1.541,2.69015,0.543776,0.237832,0.576993,-12.2884,6.63249,-0.679476,-0.37177,3.00471,1.541,2.69015,0.543776,0.237832
0.675,0.775,60.7061,0.670012,-12.307,6.59904,-0.732371,-0.385877,2.93926,1.54232,2.6917,0.735649,0.444475,0.670012,-12.307,6.59904,-0.732371,-0.385877,2.93926,1.54232,2.6917,0.735649,0.444475
0.675,0.825,60.7939,0.766212,-12.3248,6.56596,-0.782076,-0.411896,2.82757,1.53741,2.68056,0.984724,0.746076,0.766212,-12.3248,6.56596,-0.782076,-0.411896,2.82757,1.53741,2.68056,0.984724,0.746076
0.675,0.875,60.7814,0.864679,-12.3412,6.53359,-0.853048,-0.484185,2.66965,1.52627,2.65673,1.32304,1.19432,0.864679,-12.3412,6.53359,-0.853048,-0.484185,2.66965,1.52627,2.65673,1.32304,1.19432
0.675,0.925,61.4108,0.964691,-12.3562,6.50188,-0.945904,-0.604535,2.47377,1.51728,2.63668,1.5776,1.61537,0.964691,-12.3562,6.50188,-0.945904,-0.604535,2.47377,1.51728,2.63668,1.5776,1.61537
0.675,0.975,62.6132,1.06755,-12.3724,6.46663,-1.03979,-0.743503,2.26495,1.53577,2.67024,1.70646,1.9385,1.06755,-12.3724,6.46663,-1.03979,-0.743503,2.26495,1.53577,2.67024,1.70646,1.9385
0.725,0.025,81.0092,-0.0398172,-12.1225,6.9357,0.130636,-0.093876,0.999234,2.10831,3.76075,-2.87735,-4.97127,-0.0398172,-12.1225,6.9357,0.130636,-0.093876,0.999234,2.10831,3.76075,-2.87735,-4.97127
0.725,0.075,67.679,-0.0346806,-12.1261,6.92935,0.143202,-0.0539165,1.4084,1.9582,3.46832,-2.59405,-4.54799,-0.0346806,-12.1261,6.92935,0.143202,-0.0539165,1.4084,1.9582,3.46832,-2.59405,-4.54799
0.725,0.125,59.357,-0.0264916,-12.1309,6.92075,0.140806,-0.0426367,1.60345,1.8188,3.20098,-2.06891,-3.44251,-0.0264916,-12.1309,6.92075,0.140806,-0.0426367,1.60345,1.8188,3.20098,-2.06891,-3.44251
0.725,0.175,58.7585,-0.0125419,-12.1367,6.9101,0.108691,-0.06534,1.7483,1.69834,2.9713,-1.30133,-2.03009,-0.0125419,-12.1367,6.9101,0.108691,-0.06534,1.7483,1.69834,2.9713,-1.30133,-2.03009
0.725,0.225,58.0831,0.00738924,-12.1437,6.89738,0.0482317,-0.113339,1.89713,1.59951,2.78346,-1.13302,-1.69995,0.00738924,-12.1437,6.89738,0.0482317,-0.113339,1.89713,1.59951,2.78346,-1.13302,-1.69995
0.725,0.275,57.276,0.0332916,-12.1518,6.88256,-0.0204774,-0.157975,2.04996,1.52231,2.63744,-1.16995,-1.66475,0.0332916,-12.1518,6.88256,-0.0204774,-0.157975,2.04996,1.52231,2.63744,-1.16995,-1.66475
0.725,0.325,56.436,0.0651551,-12.161,6.8656,-0.0959387,-0.19265,2.20677,1.46676,2.53326,-1.13049,-1.51517,0.0651551,-12.161,6.8656,-0.0959387,-0.19265,2.20677,1.46676,2.53326,-1.13049,-1.51517
0.725,0.375,55.7835,0.10297,-12.1714,6.84648,-0.175831,-0.2143,2.36757,1.43285,2.47089,-1.00212,-1.27455,0.10297,-12.1714,6.84648,-0.175831,-0.2143,2.36757,1.43285,2.47089,-1.00212,-1.27455
0.725,0.425,55.5778,0.146725,-12.183,6.82515,-0.256635,-0.222846,2.53236,1.42058,2.45036,-0.79211,-0.983973,0.146725,-12.183,6.82515,-0.256635,-0.222846,2.53236,1.42058,2.45036,-0.79211,-0.983973
0.725,0.475,56.0237,0.196412,-12.1959,6.80158,-0.334795,-0.220325,2.70114,1.42994,2.47166,-0.526882,-0.684802,0.196412,-12.1959,6.80158,-0.334795,-0.220325,2.70114,1.42994,2.47166,-0.526882,-0.684802
0.725,0.525,57.1683,0.25201,-12.21,6.77575,-0.408626,-0.210005,2.86754,1.45751,2.52801,-0.270713,-0.433457,0.25201,-12.21,6.77575,-0.408626,-0.210005,2.86754,1.45751,2.52801,-0.270713,-0.433457
0.725,0.575,58.3866,0.31329,-12.2253,6.74789,-0.481772,-0.198084,2.99339,1.48269,2.57886,-0.0653255,-0.249823,0.31329,-12.2253,6.74789,-0.481772,-0.198084,2.99339,1.48269,2.57886,-0.0653255,-0.249823
0.725,0.625,59.4198,0.37981,-12.2413,6.71848,-0.554358,-0.187198,3.07233,1.50205,2.61742,0.121058,-0.0898828,0.37981,-12.2413,6.71848,-0.554358,-0.187198,3.07233,1.50205,2.61742,0.121058,-0.0898828
0.725,0.675,60.2098,0.451121,-12.2577,6.68799,-0.626023,-0.179302,3.10435,1.51558,2.64371,0.299941,0.0653109,0.451121,-12.2577,6.68799,-0.626023,-0.179302,3.10435,1.51558,2.64371,0.299941,0.0653109
0.725,0.725,60.7384,0.526772,-12.2742,6.65691,-0.696514,-0.176561,3.08946,1.52328,2.65772,0.481543,0.232471,0.526772,-12.2742,6.65691,-0.696514,-0.176561,3.08946,1.52328,2.65772,0.481543,0.232471
0.725,0.775,61.0177,0.606313,-12.2903,6.62574,-0.765523,-0.181667,3.02765,1.52516,2.65945,0.676116,0.429954,0.606313,-12.2903,6.62574,-0.765523,-0.181667,3.02765,1.52516,2.65945,0.676116,0.429954
0.725,0.825,61.0923,0.689294,-12.3059,6.59495,-0.833114,-0.198958,2.91893,1.52122,2.64891,0.921703,0.709735,0.689294,-12.3059,6.59495,-0.833114,-0.198958,2.91893,1.52122,2.64891,0.921703,0.709735
0.725,0.875,61.051,0.775265,-12.3204,6.56502,-0.911477,-0.245301,2.76329,1.51145,2.62608,1.2371,1.11281,0.775265,-12.3204,6.56502,-0.911477,-0.245301,2.76329,1.51145,2.62608,1.2371,1.11281
0.725,0.925,61.4747,0.863884,-12.3339,6.53615,-1.00309,-0.318919,2.56966,1.50318,2.60593,1.48042,1.50503,0.863884,-12.3339,6.53615,-1.00309,-0.318919,2.56966,1.50318,2.60593,1.48042,1.50503
0.725,0.975,62.3142,0.955981,-12.3482,6.50514,-1.09795,-0.402578,2.36501,1.51857,2.63363,1.61603,1.82887,0.955981,-12.3482,6.50514,-1.09795,-0.402578,2.36501,1.51857,2.63363,1.61603,1.82887
0.775,0.025,80.962,0.00824383,-12.1374,6.88597,0.22445,0.0168121,1.00001,2.10697,3.75736,-2.87702,-4.93458,0.00824383,-12.1374,6.88597,0.22445,0.0168121,1.00001,2.10697,3.75736,-2.87702,-4.93458
0.775,0.075,67.8965,0.00549068,-12.1377,6.8845,0.219035,0.0332847,1.4109,1.95556,3.4636,-2.59042,-4.52847,0.00549068,-12.1377,6.8845,0.219035,0.0332847,1.4109,1.95556,3.4636,-2.59042,-4.52847
0.775,0.125,59.6742,0.00714774,-12.1393,6.88251,0.212844,0.0351066,1.61154,1.81488,3.19475,-2.08402,-3.44913,0.00714774,-12.1393,6.88251,0.212844,0.0351066,1.61154,1.81488,3.19475,-2.08402,-3.44913
0.775,0.175,59.1293,0.0154963,-12.1424,6.87943,0.183803,0.0163847,1.76276,1.69314,2.9634,-1.34987,-2.06628,0.0154963,-12.1424,6.87943,0.183803,0.0163847,1.76276,1.69314,2.9634,-1.34987,-2.06628
0.775,0.225,58.4794,0.0303103,-12.147,6.87492,0.127419,-0.0190505,1.91773,1.59306,2.7737,-1.1965,-1.74103,0.0303103,-12.147,6.87492,0.127419,-0.0190505,1.91773,1.59306,2.7737,-1.1965,-1.74103
0.775,0.275,57.6689,0.0511315,-12.1529,6.86868,0.0631945,-0.0469525,2.07646,1.51466,2.62568,-1.2407,-1.69667,0.0511315,-12.1529,6.86868,0.0631945,-0.0469525,2.07646,1.51466,2.62568,-1.2407,-1.69667
0.775,0.325,56.8031,0.0775017,-12.16,6.8604,-0.0082625,-0.0633249,2.23893,1.45791,2.51932,-1.2076,-1.53471,0.0775017,-12.16,6.8604,-0.0082625,-0.0633249,2.23893,1.45791,2.51932,-1.2076,-1.53471
0.775,0.375,56.1133,0.108962,-12.1683,6.84977,-0.0860565,-0.0675789,2.40516,1.42283,2.45462,-1.08318,-1.28124,0.108962,-12.1683,6.84977,-0.0860565,-0.0675789,2.40516,1.42283,2.45462,-1.08318,-1.28124
0.775,0.425,55.8701,0.145055,-12.1777,6.83648,-0.168052,-0.0611546,2.57514,1.40942,2.43159,-0.873905,-0.97953,0.145055,-12.1777,6.83648,-0.168052,-0.0611546,2.57514,1.40942,2.43159,-0.873905,-0.97953
0.775,0.475,56.2872,0.185322,-12.1882,6.82023,-0.251432,-0.0464033,2.74886,1.41767,2.45022,-0.606361,-0.671795,0.185322,-12.1882,6.82023,-0.251432,-0.0464033,2.74886,1.41767,2.45022,-0.606361,-0.671795
0.775,0.525,57.4234,0.229315,-12.1995,6.80073,-0.334214,-0.0260622,2.91999,1.44418,2.50384,-0.349001,-0.416695,0.229315,-12.1995,6.80073,-0.334214,-0.0260622,2.91999,1.44418,2.50384,-0.349001,-0.416695
0.775,0.575,58.6476,0.276824,-12.2116,6.77816,-0.418588,-0.00518904,3.05034,1.46856,2.55243,-0.14417,-0.233499,0.276824,-12.2116,6.77816,-0.418588,-0.00518904,3.05034,1.46856,2.55243,-0.14417,-0.233499
0.775,0.625,59.6877,0.327878,-12.2243,6.75316,-0.503713,0.0144209,3.13358,1.4874,2.58932,0.042424,-0.0756309,0.327878,-12.2243,6.75316,-0.503713,0.0144209,3.13358,1.4874,2.58932,0.042424,-0.0756309
0.775,0.675,60.4827,0.382516,-12.2374,6.72642,-0.588909,0.0311972,3.16969,1.5007,2.6145,0.221841,0.0756078,0.382516,-12.2374,6.72642,-0.588909,0.0311972,3.16969,1.5007,2.6145,0.221841,0.0756078
0.775,0.725,61.0115,0.440776,-12.2505,6.69859,-0.674008,0.0431106,3.15868,1.50846,2.62798,0.404108,0.236472,0.440776,-12.2505,6.69859,-0.674008,0.0431106,3.15868,1.50846,2.62798,0.404108,0.236472
0.775,0.775,61.2838,0.502698,-12.2635,6.67034,-0.759117,0.0474052,3.10055,1.51069,2.62976,0.599444,0.424483,0.502698,-12.2635,6.67034,-0.759117,0.0474052,3.10055,1.51069,2.62976,0.599444,0.424483
0.775,0.825,61.3407,0.56832,-12.2763,6.64236,-0.844232,0.0402863,2.99529,1.50738,2.61983,0.844579,0.688428,0.56832,-12.2763,6.64236,-0.844232,0.0402863,2.99529,1.50738,2.61983,0.844579,0.688428
0.775,0.875,61.266,0.637682,-12.2884,6.61529,-0.926203,0.0241784,2.84291,1.49853,2.5982,1.15291,1.0723,0.637682,-12.2884,6.61529,-0.926203,0.0241784,2.84291,1.49853,2.5982,1.15291,1.0723
0.775,0.925,61.5332,0.710857,-12.3,6.5896,-1.00824,0.00638086,2.65264,1.49074,2.57866,1.39036,1.4549,0.710857,-12.3,6.5896,-1.00824,0.00638086,2.65264,1.49074,2.57866,1.39036,1.4549
0.775,0.975,62.107,0.788305,-12.3121,6.56343,-1.09221,-0.00631992,2.4524,1.50398,2.6029,1.52674,1.7833,0.788305,-12.3121,6.56343,-1.09221,-0.00631992,2.4524,1.50398,2.6029,1.52674,1.7833
0.825,0.025,80.9498,0.0622392,-12.1549,6.82623,0.321049,0.162921,0.991389,2.10933,3.7582,-2.90819,-4.93209,0.0622392,-12.1549,6.82623,0.321049,0.162921,0.991389,2.10933,3.7582,-2.90819,-4.93209
0.825,0.075,68.1247,0.0503192,-12.151,6.83109,0.286989,0.149164,1.40563,1.95663,3.46568,-2.59909,-4.52962,0.0503192,-12.151,6.83109,0.286989,0.149164,1.40563,1.95663,3.46568,-2.59909,-4.52962
0.825,0.125,60.0071,0.0440669,-12.1486,6.83765,0.270403,0.14156,1.61285,1.8143,3.19674,-2.09822,-3.45722,0.0440669,-12.1486,6.83765,0.270403,0.14156,1.61285,1.8143,3.19674,-2.09822,-3.45722
0.825,0.175,59.5008,0.0450396,-12.1482,6.84438,0.244325,0.132704,1.77095,1.69092,2.96461,-1.39162,-2.08946,0.0450396,-12.1482,6.84438,0.244325,0.132704,1.77095,1.69092,2.96461,-1.39162,-2.08946
0.825,0.225,58.8656,0.0525733,-12.1495,6.85055,0.19795,0.118269,1.93214,1.58934,2.77366,-1.2518,-1.76303,0.0525733,-12.1495,6.85055,0.19795,0.118269,1.93214,1.58934,2.77366,-1.2518,-1.76303
0.825,0.275,58.0482,0.0657977,-12.1523,6.85547,0.146828,0.112889,2.09641,1.50956,2.6239,-1.30289,-1.70789,0.0657977,-12.1523,6.85547,0.146828,0.112889,2.09641,1.50956,2.6239,-1.30289,-1.70789
0.825,0.325,57.1598,0.0838431,-12.1565,6.85849,0.0894757,0.116793,2.26376,1.45158,2.51532,-1.27753,-1.53501,0.0838431,-12.1565,6.85849,0.0894757,0.116793,2.26376,1.45158,2.51532,-1.27753,-1.53501
0.825,0.375,56.4384,0.105839,-12.1618,6.85894,0.0242332,0.127764,2.4342,1.4154,2.44792,-1.16041,-1.27221,0.105839,-12.1618,6.85894,0.0242332,0.127764,2.4342,1.4154,2.44792,-1.16041,-1.27221
0.825,0.425,56.1608,0.130916,-12.1681,6.85614,-0.0489548,0.14319,2.60772,1.40102,2.42171,-0.956645,-0.963425,0.130916,-12.1681,6.85614,-0.0489548,0.14319,2.60772,1.40102,2.42171,-0.956645,-0.963425
0.825,0.475,56.5459,0.158204,-12.1752,6.84943,-0.128154,0.16106,2.78432,1.40844,2.43668,-0.691851,-0.650539,0.158204,-12.1752,6.84943,-0.128154,0.16106,2.78432,1.40844,2.43668,-0.691851,-0.650539
0.825,0.525,57.6648,0.186862,-12.1829,6.83818,-0.210198,0.179997,2.95777,1.43426,2.48632,-0.436621,-0.393443,0.186862,-12.1829,6.83818,-0.210198,0.179997,2.95777,1.43426,2.48632,-0.436621,-0.393443
0.825,0.575,58.8839,0.216733,-12.191,6.82249,-0.29387,0.197984,3.09063,1.45809,2.53155,-0.233678,-0.210829,0.216733,-12.191,6.82249,-0.29387,0.197984,3.09063,1.45809,2.53155,-0.233678,-0.210829
0.825,0.625,59.92,0.248344,-12.1995,6.80322,-0.377891,0.214799,3.17666,1.47654,2.56585,-0.0477055,-0.0546173,0.248344,-12.1995,6.80322,-0.377891,0.214799,3.17666,1.47654,2.56585,-0.0477055,-0.0546173
0.825,0.675,60.7101,0.282249,-12.2083,6.78127,-0.462195,0.229837,3.21587,1.4896,2.58922,0.131398,0.0933451,0.282249,-12.2083,6.78127,-0.462195,0.229837,3.21587,1.4896,2.58922,0.131398,0.0933451
0.825,0.725,61.2313,0.319005,-12.2174,6.75752,-0.547696,0.24185,3.20825,1.49726,2.60167,0.313091,0.248674,0.319005,-12.2174,6.75752,-0.547696,0.24185,3.20825,1.49726,2.60167,0.313091,0.248674
0.825,0.775,61.4906,0.359166,-12.2266,6.73286,-0.635965,0.248717,3.1538,1.49955,2.60319,0.507222,0.427858,0.359166,-12.2266,6.73286,-0.635965,0.248717,3.1538,1.49955,2.60319,0.507222,0.427858
0.825,0.825,61.5256,0.403289,-12.2359,6.70819,-0.727949,0.247955,3.05252,1.49644,2.59378,0.75571,0.683585,0.403289,-12.2359,6.70819,-0.727949,0.247955,3.05252,1.49644,2.59378,0.75571,0.683585
0.825,0.875,61.4141,0.45193,-12.2452,6.68439,-0.803297,0.262104,2.90442,1.48795,2.57345,1.07689,1.07772,0.45193,-12.2452,6.68439,-0.803297,0.262104,2.90442,1.48795,2.57345,1.07689,1.07772
0.825,0.925,61.5766,0.505612,-12.2544,6.66225,-0.863401,0.302745,2.71872,1.48029,2.55528,1.31766,1.47402,0.505612,-12.2544,6.66225,-0.863401,0.302745,2.71872,1.48029,2.55528,1.31766,1.47402
0.825,0.975,61.9893,0.564522,-12.2641,6.64149,-0.921442,0.364665,2.52338,1.49231,2.57887,1.45131,1.81505,0.564522,-12.2641,6.64149,-0.921442,0.364665,2.52338,1.49231,2.57887,1.45131,1.81505
0.875,0.025,80.9785,0.122169,-12.1749,6.75647,0.385547,0.322236,0.971977,2.11621,3.76441,-2.98128,-4.9518,0.122169,-12.1749,6.75647,0.385547,0.322236,0.971977,2.11621,3.76441,-2.98128,-4.9518
0.875,0.075,68.3391,0.0998049,-12.166,6.76912,0.317043,0.3121,1.39135,1.96226,3.47627,-2.63516,-4.53844,0.0998049,-12.166,6.76912,0.317043,0.3121,1.39135,1.96226,3.47627,-2.63516,-4.53844
0.875,0.125,60.3213,0.0842659,-12.1589,6.78618,0.278473,0.315787,1.60582,1.81792,3.20905,-2.12296,-3.4569,0.0842659,-12.1589,6.78618,0.278473,0.315787,1.60582,1.81792,3.20905,-2.12296,-3.4569
0.875,0.175,59.8379,0.0760883,-12.154,6.80498,0.244463,0.322154,1.7709,1.69253,2.97731,-1.43043,-2.09434,0.0760883,-12.154,6.80498,0.244463,0.322154,1.7709,1.69253,2.97731,-1.43043,-2.09434
0.875,0.225,59.2117,0.0741782,-12.1511,6.82427,0.201338,0.322515,1.938,1.58919,2.78586,-1.2955,-1.76514,0.0741782,-12.1511,6.82427,0.201338,0.322515,1.938,1.58919,2.78586,-1.2955,-1.76514
0.875,0.275,58.3929,0.0772902,-12.15,6.84295,0.163058,0.329268,2.10712,1.50789,2.63472,-1.34766,-1.70236,0.0772902,-12.15,6.84295,0.163058,0.329268,2.10712,1.50789,2.63472,-1.34766,-1.70236
0.875,0.325,57.4953,0.0841793,-12.1503,6.85989,0.124251,0.33877,2.27827,1.44864,2.52387,-1.32771,-1.52536,0.0841793,-12.1503,6.85989,0.124251,0.33877,2.27827,1.44864,2.52387,-1.32771,-1.52536
0.875,0.375,56.7568,0.0936002,-12.1518,6.87398,0.0786465,0.345179,2.45144,1.41143,2.45333,-1.21907,-1.26244,0.0936002,-12.1518,6.87398,0.0786465,0.345179,2.45144,1.41143,2.45333,-1.21907,-1.26244
0.875,0.425,56.4532,0.104308,-12.1541,6.88412,0.0225106,0.34375,2.62664,1.39626,2.42308,-1.02402,-0.956502,0.104308,-12.1541,6.88412,0.0225106,0.34375,2.62664,1.39626,2.42308,-1.02402,-0.956502
0.875,0.475,56.8038,0.115057,-12.157,6.88918,-0.0432967,0.33185,2.80385,1.40314,2.43314,-0.764691,-0.647989,0.115057,-12.157,6.88918,-0.0432967,0.33185,2.80385,1.40314,2.43314,-0.764691,-0.647989
0.875,0.525,57.8928,0.124651,-12.1601,6.88809,-0.111565,0.309958,2.97709,1.42864,2.47722,-0.507964,-0.394135,0.124651,-12.1601,6.88809,-0.111565,0.309958,2.97709,1.42864,2.47722,-0.507964,-0.394135
0.875,0.575,59.0916,0.133017,-12.1633,6.88088,-0.169063,0.287222,3.11033,1.45217,2.51766,-0.300196,-0.212021,0.133017,-12.1633,6.88088,-0.169063,0.287222,3.11033,1.45217,2.51766,-0.300196,-0.212021
0.875,0.625,60.1093,0.141207,-12.1668,6.86865,-0.21552,0.267149,3.19757,1.47031,2.54819,-0.110334,-0.0553064,0.141207,-12.1668,6.86865,-0.21552,0.267149,3.19757,1.47031,2.54819,-0.110334,-0.0553064
0.875,0.675,60.8826,0.150321,-12.1706,6.85254,-0.254364,0.251819,3.2388,1.48306,2.56881,0.0703025,0.0937482,0.150321,-12.1706,6.85254,-0.254364,0.251819,3.2388,1.48306,2.56881,0.0703025,0.0937482
0.875,0.725,61.3867,0.161458,-12.1748,6.8337,-0.290313,0.243262,3.23403,1.49042,2.57952,0.250241,0.250257,0.161458,-12.1748,6.8337,-0.290313,0.243262,3.23403,1.49042,2.57952,0.250241,0.250257
0.875,0.775,61.6265,0.175718,-12.1795,6.81328,-0.329002,0.243118,3.18326,1.49238,2.58033,0.438616,0.429736,0.175718,-12.1795,6.81328,-0.329002,0.243118,3.18326,1.49238,2.58033,0.438616,0.429736
0.875,0.825,61.6353,0.194202,-12.1848,6.79244,-0.375613,0.253162,3.08649,1.48896,2.57122,0.68706,0.693456,0.194202,-12.1848,6.79244,-0.375613,0.253162,3.08649,1.48896,2.57122,0.68706,0.693456
0.875,0.875,61.4848,0.21801,-12.1907,6.77232,-0.409242,0.299556,2.94372,1.48015,2.55219,1.03133,1.12553,0.21801,-12.1907,6.77232,-0.409242,0.299556,2.94372,1.48015,2.55219,1.03133,1.12553
0.875,0.925,61.5954,0.248149,-12.1973,6.75409,-0.428797,0.386853,2.76391,1.47218,2.5362,1.28119,1.55335,0.248149,-12.1973,6.75409,-0.428797,0.386853,2.76391,1.47218,2.5362,1.28119,1.55335
0.875,0.975,61.9575,0.284634,-12.2041,6.73932,-0.449756,0.498672,2.57418,1.48391,2.56237,1.40895,1.90971,0.284634,-12.2041,6.73932,-0.449756,0.498672,2.57418,1.48391,2.56237,1.40895,1.90971
0.925,0.025,81.0507,0.181866,-12.2023,6.68903,0.454218,0.471968,0.940126,2.12822,3.77652,-3.08376,-4.94933,0.181866,-12.2023,6.68903,0.454218,0.471968,0.940126,2.12822,3.77652,-3.08376,-4.94933
0.925,0.075,68.5167,0.146462,-12.188,6.70813,0.365511,0.50217,1.3665,1.97329,3.49648,-2.69484,-4.52593,0.146462,-12.188,6.70813,0.365511,0.50217,1.3665,1.97329,3.49648,-2.69484,-4.52593
0.925,0.125,60.5838,0.119048,-12.1748,6.73497,0.310762,0.53293,1.58866,1.82671,3.23325,-2.16166,-3.43992,0.119048,-12.1748,6.73497,0.310762,0.53293,1.58866,1.82671,3.23325,-2.16166,-3.43992
0.925,0.175,60.1078,0.0992668,-12.1641,6.76595,0.264765,0.550137,1.76053,1.69901,3.00343,-1.47549,-2.09017,0.0992668,-12.1641,6.76595,0.264765,0.550137,1.76053,1.69901,3.00343,-1.47549,-2.09017
0.925,0.225,59.4893,0.0856335,-12.1555,6.79915,0.213508,0.54843,1.93301,1.59368,2.81251,-1.33613,-1.76131,0.0856335,-12.1555,6.79915,0.213508,0.54843,1.93301,1.59368,2.81251,-1.33613,-1.76131
0.925,0.275,58.6822,0.0765566,-12.1487,6.83283,0.176485,0.551239,2.10609,1.51073,2.66049,-1.38164,-1.69488,0.0765566,-12.1487,6.83283,0.176485,0.551239,2.10609,1.51073,2.66049,-1.38164,-1.69488
0.925,0.325,57.7975,0.0704452,-12.1435,6.86523,0.1439,0.55097,2.27978,1.45015,2.54737,-1.36446,-1.52233,0.0704452,-12.1435,6.86523,0.1439,0.55097,2.27978,1.45015,2.54737,-1.36446,-1.52233
0.925,0.375,57.0635,0.0657081,-12.1396,6.89461,0.103652,0.536825,2.45407,1.41195,2.47316,-1.26683,-1.27158,0.0657081,-12.1396,6.89461,0.103652,0.536825,2.45407,1.41195,2.47316,-1.26683,-1.27158
0.925,0.425,56.7461,0.0607545,-12.1365,6.91921,0.0467712,0.500376,2.62897,1.39612,2.43784,-1.08647,-0.982783,0.0607545,-12.1365,6.91921,0.0467712,0.500376,2.62897,1.39612,2.43784,-1.08647,-0.982783
0.925,0.475,57.0603,0.0539933,-12.1341,6.93729,-0.0285792,0.437027,2.80447,1.40267,2.44144,-0.838584,-0.693542,0.0539933,-12.1341,6.93729,-0.0285792,0.437027,2.80447,1.40267,2.44144,-0.838584,-0.693542
0.925,0.525,58.1023,0.0438984,-12.132,6.94715,-0.110357,0.350088,2.97491,1.4281,2.47799,-0.572271,-0.447143,0.0438984,-12.132,6.94715,-0.110357,0.350088,2.97491,1.4281,2.47799,-0.572271,-0.447143
0.925,0.575,59.2596,0.0304391,-12.1301,6.94871,-0.161747,0.270302,3.10637,1.45147,2.51189,-0.341792,-0.258284,0.0304391,-12.1301,6.94871,-0.161747,0.270302,3.10637,1.45147,2.51189,-0.341792,-0.258284
0.925,0.625,60.2389,0.01508,-12.1287,6.94344,-0.180605,0.205655,3.19317,1.4693,2.5372,-0.133154,-0.0918845,0.01508,-12.1287,6.94344,-0.180605,0.205655,3.19317,1.4693,2.5372,-0.133154,-0.0918845
0.925,0.675,60.9772,-0.000649588,-12.1278,6.93288,-0.173172,0.160624,3.23532,1.48159,2.55391,0.0604648,0.0704653,-0.000649588,-12.1278,6.93288,-0.173172,0.160624,3.23532,1.48159,2.55391,0.0604648,0.0704653
0.925,0.725,61.4486,-0.01522,-12.1277,6.91859,-0.147543,0.14102,3.23282,1.48834,2.56203,0.246353,0.24431,-0.01522,-12.1277,6.91859,-0.147543,0.14102,3.23282,1.48834,2.56203,0.246353,0.24431
0.925,0.775,61.6555,-0.0271019,-12.1286,6.90212,-0.113212,0.153437,3.18566,1.48954,2.56156,0.432638,0.444987,-0.0271019,-12.1286,6.90212,-0.113212,0.153437,3.18566,1.48954,2.56156,0.432638,0.444987
0.925,0.825,61.6275,-0.0347656,-12.1305,6.88502,-0.0806694,0.204517,3.09386,1.48519,2.55249,0.676889,0.739199,-0.0347656,-12.1305,6.88502,-0.0806694,0.204517,3.09386,1.48519,2.55249,0.676889,0.739199
0.925,0.875,61.4299,-0.0366816,-12.1338,6.86883,-0.053422,0.300166,2.95741,1.4753,2.53483,1.03079,1.217,-0.0366816,-12.1338,6.86883,-0.053422,0.300166,2.95741,1.4753,2.53483,1.03079,1.217
0.925,0.925,61.5326,-0.0314593,-12.1383,6.85523,-0.0341598,0.429582,2.78475,1.46653,2.52194,1.27958,1.67593,-0.0314593,-12.1383,6.85523,-0.0341598,0.429582,2.78475,1.46653,2.52194,1.27958,1.67593
0.925,0.975,61.9506,-0.0192049,-12.1426,6.8473,-0.0307053,0.574033,2.60146,1.47904,2.5542,1.39264,2.04163,-0.0192049,-12.1426,6.8473,-0.0307053,0.574033,2.60146,1.47904,2.5542,1.39264,2.04163
0.975,0.025,81.1516,0.222678,-12.2513,6.66128,0.544267,0.627722,0.891338,2.14375,3.78838,-3.20014,-4.88223,0.222678,-12.2513,6.66128,0.544267,0.627722,0.891338,2.14375,3.78838,-3.20014,-4.88223
0.975,0.075,68.681,0.167649,-12.2322,6.67693,0.44716,0.733402,1.3261,1.99073,3.52039,-2.76878,-4.4652,0.167649,-12.2322,6.67693,0.44716,0.733402,1.3261,1.99073,3.52039,-2.76878,-4.4652
0.975,0.125,60.8276,0.122106,-12.2111,6.70482,0.379818,0.80772,1.55719,1.84278,3.26499,-2.21468,-3.40132,0.122106,-12.2111,6.70482,0.379818,0.80772,1.55719,1.84278,3.26499,-2.21468,-3.40132
0.975,0.175,60.3388,0.0862165,-12.1912,6.74164,0.31417,0.829436,1.73681,1.71303,3.04023,-1.53807,-2.09233,0.0862165,-12.1912,6.74164,0.31417,0.829436,1.73681,1.71303,3.04023,-1.53807,-2.09233
0.975,0.225,59.7226,0.0582294,-12.173,6.78445,0.238763,0.803053,1.91526,1.60582,2.85211,-1.38713,-1.77051,0.0582294,-12.173,6.78445,0.238763,0.803053,1.91526,1.60582,2.85211,-1.38713,-1.77051
0.975,0.275,58.9377,0.0362153,-12.1565,6.83036,0.188005,0.781557,2.09256,1.52114,2.7006,-1.418,-1.70249,0.0362153,-12.1565,6.83036,0.188005,0.781557,2.09256,1.52114,2.7006,-1.418,-1.70249
0.975,0.325,58.0857,0.018245,-12.1418,6.87648,0.147234,0.753457,2.26871,1.45901,2.58573,-1.40153,-1.54214,0.018245,-12.1418,6.87648,0.147234,0.753457,2.26871,1.45901,2.58573,-1.40153,-1.54214
0.975,0.375,57.3756,0.00238917,-12.1288,6.91991,0.0976428,0.701558,2.4437,1.41942,2.50747,-1.31927,-1.31666,0.00238917,-12.1288,6.91991,0.0976428,0.701558,2.4437,1.41942,2.50747,-1.31927,-1.31666
0.975,0.425,57.0525,-0.0132813,-12.1177,6.95777,0.0235036,0.611842,2.61753,1.40236,2.46584,-1.1632,-1.06186,-0.0132813,-12.1177,6.95777,0.0235036,0.611842,2.61753,1.40236,2.46584,-1.1632,-1.06186
0.975,0.475,57.3211,-0.0306957,-12.1084,6.98717,-0.0824014,0.475647,2.7902,1.40784,2.46084,-0.938675,-0.81095,-0.0306957,-12.1084,6.98717,-0.0824014,0.475647,2.7902,1.40784,2.46084,-0.938675,-0.81095
0.975,0.525,58.2842,-0.0517137,-12.1011,7.00531,-0.20481,0.298979,2.95647,1.43234,2.48705,-0.65483,-0.573953,-0.0517137,-12.1011,7.00531,-0.20481,0.298979,2.95647,1.43234,2.48705,-0.65483,-0.573953
0.975,0.575,59.368,-0.0765931,-12.0958,7.01197,-0.272227,0.144654,3.08486,1.45473,2.51202,-0.374526,-0.362031,-0.0765931,-12.0958,7.01197,-0.272227,0.144654,3.08486,1.45473,2.51202,-0.374526,-0.362031
0.975,0.625,60.2886,-0.10399,-12.0923,7.00942,-0.275208,0.0269528,3.17012,1.47149,2.53033,-0.121179,-0.168019,-0.10399,-12.0923,7.00942,-0.275208,0.0269528,3.17012,1.47149,2.53033,-0.121179,-0.168019
0.975,0.675,60.9813,-0.132492,-12.0906,7.00009,-0.220561,-0.0468545,3.21224,1.48262,2.54198,0.108845,0.0289796,-0.132492,-12.0906,7.00009,-0.220561,-0.0468545,3.21224,1.48262,2.54198,0.108845,0.0289796
0.975,0.725,61.4179,-0.160684,-12.0907,6.98636,-0.1191,-0.0661861,3.21123,1.48812,2.54698,0.320453,0.246483,-0.160684,-12.0907,6.98636,-0.1191,-0.0661861,3.21123,1.48812,2.54698,0.320453,0.246483
0.975,0.775,61.5977,-0.187154,-12.0925,6.97066,0.0148731,-0.0181603,3.16709,1.48798,2.54532,0.519684,0.50082,-0.187154,-12.0925,6.97066,0.0148731,-0.0181603,3.16709,1.48798,2.54532,0.519684,0.50082
0.975,0.825,61.5467,-0.210488,-12.0959,6.95537,0.161929,0.108606,3.07982,1.48221,2.537,0.756505,0.851459,-0.210488,-12.0959,6.95537,0.161929,0.108606,3.07982,1.48221,2.537,0.756505,0.851459
0.975,0.875,61.3244,-0.229273,-12.1008,6.94291,0.267398,0.272846,2.94942,1.47081,2.52203,1.08167,1.35853,-0.229273,-12.1008,6.94291,0.267398,0.272846,2.94942,1.47081,2.52203,1.08167,1.35853
0.975,0.925,61.4741,-0.242244,-12.107,6.9357,0.322493,0.441656,2.78369,1.46144,2.51416,1.30408,1.83068,-0.242244,-12.107,6.9357,0.322493,0.441656,2.78369,1.46144,2.51416,1.30408,1.83068
0.975,0.975,62.0399,-0.249727,-12.1107,6.93632,0.340909,0.607292,2.60628,1.47725,2.55498,1.3912,2.19725,-0.249727,-12.1107,6.93632,0.340909,0.607292,2.60628,1.47725,2.55498,1.3912,2.19725
